Fitness: 151555.0/250000
-0.2073197430489846
0.7048239065582715
0.08345276356349363
0.21573138238310097
0.47528728384256125
0.18111448674556296
-0.47914749757697217
0.36495066367443674
0.26929611623988103
-0.11037421725251739
-0.7454744874928689
0.11838871920478933
-0.9202894087234066
-0.05205154229925635
-0.17870206313402093
0.48286938943459434
0.7298097306153305
0.48489093415000917
0.21359608600393665
0.37310396740969676
0.08892408549085706
-0.343930526534325
0.3457286612969973
0.6021706373138251
0.5287572258467148
0.2782611294516151
0.6242948994322496
-0.6649201559782892
-0.03997783698385604
-0.09119965356544968
0.33848389022151293
-0.4973122058145959
-0.16364331579892166
-0.8928645271571807
0.3642311271842823
0.24060238784840282
-0.7995173141187949
-0.08851792145648962
-0.2626797594218714
0.18095665035652508
0.38995261000083037
0.7532903132147908
-0.5406699403390408
-0.35011619705958175
0.2077839073090033
-0.11163484085925024
-0.215376156529402
-0.38746940190931944
0.3933493651785993
0.22548203395897826
-0.18949678095834943
0.39428285568914423
-0.8447865068913857
-0.7668760005016204
0.2484027008478067
-0.06150455876656802
0.8356562519864338
-0.031342924408283235
0.15987357459214574
0.64752201953035
-0.0412522849125011
0.12752987091104184
0.32259269269688295
0.7315912873062898
-0.298163419578111
0.08302501436521459
0.5318649793985152
-0.44396807477055544
-0.25361674566336057
0.04647371517872512
-0.34065061236741645
-0.49384862184101375
0.25360669267154134
0.3468372299143514
-0.05403845791998396
-0.42510629663801636
0.15114303480253022
-0.7259806213660548
-0.792731462849611
0.7601160927065825
0.7186061258668961
-0.30217420665542694
0.1574045635083372
-0.16743548631398641
0.45210079343292864
-0.048245844487961986
0.1435214070859891
0.39002791473019105
0.013594301277058851
-0.5021619196349502
0.45010104126773176
-0.523256806398225
-0.13544937100188092
0.24788001930690717
-0.4529591127424496
0.06690754240671382
-0.7391685659808472
0.5568563002169332
-0.6847190481207159
0.3010008326956183
-0.7895079079352914
-0.1789705445822266
-0.1812303950030435
0.39135645251782936
0.7360553370281051
0.595442782138163
-0.7884354522209871
-0.15443963123882032
0.24000824780877938
-0.10406594023905835
0.02730282794067962
-0.32408616019369874
-0.43582205388675677
0.19718094814451603
-0.4916536683877627
0.1614622794436199
0.2322291228064708
-0.11984228365335348
0.4681946452080282
0.054614092638335054
0.7920245353700633
-0.5577862272240901
0.2123975741851405
0.5592746633247967
0.08196734157642353
0.17801650778172695
0.30292994260981787
-0.15882048952775218
0.443268349102097
-0.5685246103847281
-0.17369170380270027
0.5120720647645134
-0.6094352415256635
0.3268295478044587
-0.3468706929060391
0.5719307371704531
0.3787945169512169
-0.027281045102066748
-0.8658322289067183
-0.3681551140855768
-0.6115644327299224
-0.25734302761776373
0.6033093123183062
0.016736577599588742
-0.46150999556729577
0.14852835069705136
-0.2205536704401615
0.321228902118751
0.47724303313053107
-0.008314626878736853
-0.613036691104513
-0.6988854371490738
-0.27345424353156844
-0.5953272294459644
0.1568812675546155
-0.01139757599148361
0.7885910731949853
0.017872432512626824
0.01989989009787274
-0.017875658539362238
0.19029458722510212
-0.8074598134441437
0.3215109871798987
-0.008448934950409659
-0.7065917128715256
-0.6662378823591041
0.1659583792581396
0.1822316127346577
0.470549817260969
0.30929055606068445
-0.45087174274654607
0.08979085153775701
0.5445609208448696
-0.2824235842155438
0.1121444581691422
0.774849020177708
-0.6390677654651992
0.376775649956263
0.7386831922995019
0.10111824987509824
0.636877507899077
-0.6837682804389685
0.036551895364857145
0.14737629736930924
0.08894045726940425
0.719806684843483
0.08321730047407117
-0.1082345962164043
0.15479628632946466
-0.3512926125881618
0.21062934817075865
0.005508798890828004
-0.684868939988291
0.49278741710650487
0.3376037981282466
0.022493880513341002
-0.06974585869990346
-0.2700634296713813
0.4526025607718376
0.5692137424586455
-0.7322765521793038
0.13021650218143066
-0.1653058533105034
-0.3391374423335197
0.3832828745076575
0.7673773045853464
0.1003613368200833
0.12009457880385088
-0.769041543942715
0.37475878056584866
-0.17606616610746095
0.7095719973026577
0.9488973440446835
-0.733036787701984
0.6965443127784035
0.5104467054169597
0.1360219698396219
0.4442097756754031
0.1581820593684491
0.3636768950065058
1.0573439743143054
-0.08457097766391408
0.2800783061879355
0.5436711752490656
0.8019994046618146
0.03619300891405752
0.20776075668714522
-0.5131806215603474
-0.35235580500003694
-0.4468630357191927
-0.2138639891570454
-0.08824702485426938
0.25564238290553465
0.2387736144977275
0.8669461885634249
0.27012914907926844
-0.368186711304584
0.2720272574314635
0.6140269815134459
-0.17902025346607897
0.0395542016229556
-0.22178472534737625
0.4033337309060345
0.5423526124604301
-0.16144839128448882
0.6309308131015803
-0.22258404441545732
0.4509913148574404
0.3280758365445702
0.20579112324972593
-0.3881707671464819
0.46332414335852334
0.025435980826840177
-0.03811659557067426
0.44172646613617184
0.2799278662670175
-0.2544538006887047
-0.21915558202050078
-0.29203995897836
-0.002609522829561617
-0.05462192428957646
-0.8458070211195426
-0.13218690485498052
0.44262360365355724
-0.3106594938472065
-0.6461782181911306
-0.734762263626096
0.7825788963530592
-0.6595704233308918
0.11157136647070942
-0.15087814431504953
0.7795583921205035
-0.02456881936270383
-0.4381471748586372
0.04024755887003262
0.26271974607848525
-0.40677072660252933
0.011083297161640138
-0.6388417328804225
0.3541357609493301
0.22862608064954693
-0.3245373537000714
0.5380250975488524
-0.6448087218922187
0.0456561774882317
0.3585619115258928
-0.5544335086506813
0.7446592307439778
0.5911199441165027
-0.22458798627498777
0.35696622982210835
-0.07657240222667105
-0.23271085241432804
-0.3389931569228922
0.15559903244486972
0.09564216074359944
-0.48284114515421106
-0.4318171751633041
0.07968718106082351
-0.43719974405951
-0.17652230557115323
0.04434833683976869
0.5997723610473817
-0.44429305660437546
0.26106717416693526
-0.6240186432903122
0.28670201863944356
-0.5571047277149056
-0.014766697215208957
0.406184792149311
-0.7727165162977364
0.7249785778757758
0.7866660847341843
0.1356068887673162
-0.0068078143058195595
0.28452969927619653
0.07700599987256056
-0.36908474303789207
-0.05285613572848269
-0.6402148137381586
0.8606760571846158
-0.3728353139578475
0.1532017432093986
-0.5150989289800056
-0.05514885126263207
0.15017589578713997
0.12184666691578605
0.1979900178445977
-0.9119928953448457
0.14144760808104428
0.22986596365916612
0.2462615212528693
-0.3274686721243102
0.7474730857532614
-0.13348700057030405
0.1992696646445935
0.437914441306825
0.37854442067672855
-0.07509326003877737
0.05089424647368124
0.5406657652765463
-0.14198679811762838
0.6398971428399944
-0.41245404225638305
0.16092819715481774
0.08942478607759385
-0.19843178629390645
0.17655659256463319
-0.493273140768678
0.6374656683032772
-0.009106258219185842
0.6298673632967742
-0.44386844307833484
-0.1521866158149413
0.25796591219394593
0.3334744501895138
0.27733325613060544
0.015816817265252192
-0.3365741250391735
0.9015856440864528
-0.06333420053233474
-0.46177580977921606
0.5077617510231555
0.5163024216689298
0.2766635931502348
0.6235346435788897
0.2989182569899477
-0.20867113498562373
0.056300844008997486
0.7276442248974745
-0.7414069369865229
-0.06005263559485985
0.19347195328611666
0.37897220504671747
0.026255066344611055
0.46595743892732744
0.14159062439872305
0.2256621356326035
0.04209594565625263
0.2094333868294982
-0.3600298710366068
-0.07202951428169124
0.22440322960260817
0.1437548971380983
0.5081118275507099
-0.13611503889190302
-0.07595167202468334
0.14397172601063168
-0.6303452515778305
0.07609983014085397
0.32217837579207487
0.12978828760253158
0.6139364084618768
0.1840514639350861
0.20575630801032307
-0.03470201308122667
0.010753530493570418
-0.03160518926499878
0.023338249921581622
0.04427289888769892
-0.17976507584961932
-0.6465767460474766
0.34582073705638616
0.6275733420129291
0.13095890999034687
-0.368685254100669
-0.7662499297089598
0.2654074985193823
-0.4225198291661577
-0.4269370515676597
0.4913112096789243
-0.19289863568799914
-0.30359501244303855
0.08511405199011801
0.08803004384773683
-0.4253055914458711
-0.20349197258347795
0.10013948438245335
0.07540529824391284
0.0445583427818147
0.13310198544094476
0.18580989564174977
0.16584196331832246
-0.42511354286582126
0.7507510026092912
-0.06141022870061519
-0.2833059202515068
-0.42445654187350557
-0.09544335442443508
0.333348272732761
0.2453914956879223
0.049469131830192636
0.10577307494049659
-0.33651046099288406
-0.15342673250196193
0.25839089662990344
-0.32873581206690505
-0.4271662356793857
0.4200226867369289
-0.009897724178259182
-0.1847557834178386
-0.025535258194981807
-0.3426995391391784
0.22885389649151477
0.30411378704723413
0.21999882875689059
-0.2843031686830483
-0.7284707486466672
0.6331618747769784
-0.7801247057595891
0.36369928321981226
0.5161296284605706
0.6369091722642376
0.08045965757337176
0.08917163373253056
0.1817320322361703
-0.1873204705761361
0.10144624734789187
0.23919124889193022
0.21017697329830864
-0.5877082542100411
0.502497493226095
0.5760555721623102
0.6287777993618954
0.6596110466854962
0.07603963646209655
-0.687879955210532
0.43235023177907383
-0.574510425673202
-0.033405593858326865
0.6656991526078387
-0.013362739879236307
0.2897061376836192
0.11402815204353711
0.13901127147625725
0.34313064414662586
-0.08640501399651546
0.26909088027951755
-0.013343971156408174
-0.2509861465884271
0.4824790509365062
-0.6449678077169017
-0.0935019244301003
-0.4629531878658951
-0.028590128727539632
0.035805964745210805
0.48120302135184556
0.6574622489476064
-0.7289446638099947
0.4861307032451715
-0.1620283879882618
-0.12953943546247249
0.23316870060173334
0.2770107512927108
0.3594845892814563
-0.27012191377021455
0.19782727755207608
0.5143056860142818
0.3030185125733088
-0.27451107484232784
-0.391848514524303
0.11823756119678364
-0.4607436601217352
0.10122532775421922
-0.18664980504426532
0.19217472683674952
0.23856515516505017
0.48314626735918476
-0.49372224067281856
0.28479538892447187
0.2895141732336566
0.24593282905205904
0.1221080784118056
-0.00478392128307803
0.06849784221360133
-0.7065008226107741
-0.2051577119681368
0.12426845010477572
0.04032977235524984
-0.12155566181291344
-0.12954506959234313
-0.10467667560056393
0.7212019162623224
0.9107000682987473
-0.07814519669965148
-0.5692089094774457
-0.39164111906506194
0.08779667203968022
-0.11510696843438406
-0.29222331626906173
-0.01579929262623503
-0.33939260762058754
0.9574835100084675
-0.1292794893849175
0.28086200559369723
-0.36825562415526625
-0.22361288035834825
-0.22596875516047088
-0.13631823842653357
-0.056790882020941624
0.2127273603605213
0.25968275771317473
-0.8878059710884334
0.46245587305726654
-0.3337140848906357
0.08863793701587408
0.08779274195626663
0.3203292643704868
0.1519708439144013
0.15872249051849407
-0.06636968860683945
0.023340384033234907
0.34443886635129084
-0.2995684714996544
0.4248079886669386
0.5959968088430833
-0.1537798326661457
0.15070408827745785
-0.06120929830863664
-0.2537036569518061
0.40679379384567915
-0.04514813268396711
-0.36166759306823193
-0.4258862836170544
-0.4518028422180045
-0.5305992191887747
0.1731070125362379
-0.25670779364272467
0.11174051830921006
0.49217048948345876
0.215359687367368
-0.5412414158858014
-0.7188834572296211
-0.07776175827092635
-0.045599336191705975
-0.3351542542434167
0.5545651226752827
0.12258978974039059
-0.09784859077927432
-0.6783573932879012
-0.8571943048672669
-0.06084085137051676
0.5153461505428045
-0.39815047363148737
-0.15685985670298563
0.6188692271311353
-0.34454138740131535
-0.0864076974207616
-0.2169277054978167
0.03966368056154723
0.03690546851757576
-0.7165327697855224
-0.34382431158649185
-0.24436905440946655
-0.3049593421747706
-0.4746016077141687
0.3888983357647885
-0.63803282413281
-0.16196910740772996
0.5353049668145947
0.6699685894415431
-0.5214245703122807
-0.22858064976510895
0.3561739124633867
-0.22329286149608485
0.3617194417589804
0.6087464934444445
0.17041628337461345
-0.4474366621829653
0.292420448344211
0.8998306935857123
0.3807315457376075
-0.11807515886238695
-0.5419630145929697
0.3123192832167927
0.3388863389829797
0.08880589783376333
-0.5524987609087983
0.2162197985033799
0.7723701245180545
0.24038788612681172
-0.10740449604877189
-0.06648054591883143
-0.304490321032852
0.1567602165923715
0.06595579102188032
-0.18619528854958334
-0.48076136137964043
-0.018306532353582594
-0.09525135444827337
-0.585075265030746
-0.28288913713506203
-0.4578393415113231
-0.7409620183084412
-0.2392086941902073
-0.4937307258236998
0.15055525427675098
0.2043013822049062
-0.24952921651362547
0.34490611772773516
-0.21194495038359695
-0.6304416743939879
-0.7115429144465681
0.7865696242646099
0.2625113355268106
-0.592215454400077
-0.03178936212730843
0.4223152947878418
0.6562480872579475
0.2567353083662848
0.011287140598227108
-0.023658059896257244
0.2091160401563794
0.5226192004502077
0.08258871951595803
-0.1663782311848534
-0.26000172360565943
-0.12048166151020989
-0.10741895684543368
0.42278123547908897
0.22911050786169895
-0.16035245092675754
-0.24029932640610518
-0.007914061552068724
0.6167191600613212
0.4266228480977793
-0.8859680962995321
-0.1456801992059299
-0.44474024451713323
0.14997350629077577
0.07275841330140509
-0.48149044178601363
-0.2035177767936991
-0.35937323448898517
-0.12286025064871164
0.24483542757487742
-0.6960449514693987
0.8106076818258903
-0.4505649031941373
0.2775753206805798
-0.397423120258693
-0.7346556387639919
0.3019486185869419
0.6620453656697629
0.13631505202305227
0.7464406950711586
-0.4373341573218733
-0.14929077299107743
0.9366188003012468
-0.4843942776878809
0.2799451362505109
-0.12231080047321274
-0.5390990798629068
-0.367987443725981
0.6048067749290257
-0.32659285490831313
0.40739624779698
-0.5096778379442444
-0.6712780465863631
0.5663921004612316
0.3172408983719134
-0.5338958299743284
-0.16594967935817714
0.23423031316054477
0.5098737102807692
-0.7429960273657777
0.7589522058434361
-0.5695864475585246
0.5066000945048877
-0.11952044996241007
0.1793308067378362
0.5362230601171496
-0.24999815586705465
-0.2829306847904781
0.14338250745794034
0.47096751759681876
-0.545250389276049
0.5357233153706481
-0.2882390478784882
0.1514287663124686
0.5020905252703034
-0.8248927129031388
0.45358314623939977
-0.6865278288923061
0.453400450087605
0.17376612423309476
0.10147575353195559
0.3317690532113443
0.42875085250483547
0.08859150278112227
0.16463730912836594
0.2924510447539085
0.8740884038452276
-0.8181545368370088
-0.283092819501662
-0.40229908751592747
-0.0617951268482656
0.6594763214423718
0.23151327182595127
-0.17319016573295498
-0.25857302595649645
-0.11220634881131863
0.2827822686962056
0.13730483752794753
-0.2525804121108298
0.1954813321621064
0.37180547670501496
-0.3341026044825637
0.03128801976162576
-0.5060854882916236
-0.15118420708756075
0.1846389550985223
0.06496998141367316
0.6993995542496193
0.7937843657525117
-0.39978551675626095
-0.49628953167924805
0.38173796004965177
0.164835518408607
-0.1938216021444581
0.0877164320786249
0.45828888775765186
-0.08263581483017823
-0.7341926534235282
-0.12252836690943114
0.5720618089375176
-0.6641138019809238
0.16535108470983773
0.32352913628438373
-0.3209266171262025
0.4008908378205256
0.12107692682723446
0.5130820498244927
-0.5559225478051839
0.09730141401334413
-0.09228248013903995
0.51507733933463
-0.5673486832691678
-0.5441412861869885
0.05542221447702422
-0.45660329596070337
0.13496721376344256
0.07984360095221177
0.08517489223175323
-0.24183334976636717
-0.3311392317695596
0.37581765510644727
-0.7758682271102594
0.760225537905863
0.8536544608740745
0.2587124740852309
0.480024347066903
-0.26001983120893596
0.021448035806247323
0.45140690599540867
0.15445527910242474
-0.3984485817259088
-0.11308727628667059
0.0073275217040525975
0.5863400598197361
0.005163734515462259
0.3191149943584285
-0.2196380693984168
-0.12860365949257357
-0.5677743909607804
0.40765815905364733
-0.13008873565723988
-0.06889023243512271
-0.09534600199483256
0.4146183696817214
-0.3325607973500573
-0.3186499558582503
0.34898934207799925
0.18907232000861585
0.07376287623542055
0.8028173767039791
0.3488668307034364
0.19720788460819105
0.8767821569900818
-0.018551875441156218
0.39313906410031085
-0.34460405992599663
0.1625104251326929
-0.0982521967767419
-0.8267872804663623
0.20966674558210852
0.6710071384422219
-0.20947696080527733
-0.6435899710264104
-0.11726598893144954
0.050094990192051325
-0.011986890249355509
-0.21936146835290415
-0.631991361394017
0.5516740431880408
0.15572491375163622
-0.7106617016655037
0.43677807007614
0.3953007565842821
-0.6855880595226805
-0.14016533565170375
-0.19231562646516354
-0.17638179558447253
0.5028182630711747
0.5491635254606896
-0.5016947747108761
-0.490814397675731
0.5951595063469935
0.2437060111378152
0.14885478468139401
-0.07486064538915138
0.449097070113905
0.4569524997675136
0.3160107130508235
-0.12378403068586719
0.4545153159688039
-0.015077049170918011
-0.4301405661176064
0.31432922913586814
0.3786767223535833
0.10416883064186433
-0.1085951540902554
0.7007897880309067
-0.13283338289754956
0.13154152344453607
-0.059415333508544665
-0.1071214352069434
-0.01267312261012965
0.9652673363996243
-0.09398508266054872
0.16870729026888365
0.527859854098793
-0.5335515991547732
-0.0846442712705533
-0.19284187156358634
-0.8623452459815116
0.23038196545020653
-0.16343415639184122
0.04085508683477235
-0.011194501125965511
-0.5285743588643639
-0.2847530597897219
0.30113311807873344
0.5032149411810007
-0.18878833481235713
-0.09677114898801231
0.10650877146988313
-0.31105089713316125
-0.2682623343313494
-0.2065312172192887
0.2664653280953456
0.2552632240709276
-0.2395031116184907
0.706418229694457
-0.4220097325978499
0.6122552120531554
0.16774227926817042
-0.27232319547964345
-0.6750040619754054
-0.2395532224937298
0.8803253538475857
-0.58995542728957
-0.4100192481039917
0.3695483514602127
0.1988806653252997
0.19519849390885702
-0.2764269183865983
0.3217554527345844
-0.7527772041377291
0.6271202828910403
0.5159188104589209
-0.6052212946165848
0.58063410568481
-0.5001189425977702
0.6956662849964845
0.0064540967270972915
-0.07494246249037839
0.735786374755219
0.024598852921600134
-0.11253362265239186
0.05898647849667937
0.3162338534959175
0.17312105275102174
0.3314100982013929
0.07294875231445042
0.2626566590299143
-0.8505686536362018
-0.020677334182223284
-0.6688147060100809
0.49519254915730104
0.3924802393769138
0.13051802279900349
0.18460172779711737
-0.13588834683044282
0.5923290820694443
0.5487657237253074
-0.12271246013239265
0.3817814682176106
-0.291776221681337
0.21280826892426974
0.16349754590107235
-0.09122897989043229
0.5117737237584874
0.07463541062863677
0.5172911923583712
-0.11509069109846182
0.4430957577141895
0.2821970010573075
-0.7374700473058196
-0.2813780624161961
-0.26531973534779907
-0.3540965668399423
-0.024842931591185446
-0.5802015314024014
-0.02147198896576341
-0.09013152574472794
-0.44748284231293844
0.08467024212894192
-0.21582092679631104
-0.6389213903832134
-0.7799689001905115
0.8165575952407202
0.3472444146287992
-0.6064630905271453
0.442403797554739
0.18182486604026193
0.18418210355903475
0.7369475175794861
0.2000956453789866
-0.6256161495938733
0.2556466945816587
-0.02850337311812473
0.2857564485296441
-0.14290798245555034
-0.2834481843495993
0.29788052691521194
-0.5357562669586732
0.3297621161105527
0.06552746943036247
0.35578384072867697
0.3653299780224205
-0.11354821380895286
-0.2204641366299963
0.21877744814932143
0.5106716277836033
0.03264927312602184
0.21785038402995793
0.3127482086293667
0.30526055326706913
-0.8952103735971919
-0.43644626298853606
0.5884085210387943
0.03704749693424414
-0.4490625920944409
0.6350709551230794
-0.7028485749973891
0.119105317836528
0.19542466864370012
-0.09248514983144729
0.25014721085483604
0.04187431287175025
0.29370748146218684
0.5035758806236048
0.700437153654217
0.4556258880048414
0.2287953484798695
0.8081843827449074
-0.558332883527256
-0.2390319497453002
0.6333957643036698
0.2534568368633259
-0.08738387624542976
-0.2667650244416041
-0.3147611498413733
0.3698383009930485
0.2564137126680399
-0.08350047503346447
0.1495771102660033
-0.5268756855845664
-0.28212326569588564
-0.498660448802111
-0.015075596992887408
-1.1170385893304586
0.752459164681811
0.7236801936359694
-0.3143699593726079
-0.4343321803697755
-0.07333978799787033
0.3462315062760811
0.6930368319452802
-0.050038137316300246
0.17371297924668316
0.30463357620111653
-0.1291521400957677
0.3396094532262781
-0.03450160294716442
0.587315039025887
-0.336052281216517
-0.7172486401451944
0.3826748438888077
0.5933917008958971
-0.5009080699268027
-0.09966062988537061
0.15796891616369135
-0.5318272491318295
-0.19185937856976276
0.3547992615756107
0.849550039896764
0.3186881167441932
0.2772967566451119
0.6444396381918374
-0.09499934491829798
0.3037104624828182
0.089317212671008
0.45826885844879295
0.49493953754189335
0.09178670452620497
0.06457188191377583
-0.20071465976115777
-0.10373954457440382
0.1485978365054499
-0.18093168186880293
-0.7474362950712373
0.2705102163707155
0.031571408872093115
-0.503094730967041
-0.0565515112379289
0.33728833954558624
-0.014389132875482935
0.06694885113266336
-0.21213200567785673
0.5474565991673451
-0.0640848092583064
-0.412560597799296
-0.2718521997116672
0.11133211143946242
-0.29750196355277714
0.22677583517757438
0.6336767538415932
0.07693334192739021
0.3765999191913665
-0.30253897926687545
0.3666981965194487
-0.6643548628614622
0.1888422823256133
0.1521757427686563
-0.23757492162223848
0.306920851549738
0.00864100612398988
0.37440597059212444
0.49304688891577164
-0.20427643431782794
0.07744982032771197
-0.16956410724657578
0.2622270072037245
0.0343682434823771
-0.32847127491533235
0.01981051438952608
0.4066910444164441
-0.3964298269999261
-0.25388889122247804
-0.008311448265660104
0.2638602088184575
0.5720228749303049
-0.2813968707078469
0.3279294810595783
-0.8465049391852634
-0.1399646934854406
-0.14538481760553135
-0.087876802808875
0.3958471938104393
0.16500682406828426
-0.4477135541179097
0.4889930472483602
-0.4280403436122563
-0.3591836322754859
0.6350428921927292
0.050520954445316124
0.6547433760487942
0.07513561190678397
-0.37374658654258797
-0.6751182041419852
0.36656362097324496
-0.3539931500224993
0.30975411053233315
-0.18104019729758392
-0.12650580721262694
-0.45163142716889126
-0.4465893906985956
0.319398656740025
-0.7865957068814735
-0.4454904927863693
-0.2823839915358407
-0.09385995078297438
-0.20297320615558112
-0.7082712419340293
0.30875044093103404
-0.012768532805126576
0.6527251461924828
0.22588531555645674
-0.17833057335911318
-0.9833266446643245
0.11057127075126205
-0.13655293808815594
0.04885100546972365
-0.6985378589786111
-0.25791322160210906
0.41104279993241355
3.5126254012363134E-4
-0.8665740722248969
0.6277201277572155
-0.059178029937634435
0.44649837085373045
0.09885872119842898
0.44721390858520715
0.5459655334687604
-0.2731479568879372
0.5332975936216737
-0.16339359823553057
0.7019712790647572
-0.2021333001265031
-0.11265087785678907
0.043597997844935454
-0.33357827900465387
-0.2846396887952304
-0.5232271587672731
-0.45733045879159506
-0.40109099978994345
0.28889644759709154
-0.029100813649572378
-0.1640357977417911
-0.7265198650125386
-0.7123310113629769
0.3265314587064627
0.39008978806937966
-0.3935795640826678
-0.4005029133958886
-0.4151875303593493
-0.41289413282527665
0.5653497540709083
0.46138320529860843
0.24310333956673313
0.4103223133391505
-0.3496100286444771
-0.18070057295449793
-0.06425738334420797
-0.19940926670367162
0.8162127068631222
0.16071012115187755
-0.021623579807437565
-0.05411398300584569
-0.7962107315825075
-0.6292381619997579
-0.44144621167145437
-0.6216914477505192
-0.11412422161999991
0.19218669697916224
-0.5263113647828784
0.4971348520368286
-0.7064972463525068
0.18702271225654576
-0.6162454089782189
-0.012853795853163374
0.683081867660973
0.5364552344494598
-0.48039636830342203
-0.7037835913110161
-0.06341115758553839
0.2516612785454386
0.24445230029758575
0.6191183418016805
-0.41291837630375994
-5.683467943118359E-4
0.5656830545159675
-0.12089513278502984
0.13056303792576873
-0.6690064290985119
-0.2606390539582102
0.5368558410996662
-0.19049558082564022
-0.2462532767891642
-0.48166157621742567
-0.0939983968938004
-0.2965716210840825
0.02906913272419842
0.06065563621735856
0.12402841713374257
0.30111371277328103
0.09810026660339777
0.36490206643426826
0.04912763047195161
-0.1976055059912052
0.02299965497948142
-0.504255398880706
0.29196959666692723
-0.6425848594914862
-0.17233460603056397
0.06221060570104098
-0.29056197021721375
-0.18334831805856233
-0.08337938842291992
-0.09070865201685852
0.4343128218911725
-0.4380305922572243
0.14718610249079755
-0.9513221570027907
0.6274298275985274
0.390571582959771
0.6547040643648401
0.05976534878082651
-0.20579706617622562
0.21211716970187577
-0.18628069399187752
-0.255900851799986
0.5805292118143021
-0.1941722351176235
-0.019928771935925016
0.6221446579058515
-0.32716962398513316
-0.2909659046702706
-0.2961913215080706
-0.04373276267092596
-0.4622380582329061
-0.02347711660223406
0.2643478773547068
-0.16801822820099158
-0.9484507043602296
-0.42752974904416774
0.20856485112520934
-0.052251905839309276
-0.40010360733665307
-0.005042098887070301
-0.3044370692406462
-0.1205306613126963
0.10826764095005104
-0.1357080945372735
-0.2076229000549632
-0.5630041030304547
0.12009834071275294
-0.6159796162297388
-0.767572120872848
-0.1478040649812301
0.11459852043240326
-0.09488252639677408
0.7588260902401373
0.30228311822005005
-0.043224932531979676
0.28009750039676073
0.4650922152180985
0.654272608440353
-0.1443678003088137
0.10141780241001497
0.24665870176100868
0.1622245854406894
-0.3685403768991504
-0.13076981104935026
0.24031070987468028
-0.1051143637742964
-0.352231758432875
0.5019048880031096
0.05843970384477837
0.39907944274195983
0.015600895543294913
0.4770617026281475
-0.011401931267130627
-0.10077762589375472
-0.1329346924284126
0.1990296909477134
0.19116144878945032
0.05076313437040769
0.4147049641967321
-0.21611492831096657
-0.07027239829581478
-0.2988838707780852
0.5860195227732147
-0.3795084719416292
-0.1358212471991067
0.2153427206729437
0.2637173414908047
0.04612534745427099
-0.00940757647526591
-0.02224984601734148
-0.7556820467818081
0.605830558141312
-0.8710507056150415
-0.6434369755895389
0.2065377101236875
-0.19854403489975697
0.06205813667424942
0.19737270886417468
-0.048274344569643524
0.09419126826910151
6.546966783737007E-4
0.03950681097601354
-0.807159707319212
0.12390451233508795
0.005292821006357406
-0.9806634141910526
-0.6668198648419231
0.6513717484512015
-0.5090865162609182
0.13163279094078106
-0.026879188678186366
-0.45420740497155254
0.6146995945716861
0.31664632773406254
0.2754820420131488
0.8434600172293879
-0.1492557405702043
0.0385375654068949
-0.39163516033018164
0.14161161770683817
-0.061821472599734806
-0.8758755633241274
0.38034661966133587
-0.6546257381285958
-0.06408264496313587
0.8112795559053904
0.19239396580430745
-0.16344520205597957
-0.03618748481983858
0.2512423734817417
-0.530486713885342
0.2560562773601439
-0.1644594058321538
0.4214993830974576
0.9279757946981569
-0.015266352692639873
0.28011860305279457
-1.0181873709721017
0.42752287485156415
-0.1670619193707087
0.21563428635345072
0.2798434030567961
0.26789610397573393
-0.142018798706804
0.27989178592585384
-0.7317510885870605
-0.34977165009884537
0.23506612036591712
0.319990369693708
-0.24770064562299332
-0.17803136986899515
-0.5851649640082225
0.3122818026952304
0.5067189180250775
-0.1579423583683448
-0.4816818219697868
-0.3679891148968547
0.08450889363737368
-0.7645294102898313
-0.2878113190381012
0.4780014000731362
-0.10163851297331683
-0.2993548058155434
-0.42553353430846697
-0.08584766262738897
-0.17718030905846605
0.35944223019532484
0.5630244187167504
0.22391156957110814
-0.18214364205718891
-0.40214913119912754
-0.5434913128417714
-0.40584710867219853
-0.6760731390607368
0.7245156535404123
-0.5454428406440817
-0.3891308109367958
-0.6916259948000776
0.8011784714847449
0.019861690153846645
0.19396372014465912
-0.2565589829765087
0.008471472745769204
-0.12021434125467101
0.6436210258151028
0.5041691735833026
0.6184137468051355
-0.3275766905831692
0.7560750284588897
-0.029879703553206904
0.6066662857282408
-0.17099725859397363
0.8955690097596385
-0.18339280740886477
-0.17222040326624455
0.25237262313858144
-0.1293058327210166
-0.5941709295372164
-0.1575204549659911
-0.25065942142780484
0.22741326898317116
0.13208337047523222
0.14103210645110043
0.4732027342349705
0.6947869419966237
0.19395052697328874
0.23637291210511968
-0.48636346824816235
0.6860447960715202
0.478812519528263
0.08022907821917913
0.06541325496234474
0.7920121787142451
-0.26992842521273275
0.36794052393912025
-0.4115270051763873
-0.5002434360729255
0.33074943519559463
-0.34764144425859445
0.47628631737020366
-0.6697454177349985
0.4029262043556441
0.05028915862369521
-0.24009781879559444
-0.4413046910251983
0.06517750487346274
-0.3724482532650415
-0.16955370125182456
-0.7690304286748156
0.45980396948272473
0.14238164570303158
-0.6951607833837419
0.23260922908392423
0.05811472716286081
0.1930734728817134
-0.36753529674762464
-0.26132342844329626
0.8386148088652553
0.7189561141458252
-0.039759931245454516
-0.1604001990658671
-0.6371590568699423
-0.3661190974067216
0.6328930773391093
-0.6709568438875632
-0.21697735340222968
0.029345803231892953
0.7759467361947882
0.15798736212137465
-0.3308957937093897
0.8756226586319424
0.7463517290918078
-0.5037796124300112
-0.5367990603908027
0.19878519025645758
0.4233503283748782
-0.8558214233650233
0.2516937477466824
-0.585242662785987
-0.3430838312664094
0.17068932638343182
-0.4404209875703843
0.6597207771125825
-0.302766554410292
0.6538073137292778
-0.4537748703717548
0.13176310264080104
-0.24838175611521685
-0.5097726620055721
0.2113997532899522
-0.01930361786865417
0.4165277308218647
0.14930209512407788
-0.2153713247123078
-0.0882965306815724
0.456408241154756
-0.6953814805276325
0.7837074350808945
-0.15705129934308582
-0.23456253942314842
-0.2074187429292641
-0.15896620738541345
0.6188606171836812
0.20164326589837045
0.5550732934592892
-0.32288995095082274
-0.531992228272998
-0.24193400560625655
0.7166676277159267
0.697567829938641
-0.007500301972461432
0.5390636394807182
0.04418685935387723
-0.25682461439675697
0.259593680516247
-0.742008453349772
-0.14061650486681132
-0.016847771511803833
-0.05403638952044709
-0.23763618972999156
-0.8204940757699077
0.27706639350826356
0.1736284694303324
-0.6803977426104977
0.11610685177980185
0.024559852873945354
-0.20502595636867782
-0.14755930813002438
0.22710987449188214
-0.12361234827190559
0.5522598788724454
0.06600759725722061
-0.10065227549939781
-0.29978117019726114
-0.6130055286396153
0.5291667353845756
-0.03427484730426544
0.8275029964395483
-0.3026512997135137
-0.42748572278077346
-0.22838655144773107
0.2706631650413057
-0.14285986286489283
0.313131459743179
0.1959140967252584
0.06125693027933332
0.4742776616111656
-0.8807970825555009
-0.5422289994422841
-0.4913949962512284
0.632669969126615
-0.08557896099028517
0.3821367680602704
-0.6079803691735358
-0.018200388185641403
0.0226675257585075
-0.014109278547969395
-0.17995825821658218
-0.2996138963590087
0.05815425711816924
-0.11181929620005471
-0.8179874633597431
-0.5660785697611544
0.7502105124414157
-0.29630453533591306
0.824145049187722
0.48497714436237227
-0.01095049301413209
0.10908649103368162
0.8681016949802878
-0.10181881466389586
-0.4957939193244826
0.698255207448481
-0.21193492532623254
-0.19573319210437212
0.5065683888059745
-0.009724430679131424
0.22258281787637413
0.4796039563928991
0.7011116213513747
-0.34479970516472824
-0.49897280832328106
-0.044362771663442935
-0.23600073658898368
0.4905193447867754
0.4152642100871118
0.3137682920322985
0.0968925451211633
-0.5798029725052413
-0.07018035288806868
0.1271011119587201
0.03905661057262799
-0.5737237849345636
0.3117535078334156
0.2956223968197106
-0.3781717528785642
0.5627452229354297
-0.1339328038142032
0.01705711861407211
-0.1331774098926516
-0.5544169129034621
0.28154136179904166
0.28125374662043157
-0.3703102226297942
-0.3781377261926243
0.34553877436542135
-0.2026737657790344
0.7629018311070811
0.3295563701298323
0.20895794585436922
0.03996319175572105
-0.23797210696239357
0.05732626533910268
-0.0704756450775722
-0.09376775707925866
-0.45433664130073703
-0.1641111693667946
-0.014511360999523992
-0.1587804523297257
0.027800407844888353
-0.14262538266401958
-0.19686761787388496
0.4568810742712819
0.05048198304335816
0.1726201331814653
-0.6209006583095342
0.027348770343049833
0.3320335223102583
-0.33406873547001825
-0.09385508591342118
-0.8026149898485548
0.28432749605349084
-0.054955972552601096
-0.4948358476567414
0.07009464958047773
-0.1240931964551093
-0.10485341476149879
0.3821245131287635
-0.6588023099399414
-0.37503906731165393
-0.4406814439755793
-0.06072743800944902
-0.10500388228343782
-0.5407134610680955
-0.4721509530875798
0.6277597397456777
-0.26597001923671726
-0.06690624037218706
0.7308819493863652
-0.22852248107084638
0.5714722410663103
0.5771958824103605
0.06210283781164494
0.13855765056045866
0.24902485089398319
0.019910785733937897
0.3421890892505143
-0.03267174980270171
0.09812465682493243
-0.6131975662411013
0.09612738416709454
0.2654093575460975
0.12760226058292445
-0.657752405493153
0.6286010892870867
-0.3661827110205814
0.25824075490135434
0.1957885779021673
0.27383825536738826
-0.2378199864641014
-0.08660706491640957
-0.26542839228121884
0.20682971383187188
0.929206142787004
0.453005916424973
-0.3223420906184915
-0.0635651546331526
-0.27540686021628136
-0.042686501149591494
0.1308861441469712
0.3875512694262825
0.1629477222923632
-0.03340177751672013
-0.32693709898651246
0.20765086545648204
0.11567522776707362
0.43041872105159773
-0.7526678541796883
0.4240984619066609
0.20443182104516244
0.31734102764092587
-0.21232051671823793
-0.07088819725371487
0.1896185866396124
0.048564017067805554
-0.37060985405556335
-0.2698900844110117
0.0471982623831686
0.15253198251723066
0.702441562599597
-0.6147274903494946
0.35709309088686925
0.14962394308360039
-0.5718545946272632
0.13565877882909785
0.11541728295241706
-0.7298970051465191
0.17297717486371034
-0.03658234395170068
0.3332679541171585
0.5290237414167448
-0.34301796008807517
0.6322874037503319
-0.12266092612945512
-0.14934906965204853
-0.7302826043114969
-0.7257773753185459
-0.39023943965291
-0.1088643892430462
-0.5594433093288504
0.47121868433738456
-0.5069162920954329
0.19696987612158123
0.7506535884496937
0.42492755243667946
-0.1593374889989424
-0.07059135761972068
-0.0546628073241322
0.713450783716975
-0.4436057348262812
-0.8802746191942895
0.3479106547567521
-0.32473775844569014
-0.8543206919729905
-0.7514162269723222
-0.29061901629184894
0.38868188394835224
-0.28243245980652065
-0.5477855771987993
0.11326258296183234
-0.17190283225347047
0.38468096471292756
0.25892560538910847
0.629262010040855
0.624185967228125
0.6510276188173153
0.5076361178205161
0.12841701305672862
0.7023006035392746
-0.1525646213600036
-0.2354780241330433
-0.17129786377341671
0.2755344813471354
0.08912177186121328
-0.4009454307578575
-0.541606045718506
0.05216784066909874
0.08503942573386314
-0.24454190039722634
0.6018175559577921
0.008729113347057171
0.5526081875289955
-0.011938564799699125
-0.20870240690292258
0.6372542067996201
0.10301373264611408
-0.5732215741613963
-0.06609021947153892
0.13359314780536446
-0.5517367696647995
0.22127091387749998
0.3473883488016223
-0.18159520390366302
-0.27812561466941466
-0.41614376442965184
0.277576060893571
0.8114826453269622
-0.23504141427680703
0.690941517625962
-0.3075038274669666
-0.0664539281533032
-0.5197989107455766
0.5558953722131682
-0.41569731905803575
-0.13356086304715764
0.090415155116226
0.13697887924544971
-0.3897509231827009
-0.4833459437562275
-0.5959661527323468
-0.47617972442404044
0.46312270838009495
0.2490994794618222
0.9855493415772172
0.5607748203954841
-0.2478157673697432
0.34866945752830725
0.3024700626222233
-0.1828901708183308
0.4750085397451036
-0.09645908998198804
0.12367342057226993
-0.6210378458539889
0.2287285701382733
0.4571725993487109
0.19531659340554686
-0.26889820448729795
-0.7938531646917317
0.3020813663110089
0.15927581493962384
0.1603169761703439
0.07452838643861703
-0.11732581775944562
-0.7523427825516827
-0.19742632718506048
0.13661535380045198
-0.10072445951379672
0.5907683751538322
0.705716918054544
-0.6738029569060231
-0.5679257978073857
0.4217854722935493
-0.06353901041969057
-0.7503205538849881
0.39811564345608197
-0.32306801003467667
-0.02420818261647739
0.6541144770230206
0.5853702481757095
-0.13835679375011134
0.5504166154576342
0.05516931663888991
-0.7628328813005602
-0.7888854558881285
0.09149488214656654
0.050831339686731036
0.1628692812401622
-0.19647482324880983
0.3990288892244689
-0.043358986364665925
-0.5618397567276866
-0.876270986965273
-0.11859318680957287
-0.30106841956411423
0.008564267556763983
0.4235574290339442
0.44550459157235156
0.34115246870529736
-0.13462928916444655
-0.8068097048969343
-0.28388897626142495
-0.845106555796654
-0.49872872327975093
-0.16443829239781427
0.027420873730209072
-0.7317004940546824
0.3474712659622562
-0.5454087875330446
-0.8345215342716673
-0.018096211575417076
-0.9023778747820015
-0.044531986412007396
-0.24880527787988238
-4.2355758745571404E-4
-0.33505804518743976
-0.36999210368467184
0.5399603520247465
-0.32894034265806193
0.06533197319448547
0.31118673764701243
-0.1912924712566585
-0.22044377517762537
-0.03176890417122047
0.610545365217105
0.18689337899661063
0.2715084233976742
-0.3421804618105406
-0.5010205745432141
0.8006944578922579
-0.08946783645780554
0.47367066068049357
0.0045103187782218335
0.42591134192325153
-0.06400779217342722
-0.4153773733367613
0.7246867161385239
0.3997556851158153
0.2271610331771835
-0.3069334862489733
-0.5961109978313835
0.674009069421321
0.34045130565351855
0.18282030415619122
0.0503681644447338
0.6316583515128766
0.4512471724800081
0.5584921312462767
0.4860103339078524
-0.5231270336302725
0.21250247623647767
-0.05083712091655379
-0.13719289497130815
-0.25393336322669946
0.26628228950736843
0.08221882600325592
-0.34669133480028835
0.22862811651730042
-0.42570159419287634
0.5808852662207244
0.26497948481034206
-0.03557061591593358
0.061684997031573485
0.14149438272609827
-0.18512394557018874
-0.6521556765587121
0.2963578792601065
-0.18410830223122254
-0.16014115108156823
0.43327872304969806
0.5906412139806969
0.10900772043023865
-0.2119467790079016
-0.253048304595775
-0.15426379509459032
-0.058415105238095344
-0.020822310666738793
0.6395168117451363
-0.31571441775209164
-0.2113549082933831
0.2501973435184611
0.5210156819983656
-0.22910225373408366
-0.3082749213574101
-0.5420591318740425
0.14125288645902956
0.20268862085583195
-0.003025341597616804
0.3140559118097457
-0.08180663441406022
-0.005590734317072132
0.6406275156137365
-0.44048807489935504
0.2865164173341622
0.12419077907994436
-0.13498483942640926
0.19695616805733918
0.06040253569199805
0.12108659992271464
0.4575873303975513
0.5425203554957333
0.03464173850402574
-0.48038896071447545
-0.843715930954549
-0.8097066502166935
-0.04932036261980192
-0.16636411800771578
0.40836279694611066
0.5834527997595799
-0.7357297812617426
0.30521176141348416
0.3365601515384511
-0.035750099294597715
-0.030092227170792185
-0.13697907521399044
0.0182657075902376
0.19597329710673894
0.48112794350293175
0.8322782449566541
-0.6231246496342637
-0.4584179084152208
-0.35010103362662826
-0.20551311358946345
0.15513695400942185
0.4188399946316017
-0.5963060976715633
0.32570730453020313
-0.6840300763758208
-0.09154531508977681
-0.564573675838865
0.685281098026002
-0.04694905188849141
0.48017156479749246
0.2917253206743279
-0.3004415441435412
-0.33525257945536147
0.33328857476335594
-0.34689723731392685
0.029775799272713677
-0.5991447528340238
-0.054666624580382184
0.17506714463698636
0.5653280108565977
0.5132290266477809
0.27818815090980903
-0.30516159526869724
-0.09394436012630725
0.7942832755373928
-0.1487137252448799
-0.2719726471815951
0.19707227104831704
0.0893779239888175
0.0028630143193373314
0.3878123734383664
-0.08311639979976204
-0.24321722952606994
-0.6929663584304528
0.37699214986735374
0.05462795927004371
-0.3319252412892787
0.6107063452619769
-0.27524183179512773
0.09902136625787616
-1.191030367161834
0.3148269675108719
0.10343215227119851
-0.2498593903368087
-0.35449473555312505
-0.08975677589826969
-0.20268969898045586
-0.3458492280171722
-0.14679762313994993
-0.15358907361732854
0.41522655914263595
0.597485530739734
-0.49727030653302273
-0.42201328033296637
0.2805710491207099
-0.3581600154896044
-0.6373232108276821
0.10177721211887525
0.4306824020787229
0.23573115665540456
-0.4671298372726294
-0.5076183847261645
-0.08419227261535556
-0.24671813761971087
0.3429769030754912
0.4362707149319833
-0.06582653479445555
0.11797116022486742
0.47365911572898145
0.6325158745864682
0.18841569440670455
0.5445081281789298
0.1723281857687634
0.2184753811479201
0.3487882265261153
0.03812636580367135
-0.28818772882448546
0.2915491607895555
-0.2997584954642114
-0.10249431232137429
-0.11288302098185932
-0.2431875549067346
-0.06391609758065186
-0.05447312506596014
-0.14682781510262166
-0.12561755543895792
0.12350372416928512
0.0513374976137464
0.7125015830484538
-0.1703820645134133
0.3422209954630899
0.24485624547458085
-0.3398748642626964
0.328367641649532
0.11150406217950737
0.39001598302943463
0.31853541403887964
0.29260430470121834
0.40024557572945196
0.2295327143382826
0.31952327843669404
-0.22403122501886885
-0.2880502295930839
-0.3624482838390526
-0.03545658962962395
-0.637321048464655
0.08344656292745634
0.02763483158469604
0.24345546292007503
0.14453239407038865
0.38093999732857087
-0.8875178114618351
-0.7720595285278351
0.5940900134698772
-0.5461286948348636
0.6582672106941739
0.8297664163629594
-0.2233062372935517
-0.661907024253268
0.06765400579892344
-0.13143552126001412
-0.547896387495396
-0.5249811506210886
-0.08848281548238379
-0.8743779713020506
0.35139954327097367
-0.3163415218202458
0.3808009484108722
-0.5991289312135387
-0.5875660400361387
0.49314140096455417
0.15748368994407747
0.16590438600034274
0.6732592352059942
0.4301384838678902
-0.2925433110862071
0.32961343967578516
0.6742035526947733
0.6502339333361485
-0.6635680821272354
0.4172877237995075
-0.22739072080211087
-0.19595866364212788
-0.2467000893605522
-0.24964531236019227
0.8343574614616722
0.4293893556231907
0.08317151392462929
0.42046340942688853
-0.23991312364240713
-0.01206620833646721
-0.01829990321096142
-0.3671659776651913
0.012624055502293285
0.4813346363199853
-0.5522949369749843
-0.12682647058481455
0.36758653016134957
0.7336135280928998
-0.5177460171974361
-0.3876086759197074
0.32137180152023737
-0.46416170350387076
0.17476068318168236
0.1752937684223168
-0.19596546161960182
-0.5107161464525228
0.5913220712656388
-0.8540131925607464
-0.18238884809646283
-0.2960283389680195
0.013048408643391296
-0.2296162719702881
0.7589954118009294
0.35848432533814145
-0.27978999449718966
-0.1294841685527265
-0.08502703004355783
0.0966114331850727
-0.3696552248172873
0.3038992625323632
0.03172832219367448
0.37594953773250006
-0.31749448374801714
-0.5209098633635267
0.07906108481812202
0.14090686140383146
0.5681866551000295
0.12385729180307226
0.750433109197602
-0.015848083932477275
-0.08659140246867769
0.49890277933637295
-0.187485952759315
-0.7339022898017138
0.44117391925388794
0.5744155289814735
-0.561013264764506
0.3660357628378058
-0.5416845343037227
-0.35234312406594925
-0.08667988832776696
-0.8605959670170232
-0.31638496227967877
-0.7744781308126926
0.7675796312902163
-0.14356567947139365
-0.7752991597808888
-0.1637485862197129
-0.20338486471533213
0.22355505621009886
0.7706772357739996
0.6817965261459047
0.0688696162552973
-0.022004926773467548
0.574180342348071
0.2250880472578335
-0.02730774516904444
0.573702649650049
0.5041114493819304
-0.7874452829528402
0.09970180055166433
0.09205740657410144
-0.21493657334664137
0.7638155389555339
0.46507861131696027
0.0912820403609782
-0.576675517090781
-0.017474288889080647
0.3428565791203665
-0.1594945276424865
-0.028727361365240234
0.10510051921542729
-0.6032939251297229
0.22811157302738094
0.2762478370858177
0.8826907856127245
0.11452632594226153
0.1883967622741738
0.1455982298537647
0.5342056789453602
-0.5715491435655725
0.48199250293418827
-0.05226060451644332
0.24336223366011722
0.2031907144339853
-0.07509854063276855
0.11698885024413153
-0.060192529630577085
-0.4623797304153877
0.3147065365550906
-0.16739513695897368
0.1581543178857575
-0.13603275811132276
0.5180986625456909
0.7348321835533638
0.4553031716624466
0.7162275462287808
-0.15552464028862745
0.43540389722751877
0.5333836703717303
0.3232658286440615
0.2891506442135179
0.23607207004266584
-0.46532828663757775
-0.29564447063135024
0.2811983245264036
-0.2401014786614447
-0.15865388102689992
0.19239898424892887
-0.052394019247210655
0.23458290992129216
-0.1807729896131453
0.31033274895228935
0.12857556031901118
0.6250718381309718
-0.4582599425812811
0.0516773597726814
0.45733804546115053
-0.44003216264538625
-0.3443968053789196
-0.4669613606934433
0.05228608197924256
0.6855381802721723
0.29809954025506935
-0.31926233704202955
-0.3393526968952292
0.8075891096723145
0.33622787183525993
0.63944102175409
0.6354134608181023
-0.47891533536785735
0.06389614341615535
0.3836843024738099
-0.21528487000566332
0.7911726775478429
0.1876581239230407
0.040417051430698736
0.02283052033930366
0.37975557483818134
0.14949129021196828
-0.45827754284060995
0.052512249466270755
-0.3270135630105373
0.728814560854259
0.3554536488580897
0.5641904580925362
0.1371088471093411
-0.5916550890553269
-0.5503385491200902
-0.28950742993919076
0.1774465916070772
0.6128452615705534
-0.0702194237050523
-0.1550563958525626
-0.6123983371721863
0.34115897611807433
0.41754238215723816
0.804148766896151
-0.03042273739524437
0.3547231063856372
-0.6143354491083675
-0.21095348755435983
-0.698809016947949
0.03219301149147073
0.3891273321364027
0.6652817054032858
-0.22509695964677212
0.43701362734957716
-0.019036172699381626
-0.4798790198420856
-5.758905668687975E-4
0.33050024920139753
-0.7048480144380438
0.05079881133117581
-0.3311616520974726
0.6966578287416627
0.16737028261817066
-0.9408793808657473
-0.48404906423408856
-0.11603142864681337
-0.12196010168497384
0.272324223246054
0.07359997369227744
0.16449304483536076
-0.26506483486782484
0.5655218656906578
-0.548493016090371
0.43384249754816995
0.130345469824365
-0.13312845320024624
-0.1391398163508204
0.08072235207917344
0.3850035892090546
-0.09508149682488698
-0.6983284346488886
-0.05510650679090068
0.005296814241323222
-0.7824135120622989
-0.8180042591625103
-0.016927344736589856
0.3045473361307841
-0.5740852260744115
-0.11893164423263658
-0.16506485272423643
-0.7977352287022019
0.0817110040512512
0.4875733715491243
-0.004377029310912883
0.24267430669259804
-0.10394432659767383
0.8256400350451295
-0.1245368611486306
0.13960226955205635
0.09100656254049966
0.3573571742538705
-0.5529634742879246
0.0392812444171573
-0.43635813135845747
0.15514458457387625
0.22115340163588781
0.25575872739756117
0.2583541177823646
-0.22937431137539865
-0.039686002981940804
0.0047965754184623455
0.700785437908353
-0.37855692130603646
-0.39406724389895365
-0.175642416565423
-0.11888806810770591
0.6350145837101396
0.28404888515951066
-0.3297186494438845
0.14988702826757272
0.3583771040460252
-0.2734697534796351
0.0611900849195639
0.044077755415926734
-0.27333281873094845
-0.12873509488975066
0.2988842907933539
-0.04328192799098862
0.3633278576962482
0.096944738784708
-0.4575763199238774
0.05152485118015382
0.12499032962512147
0.142829091986725
0.2432988322049071
-0.5648404288264287
-0.796826959412508
-0.39480577801060857
-0.14939576258620435
-0.2833128333796979
0.5785200790423966
0.14005594765863927
0.8725868485459707
-0.7159569381220651
0.03254335152430721
0.22276750450168392
-0.0331696888429891
-0.5016261190221656
0.08406288675093343
-0.16456159530726766
0.15207653934544596
0.5343320771302424
-0.6542996838450806
-0.5748606452146743
0.6588569323179059
0.3172038867668886
-0.016554602120013473
-0.1915241450263433
-0.4440702151590059
0.11810899121159416
0.6767617350266506
0.18836188008776855
-0.5730466821232862
0.5133919818972772
-0.3878018030383741
-0.33978787090546797
-0.11228596394713464
0.056590794568952996
0.32516626771210166
-0.26747042424819967
0.5448910264096235
-0.7657981662513043
0.7682333690817141
0.2034142958704469
-0.6259447837803982
0.03228104015997313
-0.31393196791152034
-0.0698411195363759
-0.154230573583362
-0.13416998645219413
0.03456264009341181
0.10310826488484692
0.5586963533300278
-0.1255934137517927
0.03987890184177212
-0.0014694445058253125
-0.613716595497836
0.7771311669081381
0.014591165290953279
0.1023943685092551
0.622570476329833
0.9740609757709984
0.1449892196112491
-0.39004221725378196
-0.18459133226191615
-0.46784832751944083
-0.3328163987359857
0.3750911313919434
-0.11318738076473023
-0.7164628858057798
0.7608682183851543
-0.15484710765457477
0.05988137210789746
-0.8324349023917242
-0.2880021757959774
0.6683369378012837
-0.26733808945111104
-0.3809745350744267
0.5238750692040219
0.17752528572875514
-0.007320709633993117
-0.34069592931383796
0.17382873363035145
0.34453855412858814
0.5185165506707918
-0.24597812219979015
0.7656846663539271
-0.29918863501074044
0.03661389055406772
0.28275972505546126
0.29974558445750965
-4.016816538741086E-4
0.5853341207508898
0.13839299254981252
-0.16355221939714215
0.2880548912215093
0.8673188126033993
-0.1294445640710468
0.6544713814647619
-0.8713372733967333
-0.24803875278219994
-0.18466672387046057
-0.06134648797334474
0.021429757240365666
-0.027886996361040195
-8.348993544706751E-4
0.47425098361399387
-0.3027484525455214
-0.04590340727121467
-0.1723955217841019
0.8121313366003978
0.15720808395039498
-0.1878241930701826
0.6118643029110612
0.41198724357968086
-0.5057769708908273
0.18702626832374492
0.02110501640171017
-0.45482989182568034
0.058909940721337595
-0.62446858807239
-0.3279717601624431
-0.47699818326094134
0.18686201637130584
0.4717172669039663
0.034640762701681024
-0.028924793391153503
-0.12184107849582032
0.7740190072501971
0.28706164744763485
0.017353520438391445
0.11758024044320059
0.36754836524645884
0.019978558394891155
0.27665139663568594
-0.3254244386139523
-0.34057969460243986
-0.28195750717978296
-0.1663282303535123
0.5979550336720184
-0.7611081456311349
-0.11049974474131696
0.009985749460719284
-0.5174136043807932
0.11011917784653702
0.2816287260569036
0.5665374392794528
-0.3588163713717565
-0.6181774265788029
0.3622339236721078
-0.08283356495569583
0.02236966385779815
0.797884256769205
-0.13464721963655601
-0.3379670665188903
0.11397322034518209
0.44295349977094745
0.2964932994392623
0.3186766140750962
-0.003278183156741221
0.12623411105811622
0.23054391343037517
0.18510957542385342
-0.5163223362205873
0.2880463185987293
-0.15336818647025646
0.363188944661217
-0.5351964879617475
0.18843578262050964
0.41830592715744797
0.37461691778843076
-0.3632400588162964
-0.7054591564362112
-0.5939545819950806
-0.39898991459575595
-0.8534967673256636
-0.21763965838040988
-0.4689196313054653
0.29859866683948255
-0.08352825839663769
-0.07225057589496098
0.2624889328195086
-0.09355395402089883
0.33582940333427513
-0.7317653309903265
0.34607442424195556
-0.49060160962525345
-0.36462944387625107
-0.3447541814564016
-0.38092660885685636
0.028750234115048512
0.2833612252375377
0.4337327148061184
-0.33327468920885983
-0.6621894366151767
0.7002030122804876
0.4171049968852152
0.2165994986246289
-0.19621697122757942
0.3780467334393357
-0.363343440157761
-0.2659010503259428
-0.6229340472989706
0.423104017846209
-0.29778246884367787
-0.7970789069806262
-0.32283824117680704
0.5351054741669082
-0.15970238206859777
0.3689984581006275
-0.04979362664769249
0.04300288647050965
-0.03550141859946421
0.2105521919922616
-0.8287590146841773
0.21679941243044887
-0.6118784643035516
-0.20642829799395734
0.2740769348734764
0.13851038771217183
0.4614039157113695
0.15378143237701825
0.12085303248782964
-0.13478826375445274
0.578806882559139
0.1747111998025327
-0.7608139884430897
-0.23716351250520906
-0.1472788343743261
-0.2489813101143653
-0.5569713941354204
0.43658705570017564
0.7377297983152167
0.40399470470902565
0.16613891700273306
-0.5475952057504874
-0.8944388473320382
-0.5740100589896331
-0.23264821215767673
-0.4204639199991317
0.22176934943220367
-0.9081538650921895
0.4417124928890115
0.02113909467376973
0.21874845040932234
-0.7744401696254092
0.32521190332457106
-0.6227000075048589
0.8584847264054184
-0.4954527278562001
-0.036492833162148686
0.2157878811300531
-0.08949815411684969
0.8927488313722477
-9.005967395709913E-4
-0.3813329183221664
0.4840646825387145
-0.011679809438201905
0.23389886250360292
0.28801960278658156
-0.4052731437944338
0.1485393278513366
-0.43072025602041136
-0.6110035912146643
0.4665876586856188
0.2664452488659994
0.8325172639460612
0.5577644177033345
0.10752868712693198
-0.04344806605293172
0.20430349209650378
-0.03377299620391616
-0.10155850595074134
-0.16530107785804604
-0.47417763671406343
-0.6108788124849223
0.11712429934791568
-0.49977272800047634
-0.11018644140492473
-0.40995442156298656
-0.36432740694944366
-0.6263121828642422
-0.3029253071098087
0.032287445631123624
0.07400153946977606
-0.3748177498185807
0.43931733266023176
-0.3297764902599438
0.43540480962343664
-0.6254710810444426
-0.04380474125289624
-0.6254060305452909
-0.20511721097778923
-0.3049229881021812
-0.20388219209541258
0.025915681767195275
-0.35821676841323524
-0.017056593275249665
-0.4713539770352879
-0.5805482968529927
0.16891578904908167
0.2189726426562738
-0.1444422012333627
0.15900614530211754
-0.45587114188248323
0.12974720388298533
0.6982749516380893
0.157750428022989
-0.6008221815193736
0.19157655055935363
-0.035020549562974956
0.5629370812352563
0.001982436640005081
8.523155127994064E-4
0.35844669868469337
-0.0667931361314793
0.8476640070567093
-0.020267387311702856
0.238958076075806
0.5156114531036025
0.0677436078352226
-0.058539290633359053
-0.1900357179530957
0.5927466788855742
0.6891344252942848
-0.07870275940777738
-0.7757864578662975
-0.06107063908891175
-0.5872036453229141
-0.8495175130199654
-0.09853857485383777
-0.126400199390019
0.20483962381263598
0.22184319669801988
0.25631346172934144
-0.19136807502476316
-0.3374942476732004
0.025592498249729645
0.4605690928160492
0.46779907246620767
-0.3164708526223644
0.24692920011668418
0.5489892981759569
0.030305602035845758
-0.0030936271853174713
-0.19650647746780858
0.24933039482183006
0.19685434232092514
0.2912702442452596
0.8619315801468387
-0.2664074044288748
0.2490516989672389
0.34380994383139885
-0.20047475616502874
0.3529461438027867
-0.1526754551114775
-0.21982463073901648
0.30666163442507355
-0.14567180715514394
0.6212382116841368
0.5589044058199427
0.5352909866452625
-0.35632120205470863
-0.2154103388767905
0.34646979404372935
0.19372923645545517
-0.128771206960692
0.15749765306151153
-0.29795739010669076
-0.6772836425356094
0.45479495893456634
0.46335157251895986
0.3321161704964155
-0.32229414581504967
0.1532639792952163
0.38365406830327053
-0.1495507410833915
-0.3391627518029503
0.05541672006506815
0.7516284933676854
0.03644489674925222
-0.2143829126940665
-0.7525598851633664
-0.14963057411296643
0.599345160725703
-0.25654372433314665
-0.645330071846394
0.3182677332737027
-0.499115887221682
-0.7190885951144829
0.058429295471860154
-0.5925823624056814
-0.3913426905346048
-0.0038469474595078657
0.22894857437395189
-0.45047701855816824
-0.2016127624534766
-0.34917764837847765
0.7172326754462556
-0.15610559828477477
0.17606777452541866
0.21337580383752053
-0.11678754046407558
0.8340688133568306
0.5764743331794853
0.08738214830923297
0.346202323137078
-0.32425971634857587
-0.5522227502122694
-0.8298980788522268
-0.2766061962319849
0.24091871394939046
-0.550443568350924
-0.5207780567717076
0.5996246861931214
-0.0721748965036888
-0.13566501022651511
-0.7192494487826736
-0.15567378645503777
-0.6343436128635547
0.38235677814202007
0.3717477283320521
-0.936835325342415
0.0898518209210305
-0.10877105469316661
-0.498195267345501
-0.8106870842977487
-0.19365873145085655
-0.5182335613459504
0.07864551823541821
-0.326065658938009
0.2618941779194912
-0.3545561928355731
-0.05192948940884912
0.3319085882300349
-0.0912046776797031
0.5465360860376017
0.3562862026919418
0.10208220044218497
0.27588289870443894
-0.8800993326331339
0.5028134429362179
0.07131906334580573
0.231792675776601
-0.46816851159382356
0.06951121655739845
0.12037705563502704
0.4559720673542337
0.4285566820761012
-0.3035953705436314
-0.37171948920782094
0.39258347947250893
-0.28785698092889855
-0.15043060314683543
0.7518014830792674
0.08332539072233225
0.05038107416585358
0.19650968178773687
-0.686088069666318
-0.5900895757383082
0.6960671401288264
0.8483207806953543
0.2793659464677414
0.8187517394091655
0.1579760029424524
0.009032225779867509
0.35672390832446965
0.21243063544598795
0.5598778002816386
-0.2640305630908679
-0.300492716387732
-0.11504202835227828
0.6295593253446147
-0.6860589791140436
0.07988147432746734
0.31873428256547864
-0.7805106721728022
-0.22296386979270988
-0.16167735842889708
0.30571229325043736
0.37116144921185845
-0.2665768103511774
0.15786373966781164
-0.6112946116143616
0.3448132787241669
-0.32789713698337664
-0.25505005775162226
-0.03385583533822911
0.1280356462937623
0.07609482960715774
-0.05992714431961865
0.3537003639532822
0.27689852499410816
-0.04329003079531035
0.07217757932191138
0.2635717408983663
-0.6821242221736153
-0.2757981939332993
0.420748056514776
-0.8666952241589239
0.10447538691055402
-0.5493799526191845
0.3339781694484395
0.20293544499565874
0.12930108728736778
-0.026405838967558326
0.22232984351201923
0.38217866176198645
0.3982615704239989
0.4860230203073692
0.23363626251020164
0.06073855620124591
-0.12956814208963732
-0.43602475293999743
0.5878091730622161
0.020417164947577025
-0.011573288908094614
-0.4847946731983285
0.3758944227040506
0.18308888082086816
-0.8697488055401446
-0.33909692872592245
-0.3364464264965342
-0.22863411244395815
0.27044126050956785
0.6476400342442504
-0.3024474988218018
0.6916696263359037
-0.07535873869204435
0.10003562159450308
-0.5308846030514245
-0.18430186919489377
-0.03769869460117259
-0.6594839233638323
0.6211808660849557
-0.960380955403838
0.03667197590691551
0.2958671981183757
0.01670583079857968
0.8185899288943909
0.3046314059603963
-0.1390237491925459
0.08735081619864393
-0.27389499665450134
-0.30102026544513183
-0.08108194244470923
-0.5237772259111466
-0.10420532927209814
-0.12154192485242832
-0.35558490890362926
0.6613495949969546
0.40841392084232664
0.19620870224656928
0.04940591491557511
-0.835603205256316
-0.826037786735369
-0.14383516255888446
0.6467231491764834
0.051356399397172514
0.20171511813705933
-0.09355461028684087
-0.658316975186484
0.5940154817856688
0.23153974190689797
0.007151219465725278
0.3021129207150616
-0.18399952696158117
0.8256314910136122
-0.38748332916095185
0.48261325058860594
-0.034344063580488804
0.6562020023388443
-0.1879494977058087
0.33632421424899517
0.02182532041779519
0.4017824633585477
0.5697077221386266
0.13884562529838151
-0.03785837559096861
0.2768005101687382
0.13640572274913576
-0.29502261471328806
0.09770182449202891
0.6276824521963054
-0.5205600324932903
0.37759516309698593
-0.6603751813009803
-0.20525563081304044
0.34886586926081087
-0.6094526357039745
0.8343753797771318
-0.4870454787726939
-0.19795917430429721
0.32056936574221573
0.8831568854921141
-0.04521013909751187
0.24615327596214986
0.46158299495347566
-0.5117353638311367
-0.00286095207479109
0.40863068325279017
-0.11870150598468321
0.41785855616064915
-0.028821212269320884
0.3620994274468766
-0.5823650293279639
-0.04719794697780033
-0.5120931792994831
0.7250785598832848
-0.18536142220855045
0.009509375448947477
-0.6349366140965238
0.04820575557171414
0.24622827458506857
-0.5249533624583849
-0.011525174998159637
-0.5927137569142653
-0.3916003763640402
-0.4561713974380148
0.09062007883711047
-0.5412099328321456
0.588506474757144
-0.9680555906196167
-0.47167786562272995
0.024636275354244952
-0.5488289625647008
-0.2800947470553886
0.635854056614755
0.5384544793114543
0.053464474197250644
0.1584078522321305
0.565691561669431
0.49294326212899064
0.03497360225813628
-0.23825431067335234
0.30838688784473156
0.3543336072303107
0.16943643434533304
-0.2721083943505429
-0.07766681194479952
-0.0653020630514205
0.17322082928538374
0.2640174889672888
-0.3222208313112772
-0.053659220164428256
0.5211536185644758
0.07350192237192543
-0.7959945086162415
0.49184535093351534
0.07027369621573232
-0.3063454078385939
0.09067021026689503
0.0850068611253475
0.9176463252211846
-0.641520342034011
-0.12327890033433886
-0.24520523458108368
-0.008092758101220454
-0.08796789228259627
-0.24450169258830545
-0.15044545920559105
0.6357736621249335
0.09088650560104294
-0.04867092475473195
-0.2447979809379922
-0.14103880910999023
0.21837206773629037
-0.5428432301795826
0.3493262981036932
-0.6796831179483888
-0.8754701150217284
-0.3414881023160259
0.02207659116146521
-0.08378675115099166
-0.7663739134958247
0.35631103132442743
-0.394811433138051
0.5788279409858227
-0.69203190472326
-0.7433584045096187
-0.3863530697655627
0.2914573415707329
-0.09445400839110174
-0.1388403154924146
-0.7987659340482542
0.7542901925596837
-0.04277297354373333
-0.4202644694870349
0.8429680929915543
0.23920043962701953
0.1093246647193876
0.09022340625321468
0.8297022061272517
-0.10500842414875511
-0.682750351145636
-0.35639254136481047
-0.5893630490575137
-0.1374667521045142
0.13072886814013795
-0.1447724777471956
-0.1053110308346763
0.6349533299834457
0.6011007169208876
-0.14677853854875278
0.013289567010029119
0.7287255876451935
0.029357409483243474
0.3945252990321526
-0.0878563490067531
0.16118704975517728
-0.18708238706606706
-0.36350352482061477
-0.37510049572098403
0.10266537546070642
-0.24278829192569928
-0.9081432698415358
-0.5083658358585057
0.17953847735126693
-0.8952348066663558
-0.6009358754048578
0.2864216378858223
0.1908022469837949
0.4904078284765717
-0.3128272496431407
-0.16133415932735817
0.5704110147177589
0.41503835975821246
0.34229563249390216
0.3506892310143508
0.2794749534299714
0.22703902736943937
0.11869845030455387
0.08872079386614962
-0.058834557741827886
0.30246883978262695
-0.2798080490132182
-0.209632010222067
-0.19572400511748012
0.27945404963693854
0.12319859248201848
-0.591934468433691
-0.34612739828611994
-0.17385130386995085
-0.05715977186239829
0.5253726545960951
-0.768330746462995
-0.4220082960307251
0.5322457543436504
-0.23468160196061094
0.16115134261053782
0.5217553460937145
-0.65803834092602
-0.07226772325755426
0.19368552573814157
-0.037761921582089686
0.359183257533505
0.056386836917471816
0.18273350323690685
0.0345774931463001
-0.10525247260097514
0.06691071483952166
0.3843417526126891
-0.14759318000622945
-0.23431098521911764
-0.19831818303322313
-0.14828462013251664
-0.02225868636384798
0.10016456409966235
0.6292009647953489
-0.08679433673080794
0.04494269866058409
-0.3286245972875228
0.08140970302337036
0.47209891047483166
-0.246510489349695
-0.6312911685555274
0.37300236310944945
0.6266262594367612
0.10847037526987358
-0.4926605323275832
-0.5227059220502744
-0.44728728663107
0.1959957444291932
-0.1589649790767289
0.8482014497919236
0.030222935669259154
0.6179105858627505
-0.4918449045764284
-0.23087516419754006
0.07287615409035808
-0.02992101255758306
-0.06447910007985244
0.21848260472177083
0.21578552981243249
0.03718517495859741
-0.11797020151003912
0.08382025679779592
0.5806209733067406
0.36147728403607005
-0.06648540830357885
-0.26843982485718965
-0.5922991783407173
-0.4405025119228655
-0.02985156302695513
-0.13843749727032895
0.3399482968329993
-0.41228201399666653
0.6859009264654018
-0.12351512514578711
0.06114627139257045
0.12925685420665645
-0.709790590458582
0.45274496910909
0.3502082407309788
0.008514796165982497
0.0029683730953079523
0.22807321736394692
-0.14733588582761803
0.15288359045544886
-0.10257078580834122
-0.15192766905355526
-0.528089245881018
-0.21712407606639728
-0.12132611232812862
-0.5115318143606977
0.5399651867366673
-0.6427683099659169
0.12502494113340223
-0.0010141171402189286
0.21245613791449602
-0.1796000048787011
-0.6207998785591163
0.3658295918046105
-0.07770302274597429
-0.4697989376222803
0.3571953893334753
-0.7268076940281252
-0.7808196923992601
0.768795635343176
0.04202043363091834
0.45286337745895944
0.2912164043689559
0.41991007870589026
-0.005946018154779131
-0.8442443063783776
0.09686872678951275
-0.14653249493015189
-0.7783380689388197
-0.20687151794282965
-0.04587601912474987
0.09271841651872392
-0.6222333264938545
0.33848728099865033
-0.041534891744034685
-0.2882890886195081
-0.14266950358429553
-0.6070080763869047
0.5278690078118868
0.7185494763381277
-0.8355339886768482
-0.19869461241454622
-0.7729908867898329
0.14105068616498184
-0.1063050063398383
0.3610190957279503
-0.03827866379705791
-0.488975133056486
0.6749485675714367
0.19882113626797193
-0.3374229472888929
0.3312734387984283
0.11845452274165177
0.26930755969470044
-0.10402938627898384
-0.3636529357187078
0.11073435680073496
-0.24022163122070206
0.7193225636596234
0.2934974852501604
-0.5479418398533397
0.2615359686400699
0.014877105696507242
0.12467642422394132
0.665280338675096
-0.5378312421393663
0.10998895591532853
-0.060009110936886656
0.7681013466566962
0.07594557662669088
0.7173378726025387
-0.5637663735290782
0.6460967463841808
0.62308121276486
0.7808592574753032
-0.08365448899912498
0.2771876122886824
0.4798494037782991
-0.16305910243126964
-0.540877717641121
-0.25702087700528564
0.018091583080955154
-0.5041009842705538
-0.1768450242109394
-0.07036891210016039
0.02307338070562459
-0.44131208101271324
-0.045492464498592566
0.6156364810836118
-0.3854644869173911
-0.15211796210008455
-0.16792215269356736
0.08395785787541776
0.05297660548831851
0.6224017488983928
0.13134160600535583
-0.19020653380006242
0.24531526430355838
0.24874732704037927
0.7403017295027706
0.2064076778016103
0.27767000522287555
0.008500563460920471
0.68389332408598
-0.10563848618869154
0.4196397181420124
-0.822908464579624
0.17974630635903266
0.5515319135800947
0.8739131422123533
0.09087933514296886
-0.06830753713994164
-0.10224541320373826
-0.9300205896885964
-0.40231403420533773
-0.049872079200198205
-0.3520907602177321
-0.39849006231644235
0.6938202736921174
-0.3319293250199683
-0.6746884228475468
0.753902888883663
-0.1813111021045829
0.10653498581513343
0.0869576723372677
-0.48019005962347183
-0.05135692478581752
0.46514275994184295
0.6061796715939656
0.6519962947700997
-0.7834230149023897
0.022795586182790095
0.3076840349291976
0.3268875863044717
-0.7191033320078198
-0.09442431042926697
-0.17446457557514494
0.8137665549446702
-0.5179320376274784
0.5202791955518209
-0.6478909410668245
0.041608796433231565
-0.29520494250852913
0.36728275191785065
-0.3774190841107651
-0.28517087496814175
0.1436353020188702
0.2671196016312858
0.20218234245355282
-0.23586366143466553
-0.36378618324666046
-0.18952323551610428
-0.16922052651243624
0.5268031467043838
-0.6056095246983271
0.5175662720515936
0.11854496318334029
0.2160805880090072
-0.43247136174814804
-0.19317573552549505
-0.03810757449306068
-0.1287873441843429
0.13936240623055407
-0.6527327271724561
0.047018071440825815
0.10075601144161805
0.10747775395124559
0.26944379660588336
-0.003046483923628829
0.41678551429172483
0.03003780960572855
-0.06595868086753687
-0.06990760712236077
-0.6704069811277285
-0.04528326909505287
-0.17108619380527768
0.5038573187660109
0.7224341033154537
0.6189883151578612
0.08861295959152482
0.20529595439404058
-0.04415350194489098
0.339661852098594
0.4032852113525994
0.12089084367604663
0.11379440655410678
-0.6147177305533488
0.36878021342772904
-0.3960834211205021
-0.06459631936677201
0.02183551051988697
-0.4371203225303957
-0.32702777780853864
-0.2852739877064282
0.23178113449732585
0.22748824205277474
-0.04124479309583218
-0.40830543495572297
-0.4753181299948187
0.6093590922730178
0.3073749605283215
-0.06264714979912978
-0.44624479737202294
0.5987424235395737
-0.09432760492754842
0.15715430081376713
-0.5153317918905219
0.2375123522021514
-0.10975067403114402
-0.714311619016321
0.09407223608628887
0.3006562507997965
0.1859970493885531
-0.6781639445417754
-0.1112908066160726
-0.304944219688155
0.2185059975275157
0.46553761897468926
-0.47465738001183516
0.4216761201792907
0.33952799013073487
0.40509247981560526
-0.024983433757944207
-0.7659376975904528
-0.28888671366795493
0.812502881474273
-0.0228808021950605
0.29919019126110924
0.14526764424542793
0.03544426881814344
0.5012346506945426
0.3180735226874717
0.1290071484135643
-0.3752837667780682
0.6758906607768261
-0.5417995136137603
0.2041393141366752
0.28255828635876046
-0.5012615427531741
0.4184983690908134
-0.3621355619156852
0.10846089019557703
0.49635342234715274
-0.6270540695568776
-0.21215406276635507
0.08698543402815262
-0.1875622183723189
0.05847156185812785
0.47992479151218526
0.8243597196214685
0.28354275765436465
-0.9211544012862061
0.10041597472977282
0.7406222618958395
0.8613303482844327
0.049012140561314754
-0.5165335800514007
0.5882584031791516
0.3370648956501172
0.3358842665704094
-0.004492274229625504
0.23614290752749834
0.23960144927325955
0.07557699467573253
0.23063943973969747
0.2941688344110722
0.2792902461701142
0.7904427997506097
0.24949682921565075
0.757270669146305
0.6033564962379311
0.3820148525907012
0.340568201437104
0.3139059361124278
0.015053048659371404
-0.02647462041091886
0.22375711463376224
0.15011569518910606
0.021723646633507676
0.3082468593415171
0.0863608873653623
-0.016609681419778588
0.13971040704711213
6.709703347539397E-4
0.1288824080285632
-0.15763554448558573
-0.10776146008404464
-0.02811193000694001
0.3067581880973884
-0.18894814946178917
-0.016148968172146172
-0.2575349006317773
-0.5955056747748076
0.29459524955483773
0.3776206919556129
-0.168475518857779
-0.4147086751956084
-0.2299819002885779
-0.5351984752631298
-0.23916282155591795
0.49857858698362567
-0.4819985282367123
-0.20956347377959672
0.18647898117262596
-0.1303106639122097
0.3783854560210619
0.3579998483869168
-0.41121663119640073
-0.21011804177254367
-0.30641246942478195
-0.09910781957131931
-0.30602554317559255
0.16220650429408223
0.6655702644550432
0.15242268836779727
-0.6252165301252719
0.5073929287150887
0.5137176106432272
0.4614200722569386
-0.4527061572289497
-0.17386956939342046
0.13990664209941062
-0.15666771495349163
-0.14647924797016554
-0.7322769911283962
-0.2621520519142919
0.5646378268412535
-0.4532311763229685
0.4478601125793119
0.3980773610796079
0.21936903491399984
0.2751496967876572
0.3276379087091281
0.8587865940708489
-0.38586481940788075
-0.4230740065288294
0.11368641430159837
-0.0923996632642361
-0.13935819537467464
-0.14926501164595873
0.2893658013025797
-0.07552205213601437
-0.07724080164311836
-0.5108857976961321
0.62848604097901
-0.26137624160853645
-0.5355109531293627
-0.8301164527961453
0.048866456511507894
-0.3540085313351853
0.24799185224383546
0.17660418210167983
0.08970113169975169
-0.22008776508738015
-0.3395185393498593
0.237452639646883
0.269910138036326
0.635151313237731
-0.07320576348356367
0.17706450896449233
0.008578296509452743
-0.8367435419346146
-0.10615604840608311
-0.2011882067125641
-0.14671416504415413
0.14147861439269527
0.47040320433744776
-0.1547836286526033
0.48127405653201294
0.9427865848622768
0.038516145665508095
0.27279046618194014
0.009194992061125506
-0.34848611269431606
0.5872129473303028
0.1565072019438774
-0.5245359306734881
0.5746666177422176
-0.23084794834447042
0.3911779165509892
0.33378095531642205
-0.3203463547923924
0.0814000397245409
-0.8674046447597007
0.38519336231179246
-0.10971866941621233
-0.38936201592625896
0.10182687118094269
0.3729994950618989
0.5528590587874042
-0.3107337483308662
0.289452718420546
0.40105341169784925
-0.0655661723371046
-0.19849479731183373
0.44309594437222477
-0.09777689190024996
0.223874068838681
-0.24795638969747646
0.010900415214593173
0.6065126859774498
0.08165197950064218
0.12181452525735836
0.5060910023523713
0.760597784227601
-0.3411638774434633
-0.21197577685832236
0.2577083281714504
0.6252436338170406
-0.16326868127743843
-0.7180633905848837
0.14667628315502068
0.6716211134293155
0.09164411705797604
0.08306542279695861
0.10655563998481754
0.7969446848308902
-0.6283323984827021
0.6929087318169481
0.5104285282214863
0.1960390762833668
-0.2500496037686666
-0.5693197954521914
0.3141517316035093
-0.2895152538000352
-0.3857839703009076
-0.40900678375329835
-0.10780571070383083
-0.1255397526092462
0.13603615840330074
0.006672625268984739
0.45983223476624546
0.2774794309288561
0.15722337460475855
-0.17959964372746684
-0.1418581636520474
0.38212304054031976
0.020243630941045532
0.8425887894787836
-0.022310045603801454
0.28830507051216503
-0.5613653528469792
0.6405480316810572
-0.419562631683573
-0.3937719071698145
-0.17864414664045403
-0.740948949757686
0.07621865593309174
-0.6523818857793866
-0.7927960015662359
-0.05051913682636481
0.07632528108473913
0.05456687003559291
-0.07503630335647271
-0.3061218746183092
-0.4421247490910698
0.6669514014538003
0.6264977528485489
0.1186242251231624
-0.495020355044399
0.1375403760427566
-0.4684493068156276
-0.22864362493908752
0.27075892918044386
-0.3520272109328634
0.22857582190100278
0.49023471781026984
0.055649037805123536
-0.1264972880933668
-0.513052929271912
0.10580217716270435
-0.7142852816496932
-0.21723617154019603
0.7788448451377696
0.11438517630794076
0.019150401507691293
0.03219097899803802
-0.04588983756830811
-0.24153078461484812
0.5229486810963859
-0.4296828275079101
0.41867941665876485
0.012805714451645023
0.6680006168959024
0.6811281592411017
-0.052537353177779966
0.7958049778206238
0.1929818053651755
0.5701627546693291
0.15994146169763435
0.08186724098167553
0.7530419697383713
0.040417795342946566
0.8539890413630111
-0.3347972137715517
-0.4432928845750552
-0.42436038235775
0.18018106474402973
0.594861116836342
0.08859033461519328
0.2036722240799601
0.0526685093249295
0.6820234753398551
0.24925622254650448
-0.002592962537329435
-0.06490965214145028
-0.08551965407984197
-0.333396514051561
0.512256035634475
-0.22977201710543016
0.7192946580693693
-0.4390853686963768
-0.09898273206046482
0.5062742780016657
-0.7036774932129997
-0.18433362651774943
-0.10070015076396688
0.5518495613702146
0.4786804865293145
-0.8559322232502922
-0.17793058544279583
0.7443539673815084
0.3039814431456729
-0.1743676902394352
0.4792383894615909
0.6056749872796557
0.06660373304368328
0.2494344402893668
-0.4054768797568342
0.33999825868287037
-0.01020503061385103
0.06504310228021937
-0.5164595465716952
0.17348106470219427
0.4314305359322008
-0.26188029462262996
-0.257356532143448
-0.20180204392897294
-0.8181039479405373
-0.345189750357659
-0.25688227502058925
-0.3446393626204449
-0.02882318815384155
0.40975134274263314
-0.5161782035463883
0.3486837990503533
0.6948027823749392
-0.12022259388173762
0.43690567211042697
-0.5415094374218662
0.36385687675235234
-0.37051748661031103
-0.2211274701131638
-0.22887439966603562
-0.6178936104120689
-0.4585981857906134
0.02458382624818256
0.4907301442756795
-0.22563445861596065
0.00834088979035319
0.06872983283861367
0.2890310654800533
-0.42091015471953075
-0.05468256810716142
-0.33515472113863676
0.01368855315684303
-0.9123720609015072
0.2717534811251555
-0.6252429828778061
0.0659482870540774
0.029874762140775113
0.07397934917017485
0.2970959069266416
-0.16932273651324814
-0.3261649201894601
0.25714766233523456
0.9029157315323454
-0.6198409543220976
0.5445746121216443
0.264848013547179
-0.5573009790256924
-0.03310972767313358
-0.1817065606669066
-0.5907726013094436
-0.5432955755135541
0.03168442688448918
0.02028692368932339
0.33628626422359864
-0.07803161888085142
0.24298939221764504
0.09546838633476207
0.8540877172211448
-0.15910356071517873
-0.1033892311221104
-0.08340534959763479
-0.6376040059801621
0.1594106591038673
-0.052989138943089875
0.4243087028692819
-0.3178448691747957
0.05589981378160669
-0.4238845886598077
0.18339639339530822
0.10976506430982647
-0.47593147856536433
-0.21601669820254643
-0.42084665820610756
0.18771602628514938
0.6601296743151445
0.5962515774282644
-0.2194578811129454
-0.24061477430116252
-0.08902014098457744
-0.029902720218412823
-0.6202025806043496
-0.1612262353477636
-0.3336179764093329
-0.07352986031897613
-0.08540907730089013
0.6358712125918135
0.16254542329713628
0.7655720742930326
0.691626272293517
-0.2958024774449348
0.1381002034744696
0.11790889323130604
-0.4904787187744719
0.2125122311846105
0.17724790528783896
-0.16950442768396135
0.3270761305866654
0.24615824800815178
-0.10580881243965923
-0.6136461451393822
0.2124620407362845
-0.6492086295776529
-0.1711409406531026
-0.5603485489064028
0.5984630682607421
-0.5530477289989927
0.48106885389537113
-0.22811432305383117
0.01878900832438779
0.500186764868692
0.6157503916830404
0.3578678756207262
0.03448650316220887
-0.5947862923956785
-0.05717211568206615
-0.029865229577571872
-0.7263892230535411
-0.05202890300094931
0.008692502115540623
-0.8182838936907353
-0.6783206322711021
0.3994283864003606
0.06853337451250907
0.02313078892508602
-0.49275187571241896
0.8978636223521705
0.2130384833158453
-0.7506870008535186
0.054119117035083875
-0.8679752159349456
0.08751835831425969
0.11590779977163779
0.5049414591866924
0.14167577959429511
0.4618322988767488
-0.4164750801310879
-0.415796894966041
-0.2820763039818265
0.23472691645362476
0.6281644457780717
0.5449686826593083
-0.0645006036729141
-0.402538058791501
0.34365107874964085
-0.1306103882205687
-0.1472126856933117
-0.34404988700713834
0.40275071711028443
0.08141360623126215
0.5004003493428065
-0.4827859842463701
0.09636936304777147
0.13427033253734144
0.3672768077167038
0.3739234050607657
0.7421460591004024
0.019457402408801904
0.5741740682148446
-0.2415451589317259
0.03754036373969194
-0.20065630943477597
-0.013923971905386745
0.4694404545198487
-0.4899366453072207
-0.12097439874396454
-0.13347831220169193
-0.056449360889210376
0.10246859842239632
-0.14855984028400282
0.20189553253234016
0.3691674355422867
-0.5107746996904361
0.13958240641897246
-0.05742193627525982
-0.0015588680126560547
0.2117394924037569
-0.0576174475918213
-0.8485574468170802
-0.1698308328332997
0.20160658073644822
-0.5222201102350644
0.06864528131017167
-0.5058567662917172
-0.301997725941331
-0.15521280546744487
-0.1351884302509484
0.6616427571877337
0.10117300151432362
0.009785753449632062
-0.6621521390483992
-0.5363145331692156
0.025279711643451885
0.13384496923774536
0.48384224507663054
-0.12087370202405323
-0.4379313005435883
-0.5719182986312957
0.24522706215696222
0.045747413565760287
0.26736761430414036
-0.612494028207454
0.061763070640120654
-0.26150472589075574
-0.12247336099065154
-0.2554733544485911
-0.3812894487990085
0.758484653831335
0.24374431075865077
-0.2710018476824938
0.13226412746613148
0.5046818925442468
-0.7110702714849744
-0.2539375246979423
-0.08465630772484534
-0.27847650331648877
0.4491401752020697
0.03919731585434594
-0.3584695523432989
0.29601982604342775
-0.25901923885921063
0.13930163996455225
0.5075098784913021
0.15078171809880092
0.23414981499915377
-0.17660215860614914
0.15463401639041108
-0.23669705743947866
0.7643652995501697
-0.7382154764732826
0.7904625898605451
0.31082650026439784
-0.639400669574653
0.07643922588575047
0.8569384252223566
0.054232292591882114
0.21658804736879433
-0.1286699867384996
-0.7239679035547205
0.14805830961687894
0.4594976901639083
-0.4028611588554367
-0.7480232452281048
-0.06676816705733535
0.2003188082572921
0.9087583818895448
0.16862674981003567
-0.652347927819544
-0.2464226474811776
-0.16451016916087635
-0.045141456874314034
0.255077118418967
-0.47426318805063383
0.0720051981764368
-0.21630491591197065
0.16327281315480857
0.4842379480307851
0.03685031724572552
-0.23474069778309525
-0.5763561102420293
0.6396818952407918
-0.1934909633440941
0.23142920199327283
0.3348921987909066
-0.03714067421555611
0.21003983189858477
0.11436258683934664
-0.044174204365769465
-0.08082401714871845
-0.028564483823161346
-0.18529170984572085
-0.8177083249460185
0.05565588913073194
-0.6099044151130629
0.48632258350064084
0.17984835404990152
0.5575932074056765
0.2085467391610497
-0.06305427453137391
-0.019792748928341042
-0.12169693588417096
0.07968601868069947
0.319450036281265
-0.15041900092137472
-0.40887507385076727
-0.468017191680691
0.1622580143630491
0.2847279367140022
-0.3292391731108397
-0.7610604375569472
-0.3736503857426331
0.5258693549404285
0.7202857845540491
0.06586613943572506
-0.7288983616336168
0.4476559583861537
0.7188239241509691
0.14200351093094865
-0.4183852494555623
0.24158053830805293
-0.07867542419733053
0.07944700192394416
-0.5161776215299246
0.5393069305158553
0.0922992172348468
-0.0072982427452791265
-0.7245235391123336
0.00255754761395853
0.22383349277688347
0.49807388126103813
-0.20931111387019063
-0.33572545492678735
0.46036841215473123
-0.10067653336217484
-0.050267651731022656
0.06276086245937562
-0.5030935654828655
0.0723825023645478
0.11374165188181876
-0.2899431331420024
0.24714735673557242
-0.2572504726459101
-0.12452281931522458
-0.12998881421756436
-0.39934970212421683
-0.13858414779518063
0.17717637045955537
0.1264236390363599
0.20269782676267667
0.6167330569943779
0.37184164616464976
-0.5322649133567688
0.7406938431714816
0.3121871574667057
-0.46141020653124953
0.03831008793756541
-0.070607365463766
0.7231470004116417
0.29194372249834544
-0.5591742333581243
-0.7964851860596931
0.18755614461634984
-0.06982344176016642
0.7200043906555555
-0.5344812762600273
0.5504875970572636
-0.3904872113102128
-0.3135932476953799
0.12221305275015171
0.12451333138268572
-0.1949364673838847
-0.2424988852964911
-0.07779061716886937
0.28722406445221865
0.07337320221139165
-0.5930763252818996
-0.5665220883723023
0.07705503889770526
0.5776685070543679
0.7131060264915606
0.1276119947783888
-0.6274199384794561
-0.18634183512250269
-0.2070569256102729
-0.7817070060484037
0.6442589389402099
0.408616159858997
0.11246353332316639
0.04721600686019889
-0.7770466315158194
0.09847653837417669
-0.42751168358498826
0.15185571716079715
-0.1466852810181578
-0.39074534447136755
0.08679213555324461
0.016653596389992198
0.197480182383726
0.6879658849674286
0.11945411695738173
-0.36536051088353394
-0.05527373827021398
0.30045598186576206
-0.08215400471468615
-0.09081014192579262
0.6254615936410741
-0.24837618974252096
0.2498695011137333
0.06576653996822335
-0.08334788172753316
-0.3230949170815355
0.7380502569960844
-0.642044170706138
-0.47277701099744396
-0.13755835449380982
-0.7033392634679041
0.6422454900351747
0.24996504187383728
0.6016446802971743
-0.3303969094040773
-0.3892576708225164
-0.1463594091729199
0.3242255741723614
0.03390982242305518
-0.5791295753504717
-0.21383151728426364
0.4650934777362976
-0.12019692202785204
-0.21676661840875233
0.13473287386350452
0.417527099010751
-0.5330673615712421
0.5965699389771665
0.5196570173617151
0.6021565693495055
0.5432365521163813
-0.08284955886837597
-0.24911284804054412
0.43939747362380155
0.46932963472058686
0.13749823827230256
0.164797044222746
0.11954788075719125
-0.28464332217363075
-0.28861756204675093
-0.41946507004206146
0.5905028874741453
0.7343313670601156
0.20128304868757851
-0.0912244536030834
-0.6567658627456594
-0.04185000690628349
0.36858607391340126
0.5230543699277206
-0.08616899055627769
0.5855304992543195
0.6920820063030949
-0.24656244849882392
-0.6418373352023925
0.09807918363905321
0.623004775023671
0.1345081334078625
-0.47397605220770955
0.16494947415598804
0.03114457628156364
0.37184921526088366
-0.7628459932794612
0.05998849655450078
-0.16407200051844895
-0.6052801999116513
-0.7810227312167012
-0.477724808271644
0.38944868636955876
-0.30908124356391276
-0.6159219709987075
0.4681842569902678
0.23353770462336607
0.3896316287988032
-0.30004421656547475
-0.3987560181280314
-0.38640797133567517
-0.8177163185910385
0.5120087950578174
0.17900043730076676
-0.42145690280719916
0.265225148189668
-0.5590891993274604
0.03637691327904946
0.32966324270287306
0.3409892309805572
0.34329921396641305
0.15855923883600875
0.1525383937848721
0.14771343889278765
0.4277977101696229
0.2391306425911114
-0.5841082316161346
-0.43111558479618095
-0.4224655467727947
0.03383566757366374
-0.13506757113616474
-0.07887670694549342
0.2927630854878215
-0.5861573475338596
0.46973042833304135
0.048043358087707766
0.8701661181850011
-0.3371845220597225
0.37271858439234806
0.4605436114389026
0.8451365165547166
0.8238056222915671
0.027381743949790316
-0.24536140421758512
0.1094867659360852
-0.14618028046032827
0.24332433134488463
-0.020031465731773057
-0.6930821980549721
-0.41982372226464026
0.15881306836131304
-0.6349706188353108
-0.14009990684020246
0.7082643863578568
-0.2075059467128597
-0.44944488804692184
0.5569233029945249
-0.8480227152778625
0.3322108443729579
0.8375902461941204
-0.05702632488657988
-0.04816290149826907
0.10587975868343014
0.06725400156302175
0.8603178120048374
-0.11068374914571533
0.1114245635408099
-0.05938040602914041
0.3204580623924962
-0.1667304233759882
-0.100251091514034
0.14697683789795646
0.4269024453548257
-0.06809600647350089
-0.11366735688865548
0.40547795595028324
-0.32432751010207583
-0.13008742814092578
0.02416560217565933
-0.4865988244934756
0.03502109175548407
-0.6751001257708564
0.3229875800461791
0.18935411338046804
0.2659505191555477
0.005749741186349966
-0.025335013874082102
0.010585525856310007
0.04061481144843859
-0.2522379773064478
0.69054638526908
0.2688007916747396
0.9639219450035903
0.21217627252648297
0.5265194092529932
0.22269559103336223
0.32763071272595135
0.22974369743950573
0.17852114637292227
-0.612459705741084
0.3284775463532634
-0.044383153876751624
-0.3261526817940783
0.7748895625674712
0.1167637328240082
-0.13029586676310712
0.508915905641088
-0.16105961744097352
-0.4616261708569033
-0.3133347244460296
0.17900724490606457
-0.07860510378019336
0.13467723401558807
0.44432129062470616
-0.041077701626979546
0.4480566442065226
0.655841401999329
-0.19295116395085146
0.32265209857242927
0.03459192093428731
-0.25928347592674417
-0.23422081196974365
-0.158782271180539
0.2017615463646677
0.4585847301301656
-0.06504280487982628
-0.20839755841074115
0.5947577813187499
0.7289518806227989
0.6706355916313856
-0.5564178824850142
0.6591335808934542
-0.3031597743877712
0.06815656575305085
0.46929252581126335
0.38128370059456207
1.0354918463280245
0.6029144277437742
-0.38972453995716283
0.3551607833924132
-0.38135115868461666
-0.2364251009685949
0.3822904760724257
-0.09187426810369448
0.14294934297737483
-0.22589185495526243
-0.4556647228092586
-0.17848739693652604
0.6219440120503418
-0.619891855818972
0.41548078325520416
-0.33827598129970426
0.019902290264326328
-0.01510568592706496
-0.3689081280823471
-0.47511412824480004
0.620423097295171
0.08434388113387303
-0.02009442316461818
0.03773910008452641
-0.5616701292336909
0.17460635998062413
0.47636319123453363
0.13830922964821324
0.09911349042918793
0.20844672330323444
0.23436838401643856
-0.5741129193844832
-0.2774688512555633
-0.7811884130634416
0.44155338499047314
0.046753687483565676
-0.3438277061792647
0.7636813480857564
0.690905501348039
-0.0172166871300512
-0.4806021262277286
0.2394180525430386
0.7100741158854007
-0.12235521741595541
0.23979166455892253
-0.6048880492546658
0.20605141046487063
-0.5108286075275029
-0.28350679800845213
-0.42931791885335924
-0.5787660746125167
0.07618965748702078
0.3186997715161417
0.14606508131920692
-0.167106169704074
0.21890853989748293
0.42819324583719787
-0.5749947627690378
-0.7663851777088654
-0.5189035449447337
0.30001321375020384
0.460358322711679
-0.21035882091617453
-0.03344833061665364
-0.1233635487674456
0.25947810016233597
-0.4997283948260334
0.6345322911790461
0.39786360911323254
0.34720109098924423
-0.29563750489478147
-0.609125746863177
-0.7502504520899479
0.1899775990860565
-0.6589520922859596
0.7757102287968696
0.3841332351896971
-0.7267854080508941
-0.008987887933336824
-0.20162889699725656
0.015107506463715281
-0.2613084277484772
-0.20483379688185588
-0.23321495997867991
-0.5956161208079175
0.8365273346221097
-0.8591678041678571
0.5676052185773299
0.23797339525784736
-0.14932392300822483
-0.2681844461601264
0.1583867949072999
0.5141536715054787
-0.009694309511772484
-0.17287488161917164
0.1154769422884806
-0.11042012432835824
0.017955295652345993
0.20471224676072475
-0.31708028698684143
0.866447336094321
-0.618284928140319
-0.10020384298368412
-0.08018287174679394
0.05776405065615031
-0.1260192682414209
0.9080792885470002
0.03046258419174741
0.20673301172743508
-0.6355590298655137
0.08720445536129151
0.6275199198687643
0.5147288907523976
0.5884638236742269
0.1337657131057387
-0.35896464579389764
0.3202649986205772
0.055632040366476065
-0.42679213616465916
-0.24129424436079805
-0.5604852618701828
-0.033466321963168566
0.13343621991443722
-0.6007573272694198
-0.11885038805820669
0.22582632275709746
-0.159923115027228
0.13731035304610273
-0.20410564924805008
-0.2768785005718307
-0.3436381747252579
0.2745875555028986
-0.16315899721848803
0.3283494738239404
-0.75054768177433
0.5363812240526339
0.1746468899688336
-0.28458919691928164
0.2967685631576199
-0.08750193901964151
0.5451424308260603
0.7496136084939766
0.46185557875649585
-0.16714331547082628
-0.46592479221223515
0.35751846180183744
-0.03867178229071799
-0.08640958547621186
-0.21583827500662514
-0.22826402254676503
0.37863944777561453
-0.8898398456740146
-0.5848287763881878
0.09862350634417649
0.06968281111092833
0.5431418624678057
0.13394763920307917
0.014267236547123585
0.0684859069632906
0.47822663749738037
0.6284796989764649
0.13068065696098485
0.09459811336245061
0.2220615461941503
0.025737590595149462
-0.006305670519487605
0.010273903861092087
0.25781523021212893
-0.006350284080449603
0.6828558057093951
-0.3529976451846667
-0.09989425596948465
-0.36482266827758125
-0.051809039944392454
-0.07773773640127409
0.629412337210212
-0.019312081095053335
-0.29150268489123793
-0.10730978712578831
0.24487870183945704
0.4057394925621739
-0.49693801838542606
0.1770217441180041
0.7651678988406165
-0.5209377592935935
0.3336492720713875
0.15265126233529935
-0.2122113967535072
0.04883247043272987
0.1822072782574159
-0.47650695795082454
-0.6348882327798847
0.4483354368342991
-0.10476643057165524
-0.05131920989652916
-0.34891284933004707
-0.3667247763759025
-0.46077295653441763
-0.3188099489838253
-0.1695982215157571
-0.11854841784558601
-0.15483893552111772
-0.23296533002136854
0.3300506699644514
0.35996225566635454
0.128208449642077
-0.10033062978239393
0.08338570648330235
-0.22658550042305126
-0.6404684752963355
-0.47143416234729574
-0.7012639904287784
-0.18498132562840264
0.45455041182972844
0.10505261683029077
0.15225484512233867
0.8253460450750383
-0.0580971401640652
-0.30039355460307626
-0.09665468820632761
-0.5726003364352882
0.4609719945069546
0.7894813463200031
0.7561561255764779
-0.9754983238543511
0.23899709860169283
-0.11727400609423744
0.3069065671872522
0.5798732113727006
-0.3438076853486328
-0.5672531749011964
0.5707911094798883
0.6452805669044412
-0.558202957856222
-0.33789561009208735
0.20738034078533596
-0.538923020012665
-0.1484298918600011
-0.15827844710053107
-0.342461620542587
-0.32096619497853807
0.26145066574188447
0.2450755503826485
-0.05737568768835043
0.6566278710141777
-0.6781627885698811
-0.6617612395261426
-0.009553977125912994
-0.3979223147732528
0.16989268325739593
0.38004844202370247
0.4346134615550742
-0.4552869341193616
0.4738295783562324
0.3948647274420446
0.3375129534951541
0.8286983100541219
-0.03662431741637895
-0.3670463688457919
-0.008124245879443714
0.14516139058769306
0.2935227393022548
-0.12176477244259576
0.08987020580871052
-0.043368293496996
0.4292696853633219
-0.03343186810175151
-0.08525267477899201
0.6161635707556763
0.40025416466945285
0.25203440774730224
-0.2324256451422659
-0.08518429431771513
0.254926559341792
0.2718234428528681
-0.5477742674493866
0.25249047518388756
-0.42295742844704476
-0.20823269393374344
0.4290458883781454
-0.19519686907883682
0.35224406814329523
-0.4945501556487688
-0.0032577505343211605
-0.6203461218273436
0.4600983377767035
0.710041960463009
-0.050785360979547445
-0.2939405374098949
-0.2895618395155831
-0.3347045754365179
0.41176856680999396
-0.2996791522844269
-0.7388799433093635
-0.8665092300459186
-0.6545467062431325
-0.2666172796179296
0.16475371168013864
-0.4152654485804654
0.14187071102863658
-0.22903592801533634
-0.8731395723600117
0.05248961764005544
0.1245194622957847
0.24315180064009712
0.05674004347108952
0.8862469935310319
-0.07487213796639047
0.09837931884892792
-0.6445119122786167
0.5550394025007165
0.24393712118557886
-0.4391979378195301
-0.030853641524371977
-0.03970054984200136
0.027177135330825886
0.04512693053418835
-0.5065444038188136
0.04161474733115178
0.33471085773283105
0.3099111780898419
0.24824564465340582
0.4045195929592009
-0.16545562679871728
0.12991721786927168
0.12192982087368387
-0.1909778194163474
-0.15975967946961223
-0.19144055832584395
-0.08963093479800399
-0.42662134615440017
-0.4898168410311301
0.9041337695328835
0.10873664684420074
-0.4533193354075855
-0.2349675705368377
0.10385112140621444
-0.06042904077545497
0.6084972081272975
0.026068392876740676
0.22248395592717196
0.09328873538414828
0.02010955683640203
0.63261537168949
0.8134631141037545
0.5111883301551309
0.25378060005859293
0.31437230477556755
0.22756702734656353
-0.20645717301758204
0.5201802528948656
-0.007436309385024292
-0.36465779123931885
0.6658030793132013
-0.1320724505806642
0.07524170872630376
0.12917305605616236
-0.11553153144824224
-0.22887960305291277
0.4812971284207942
-0.04120390971223842
0.10075571574939013
-0.4040375710367733
-0.7324641029755732
-0.8402621871473551
-0.5413602193237014
-0.03927362613489316
0.22326106965941006
0.019283044771537416
-0.5521223222696486
0.5917687574910265
0.4111889161322134
0.2618019304998187
-0.07680569149143324
-0.6394927000522033
0.4902711863725674
0.02975492062302154
0.19178253197895534
0.5881108101593643
-0.17532729075470577
-0.04370733203795518
-0.25580405059975253
0.18165664784689028
0.27446583438084915
0.13019514794356124
-0.19009576735336686
0.8149907702453206
-0.38946715165985857
-0.4138101822972119
-0.3866308409749546
0.11649772246002238
-0.3987114998188591
0.41825887103502923
0.24042856796558465
-0.3621319006637882
-0.8058784809170335
0.31359766679311196
0.7316546556952477
0.10158948640564291
0.42018854994396937
0.0687550590827758
0.2369638717474557
0.26866535243061695
-0.42332731363236553
-0.2861380592866385
0.36129953052399766
0.25280660471640426
-0.06925190960768712
-0.2861905598750685
-0.773348200165304
0.2529490738520065
-0.4367809770355294
-0.7748622103778078
0.32364751829927585
0.27221004224500644
0.09591485307768355
0.13414146778097835
0.32437016489981463
0.6749904311901321
-0.12478305044043714
-0.42902740161684483
-0.44397754744337614
-0.1678863842533882
0.15213435925283203
0.30543884210042516
-0.6599303856260834
-0.03288380719873185
-0.04203417441844315
0.2725299691540308
-0.1368082664440804
-0.3750034407717885
-0.34111083943210474
0.7778140874257554
-0.16368196442594837
-0.17161797463717732
0.766835264583267
-0.4756807815605911
0.8778760541058284
0.23817302108609162
-0.25402960180775636
0.21661993182864792
-0.674519523524981
0.040111034880419116
-0.0702365789465606
-0.28994700731901424
0.5815857219870901
0.48934432560168006
-0.8332679079976617
-0.7172487408004924
-0.21427125497833477
0.49976282778568604
0.5716172898172653
-0.010197075168443703
-0.16957067130370995
0.270277900837702
0.22701466021277938
0.4562562506962071
0.43104225288171916
0.07161469408931864
0.13767954987249875
-0.05562021895022429
-0.02915186776838863
0.6060738933881729
-0.7867849160173067
-0.3669134332585353
0.17999700406163877
0.43926383217301634
0.23795407395558543
-0.03208218754221692
0.27302219910706327
0.2524050549781417
0.01035393715018429
-0.7980783270809986
-0.2010971074011909
0.3081765264754356
-0.22378757365939395
0.37907533554419703
0.45192792736077425
-0.06469585781117693
-0.23960989012528322
-0.6100257275553509
-0.172459691614437
-0.5129109255726638
0.4829294639110715
-0.7408501520335063
-0.19180794085628738
0.44182041169316766
0.38062332608493077
0.21591299124453556
0.0969805068164884
0.12630727937153896
0.12317296698684677
-0.2900560325521636
0.06608649653022303
-0.9674776767498593
0.01551729343098962
-0.5881063448867369
-0.6914791315877097
-0.17772172377735973
-0.7106036169524294
-0.10688261018664036
0.10316894572616009
-0.6142784593410009
-0.3037306955393362
0.4806601094444013
0.4412457547977813
0.10852658429072848
0.1880552623267776
0.5249077023148796
0.4931148035893822
0.2664584565882758
-0.5922585657526249
-0.11238356455634602
-0.3763050229582029
0.6737544567302098
0.12549529955905045
0.20240721575292953
-0.9345672358740902
-0.1446069593295316
0.4518697614760797
-0.5155413275746098
-0.1565777009778856
0.7339941348431589
0.013255919760300272
0.5060279242260733
-0.5369420924952896
-0.5119809005393491
-0.7139706693931968
0.7406560930119763
-0.5600586266005931
-0.3246120787875769
0.7933374101129316
-0.8591177195291072
0.05890547205829866
-0.01825001830601504
-0.6603789619162224
-0.04231498881666296
-0.3081333234267476
0.4554777610278362
-0.45478089437978453
-0.08862843348754035
0.22839591163608852
0.6911320431323303
0.19445140587545828
-0.30984294452543204
0.4489708476994304
0.2021895591796269
-0.10999750309655554
0.6479178962783533
0.30064419894970773
0.37174873965222177
0.2641734478403893
0.32411174306737844
-0.48413582833636204
0.4279434484295257
0.16082143122339132
0.17951448145089988
-0.0624552302346526
0.4940585613558316
0.4690197288793343
-0.5434595420833509
0.050706876941345014
-0.23800575614829023
0.1802407770535822
0.23829887655091753
-0.34874949556728774
-0.2958072808925603
-0.5127497617979243
0.4495758985504651
0.42359060959491773
0.34828667888747944
-0.16788148421081317
-0.015625536910083282
0.018888623688385953
-0.22894619346876277
-0.4324291475511539
0.20140804410875457
-0.08131525017999586
0.25057110955884476
-0.3682593664662338
0.5661036179303685
-0.3490622190966033
0.21750852458003977
0.28459869796907866
-0.9293034670147274
0.09499777638001938
-0.3760574886391008
-0.1483285980647623
-0.5353792119386361
-0.49622319907030843
-0.03517738642347146
-0.43542933337991396
-0.2889627573440239
0.027719486910787516
0.27504172118297265
0.696082887206292
-0.18634456459739923
-0.6053874985453054
-0.024478296764552154
-0.3396288308014388
-0.016223504692290946
-0.3486832927736687
0.06528712372792933
-0.3917010547694618
-0.4598081121905191
-0.39225544589727424
-0.004998013316442007
-0.49715828848085475
-0.1527938152707966
-0.09916819651559683
-0.30495542826703037
-0.26916403635423825
0.1859945533392623
-0.09243123210583204
0.48241315134390683
-0.5712600896379347
0.6243852440899098
0.43651549915756904
0.07140038850742159
0.04687984016624499
0.2783012962382641
0.6857464200303133
-0.6410100731368592
-0.010678103053556542
-0.28344418922635184
-0.18235014448964326
0.29507408029750326
0.6589414171125882
0.18185638729283615
-0.18493940772210438
-0.06031947906558033
-0.05545268499250955
0.13133029207404168
-0.0479110105223135
-1.111337146655289
-0.14688892622975813
-0.5991542259703658
0.16810745236739033
-0.19760405540721915
-0.6541139571452582
0.47985285608667116
-0.6909178224713135
0.2904694153975229
-0.6542105062152991
-0.16418566661133915
-0.3843250596522336
-0.02199297874717998
-0.3742739162209303
0.34896725301307474
0.18000972088022238
0.43529296446127264
-0.3333647388559181
0.17012413595682152
0.12060896343040306
-0.4695731780865702
0.4752268834063831
-0.1479813193828583
0.14936994091466305
0.3389825501879977
-0.22535577474209278
-0.4847010822268041
0.48751368983331256
0.21646817602282786
0.09474957338199252
-0.3697662052474594
0.10315932293552277
0.6200220890447581
0.6989866081633836
0.6028971763125949
-0.3672067769100885
-0.7709169079739427
0.11562347783985627
0.2575248380525865
-0.24602219558099322
