Fitness: 98368.0/250000
-0.4445846288444688
-0.4720751703832079
-0.7442045436798314
0.7116383161595534
-0.769750433327103
-0.48524418832168126
-0.6575798047877466
-0.2506103820865748
0.25377404046050334
-0.5092517257449513
-0.2261260535311902
0.5611932135186355
-0.3628255298687517
0.13732475530027188
-0.07207210488473914
-0.5554388997800046
0.2615618084277488
0.23433883836093305
-0.5694788284393443
0.5655458154703942
-0.5481936184048337
0.052476969285426556
-0.0826821628922284
-0.6535041427941785
-0.21798198179331751
0.48895084273026845
0.1086172629683233
0.2298369319119976
0.840689876061007
-0.14671198755225823
-0.1366700344787668
-0.05912268999249093
-0.8048162394654542
-0.3506795208501866
-0.22532771205592772
0.43654649117102884
-0.45657456219240544
0.5138731875805137
-0.4937063394227621
0.9106713499268952
0.3790879527638017
0.5333948882737527
-0.2699886752730135
0.632335785906028
0.3712948267023902
0.16144039118108022
0.6074922741296139
0.6066595427974072
0.014744288934041228
0.4559659307406896
0.1080529001035806
-0.12327571887734823
-0.41653618029209005
0.310716423490046
-0.6021276798528127
0.5202195131348036
0.47114103334783375
0.1843014358312215
0.202322711210429
0.40992224933292243
0.3467385609875975
-0.32079796546438877
-0.047873341077558695
0.4828084333187769
-0.10581425507380371
0.049775267766062115
-0.03300777686541201
-0.49521453261067083
-0.10755444743314757
-0.6222505914440849
0.47803503471345843
0.2514714933657116
0.3241593409702558
0.6330154115200186
-0.007537109011140686
0.1732239183024905
0.5034786645738933
0.6609901834461807
-0.2571999986386524
-0.45824014481817776
-0.5119808722400935
-0.7517945982077157
-0.3752379453458039
0.349301928531357
0.6376183860496133
-0.2823773938976518
-0.16972866188493385
-0.7797564750344556
-0.8066043699156269
0.06977211249205384
0.08231451793978939
0.7172106628028888
0.2908621337867233
-0.5552643664150617
-0.2783302382941404
0.09478988394872612
-0.45585857717612743
0.46668054696178474
-0.3990318752001234
0.23541098217191547
-0.17533125323681542
-0.1731540909806929
-0.04500372582779
-0.13508513794803
0.19376886002221538
-0.8078371657733792
-0.05307864779126237
-0.9742895338407829
0.7205547653497797
0.005361206604567514
-0.8469051011439142
0.5227017041057558
3.914367606664415E-4
-0.20011409135289915
0.8085860355061142
0.3327609191712997
0.45001640036790935
0.17350570934214782
0.45831890663161057
0.6650967525910143
-0.13068774969903552
0.3474437702239507
0.2559607004704473
-0.17842605194977024
-0.11950341996558922
-0.14743145368733812
0.589122051185377
-0.7804659981532741
0.46328864686956406
-0.25302828036216196
-0.4682996901473505
0.606442080548199
-0.0318203387684165
0.19105681706946498
-0.330099635556247
0.28476893988675955
0.28529723438637045
-0.10654080395159149
0.4774668750264015
-0.20894829802869208
0.15449392783722815
-0.07980761396405456
-0.2757642480017054
0.41981219095070865
-0.2587244196274284
-0.05858618752205347
-0.14216350127625577
0.12599365242381655
-0.334737693936203
-0.07591365933084482
0.3613851575798608
-0.21225390702966762
-0.5222344979360142
0.18341063090099652
-0.4513596305226574
-0.7221920250406993
-0.5927204719295381
0.09692277570955099
0.11486818926033349
-0.32591993209943637
-0.18087859865328704
0.007995011521455764
-0.8369292057514236
-0.20254822212936285
-0.41312606935360197
-0.5290172289904771
-0.29585179000968265
0.12721685756482226
0.4115876507175301
0.2445801742809679
0.36398515701426426
-0.09770272539537894
-0.12215515742204786
-0.5527446882752551
0.2833822388904129
-0.22465076159247188
0.2409880531148526
-0.03807289689818716
0.39469242491019785
0.090957499590123
0.5217876737926435
-0.18097205556810902
0.1110488368382131
-0.8787257144510788
-0.7132622134980553
-0.026348331596138586
0.029744400971288942
0.010879914619232989
-0.37175103783329233
-0.8234864395133255
0.2470005891272159
0.2075087330661094
-0.5071413825836588
0.010592480824819228
0.45843172281717137
0.49098457908162174
-0.5094757732024989
0.43272536755984725
0.37530111634799523
-0.42262740186776115
-0.09943107830482567
0.4758309019551783
0.6752648481684669
0.7217047096741758
0.178865335168362
-0.08383959342437852
0.3375760103933947
0.722765881037388
0.5689183800325837
-0.2841630371548316
0.08596081854890603
-0.014473644998373558
0.33012583784932004
0.24012481500062177
-0.5099351864322147
-0.4593494687158449
-0.18903693106045516
-0.02719800502429881
0.4770451348700635
0.1002140734522664
-0.2512921057916443
-0.16703327035332471
-0.38352706386086777
0.1331436626517184
-0.19319458249786092
0.30097838882588657
0.06201944829980899
0.3393501709351764
0.6458906135476868
-0.3009447415231383
-0.10573458125153046
0.7249980416252998
-0.4125886773884956
0.8468546401687078
0.3654743889488302
-0.34060814814147145
-0.03351193929149565
0.4961199354503414
-0.12941387906055724
-0.33809238671287045
0.24907395378292885
-0.10565936817788601
-0.38722792832795117
-0.16127923285868306
0.043535496118399464
0.010158041147680819
0.7554288926192106
-0.3420071990008532
0.5330121920682094
-0.15331129875013638
-0.5357450513276614
-0.310366503018369
0.14842961724168857
0.26755801017467884
-0.20910781651874033
0.2880414930237336
0.7405137443009057
-0.25300457687914046
0.03218749731319015
0.04882198350683031
0.5237960179141689
-0.7538761688362914
0.7400377052890859
-0.18896612840502036
0.5148134035371177
-0.31517084695653885
-0.7319385734311751
0.13355348455677485
0.6184573953845044
0.7605408123946401
-0.2699719702623551
-0.0315383654068202
-0.006313693291169931
-0.026091981278862253
0.18049483524659693
0.5618341758594142
-0.06051244486019891
-0.10143330866693634
-0.07111191419339846
-0.3359375552678977
-0.2674446265493784
0.03902499863043318
0.7376564701099942
0.40379076471103037
0.7924397973362104
-0.089433731062038
0.13585047831627062
0.15164708042082697
0.3784318692088974
-0.33473797260450033
0.1299934376528562
0.33959586122020957
-0.08098854881573014
-0.01081269695499154
0.5693046814330422
-0.4195435825601672
-0.30227832115815345
-0.3564841816891061
0.004208414831265217
-0.49321901587468564
-0.5658706482791346
0.329658005592247
-0.2260443512881053
0.25831347176434316
0.487417015929798
-0.1589952893003631
-0.47028965951993573
-0.6230310849507797
0.570944543045057
-0.6751799315219358
-0.3335555580763667
0.5547360406609634
-0.1468327296143096
0.2851099077504914
0.265861769125619
0.5471400919258794
0.1984703675453272
-0.2420426017530687
0.17154319946109564
-0.1275960118629359
0.8032616318973974
0.18739861053819817
-0.42643680031263953
0.9213501118598199
0.2090789212662446
-0.32317972557173547
-0.695547500011874
0.20131342072857172
-0.04606025235843292
-0.18528504258539402
-0.38055711331617803
0.195599288097277
0.07368811137349685
-0.5386667807744039
-0.14917064931298907
0.45424774499959886
0.36753724094736373
-0.23352638536166515
-0.5504223250264301
0.8199326517240643
0.00922792299413766
-0.007387290121478984
0.08472754423634621
-0.528258248258142
-0.5599231250625585
-0.48652154051521024
0.035489184073366764
-0.22963338968885905
-0.04472613041376916
-0.7254512956577753
-0.8288920595352596
-0.7336753889477298
-0.17662164794871726
0.6898122709370246
-0.484536113356582
-1.9508824887826126E-4
0.284824989804618
-0.6713595978282294
0.8032511147962406
-0.2812652106416611
0.008411419950696497
-0.2882918031240902
-0.48546029351623765
0.28230481471579394
-0.11685109014979345
-0.2760499914531792
-0.5898941382256206
-0.4786392874809844
-0.39311649757674405
-0.44640958247059415
0.5974588423975413
-0.8050881158264491
0.2621798503831517
0.5511554901649406
-0.7584202399398803
0.0967115933450089
0.8529758410229582
-0.13412307431886805
0.022180738900133168
0.16402072467614215
0.1151047208804139
-0.6776570675761695
0.5464077538674029
-0.7773516749024068
0.5128718790818776
-0.1126313070560353
-0.17702328396050127
-0.010084327878794874
0.36279481185221407
-0.329014363005785
-0.08585541802374719
0.9591997198480412
-0.2296043801949631
0.20663835608783632
-0.34623422386293323
0.5015923493603881
0.6169768868341511
0.01974756085502094
0.49600012452409503
-0.13076757935165428
-0.47713895611841006
0.26423731938973516
-0.9753098903274269
-0.09959097706159148
-0.45405571301577163
0.1079790812631366
-0.29170231811491065
0.2767902215992645
-0.17751870102082556
0.44777669688091193
-0.7747707891091072
-0.2572566402619971
-0.12931641160486984
-0.3118613855408401
0.05675939828325671
0.003302025719424617
-0.10301111923614048
0.03659667535131794
0.5622572128205287
-0.18115503646174613
0.5341245291992978
0.06365356492382301
-0.35068069683043757
0.658286362467663
0.009321609241441209
-0.20696907995979552
-0.8112786990314643
0.1100803143758835
0.30220410864068037
-0.07438443810143491
-0.363989055805379
-0.25582971509823627
-0.7552287245526644
-0.9566815212867518
-0.003970579136008623
-0.18113831050669016
0.16433356127476972
-0.4937435644201901
-0.28509017218359456
0.3078685879531313
-0.07128669209585115
-0.16924626591468772
0.14997174651802503
-0.0506526080480717
-0.31965045798175407
-0.2755768977147406
0.007335822941996639
0.310086876927708
-0.02159730667034776
-0.37760150528244185
0.5605398862872697
0.3525395591668641
0.1301188913761413
-0.10273929743517851
0.6789318668531338
0.16219772127953858
-0.011838959838274876
-0.5081414768714425
-0.07813583424372783
-0.31173461285451676
0.29425186894693456
0.21099099038772517
-0.6805401289293137
-0.45143111510143474
0.16695724125735978
0.24024167377021366
-0.4986987902859078
0.16527716634153333
0.6837012569439097
-0.22420961021214036
0.45400807413291355
-0.8299265976619365
-0.7591895728574336
0.24350248063486746
-0.15223712825272007
0.2960274468884484
0.07156802177750632
0.2132499439404839
0.0031520719462523328
-0.5548345148794854
-0.2925686009852029
-0.008024024722126155
-0.4522638441987663
0.509154513637188
0.1229220804235206
0.16734282262443556
0.4539852197429949
0.6445628677062956
-0.1174890075563565
-0.37316569921967613
-0.17016953897561848
0.08173410134512638
0.09290985282415443
-0.40541730678655163
-0.4128774609138546
-0.7381006200956692
0.052275853430058916
0.799314024325795
-0.0579165069047054
0.4423545954040591
0.49852899074240253
0.2602210803359768
0.23032822301060674
0.1441259527043195
-0.962207792171001
0.06954870874727226
0.3108781389508607
-0.6567299553699912
-0.4022050972665028
0.11276567522387482
-0.01172199000259444
-0.3693281476258775
-0.5191889996841756
0.04380235217630157
0.4461561154191238
-0.8564811226628145
-0.327259973862459
-0.632464217045073
0.3363403736395455
0.2150684114704523
-0.23101284434748803
-0.7845540832098225
0.012507116572698984
0.26174772209123764
0.17052345426314441
0.054959251300967016
-0.2887539553037419
-0.8952750884242658
-0.6838523454135489
-0.18549092764410913
0.4448895653671011
-0.7992744920625902
0.5572153802175914
0.5950588708360487
-0.006792559701847223
-0.3979211595405232
-0.5031544674144555
-0.3204770720732042
-0.4382614485194949
-0.6365453901383942
0.39327329603212857
-0.22529298452731905
0.6025439706388969
0.34780970845535886
-0.8121998677454774
-0.35338402117516143
-0.29479520163076955
-0.2017786864747504
0.6258394388204838
-0.2844105298823183
0.06215245448887152
0.6104606723932374
0.859801707357452
0.2620314390393159
0.03606268931490486
0.12837893704698
-0.08607361299134109
0.30934833490682623
0.6853459319425306
-0.5095926733444461
0.7399693862044346
0.00345213895890073
-0.34215053513642757
0.47253948819079783
0.005725253456330237
-0.004200138554350974
-0.01110328714587372
0.6023250676774689
0.3836353742381484
0.18717519663373705
0.0035245762954160265
0.4687470021272456
0.200510977347378
0.6458339725482045
0.3931221018431976
-0.06309200728102993
-0.07454383781613205
0.6248782433150873
0.4764390122187545
0.017259268283495666
-0.49259337756735044
0.503998616497218
0.5661626175243297
0.011984666608298555
-0.4722422200799328
0.19950820819416293
-0.3043965152697915
-0.19547193691733766
0.006128028896282278
-0.0934776419942257
-0.30207943137504933
-0.27528127040388195
-0.16566704511654862
0.06813863261595587
-0.10299727574105311
-0.49798858625427045
0.30977811487590956
-0.9045117287460733
-0.16020649992817426
-0.10201264758510675
-0.04010492614190586
-0.5815049103885919
-0.6595490827576561
-0.2566859671084404
0.817136325177771
0.3694648144700038
0.23010958841156715
-0.07841499488987935
-0.31476030937484567
-0.3004278295883398
-0.7326201772493944
0.47648879359082563
0.171124105475414
0.22613112849927286
0.10408862983454126
-0.07313705194185616
-0.22309677156898422
-0.6856308506563561
0.7834157516792768
-0.23626976988677895
-0.4170865567681419
-0.26366698998352966
0.10036954941542875
0.2702673355505383
-0.2161861902734612
-0.35377014220675307
0.01028614859687016
-0.6045096355337528
-0.7908843976903619
0.347724543887163
0.439494671357083
-0.3422024194932969
-0.1892852799198117
-0.008231569846565367
-0.2494077977351824
-0.44160878755201194
-0.013246127649320094
0.2722264488587348
0.2498611163439457
-0.22156500509887567
-0.7706343497304022
-0.03807394710315637
0.5061800725945353
-0.09021320685021494
-0.074526974495714
-0.7225200804813549
-0.1497390949588875
-0.3754333963356886
-0.04051194169727468
0.4135749852253898
0.6295198839771652
-0.4571518167382669
-0.22786404171929964
-0.2429998940944721
0.6154509512312856
0.503816843789266
-0.4874716112213793
-0.012532689191194546
-0.5303432717567248
-0.6672440106951568
0.6989739098686186
0.06643398147348323
-0.02889957366330742
-0.7571686297890643
-0.2221041878964708
0.35703804081356216
-0.4399964527023865
-0.5948979262859752
0.19099103558460517
0.21036502724632078
-0.7462316598259636
0.747182358040629
0.34174606716848166
-0.19244454951657763
0.33801800890299993
-0.3047193949902892
-0.09928468954616265
-0.28166667886328156
0.5001773503277305
-0.21954222589897843
-0.6433046492344463
0.2195436986858691
0.23387325090460775
-0.23744624187775687
-0.9769998024802152
0.5763172571865923
-0.04544819367507935
-0.5737043962732029
-0.3265044217153178
-0.07601406214948903
-0.4210687799311592
0.7284370547120548
-0.2077437553042789
-0.1439747558365555
0.1679906131943535
-0.22082616652103115
-0.42722804170843576
0.8573544391816524
0.18405467139329545
-0.6113942196748529
-0.15619587731757678
0.04431917440424327
-0.1380308403102034
-0.7402370686936909
0.6795736011378227
0.015193518629639358
-0.6332916819027483
0.8461613519427073
0.21058751053212788
0.6155324217647794
-0.4715775574143459
0.6301667527858796
-0.1583036119266522
-0.06949285014575146
-0.5642920052352435
-0.3957816242457528
-0.019369347507715795
-0.06052084368382882
-0.1846856575074901
0.021978113727112336
0.037600604713160735
0.17066095103893142
-0.42355460391860744
0.08805242849429484
0.10931480828409323
0.8549943380885523
-0.533046389125917
0.15788722368277341
-0.501893681605595
0.93801749094523
-0.13611065321887728
-0.35922498065647135
-0.2636660313737269
-0.03168677679217724
-0.46982277005957473
-0.6061971587293441
0.45373932991427235
0.48851234056689197
0.5624697218472701
-0.6513442053520474
-0.18403762766453413
0.5209269097635786
0.06693360957058736
-0.03950612394920516
0.4208036922686833
0.611017525422754
0.013598764609212832
-0.07637859453270568
0.5754049103495086
0.7154426072636973
0.9523981300183356
-0.09056723626065466
0.010432846193790146
0.03215660108191165
-0.22681689603999133
0.07256768487124299
0.2948225958410251
0.1706937119994305
0.2214471915385171
0.3170507361736593
0.05092544619800543
-0.23871237883385044
0.006425410036373536
0.3859866619950969
0.27681389707451254
-0.14892182461146342
0.11193619364215335
0.3592662608364178
0.3535728878506895
0.5573972434359062
0.39307829733412547
-0.2891017262794572
0.578720271050543
-0.2429366605211133
0.5214903640868912
-0.2738296820120516
-0.3776525495853791
0.5667133314585757
-0.04658767858282087
0.3310239552275297
-0.6031147512146088
0.34198339800307853
0.782761670493761
0.4574687726241321
-0.17280386258166702
0.06678484882096802
0.13641624925089868
0.8456368793920476
-0.5093560141092555
-0.3206407103826344
-0.11769302986428232
-0.08402514637962788
-0.6203225076253099
0.6514347295608617
0.031786956279532874
-0.5888212406863044
-0.2680939055982232
0.6149193676100831
-0.1438291838052348
0.04820266350903413
0.5984901212127726
-0.4889997795290547
-0.5782539178854678
-0.6406155465468707
0.6054464440109159
0.06529917638649285
0.8442039870986571
-0.2987183862876489
0.060937685926810925
-0.0401642297274275
-0.14918003425071114
-0.8037622068443977
-0.43190978729397234
0.24043203926919388
-0.5232244693036741
-0.640730629612503
-0.12533654921845394
0.135499761456911
-0.08306600706128342
0.18394412106229086
-0.20758773562231891
0.5773400551968285
0.2799136521451566
0.20686895166848396
-0.35239176906819336
-0.35909495861250884
-0.5443884931812224
0.40881596582229096
-0.1748866537460828
-0.2870342007779748
0.36774353531433857
-0.3308433380546977
-0.28103640093139926
-0.22236438728498442
-0.706719523155374
-0.4857866280547162
0.19246394548292667
-0.2133874004670162
-0.07484069278926575
0.5312252062957371
-0.4361489973609163
-0.2120377919310632
-0.5029141130424686
0.6977551902625727
-0.6930047618731213
0.2363726737148687
-0.014065777953303105
0.010499737955568356
0.012122018691942849
0.7737166320322068
0.42657255371180147
0.2563949830870823
-0.21301188473720656
-0.5883494588820886
-0.1637382415853813
0.49491465220339803
0.19406778347733267
0.5898419567010601
0.19447507239574635
0.22146341154981675
0.6487868153389457
0.4639986241827371
0.5001661621693756
-0.27480784426744664
0.43536998570577057
0.06649028285067826
-0.4764042769500574
-0.2319303992384627
0.27259854048290044
0.3425135681403334
0.11619349992738515
-0.3212440003184953
0.031622178512012766
0.4749313701141179
0.6827070807786638
0.311026282764974
-0.02605058100908464
0.059274729364195644
0.6701330681098787
0.7611827437110498
-0.7020848374956403
0.12638581865586895
0.30072758564737134
-0.5367243212996146
-0.33927728035882354
-0.15619207229798393
-0.45801363399194783
0.3996213274464683
0.22665790849167222
-0.19241339707482552
-0.7786598206557673
-0.1256652717969019
-0.18596587398561837
0.015762760512427865
0.16169411686724844
-0.002016246752450268
0.06550043785397663
0.2747880442126919
0.49435858823705225
0.056899056261440206
-0.2871103637437189
0.13978967639539674
-0.7721149657945071
0.4953502313419301
0.18462419001674002
-0.002522363875022582
-0.2159191366112737
0.7007553018561182
-0.11514513991184805
0.06638159459497373
0.5648316943700726
0.12430121731474475
-0.5747836384556968
0.003193202272729234
-0.6956376100826182
0.13169794355195807
0.0993361730651785
0.03309126946290597
-0.5625186951450708
0.2535394459728689
-0.10020340811439055
-0.4338022970761126
-0.4846360112613807
-0.060747940248494614
0.2178677294224033
-0.12484887073985573
0.11079339362870189
0.3799170883879244
-0.44766008000540025
0.14260215706411483
0.443195339639457
0.6501481800245545
0.08968300236250826
-0.3070378198986321
0.444814232544787
0.30406553221005717
0.14069948697169066
-0.4052969876533572
-0.07051890582681297
-0.28876558376953554
-0.11850115718738874
0.01825544308072924
-0.7818133532431931
0.025018445916679122
-0.23458893058893016
0.15031407732227509
0.575515184761711
-0.21070846633398954
-0.7344600298962477
-0.07139293034180727
0.2714582854554879
-0.16907106829256258
0.0369296796292351
0.6708025815702555
-0.02359478685061356
0.4266012034705773
0.2602800237595553
-0.22302386188461654
0.1628753322667127
0.373169061492309
-0.736046178694446
-0.3858916145037169
0.10810410875313536
0.06234530345682099
-0.37400252693296554
-0.32887845286871853
0.6739119499844269
-0.8634477664730351
0.5317364016547248
-0.6195220550868121
-0.49962220056222306
0.3188263424627822
0.8295064056479428
0.3380073152843399
0.21323479576613213
-0.16413876600430077
0.3854087265771442
0.2685727260661612
0.08494747918344925
-0.4489953486315329
-0.6237357058560663
-0.4385277437721675
0.2657824983993523
-0.3735566225176913
0.6414879096359734
-0.1633994446437419
-0.041076857282133394
0.30096695421358177
-0.24276411569602319
0.11769997342782235
0.21886220604782425
0.38839151970345165
0.22678939478897064
0.21840581703222584
-0.10104406394868859
-0.1498819351056514
-0.08347559043365493
-0.1552241683873884
0.14606709724935574
-0.37354216782643457
-0.4457142885994728
0.33727492891949085
-0.36409690722830823
-0.6791736902511183
-0.7354835212949783
0.5188889501506319
0.11700138756233347
0.2147214351238239
-0.1782116508888243
0.2538515317619675
-0.2335366003091366
-0.7342557067695443
-0.33312195190722105
0.4123790252283519
-0.7903336895335316
0.1612280223638234
-0.16535564997250252
-0.5876363263784822
-0.07205544853394763
0.6663355567417611
0.07953288227380206
0.21645536290756406
-0.2628665418270284
0.20790385125962363
-0.6970031516244968
0.7479684992883341
-0.08514659949279224
0.2723105987337505
0.9191822599971957
0.3384947663092379
0.3504006667081355
-0.002265336915615257
0.44038473537123124
-0.3054261768378741
0.19237846384821422
0.6192945545220314
0.8369011380013036
0.3438144387687554
-0.04289748511817815
-0.34842751545120554
0.6275558884961656
0.027368365281425944
-0.3268509341703624
-0.32659215399763286
0.7870590807137752
-0.43266068020528214
0.11963421481133674
-0.17379595600295972
0.4818222275683526
-0.7973512764702467
-0.6371138789101437
-0.14280047536837648
-0.045195812547098924
0.1920427280920689
0.6041513295306419
-0.3129865533396703
-0.14777773247934567
-0.10362763068783631
0.016647381381168724
-0.6848022248398206
-0.4412993447385102
0.41283870240075693
0.2155227900814739
-0.12270409297527285
0.6855745556989511
-0.3370228544064904
-0.0036352183513974623
0.04282378772392781
-0.4549683585414944
-0.10898782601492896
-0.6372944152298627
-0.14659356129301504
-0.24727629541135865
0.504137070214761
0.13281243220508254
0.3502527759255002
-0.11657766314320672
-0.33723895877016397
-0.3411389257485329
-0.05746263703974075
0.051082567109005494
-0.10876699080414787
0.18887384670282137
-0.7684397348487849
-0.3992751822880143
0.22505304460235476
-0.39002633483463944
-0.6581106632114181
0.3155183039164505
0.4038404824285715
-0.6922417558086799
-0.18776005756185377
0.05686059502486618
-0.2621244177061264
0.15094650888830474
0.28700612985468876
-0.24631018465545151
-0.4279583149393813
0.21206924750999512
-0.29580292060305446
-0.023852231028236415
-0.7646684955531872
-0.18031968153374267
0.15487674009154406
-0.18150868241821339
0.3824417680566409
-0.03035163291946852
0.1318363422296076
0.5720906445150815
0.5860863691817294
0.5259243831598446
0.14797681738758905
-0.25471749689527956
0.9041298771833965
-0.5610687473281222
0.4988853621828474
0.4855581107711844
-0.9346972467909791
-0.4548086813175808
-0.49215859885294166
0.20330522136986118
-0.6898406692852977
-0.0570962653465138
0.3567709366258378
-0.2096879180368113
-0.10695681386807776
0.3305451530738568
-0.30181658165925906
0.7083477645622072
-0.6070301252786486
-0.40943912579670405
0.5396359395708944
-0.5934060366699497
0.8439985922627941
-0.35417632907332575
0.26526942546507426
-0.08906525969170032
0.13135951293384907
0.2365295151477973
-0.08341931472346686
-0.6572129055960209
0.412550746219014
0.20283784643073277
-0.5773956041197951
0.5980897426820075
0.003439326735792947
-0.07254702176351135
0.3549829328816788
-0.4850954114006115
-0.18603627548135282
0.4053174901659591
-0.6865619060385075
0.4500456322349301
0.7183559494751266
-0.6324002333152766
-0.8253497195748164
0.45219685155635014
-0.7743183442683024
0.38474533794820986
0.5763468047022076
0.4541171626714864
0.5317954257362432
-0.4924663615291841
0.266354617563633
0.22342228199460012
0.06255806165309286
-0.5020295197701153
0.3973418566753891
0.0334012875676406
-0.35009637421659034
0.03956835224730315
0.5751708284469075
-0.6627199988014216
0.2606504653889603
0.4899262971207613
0.05053327662725793
0.6581694811533915
0.7280260444053247
0.5319829010458188
-0.47222481545620676
0.7574356292791766
0.9407277599817195
-0.0015106064938389396
-0.4632318759319044
-0.17086780259727052
-0.2890448231369547
0.577702963841563
-0.07228251612720404
-0.3238542603150911
-0.11960327005168214
0.6106560732887072
-0.6446137301024356
0.42286826423463475
-0.1868870389060796
-0.44133163924957564
-0.10583086348280035
0.5038180555295605
0.025264078864973838
-0.8445415058917236
-0.39842814478917765
0.2882681741027322
0.09406845512927442
0.25809209163235924
0.4253217228268197
-0.19437224883433435
-0.09211812562266641
-0.08817705594868674
-0.38007467080681356
-0.17510938384495478
0.03159443829048458
-0.006379477201042594
-0.04050850908746195
-0.43139881823672976
-0.36200249458360234
0.030239031724969223
0.5671848227936679
0.357559244916946
0.17144276540567394
0.2105269012290759
-0.30788193003290865
0.7589193373760097
0.31306153158092775
0.18200597167185373
0.6992082422382381
-0.409911700307625
-0.6471470575194926
0.6533506616212886
-0.52707375178636
-0.27222735196053705
0.23663681621501897
0.36643387411259154
0.03338185731702281
-0.537489532421774
0.5043194684623599
-0.12068040809846337
0.7505344180477659
-0.38231735554358837
0.5179003486950354
0.4576260557712183
-0.3541924647438611
0.5152884335813654
-0.6683681298103398
-0.44596621152330973
-0.647718841587164
0.3798186886591639
0.25216275210160255
0.11814167217103899
0.15798386444451795
0.37993264102825375
-0.4011606071985465
-0.18609404918984462
0.6418505135905974
0.9485269540658663
-0.050230178412311366
0.3969685310031872
-0.06820847497645555
0.3859966939725722
-0.30480291633629475
-0.7395869875348178
0.026808690068509722
0.21727955636239937
-0.09191232702855934
0.3428488076339373
-0.4415224000940873
-0.6239465820819915
0.5085471638464667
0.09712577857198412
0.09944622439690431
0.07307380927835683
0.7452020677953317
0.4253955591402767
0.404268009171893
0.035130146611398794
0.4914145359587184
-0.05182024901427251
-0.5429914671178118
0.1655855644807076
-0.7241709076442236
-0.025866463424466524
0.09593439294752237
0.9084263114501473
0.5294321570569318
0.2426888168409671
0.14255798142659903
-0.1842433143065173
0.8009698272801931
0.17437540735980628
0.6379183511298938
-0.024039860642698474
0.158365665125621
0.8238937183694933
-0.30669376083126076
-0.6297895300494519
0.18372957465026807
-0.22998869617789786
0.23591526229490767
0.5187589766635614
-0.09334364094296932
-0.16469798001543567
-0.4740063087733911
0.3819720144814055
-0.8543472103716381
0.5244800173637632
-0.023431858860272103
-0.730499738208581
-0.7432215878016573
-0.3893200687419991
-0.5188272416278117
0.5958291568976152
0.26364141577918154
0.7167518440907509
0.9289806404959657
0.33803960013032675
0.43172147542333994
-0.3919586904602531
0.09875987446667733
0.5781530150749725
0.4127457138315691
0.03347189181019006
-0.23506725067821022
0.0885516541228325
0.08204948645105914
0.026960601181865496
0.2775375853653057
-0.12481940488316234
0.07453720982498757
0.7079885592690957
-0.13842963673621034
-0.32743553417366367
0.4146045010552959
-0.1794805250208209
-0.8457062870727021
0.22799532322701843
0.8077080064191939
0.009272000969322236
-0.010926373187654104
0.46526500194214726
-0.19108046286756608
-0.13885107575554256
0.2769493660236172
0.12014023716451105
0.18872177731380313
0.1442231556535828
-0.5090841886620647
-0.4600803833599796
-0.12582669169840388
0.10485698100972807
0.20360126633286346
0.09469956478194064
0.22116846220040953
-0.7392998750363913
-0.17978129356404404
-0.5233072911474975
0.3331812055678727
-0.44823180795984296
0.5264065185363028
0.8529863382902596
0.6847837688432753
0.0031418571078581925
-0.2526319124967975
-0.7085238881817983
0.2650694449368328
0.7873745337178183
0.2629697825583308
-0.033538665185332994
-0.3443944435738655
0.4212573793168971
0.21179529707360578
-0.18432300052830075
-0.2847285199500491
-0.6830652188681697
0.2266929170887113
0.13999126408511697
0.24566754399814572
-0.519732550511944
-0.4126109318685264
-0.28040906226886864
0.634404721495354
-0.22882885807032527
0.7006981313622948
0.2208039643630556
0.776501491841259
0.6725740182423585
0.16422841143230194
0.4246890644872011
0.8814909924497301
0.6545234185859171
-0.2989638889336341
-0.11790311866171976
-0.217707156728302
0.5523448075311864
0.6953584916355522
-0.5262277993961642
0.3871669310661283
-0.10519193622284262
-0.10070613261700789
-0.10449058433605174
0.6009850565960847
0.3483535563913309
0.6552263585569111
0.46551303545855705
-0.39793184784306
-0.07538469715591423
0.18070520621447683
0.26795587411175537
-0.142990072232144
-0.8929971441074818
-0.4874932806060699
0.2651139877029035
0.21660050560871924
-0.9305195420222168
0.5212132806556911
-0.5549306365893605
-0.13307736643964485
-0.0485546459089663
-0.5037672176647644
-0.18533854799544458
-0.3897921156488151
-0.039161984022866636
-0.8112945814115234
0.26957924387715204
0.909841364598979
0.06739490558949401
-0.15032091175047846
-0.40381943779759055
-0.8600395155022759
-0.43724623627116066
0.45023778551998606
-0.11349514481467671
-0.4303730000888233
-0.8930980782230932
-0.41612975329990864
-0.14199190090308844
0.12933566234324212
-0.40857959244977793
0.07421862151487857
-0.11380885624680881
-0.19749640940367752
-0.29239485182322733
0.35480186776024836
0.308014730709646
0.003834037095210685
-0.684872361786081
-0.43579663965165505
0.01138190797805938
0.525505946970871
0.16758688270810185
0.2709948122558059
0.028631848466298182
-0.7652879666473079
0.027950804074329483
0.9827705553229737
-0.09632227659978154
0.6910523534467955
-0.2983078283451661
-0.33570667471438687
0.07068144325103332
-0.30606835706938285
-0.2841235464739872
-0.8478605949735748
0.13011977589672208
0.17335969445278998
0.009974276816709926
0.28949295710209577
-0.2608699314246494
-0.008881816149540422
-0.05286611646370065
0.22997890859156067
0.5908983748742588
0.009610861084854094
-0.30270455065509305
0.061029954821003596
0.4329844018514919
0.6682072001276915
0.14514686114165198
0.16465960421502357
0.22345542139774044
0.09991274850263154
0.1084773469551098
-0.5310065947361239
0.025196279061109772
0.42266821344805194
0.11549610127587151
-0.4671414669691244
-0.46228555245207137
-0.6289235051451987
-0.21139044903517923
0.27077227060658693
-0.22711871755061397
0.20494487366889902
0.35219922136442605
0.5237615170120556
-0.7879337153557491
0.22730940661342902
0.41282319201270656
0.6549478504923273
0.4824601170243312
0.02348752145809918
-0.33093851017925147
0.07371912359470356
0.014452459590323707
-0.48261519398624064
0.2771826782365092
-0.353167602785429
0.2154667573608945
0.6987194899294921
-0.029423014227921707
0.4308105908305202
0.14324412953083265
-0.19506365551724814
0.029972846976148215
-0.15287711931852055
-0.25385047105373215
0.6374674070831241
-0.3518813539512444
0.20395761072610707
-0.1422164929775841
-0.035777790269794774
0.39696789117780895
-0.2848304953315053
-0.21189902243225345
-0.7848067053903252
-0.23615224606027196
0.17761143801386015
0.6544479415526174
-0.511549651549467
-0.037272382671219684
1.0029394814636827E-4
0.4875582312880987
-0.6602050153398774
0.4110211379862928
0.4657506214902878
0.7669758142365023
-0.4556084435951938
-0.5229296437402583
0.6709331947840419
0.34930873327696554
-0.13955634763264335
0.23039259730296635
0.06192391408908504
-0.3659560311364837
0.3660672199497673
-0.08384374428191088
0.5463798099237948
0.20803326145185363
-0.7368098899306725
0.2081395270852897
-0.2576380963273338
0.571717693076772
-0.2812578804540885
0.3118046873846192
-0.43320718730709584
-0.49586483339414766
-0.5395714080823288
-0.010891211221868313
0.4047945858575003
0.19268971801809842
-0.18466330244286888
0.03550146648489816
0.08946511184298311
0.02688234563819436
0.09216761108468341
0.8773797978448901
-0.49805871077320263
0.03554351142470591
-0.35453471350532684
0.11903350074554808
-0.4127173771624615
0.3705929902309515
-0.045131228153916236
-0.6501779208878699
0.1616374627650511
-0.42442889484975743
-0.15596045386263202
-0.3552272633583132
-0.40912474706553414
-0.6202557072622794
-0.2138696113026889
-0.42105327355111133
-0.28526872941211856
0.22343227607099403
0.005948753375880078
-0.6857652631200708
0.01978167105207329
-0.19841144398080712
0.14885714087909407
0.7912651215410208
0.3524361252860354
-0.20175679073848796
-0.4559748908090807
0.38426499480284937
-0.21984828363857367
-0.3600006752546905
-0.3387626205698938
0.25188007208857655
0.028168629531910794
-0.6260162426213017
-0.20644021994866968
0.06870287566815292
0.00853632909393498
-0.29142509811031325
0.30284224809498184
-0.3063102644500272
0.4325772842358282
-0.20301337394630603
-0.02917920259638973
-0.7597311771261339
-0.12414905894283734
0.1797019915061826
0.019302268062503125
-0.2464350243426675
-0.7689206612830897
-0.33673747767500606
0.1740665573649457
-0.4248797288468036
0.2821596829692511
-0.7302172865848423
-0.5967550272363886
-0.49397041860693347
-0.029040091818460012
-0.4213331630413799
0.36345590148190177
0.907124506283489
7.028261311589068E-4
-0.009670023402046368
-0.40081145163084697
0.14797465615016336
-0.034516464013976345
-0.5769254193768586
-0.9310648705983651
-0.37094346046115734
0.12010718522185937
-0.17551813514539905
0.24327618285703856
0.43622001598341087
0.3739097130057395
-0.7908725029092871
-0.2718193314378684
0.10532797670950644
-0.5759947936813831
-0.5910465182333463
-0.00663341025348263
-0.08551018206518246
0.28023807576336035
-0.7930720128876741
-0.30419550525819006
0.25264737054244835
0.5783197396422582
-0.12963623635759536
-0.08832310870337301
0.0801921749400003
-0.7773295646267876
0.3959985075514253
0.08717412638043875
0.08474054011553933
-0.6798601015301875
-0.6654986363076109
0.38555968451961675
0.10908267141958772
0.4977424614043292
-0.09926137545302383
0.1449829103330046
-0.05110511836780518
0.136701399417831
0.267919849178035
-0.11538790473955596
0.12211451875897339
-0.18608431036664308
0.046717734023379864
0.1164933655635143
-0.23909261547179106
-0.4581992195715312
-0.15568286449262037
-0.001941015934040058
-0.7235539268106254
-0.23648353969930258
0.5853532146230241
0.8560981168002172
-0.0627537693436907
0.8708835720314084
-0.24064003970024206
-0.12793207779276417
-0.5851052781982364
-0.30034530750490884
0.3239005630846946
0.009242229672961177
0.2760527356635236
0.6021662031574175
-0.4619378358524765
-0.015631337136776113
-0.02867919921032136
0.46212040669772325
0.11161901492501203
0.5725982820506516
-0.06060285970784296
-0.00585521303652814
-0.5762207574582389
0.232069747638862
0.33818483111563413
-0.15716922271033285
-0.29105710105883476
0.3018828876962324
0.6644604153979725
0.2592072394323207
0.021299184858211806
-0.01391217680720136
-0.4074017312265673
0.07389672060448194
0.19824464033244193
0.07170884734804917
-0.03646521205158304
0.38408265988033574
0.11270786279725953
-0.14091989511041858
0.20181661941308293
-0.16732576319680081
-0.15660561805942297
-0.4362561258401494
-0.397561222018772
-0.44992411914499375
-0.2058409173614364
-0.30128828878457325
-0.04090618777233723
0.5694060476678744
-0.2558873821915818
-0.7718487256331047
0.04425154728305569
-0.2662977118882178
0.33868565896690683
0.5817221643910812
-0.42769326371090066
-0.44053825737706176
-0.23660405824097563
-0.2238589880165801
-0.12003982916613698
-0.30089934212274516
0.3800930583689037
0.10028823660317776
-0.5342542510030874
-0.12700076052516485
-0.02135918355873956
-0.16997299989867298
0.6177411576841269
-0.6743667385895179
0.03214859244267698
0.6949947052472122
0.1096147562821802
-0.4927231384441977
0.14372607823465777
-0.45211504715167616
0.06648555330589856
-0.016158069463937386
0.48685871667071934
0.06720846171028938
0.7374073115255277
0.5733002019162623
-0.40170387166910615
0.7211028519648203
0.22490706763803192
-0.5781099048081433
0.634437752904177
0.7925229096120071
-0.7241959216956111
0.8265871770180755
-0.2759623096534384
0.1092917217583802
0.37727921913953144
0.37011579227411484
-0.22878712273679536
-0.33176463861311667
0.1763650144698251
-0.03200275704141542
0.6356829954012451
0.6017081439708736
0.0702522645595356
0.3952408162686265
0.03790404470202169
0.05626400418712785
0.6664016471842544
0.137788933270533
0.10847841971592176
0.10946502374617306
-0.42607552266096294
0.21387726972410492
0.25752322132535965
0.557853068467566
0.6120732288234627
0.5689911959775463
0.03535622423021245
0.047272985740431483
-0.2621091269301835
-0.4786226316862242
0.12408296632494364
0.7973295088058087
-0.8014896718487913
-0.21626286102702275
0.2776866129599469
-0.8311009113665679
0.4774807642568317
-0.4833099700333866
0.16141542525551622
0.14971430195833257
-0.41345606311453875
0.7572209282524626
-0.04865870282997886
-0.19953460595547168
0.1297864493403943
0.5024601919299228
0.23282349957130422
-0.15377884100213668
-0.23633623255515812
-0.18571678684246895
0.7320481545067339
0.10179242697233326
0.4871491533748984
0.18973741360847463
0.7291552698001318
0.13702707012785842
-0.47582807436115304
0.32802570841122547
0.09171648185141312
-0.5596143558146859
-0.039361708043339494
0.48287482013867933
-0.07109328586078423
0.06538321479343356
0.2820656714808506
0.18698835424701266
0.17107660856436158
-0.5912299544170899
-0.17406908049190772
0.16246942728464775
-0.07505099535980897
-0.9478838321939684
-0.24414500318902876
0.7403623486529421
0.6765038409812509
-0.30493159904354816
0.7443597652238323
0.16209674032533017
-0.08437434183581338
0.3717977349198438
0.33817039160761697
-0.17164045719288568
-0.3454838365971994
0.26978268706390585
0.22223307094474098
0.1289535748773709
-0.005984713263160413
0.7105731998163765
-0.06739234651088244
-0.0837203479596591
0.49329114241731187
-0.3209406071803975
0.22450477390365964
0.015855868516551963
-0.24767723711938539
-0.11776881797342564
0.4317146241793084
-0.3666209404810583
0.747668688966407
0.536243739112518
-0.2991946497897038
-0.5977580720630581
-0.7529315291822315
-0.38479324671311477
0.8634274153491903
0.04470560559425152
-0.32234525930030467
0.5802569631141554
0.4054407112578352
-0.08513921068146535
0.8860551792145699
0.22484197684342788
0.4756460709306801
0.40311082628382755
0.4232587352803202
0.18771920908168072
-0.6241833333574535
0.004510873487176048
0.06169978975338364
0.13326173373646122
-0.14478325134901615
-0.8434472012305694
0.41005499155602976
-0.44539921119753867
0.5225548413117759
-0.30491926435716754
0.2157397118261276
-0.20093659728966884
0.01087099991092011
0.10537883302699902
0.30225060448330865
0.8255922206054744
0.022008536764962172
-0.45744406284619143
0.4031597253446937
0.7195789831569486
0.7716115840359882
0.19612721133955235
0.017239944310899036
0.2236249676803017
0.03311607287764429
0.14879663976127355
0.5547357107670534
0.25642692733597094
-0.16109431341228708
0.6355812600003437
0.1164810716420891
0.29980502831126543
0.18445208601476648
-0.3126614779382476
-0.6088842045600117
-0.2206573021315169
0.12194331845661277
0.21196515056648024
0.034365651027889244
0.08171874754674402
-0.48084741198506564
0.06255023436210838
-0.6873617117198401
-0.04953276843034771
0.3447484308992852
0.18105601095088864
0.26862583112894356
-0.008732751294534657
0.5340986144312435
0.1482705849344781
-0.2769689932245005
0.035991638634151
0.6805024567099062
0.80996934523655
0.3213414067913499
-0.46455126736627517
0.5984724076295106
-0.4223568356794163
0.24154870289654673
-0.8664926278932276
0.7369166953017628
-0.32021416131727864
-0.019596746910935048
-0.07867909686577146
-0.12770910608952135
-0.0024815298660092466
-0.6590656282149526
0.032926800993696825
0.3656044151623955
-0.5773042444954153
0.4173719590549696
0.017895813000908145
-0.005239419508388354
-0.43043856046507345
-0.40438590562237964
0.10502947980801303
-0.13320884497260732
0.3317858593058176
0.3252244184268104
-0.17515823519301765
0.3085603090617831
0.18565108932937935
0.23662226650756846
-0.28626267364580593
0.2472081843450581
-0.4226409195254196
-0.08607998993565902
-0.22796936057625306
-0.5883959343037196
-0.1067206050259798
0.11279477760637457
0.09347096377122044
-0.07740116246861284
-0.11572208765329828
0.29573658702315664
0.5725291411815239
0.19431508477936654
0.0036047156621651366
-0.01778847032162889
0.09170025081373367
0.16473101408085478
0.38860408920246703
-0.36951675726273037
0.5569683928175726
-0.32521708953621675
-0.8758118487174807
-0.30708259208630495
0.1350472215359907
-0.6282196128142934
0.06325577230563573
0.12115609411312167
0.6127875614644622
0.8832637145699047
0.8448426435077426
-0.15442360597961502
0.3813750680532829
0.001634670839250063
0.12218106504331516
-0.6571711687825575
0.4884749349042493
0.4593917635015634
-0.7086409554129695
-0.5939042192705758
-0.008063109287852477
-0.28738426473243306
0.19433457819876143
0.08701184825882613
0.526119508958647
0.7840150211081047
0.4288168505605071
-0.15632760121631928
0.5533598345757582
-0.47169919599645993
-0.3665163053279137
-0.5467740495825517
-0.3822948448001129
0.10423737166763336
-0.8552202997785795
-0.1671017130374678
0.7440982258363926
-0.08018532025368552
-0.164086488413538
-0.3616482645422786
-0.1725883283399987
0.5300265539491354
-0.28934746976206027
-0.33382227481345383
-0.13357157868860092
0.3031421833759035
-0.2505660691010654
0.09266485738728703
0.06506891812674198
-0.04203707789246525
0.13702359442518064
-0.19529660891634515
-0.09958305018540758
-0.682644582780469
0.4036445558893452
0.034152610235840375
-0.0022208831216367075
-0.9407116044872104
0.39214227657176115
-0.5407191272067062
0.24479498220665863
-0.26847150161261957
-0.02423396130083233
0.06488473782632576
0.7037001534310069
0.49777995565536515
-0.25647498217017517
-0.06525468522874767
0.19083675095568775
-0.09350086065961383
0.1480122009817465
-0.07648155161842096
-0.3299136344722644
-0.15801108039765333
0.1537885161865894
-0.0440113358981552
-0.8429710655131183
-0.12628792861237237
0.45866527740555196
-0.07441874997010867
-0.30226413349645476
0.055006337176317976
0.44414449373934817
-0.36158084464457385
0.3739032701522159
-0.528871258833788
0.0024299727627722367
0.05679783735328425
0.10212805649608792
0.023382277706651022
-0.7102956995059903
-0.5314614591035425
0.5722563415254714
0.38457852739064524
0.09490131741751184
-0.4514632115941979
-0.28893924153526584
-0.22676352412406608
-0.7447766832633244
-0.48596059157559457
-0.2999962860350285
0.22957185952335013
-0.024639357569797626
0.47098179966301035
0.49279263076227586
0.6595913398902099
0.11739533539694502
0.9004177838457705
-0.21018977182644794
0.6007794639030183
-0.8170573801316751
-0.774343008339394
0.26893247347991545
-0.4197290012623125
0.4005197457713977
-0.6064745083154667
-0.1137187107880211
0.37330193167489356
-0.42976644554744203
0.6956464810361912
-0.09269968494297331
0.9178436581702358
-0.24204380613671594
0.3684345557539662
-0.08660862336406283
-0.1335290765945475
0.22098537816685182
0.032824631414037575
0.7792039464070575
-0.2987788447377946
0.1587332373021595
0.45548573579867624
-0.17754955118610571
-0.06704519957833888
0.12518991989160855
0.031419541995071465
0.5705212232961043
-0.31568610110441564
0.10160656334333873
-0.3799755609504196
0.25891962653022094
-0.7421484260704667
-0.6864847562357417
-0.027551926817714123
0.7692012118802777
0.5249107253123588
-0.6247478133895138
-0.16139878351691328
0.39691362635186445
-0.03560417206600941
-0.3250566994837596
-0.6130014553764467
-0.506137707108077
0.23355179020989314
0.0025001660109652546
-0.10804961932073487
0.2925432739577719
0.16646765824402954
0.33862805343475144
-0.683151260669539
0.67261049833237
-0.2321639364004897
5.35393048547439E-4
0.01657307384342488
-0.006283456369849838
0.28841139983623854
-0.23806123267244217
0.26685900374818916
-0.7263574086274788
0.06872270785390144
-0.0816279818385709
0.6645810631127818
-0.7324039884447391
0.6927369516839939
-0.030445540607351163
-0.34136326920258764
-0.20995050854903763
0.27898650080856646
-0.2397888803574305
-0.724826138641619
-0.28570969585435047
0.43248416581218896
0.4219126568982968
-0.4590249308590857
0.4961301375818943
-0.5378317923300159
0.1559680990238318
0.5565609752089364
-0.2823969671577069
-0.34642914026311666
-0.7839323704209917
0.3090030458267332
-0.06333154909556404
0.3093392185867956
0.09675758534473777
0.3162428198491898
0.8056948420998891
0.26392683959439067
-0.3206440560241596
-0.2989923162327014
-0.21318407184547095
-0.37053138665926344
-0.1094546453542693
-0.5105434457171071
-0.723590641441503
-0.6734694601059422
0.38090236752200435
0.10197283381667077
-0.03755321560075253
0.36437634983091194
-0.7017872366222196
0.7453811256842202
-0.035519030213380764
0.09299310290031593
0.30554561099764543
0.5532444406729176
0.41749022245103784
-0.6626802342627397
-0.651523467975702
0.48212205036097466
-0.04045493706265768
0.3341444368540266
0.39817786466692473
-0.5882739032341586
0.3756087096239792
0.1695872988442918
0.5769344611404298
-0.009869358132700512
0.22107909432691109
0.3874263300275109
0.15756165708999514
-0.10801846794329795
0.697151603336455
0.49852717811904446
-0.5768991256107739
0.5050918516218652
0.5368952164783135
-0.616136215136007
0.3638053855667859
0.5340968718206663
0.6149701289641764
0.5545897247510656
0.9148845442008582
-0.2210691559681831
0.33797969804091677
0.42114015287301976
0.6017192263966169
0.1641438552244393
-0.43569641007421
-0.053469258050949375
0.5436503141807955
0.07950276490182717
0.33540313298334523
-0.3499483177423586
-0.8432177481040886
-0.015009329118858883
-0.5400222763614582
0.12129094718409172
-0.3737740524837847
0.79160363448854
-0.3843984391621369
0.6737239087961818
-0.038306542392341436
0.48619729947621937
-0.0017523007174431449
-0.6903916934140016
0.1168606236682519
-0.3567314545198952
-0.21274162840688982
0.9359122738939099
0.8516680456385277
-0.5500098212558637
0.5166987614905252
0.2225334729813674
-0.5368965356330406
-0.16628187762721847
-0.6454171832675675
-0.34162178471932925
-0.05508142420752005
-0.32977476385528826
-0.10986810458615504
0.09735778452957533
0.07627640523596602
0.28852627076917103
0.2229272454948099
0.024200557571712356
0.05274923620920635
0.03435168609384254
-0.18345514820319753
-0.04310947656051167
0.13768773997601036
0.09385292606703999
-0.3996968314760808
0.7892656231242255
0.8472558675359056
0.3947306608026132
-0.45238758410644386
0.3743955874884761
-0.4310588493852464
-0.8298570620690797
-0.0529418749512256
-0.5254184234204886
-0.42650006987870714
-0.20475237236391064
0.482811288508037
0.5611642872886317
0.3687100528200684
0.012087469203901913
-0.8969238293572733
0.559660219267348
-0.7695472230552971
0.2995842656938269
-0.3164646024725618
0.17963295403002222
-0.3638442770095356
-0.5434137497009761
0.4437373166554003
0.19445138992999134
-0.3104649931542576
0.044126811515458164
0.43254247636910237
-0.899733067592235
-0.027711304291037298
-0.4248402964715101
-0.4304587236846861
0.24493086029857536
0.0502662478691549
-0.6483177079546256
-0.0970440264572473
-0.31796400015046944
0.052940229106432035
0.6064372544310411
0.736992723506459
-0.6660900601875398
-0.15873769598188436
-0.10143234538546153
-0.11948930008146808
-0.078876867806138
0.5646551813498731
0.07218044143372737
-0.3457172268803811
0.7340576686746286
0.2517371641151738
0.08510292409659759
0.7062439104850998
-0.236839055749972
-0.4432731154835384
0.09289565647703235
0.44146940756253716
-0.5114111779152953
0.5857518742741107
0.5597870285308523
0.024374368086133802
0.4829799335438135
0.34327937196375713
-0.4308329975213897
0.3573598221943102
0.5727541590822252
0.04130590850560778
-0.17396160373494585
0.7235282946394267
0.08348023572703589
0.1335844357593603
0.8740583833587473
-0.2591654875675322
-0.6793998336231064
-0.049675577717869346
-0.4120164279895999
-0.0580033938463036
0.19888551970903678
-0.8198064242859691
0.28328428210236367
-0.697966879860663
0.2440801656087339
0.4102215721712007
0.8042514743707201
0.1420547492145342
-0.6315749486471534
-0.1847247847566743
-0.4508636835051022
-0.03174727065814986
0.0869013632946215
0.12130823789770917
0.005434718246742687
-0.24072527431167756
-0.531652186347666
0.1592136866485785
0.3627840449260161
-0.04251412408033217
-0.22054941701574415
-0.11179609890216125
0.2903387922070174
0.20209069449760275
0.7715385209332065
-0.1686050113040115
-0.10071086589935896
-0.47915478634886755
-0.19099027355789033
0.769775757880746
-0.250932447577618
0.08339161927219274
-0.3286109496313312
-0.012779346895809285
0.37734608146518456
-0.935338898561906
0.22431222700936426
-0.2569137935524277
0.02248716987267263
0.2975726149040111
-0.3404018929426865
0.16082057750193246
-0.8693922414889825
0.03605655497595883
0.17885176839214756
-0.041647351400652566
-0.39433522285761446
-0.6537229371586122
-0.28777704270817184
0.5543283770202176
0.056697194365575077
-0.01701617827495705
-0.06088831015426688
0.6384245308943736
-0.3599435406310454
-0.6924041211039843
-0.6824448380856404
-0.004190179318350418
-0.1675857840939753
-0.04809539559748344
0.04401664453590748
0.16146020461246346
-0.6564573760397419
-0.5796319968297243
0.0075237265981983326
0.4661313551127253
0.458445021887119
-0.3085869135237208
-0.510820347655696
-0.46416998657790676
0.37864243161189337
0.027024280271459644
-0.3762505495414895
-0.1666399881878663
-0.7643087632083375
0.13881456977916018
0.22033164392457838
-0.2426003396663653
0.5009719497681588
0.08174961833182104
0.39220239851518335
0.5800075517759216
0.4277105648247794
-0.35244731058428536
0.20346239083796624
-0.024991530971378628
0.03183677521163375
-0.08875310594486496
-0.5229661743027917
0.3874799623290436
-0.3654015687217148
0.06071718760709399
-0.49111753932087443
0.1371428654897533
0.7618854652874958
0.3184302562210898
-0.21392061562109266
0.5594699223462212
-0.33654865498366837
0.4574373133635474
0.044710709618124955
0.1989017683224591
0.6309627317689166
0.282262129214776
0.430666750247396
-0.3599112223026225
0.4197608339911445
-0.3516191294876133
-0.3252108458650347
0.02620922920823443
-0.3222256880490031
-0.8943429204230249
-0.9344739815453621
0.05524784189392529
-0.3198098712666283
0.028385685887562517
-0.6478279446655273
-0.5294745514934591
0.6622419392653118
0.24748473572592944
-0.5503424238876442
0.32690418276704725
-0.38898929064772014
-0.6830264611885998
0.7121607544046479
-0.5925491797866048
-0.21518495131309467
-0.16964432480356284
0.23008953938377652
0.30100138183271685
-0.6844588995931741
-0.525103921428885
-0.027802970376953562
-0.25669353732913447
0.5837421445904665
-0.1319263512582881
0.673686858502715
0.3045913360028236
-0.4086869251849389
-0.5856335561734621
0.24081440406208032
0.23041469195274
0.5115461128212322
0.06672139464279447
-0.1969676608040246
-0.19708643413365678
0.23630724610072884
-0.3915266453186045
-0.03273635110010753
0.6448071240089068
0.061203247518319515
0.2676438427092239
-0.12118981001410523
-0.39087432228253594
0.6014141992829241
-0.27572226057354365
-0.3176091627659502
-0.3013125270559798
-0.48586967203163867
0.4354578125405363
0.1740390182292475
0.9305312507012878
-0.15307557018846385
0.621182094715227
0.5041569327864399
-0.3340316517991925
-0.16597705508354177
0.11600313091267422
-0.6578796073962829
-0.17406602243786307
0.11938462076313594
-0.57299073660655
-0.7462465517121425
0.053822544465174205
0.38273799945176723
-0.5384465497994708
0.37847835833888577
-0.07205900704398183
0.6496271060096778
0.35904484227484623
0.45834872161451734
-0.026999125157353587
-0.3475763207627056
-0.003028609416717787
0.7602190721944183
0.0448396718464692
0.4275882486404734
-0.16354429506971313
-0.17805025954635512
-0.3951477215589504
-0.28464836856619924
0.20864305123396854
0.2586877057784195
0.5335556504753345
-0.06532639496549919
-0.015301170997491287
0.7768708935212187
-0.6715074793120178
-0.1264766651190682
0.3077285863602628
0.32020977294047936
0.36256865127537063
-0.0361604446206405
0.7507554303690308
0.37520404097002313
0.04003003479330414
-0.6947790425949525
-0.3061182631330369
-0.125355238952931
0.43044555426784714
0.42435218703286937
0.12625184392467836
0.10683085656507652
0.28498915052625806
0.06125640547554512
0.4095839741466397
-0.5218103419378489
0.7029693491196405
0.030171388281305167
0.07954749358947666
0.032643586400328606
0.23314806496227802
-0.17265288524131006
-0.31806485381575345
-0.33804309531257914
0.18635038457071407
-0.12837768663799565
0.22338493569099316
0.07399674361342456
-0.08299001614208468
0.5916125605440947
-0.17550069345926345
0.6440268098732523
-0.16967767695466962
-0.07044086409964123
0.3336287269222834
0.6257728261608173
-0.20086334810637974
0.2709090263603572
0.4246521097351389
-0.12874141040986242
0.6828349409409525
-0.41661517044963925
-0.13621514778885657
0.31310300989036155
0.8736932398016612
0.161828796325317
0.3355081884372445
-0.7198985370175194
-0.16432971260396212
0.18364515595510023
0.5010513849531245
-0.4866367373536572
0.278386678183947
0.5257860589481667
0.17537517949206516
-0.6440324149550334
-0.10798741014196878
0.2225178665541827
0.597331089621448
-0.45643140426040674
-0.3542740500578986
-0.04895407235833449
-0.6033785807757651
-0.5701199863214
-0.44620800930109705
0.451000374730378
0.1987106358145302
0.798266341226693
-0.5879492822013462
0.09036797566441446
-0.12908810383105307
-0.5021621275419088
-0.4312418487254487
0.08213545353944607
0.539777831872776
-0.09054280937615633
-0.4169361482121313
-0.22925365929878871
0.06978420720836864
0.8040794779256563
-0.08148073597903949
0.25316555211068936
0.1606244081926631
0.13920187377553006
-0.3464665144145217
-0.708369843504893
0.020957955461939903
-0.28982058595906535
0.04781763048490273
0.6102844674649908
0.29881780075724784
-0.09406399365076701
0.7108471690798741
-0.28028209594923736
-0.08548567039051191
0.2013118517281749
-0.30071434430591026
-0.7489952929823154
0.022966561400233232
-0.17934184195763758
-0.1268318621365151
-0.060352303343302216
-0.44475104745438654
0.34966739365829225
0.40305788989867597
0.2773875131135406
0.2521022770045167
-0.17587382084829928
0.22810542477251694
0.2543632701879819
0.6034064265625987
-0.34111632513841117
-0.1618113726905902
-0.3428355329085925
0.6636694433396811
-0.12325537778529216
0.17567481341116198
-0.6325345083364824
-0.7101529172303995
0.2983711763560877
0.040066098746440404
0.37602937659423363
-0.7391109679311985
-0.0794789735854019
-0.047680041106987536
-0.5535549317324776
-0.6383589635982679
0.4035977354012663
0.45615048123782453
0.3525299375496138
-0.22254997010170274
0.8422529739383081
0.13183677263058835
0.6164475406270913
0.8120172594293749
0.09513942021599453
0.08734503901561241
0.1923789799784592
-0.5574716959596686
-0.4299326042660213
0.6820018314562758
0.2503338022928453
-0.2963527264605762
0.26887446123024195
-0.04189387132724032
-0.1188234337794759
0.3905079809443266
-0.2914149459497085
-0.032425935377109694
0.3116703026891766
-0.4566961716174214
0.14195953034378528
-0.6203088370052512
0.264795404536318
0.4634086027029293
0.8285219782792854
-0.667218734091872
-0.050892572691638716
-0.29374467442820673
-0.2994077436158443
0.2171866578411944
0.38148800679277306
-0.0310676521352673
-0.18222837815709625
-0.2581561522816622
0.3497264347772151
0.6274343778029575
0.50849316834079
-0.4104758083963207
-0.5246522625833833
-0.1571840751132667
0.19489816211750055
0.18060184381287303
0.26081938024704887
0.25918917213970194
0.5081059921678416
-0.05183585653335265
0.5761847206270336
-0.5079773986926884
0.3567114916553237
0.8636369681323091
0.5463798443133433
0.07631390157561135
0.12860240865452166
0.2759804137521935
-0.01264358654301001
-0.4397524520336019
-0.10702717788621152
-0.3506744442382289
-0.5252974133147458
0.6232055504702173
0.11153118293422504
-0.29932020584571795
0.6161757986232252
-0.5471134617227632
-0.0521858242872677
-0.09761230046816993
0.20800492616004473
-6.839608100166483E-4
-0.18681031172329465
-0.35292383046655473
-0.20130567276913158
-0.46059576517525447
0.6358864086788738
-0.06859728265935139
0.07090885639091893
-0.30458738011809083
-0.1181167016652428
-0.48426802335391417
0.18270990444127255
0.4504003274538886
-0.8783511638183132
0.2823025398080725
-0.7815133734310343
-0.29080902542286335
0.20099557018955938
0.029916035619766634
0.03479625888436133
-0.0992499295745114
-0.25585266371752613
-0.02794153407739952
0.6700431206276958
-0.5543423554229263
-0.7841908781326585
0.04846024592821119
0.24622863110863613
-0.1698717545523284
0.4728234251459559
-0.717750724908119
-0.14961333579745772
-0.7269674968315578
0.48439910407494946
-0.5792697564994749
-0.8197171167841187
0.10630953567995527
-0.04118205578206624
0.2146512768473503
-0.31239123182652284
-0.24093893165687952
0.5065326058887454
0.20192773557186516
-0.4164668591815194
0.35709269235432717
0.29455359164913975
-0.05784084848421844
-0.5845236409415266
0.6379046315951813
0.05446575197836434
0.7274031178597984
-0.8922923698436475
0.4859059715186884
-0.10184511685493092
-0.2721298435374029
0.6023977930913791
-0.0761335332944223
-0.5945765979613018
-0.17470575465396632
0.6545970974955082
-0.2232357233884913
0.8968626426949815
0.8010964814363515
-0.5489217921502745
-0.1996762469199549
-0.5177714182600831
0.23622205722777134
0.09324122242084343
0.1578939266481163
-0.24882980205520755
0.621891584348433
-0.09057264194301629
-0.40842055964032575
-0.6245627111628663
0.41480789196588874
0.27229040326418363
0.35479739162996404
0.4156303036832103
-0.16983145264315347
0.015927114271894416
0.06746567549024951
0.24592743078555557
-0.1185201862739369
0.4627148875668916
-0.1319980075761854
-0.049548960079086934
0.4913939906105259
-0.6860845562237285
-0.13010014349433718
0.11181860663684351
-0.4518704045368085
0.17270696271169783
-0.791174378755319
-0.25680974139963786
0.029713622050666078
-0.4259963386476371
-0.18142716279132476
0.025984041805262814
0.7741322415656812
-0.014617035406354506
-0.035994440505321634
-0.2438451476117467
0.014484906844038359
-0.5246060322200116
0.432185664803192
0.17543766564637242
-0.0890993934384704
-0.37845030110717104
-0.6054678710105155
0.519885234421447
-0.11578064720323977
-0.06815254413391303
-0.6706545528732314
-0.41875307479480417
-0.23219878191118593
0.13991802530990272
-0.27803275909161485
-0.13029587138866017
0.4658692877577135
-0.17859723275857864
0.2155864147898614
-0.03375097940640859
0.1914488174560146
0.40521507660355904
-0.25025147760637956
-0.7528916104062913
-0.07567540664428118
0.2843865357757449
-0.6247085187519155
0.200994291845078
0.05380979503218952
-0.40717930398524027
0.11330180695446657
0.17690414929853526
-0.34717642339471244
0.45688206244873886
0.5767042863217592
-0.7256435736602
-0.3903066731715521
-0.4244111543179603
0.166245081194349
-0.3083705425731581
0.35066972015358455
-0.11305863563715457
0.022687366267342468
-0.6366606258111667
0.16559295908002636
0.10949832816763971
0.4943369337057376
0.5697658490303256
-0.05470963926119288
-0.186515352909838
-0.5699061446154272
-0.2227192787975777
0.35030435488570255
0.04684140308866791
0.11817518079767808
-0.009275729589005799
-0.10739768676846839
0.32603474341882765
0.06609231479621402
-0.43222785570627265
-0.00522963384580144
0.7119349299401918
-0.23965679255452177
-0.23843289675810153
-0.8848339459224611
-0.2073664395207211
-0.26189875105393334
-0.2630898141968513
-0.4894122876207586
-0.710086734929735
-0.38178138039176546
-0.6738984837279488
0.5766775670210204
0.32564006263043044
0.07557234261655432
0.18457551203597677
-0.24706654853269394
0.29883265082839117
-0.3964840313862793
-0.5117082492950316
-0.06397238809820938
-0.4000128443476021
-0.30935924763556066
-0.3380810897488169
-0.04863071002168229
0.5297474132561854
0.047807396767708954
-0.0806284119072298
0.22082213673425888
-0.014323202261106727
0.44762859151761103
-0.3915421518757396
-0.7259907772471436
-0.13982765089895688
-0.4839694065858938
0.21628196354314133
0.6558026711432386
-0.35718471530649565
0.04678018368137671
0.3928264682396386
0.35990380457932103
-0.0749179565046807
0.8665872292627855
0.4192535342883441
0.6939294477864847
-0.5836666276975505
0.07138169140893558
0.05421015729459633
0.8769608202605204
0.11522019678584294
0.22836869373014146
0.34249015214329714
0.8626729908979288
0.45904567075339875
-0.37185541412093037
0.6818290559531273
-0.2844199533185795
-0.12069374691462631
0.05020709306424065
0.5623946111784617
0.18383617360777493
0.27090269227594244
0.10401717854846249
0.3167804865088518
0.23391437671602877
0.05867703658680756
-0.3074541637235072
0.1864488267311516
0.07618090160369173
-0.45414008549990037
-0.6513048926173906
-0.34923253626771056
0.8627266035841217
-0.4544696292167687
-0.13904904580730915
-0.5875064244070564
0.5932425686700912
0.3181752192519838
0.5426084665917366
0.34914365452605
-0.2409766721116492
0.2674471391925507
0.05284069350724008
-0.20297073645602481
-0.07460703584732242
0.2578882982705235
-0.6863651286671498
0.12219751618388663
-0.6117348998462196
0.24580322872909566
0.06524900814383594
0.45567017121205367
-0.5257913895173613
-0.32075811028282775
-0.7946822572262899
-0.613673267295282
-0.8684904064169663
0.7306602815455687
-0.18605901876553022
-0.21059072488011565
0.417576221595681
-0.19433908414902934
0.48359770771685107
-0.3322756637354831
0.08772945975352042
-0.6010719085723227
0.3552158209952204
-0.5385541296184161
0.3168104434587492
0.06473255463863814
-0.735936729883326
-0.34514388043392596
0.7476204326767767
0.5010210072833566
0.11032375866383903
-0.4509240413683204
-0.2725889668959314
0.32446388952610017
-0.3569221930947437
-0.07605379243448651
-0.14428684960533456
-0.20247834291776678
-0.8022810917651874
0.14855749186550815
0.4678003679270155
0.20265885417117824
0.23477921735376284
-0.6957327454077421
-0.8885763580053456
0.2924759427535465
0.3355844548795497
-0.7823093107006888
0.02764417708785416
-0.4254441980985306
0.00168280783511765
-0.5966771007454357
0.4816661808613275
0.5307083104061066
0.6156441936880802
0.451038535014712
0.30517789784517557
-0.4725168387968719
-0.6933467908678212
-0.01730451420561474
-0.008507514054781118
0.3260769859543491
0.08829695914321534
-0.04899845265313929
-0.06684463565105603
-0.6477119046067952
0.02139001382598049
0.43013998038640855
-0.23135398830975373
0.03218884030988711
0.31441490210319
-0.2572374621503807
0.5821973201764851
-0.1904223867009095
-0.2573065634450751
0.03556280534474654
-0.433194447555024
0.049378837518293306
0.030252825116536486
0.8576620118233743
-0.2964721929265822
-0.1722127069312377
-0.11077854879431703
0.40189562142356305
0.3876610665722474
0.7650820843783787
-0.45743697826887286
0.11314070636732931
0.5329857365555087
-0.6294216735372007
0.6173779140244641
0.5756884776253175
-0.6486283814031036
-0.8460361172668034
-0.343983989905307
-0.22532094379240986
0.35731019647019013
0.6952207205797927
0.6055404967025309
-0.7077540771689114
0.7386863090375257
0.09446896320409759
-0.7646037901385243
-0.5079798497571045
0.6375658713910171
0.23946104182615124
0.26792566853393174
0.20830043401823795
-0.24037853162371714
-0.7832109087040451
0.07878008648285717
0.23092037174908098
-0.6661008634678858
0.205821542143533
-0.029323271205579093
-0.6696547223144462
-0.049188550189078306
0.3084116714747803
0.6400261433199714
0.3384026812912292
0.6097807278787214
-0.003180230533359474
-0.2092443423943996
-0.24791659751995343
0.8510140568839178
-0.43557663298715277
0.12758400626722144
0.7439277503498521
-0.2019279219951161
0.34554918429670134
0.12071898890904031
0.41137836812554884
0.6110867669176553
-0.6839299477394986
0.23094637402520413
-0.27914531593124015
0.5340495728065006
0.2664317759973438
-0.3434067654047742
-0.33432476561276403
-0.9269115742966183
-0.39489875136522457
0.14711719516118726
0.6230026519854404
5.504373527728257E-4
0.5111836677728647
0.36495077416993715
0.44732726892351127
-0.33326010532033146
-0.6888843253718435
-0.18450266232774193
0.26575532639666577
-0.9140486140289594
0.25909345552987506
-0.5635671959235439
-0.3312051934930046
-0.08512368618138755
0.030817777203947516
0.15382069888592143
0.7121955755313885
-0.13791694744018312
-0.1720298967626328
-0.1613595265463008
0.43533166239344057
0.8696856828992716
0.035896907388468735
0.08609046991552616
-0.424570391204945
-0.6801117906080216
-0.6173591223073038
0.4407500630087853
-0.28507798603865453
-0.19108792404805586
0.0307972411278854
-0.6498475268588337
0.30483465653209263
-0.38806290891521233
-0.04914485010685299
-0.7814238747458471
0.05295540901113149
-0.15729390130974774
-0.31637663109917225
0.08146889281055136
0.1648726749073871
-0.5358160900011631
-0.46413435917712487
0.06128809724876527
0.006571232408284167
0.3371427006941644
0.8470219719392276
-0.16380283930865258
-0.11018892905977928
0.20757097310849637
0.6214082287543625
-0.7772921985043599
-0.25725647859939627
0.43723263504696763
-0.3076751954671586
-0.15010186229860767
0.7227962912140575
-0.6749698810328276
0.39650407543540167
0.6773104518588717
-0.48489859235772326
-0.1479095144060555
0.01584454946758762
-0.09604089016910311
-0.08944803673157387
0.22990653508635295
0.46155271204958115
0.35761190790095676
0.17730760456854577
-0.18784628671851245
-0.4735722234727844
-0.019176559546753902
0.11989818455976953
-0.16235163365900007
-0.044116995787648494
-0.21008558795794996
0.1601105696354601
0.4018636208902695
-0.18795530232297986
-0.08703972866830834
-0.009146458795119772
-0.6220409618995437
0.7107187834759878
-0.5624357689025868
0.4246829243194409
-0.42910081300013514
-0.30206961227455953
0.19952263635032086
-0.4980029127397072
-0.20759728902922536
0.604356000908232
-0.9149302466803538
-0.7063090329847952
-0.2904584201390267
0.20264798695535025
0.2898951167482414
0.05627614968785655
-0.2512899021847147
-0.6467168154237537
0.12680580046815382
-0.28955633538139025
0.3236937579693976
0.38952313618423107
0.5865372090628679
0.3623478515945201
0.16317189591315218
-0.33210080134496756
0.06631921722238887
-0.5442987199573116
-0.15368685145208605
-0.5273446531448022
-0.25564503733037514
0.3567671054002658
-0.2401637277880213
-0.6284082223109699
-0.22846111797096658
0.4168901187109111
-0.2065855161404656
0.12062960931527111
0.16859451958495408
0.11273487399525361
-0.15930980436087583
0.5101412256241276
-0.2943373461217651
0.228970808344634
0.13497299966629517
0.3383400257002178
-0.28321115159331933
0.022144106723149926
0.2791563470632854
-0.309308691151405
0.3512928670251759
0.004981549682156028
0.25648397655273025
-0.2907853574341833
0.38176163970501265
0.40095718964537475
0.13622737925328032
-0.6375779891768641
-0.45168187014717476
0.8165574165848795
-0.607735295602491
-0.6029406055557486
0.07882808977458067
-0.7561925695307292
-0.19663172453147681
0.2432726468647758
0.5596979352604
0.20576688070472227
-0.11814033226906251
-0.6534346351367308
0.4407011055518799
-0.34636285080409934
0.3422899051666731
-0.4348596502684642
-0.01870762398250192
-0.6625730923292182
0.07520156944107237
-0.07440525195222225
-0.14231481871635843
-0.5120860130818261
0.4052072234841323
0.4394397314673525
0.5301484072161523
0.6514432454302833
-0.0477585253160413
-0.4723428731670265
-0.14326473661740746
-0.1044292998872044
0.4976631354478316
-0.32827453556732455
0.23066391193618307
-0.1036167060842067
0.6871457945153291
0.34680267130290465
0.3560151316359855
-0.14505989834904787
0.5531279246920666
0.1875518415505647
0.7472154883480747
-0.02647442009805767
0.20904463009482233
-0.654668187478478
0.09401076250379092
0.3762376084026944
0.833013960071876
0.15532541376242037
-0.27025287841710943
-0.7903496358176682
0.49721236433147853
0.408142313240635
0.07616779755694547
0.18913949887995063
0.3434628831358374
0.03469764042545054
0.43469993604139356
0.7797766217551598
-0.06723451205931241
-0.2686271498286865
0.3677038643008076
-0.2711158070674281
0.19653731108629946
0.16731611338038854
-0.2881933875609356
0.8423537482993375
-0.25671826541901466
-0.6636674522637883
-0.08957909026329136
-0.161308328796534
-0.11387916548728438
0.5195339163704042
0.3668557226413742
-0.3899020565282062
0.33380733183525746
0.4290521761635335
0.32477996424115585
-0.4306651858695888
0.18947736890641986
-0.19613113623890133
-0.7204848897578918
0.2830501013655402
0.07348272623713581
0.28494113069036
0.3422130978591713
-0.08739761863819451
0.2826609193685802
0.023904710727418066
0.11218458836481593
-0.15951506122758063
0.30886050058816017
-0.1498999925481561
-0.011735709694779328
-0.7124879575895539
-0.5365803099141899
-0.17973535917373662
0.031651408853887175
-0.052898438077520815
0.6589674884998485
-0.6035386991859755
0.4476748829037458
0.4222409653021434
0.4653168682695218
-0.3508013994842092
-0.4003625736334564
0.3250642700603653
0.24426217222653812
0.3918549690967985
0.27561156088605565
-0.40007204330683677
0.11450857681807869
0.1820338819865115
-0.13155226178816737
-0.08440140678003416
-0.6384296579942812
-0.6326243577748984
0.4224784798381729
0.5387502793460266
-0.08039231797485191
0.5734442588996144
0.23712996097602967
-0.6146099122505106
-0.034754177481483794
0.7698014422722791
0.3201976175299439
-0.6430711315668657
0.3726289688210971
-0.0820690960774052
0.36289760656065884
-0.7735573996665822
-0.2811039291239861
-0.3508542748641582
0.6929305511067171
-0.2086001269352541
-0.22346320974749234
0.4787660924768653
0.3300728739262683
-0.07887985293028887
0.5162694638247661
-0.05607394571957569
-0.08491756569842468
-0.30549339418929755
-0.26974953093855103
0.08356772420310843
0.5097504955994662
0.21742600555651093
-0.38758743911021354
0.09151652992734871
0.2600704917432397
0.7222329507876147
0.34429946435067826
-0.40538512808993177
-0.35866352193356754
0.14429587750516126
0.31526598873311895
0.7739414351862444
0.5157239307373644
-0.5837321292313121
-0.5111946856421306
0.5388173013274892
0.07301054478678848
0.5545433772273958
0.8254242083736703
-0.10717997656069556
0.35174756072371993
0.16243878331827533
0.08053671835213883
-0.04108723702100636
-0.5276690249911997
0.01580764292664194
0.1621410093859792
-0.2267986750935398
0.16401432690428153
0.07348302855808009
0.23187767425723516
0.4028039304636555
0.5475498402971013
0.5724104244182758
-0.44512393902091996
0.40404873455467305
0.07550313096243044
-0.10821906281324745
0.18751629777880563
0.09117214051294042
0.011027382688326814
-0.06433131905971401
-0.8430063797023983
0.9036133749761671
0.7911079229913202
-0.7839726106729057
0.25992134359891284
0.7383917932943893
0.11732349221601057
-0.5272407317778773
-0.5280594397586804
0.2793051846436301
0.63036653239743
0.26308909433450045
0.16606165133648554
0.4653912325459084
-0.5226747460048538
-0.7876907314490295
-0.5119363871393279
0.8459039694127221
0.36040502107425176
-0.21811688790638284
-0.47975621656667655
-0.3897264841634831
-0.018359744400856526
-0.26542459338827507
-0.3506895764689253
0.44616140015203876
0.3573328641596121
0.7651096844807199
-0.1537905321399472
0.28828583964786514
-0.17044917741045862
0.6699427565627837
-0.36925663757590443
0.1670378930945865
-0.18605522150523535
0.2529949450881236
0.041051992594780984
0.5867716255180667
0.3686160828800057
0.6526081988759124
-0.6281932646805496
-0.5490960911394872
-0.5526279369624449
0.3317400319994449
0.17723312059244867
0.30943467633488486
0.3650033819166063
-0.5348613960384189
-0.7672016118486115
0.27521404718478126
-0.06307710868017391
0.25100430467572776
-0.3499404967777042
-0.4453627999864336
-0.483977005449425
-0.21850262955862765
-0.1300731816121552
0.17132877023572102
0.053916377482966626
0.41426434448849503
0.4982676969430103
-0.013526208745470392
-0.39218993472830577
-0.37741179225961297
-0.4031078230912336
-0.42394896019079475
-0.429114917586332
0.3665435588336696
-0.25909609118254373
0.1296292694224387
-0.10901466405108884
0.56203367612716
-0.27977721962446533
0.03594067746979379
0.024108666860427785
-0.18764294048016628
-0.6883049199100337
0.42927080067000356
-0.7545912092679042
0.17477205418916664
0.7712406149703219
-0.15294062759422922
0.11513889490572404
0.0920466673657716
-0.1399897890968258
0.5121946509592087
-0.07931769015681234
0.06410058405029972
-0.5688660602704163
0.3689312400661364
-0.6880072236053096
-0.007447414870269009
0.17046096255598842
-0.4910001558182612
-0.5161001853322035
0.2779198303742526
-0.26425268536907076
-0.23299492300676838
0.7489424096344417
-0.2872179670426006
0.494896029302053
0.13542665124776143
0.11638317066512338
-0.3439909136998113
-0.0429302708719943
0.3859808880744394
-0.4524286023572506
0.04513504659507139
-0.3479319480907347
0.46734323599910654
0.39506735496660395
-0.13973624935565387
0.6241781564524492
0.19027430512675725
-0.2440200276735438
-0.06068558171100824
-0.06384221896474895
0.16796564272943693
-0.3301719287822731
-0.5124427237753907
-0.9524025140030843
0.015241916060783511
-0.2531806757619709
0.37854607242507965
-0.5499598191553177
0.07962126135782566
0.13653137207761024
-0.25548693363258335
0.7363379343834978
-0.5326166686410084
0.3437450282247567
0.4746375498936779
0.5320539450035061
-0.5474780604042807
0.05248642187176045
-0.41559239014510274
0.4171955890858937
0.21768176336830802
-0.2903015303754133
0.28351786747153473
-0.817849471695785
0.3025402820897499
-0.5968417856999455
0.5654442607878151
-0.15551348297730527
-0.5672837357148788
-0.006546212698445686
0.584005234653837
0.20803756106480742
0.5196312166390961
0.5716455966392571
0.10904325937629822
0.10526485522004747
0.1546609469105813
0.10011371766937338
-0.43573484643562954
0.1391195721714762
0.09325615035718204
0.40778773212705344
0.5555846502854233
-0.8510544594716078
-0.10827487138139436
0.5193591702968913
-0.06464855253100787
-0.2929912639241482
0.20836109610751796
-0.08437505068968276
-0.3186657644301648
-0.41262777775584436
-0.3194887959788425
0.3926171285946187
-0.15101605049624778
-0.4314486733392119
-0.3533519815555718
-0.7181414771584652
-0.37804163494437226
-0.017031529362112607
0.17333765479239582
0.4083153806520825
-0.13645832495724075
-0.020793654846253617
-0.003593675631459181
0.03293364800149812
0.907511327592864
0.08183434063651196
0.11016158442791901
0.13335134552677197
-0.16333563987207544
-0.042248888424409436
0.39928794983593985
0.17602229169585482
0.420862086332486
-0.04622661480680512
0.06096454363917703
0.1418142031763251
-0.35728643259004256
0.49400605713508905
-0.06557042978304939
0.678053531929301
-0.02052826284192233
-0.5832362797403804
-0.1559445591646298
0.023267150603955455
0.08314461298775733
0.08455230051611162
-0.45872216578691904
-0.6866289993041889
-0.07191984739326918
-0.6403023553619495
0.006018682139084741
0.39023455926193906
-0.10129820375104714
0.3978026135288433
-0.5824059310169045
0.3668602381217625
0.3433457894548072
-0.11449890100621618
0.3730665895236809
-0.353886118004748
0.4414344477676754
-0.28498551529250404
0.03616198525122705
0.47651217191218487
-0.35933866793342917
0.45025765382914273
-0.7473376120962976
-0.15251454558536348
0.4953010360195166
-0.06870317167220785
0.7783166358554996
-0.20789217572732388
0.2295457818793476
0.897572847085599
9.73372909486403E-4
-0.2709082610872219
-0.1250443482529927
-0.3930809235282854
0.6021098075700179
-0.38297080928570704
-0.3358123095796123
-0.012383744469971592
0.3774829003073076
-0.922380975714468
0.16959474031089128
-0.21950889432041876
-0.7497138527229136
-0.7518915109532353
-0.22980017787292029
0.1862310724909355
0.16682974681661678
0.34220218975336814
0.6515102488324727
-0.27354488228471563
-0.4152028019451004
0.19827056626842454
-0.3695304486906432
-0.29731881961006146
-0.5591764635932444
0.9484548347312804
0.1433422233274173
-0.031076867596476543
-0.07186275494832617
-0.6422211226289617
-0.8472756575801099
-0.16426357614050602
0.5292334116768479
0.031162393929369592
0.6848314005299588
0.6137208167681474
-0.4115012954874384
-0.08735971897287953
0.8049737364281341
-0.2428346760722454
-0.11458488363876185
-0.1062282134924093
0.038647502698681224
-0.12301844201518164
-0.2000304982474681
0.05620574999855066
-0.05276612934944458
0.11265026673643153
-0.3391342552560943
-0.04939837890725718
-0.053568389830892404
0.7300978766717976
0.56610206696709
0.16648985887652845
-0.10294619782424197
-0.2998874907083622
0.24570615256129325
0.23253058887535194
-0.6298625111828787
-0.02013142348453867
-0.04025442518006517
-0.03804228640247043
0.39023746975040086
0.3271905926947668
0.30269527781791006
0.48764466096503334
0.14027256140758293
0.5242137854365961
-0.23542372715879412
-0.2928726346128555
-0.07235930889486764
0.1367770220630341
-0.4836216507794604
0.810182529005739
0.42825030473132664
0.45873883021481676
6.895556076169651E-4
-0.4180689157925803
0.5679103941340381
-0.5232967507854379
0.08458969540523564
-0.05908745014407335
-0.013139393020365708
0.0760129481925943
-0.4435616196085732
0.6673262443472862
0.10207163910348271
-0.54012402824217
-0.27765963302316965
-0.05986725566243445
0.09496223855122754
0.3339310530615096
0.02785937454878873
-0.0572494120229845
0.6110922690002731
-0.1670590023862446
-0.03267675901687317
0.47450057105552934
0.15435067466430907
-0.031103498346158553
-0.04954861320782089
-0.6999031919398279
0.6936145770438656
0.21819705904145192
-0.4291777702346833
-0.2752214306966638
0.3948368163099002
-0.4331417458926641
0.7580499057335646
0.49681752478589314
-0.4220588933971089
0.3544603706290075
-0.1502650747092369
-0.5456501977629755
0.12129592925163268
-0.016678385891922387
0.5535298146139038
-0.006456184117803798
0.09468585535412266
-0.2959561566267508
0.3983198008592088
-0.13466407654151558
0.7818520450178407
-0.432893998331186
-0.41745030851203835
0.4438644583306772
0.5470360231863571
-0.08056273347555265
0.5925444595514799
-0.15082840291380328
0.16227577073964938
0.4998364637449164
0.028741620441871896
-0.1864717470600603
0.08662004095026876
0.254623773677634
-0.7209418092681479
0.0633127520257134
-0.16258073328374578
-0.3094636636750423
0.1830923668079888
0.6303666550719205
0.08270430105983828
0.5405706293012802
0.08632033233314285
0.08387505331098022
-0.21278670621730633
0.3455852680847489
-0.3990354528299075
-0.22693892109717606
-0.3144575461414878
0.3406723087880388
0.07402071285529299
0.18495083309619365
0.41305545209888395
-0.6395063156614087
-0.20152563567298099
0.32010680736366104
-0.3190086710351656
-0.42378300811326786
0.006134051070976199
-0.03613004245865992
-0.13714519041332252
0.18069406528603815
0.6516048947708791
-0.08785627499234439
-0.09752431615945323
0.4083577505987286
-0.5415131233247242
0.2522299716076132
0.354203805491794
-0.3762598060339095
-0.5745617532298904
-0.6195490210529568
-0.19758502010057
0.4653780889687583
0.043448356026362545
-0.2974931601826051
0.25216094301582137
0.1548385609677707
0.024509209293852585
-0.01074476371753208
0.060534203989435875
-0.379310205729116
0.11703838771178388
0.6161682486865687
0.45942961592669906
-0.07105215635651241
0.3032741485046636
-0.034242840949733844
-0.3045578454937006
-0.15370611998604944
0.311814638821439
-0.604102950741614
-0.6671621770173863
0.11783368991136134
-0.18420969147586375
0.3686796089889003
0.28613680841105293
0.22484559113180658
-0.2758711984418153
-0.8177900677333728
0.1938298375937446
-0.11172513175067977
0.5451626115271262
-0.05568633751718033
0.2745269768131603
0.3582232728024749
0.20496026603586004
0.17621715817465466
0.5231169659364205
0.5810286159579311
-0.06317359325447991
-0.1478000852684288
0.8294425798460979
0.20350035376435782
0.6752153814366771
-0.14724677850622858
-0.28419169247885123
-0.8549123288772169
0.027013435832180854
-0.5434069100357347
0.28941241150767827
0.554756153851932
0.08119615396914048
0.05977924286793368
0.038095230671767455
-0.32734501450536446
0.30689389450371984
0.09355739542545782
0.7813920845918265
0.09058848877711712
-0.4298673583383711
0.4950659754690605
-0.8339111119837872
0.20354703030130583
-0.32960494487665914
-0.0301172892541699
0.04886076547947271
0.4315799578809042
0.03729988995027256
-0.09109741091855361
-0.2514618753942649
0.4665981938930015
-0.2155814531377216
0.3311001274661771
0.378241740870774
-0.17720494754983362
-0.5274511277127172
0.15753385884913151
-0.44104079069658686
-0.8195904355084599
-0.11592282913578411
-0.04047005999763453
0.16131099857931608
-0.15143188366625648
-0.5009532616322758
-0.011130431064899082
0.12197880472293154
-0.371678836360429
-0.023288532257894512
-0.3327372179434065
-0.21442407677771325
-0.09075711792086516
-0.25976630419810043
-0.7478740338885729
-0.15393492924447172
0.38647717058521314
-0.39763669996942275
-0.22845636586580997
-0.7727660534941413
-0.08054295741261619
0.11141975854765429
-0.8159506623875868
0.1944335457524281
-0.13460664960023505
-0.21328650070394395
-0.8985543564779052
-0.3275722875031256
0.6145627276707424
-0.3946095127399386
-0.5976333156575565
0.43753845395241486
0.7264436464671572
0.5566945485774145
-0.37973304956948484
-0.19709916896079493
0.033431958186868616
-0.11701537140407758
0.7682594003304449
-0.11861358255339194
0.008040266837651022
0.1168885010389984
-0.4716275159506905
0.010715611101456912
0.3469687397434237
0.018255767350182306
0.14249945174864587
-0.08578851155427558
0.19707017135899152
0.2672557777147967
0.5626791701661809
-0.8765762207913487
0.4139132546480423
0.1071050472565831
0.10085819893475234
-0.07620294255355486
0.06399890172216116
-0.7934605675365362
-0.9018985120895952
0.730385649729374
0.013378993921207005
0.08518234729399998
0.20249912726670938
-0.42543399739985455
0.3503657653200719
-0.21119893521719357
-0.03995586104964888
-0.060855172663043966
-0.213130471961683
0.2709544817699733
-0.1644961726013615
0.04221078044493132
-0.765498558024246
0.43609515130827925
0.09712873122813248
0.12131875654604796
-0.09841242797275618
0.8771642110741122
-0.510052602351002
-0.13672346947254066
-0.04468369286473195
-0.5146828096920553
-0.08015829587782841
0.4488889235340372
-0.3352876947532132
0.14205143970243073
0.06283625792031644
-0.013290682866978432
-0.3746747392939971
0.20581057070158149
0.45207534346380795
0.41776747023382255
-0.017401961348408435
-0.4619932566619094
-0.24210979915905462
0.0807001982815082
0.2943058042225787
-0.6225920373657948
0.15896751498195438
-0.3112784056549561
0.34543636427255786
0.21130600951457446
-0.22460037688921408
0.03452115818698909
0.03582663733097857
0.13575877678048343
0.3550598763134438
-0.7276142839783616
-0.9566594297941807
-0.2586260347500575
0.6213207839667081
-0.526610739301098
0.3101867212625775
-0.3913335574726974
-0.08179457296216341
0.006160864197799487
0.2610939351172945
-0.7190556294116885
-0.9144668503328401
0.7643356919464276
-0.16617329851628804
-0.7832798262334781
0.10213183434010276
-0.050409327415474436
-0.1966864287433412
-0.4449690785363023
0.3364234273408997
-0.44132022340274357
0.34485468801985586
-0.1989548578746997
0.5667572807044527
-0.11977338225462442
0.8208978230641789
0.09335082524605987
0.024306131026655686
-0.21896078125436247
0.020283068249416503
-0.2674355332266761
0.29815724894979023
-0.06827725143897356
0.13556754507512536
0.38030319536229573
-0.645510799996763
-0.09347685418416729
-0.16938750995653407
0.1443503471139751
0.22633706845004242
0.39633611789292456
0.23102658518930363
-0.4926355404591113
-0.9153003225230403
-0.15744479684391788
-0.1783467873409167
-0.06311035488208083
0.25245415489613154
0.4763691389618664
0.09548163321423053
0.22173831823122292
0.4348961404699919
0.4817463423359949
-0.6698282698881918
0.5141462585817095
-0.11683746222122815
0.22398112102828627
-0.1316913488914072
0.12589084130294104
0.47141756215841446
-0.1713465094241986
-0.24518994376743597
0.10449659906097886
0.3632034016455834
-0.7002235413829634
-0.49743777180374626
-0.1840525349369453
-0.42011273521618897
-0.09280139318375513
-0.03846971627131612
-0.07853597110968857
-0.6429767744938089
0.5156400647658975
0.23145525253181998
0.45825960967457136
-0.3173665206988534
0.738879968453965
0.40860549316671435
-0.06788340434610551
-0.21558609745399016
0.5038736261353447
-0.3792064362401091
0.3147404177127243
-0.017344783945869358
0.14710959400516166
0.03668267477866605
-0.39575714610483204
0.04250567730364785
-0.28671987690379563
-0.10061634726824231
0.3839079041294381
-0.47703512407157467
-0.02902659442060651
-0.6706651915368064
-0.1533221154080111
0.8667166289345746
0.22156079182890742
-0.013690522150658802
-0.13571471976397542
0.6011640547821173
0.9780690050620313
0.6740721971605803
0.1676125091489965
0.05362373809593435
0.6834722779124179
-0.2949265507967994
-0.5485816917280608
-0.12283108248666297
-0.17396889240302593
0.31616478352429256
-0.3488021681654452
0.8357614072196994
-0.45101240784197005
0.7478551975631982
0.4870035686469445
-0.11338114375277919
0.46710365158959954
-0.7684296915546733
0.7658140959060477
0.3353029346344558
0.401669370371183
-0.15082416926523057
-0.22791588948006603
0.5946497051397704
0.1242098644177626
-0.11190188128671852
0.8347972985284895
0.23152717607599638
0.7313047359213145
-0.07558244914441081
0.5993429404394754
0.13086212872155634
-0.7975667742462266
-0.1292443485007262
-0.0401698379017722
0.09434529227492106
0.6739893746682745
-0.03349736407430737
0.1339062027216119
-0.843754221221884
0.4862982204463827
0.11730979122784335
0.34688197134256493
0.12178515747835394
-0.10225824137180606
-0.7982523003748404
-0.298180515622543
-0.5676832692226724
0.27298784424827904
-0.6047763655918141
-0.050299479524673174
0.5785018471500274
0.6633757084508504
-0.18424575394698928
-0.4299420300870155
-0.8383501957874705
0.07100401205871576
-0.8049849117551294
-0.7831710407443634
-0.25851241189485086
-0.1888391303020991
-0.1270967051968268
0.10542018578769685
0.8086279036651614
0.0016803350392118332
-0.10266857788377881
-0.22269199530050654
0.33026456263931403
0.1370230361869399
-0.010980604736352317
0.09499937853995677
-0.7334862375302701
-0.6902695323607084
-0.2530816423950797
0.7700286895812387
0.17749863178351466
0.5380007550168625
-0.24940718865184208
0.034775117079830054
0.18361192941768545
0.4637752230165406
0.43461993442740243
-0.3962201162873936
-0.36126712277607065
-0.27469218610662083
-0.0743781015373004
-0.2452930428492014
0.03656154543091017
-0.06893725047002486
-0.026646046998276884
-0.592890499382328
-0.3171671300850575
0.4861513880333015
-0.5098372813635527
-0.45505273792155565
0.8300172401837217
-0.5301154208263824
-0.24141326894938853
0.03154249183664437
-0.2621087412100813
-0.13068120446711828
-0.4476183327015315
0.9275013639038735
0.03643582861104544
0.6521576021497006
-0.08836303958673886
-0.35450637017915754
0.19423425775063285
0.751957547841123
0.649991656497855
-0.3377663751272878
0.533105769136399
-0.5010407952611695
0.7445479211791187
-0.4047577957317523
0.4979818879197253
0.5251595263377856
0.3083071471791753
-0.6707302975640228
-0.43376596037606996
0.12565617138948315
-0.20088694432368903
-0.681284681929722
0.5649764281353085
-0.5369802543063001
0.1626333358398654
0.421565457951391
-0.38187150976060924
0.8255073312178945
-0.29241148360386937
0.7572326890825077
0.6558093156410049
0.650451397843219
0.5219652642685114
-0.06348507101453149
0.22302197269987023
0.2849076471210852
0.4533737702560997
0.06692246839542793
-0.3468932227073087
-0.24362945513243395
-0.32821508160604196
0.8316038137301921
0.35813029262480467
-0.3563909391936453
-0.19503680965752068
0.4961891296526105
-0.19350388517411476
0.3341669885647346
-0.41984908019048384
-0.6185236483428418
-0.3967209611270929
-0.39043583139818383
-0.919646963944317
-0.44961918589841676
0.6222718712905162
-0.41411515561930434
-0.55696265163352
0.014720016400731506
0.2631269873717902
-0.006647819577441205
0.0922087647012988
0.14776656417539147
0.7747831878647278
-0.12044692915310784
-0.9588709996431214
-0.7399825913965651
0.1156854150085127
-0.7117827509844814
-0.5113711393415157
-0.06190322496754541
-0.31927835737177646
0.1292036959013042
-0.2789872393189221
0.3432939239881363
0.18033077719191493
-0.09228278939264911
0.010894623703509687
-0.06606486585105398
0.38130640030964236
0.6624487055418972
-0.12939134170447142
-0.4134708231563836
-0.33328515333548137
0.24825854650008883
0.59445431365843
0.34892923933106146
-0.47290718503609974
0.05055783119862478
0.687206967522649
-0.7474035892928115
-0.17724571700694558
0.46080423414033134
-0.33820845573577596
-0.20193345279020236
-0.35551423448134933
0.14659826610410776
0.10897463102704352
-0.13639723841065
0.8269267218048942
0.42890033358759927
0.25955729011546425
0.10542752411541456
-0.10059988402269282
0.4342056362550337
-0.3343703039607856
0.11707630631299215
0.19898167596724492
-0.18179771642100184
0.19217376062212432
-0.495152542512295
-0.3282414369982928
0.6504326064784731
0.11580025156589646
-0.08492859497069982
0.40369712776574607
0.04316688709522887
0.529673984941661
0.4694056786558911
-0.7620319445465015
-0.4559853131782011
0.5111577880551275
0.1490429850202103
-0.4602616547156564
-0.12274648739084659
0.16044227547796397
0.03449849410539285
0.3565887483963709
0.47394676234380706
-0.09999818324521725
-0.49716047168192656
0.1707847036157455
-0.4580265096754871
-0.06144001625812079
0.2896581641578444
0.34612193739130803
-0.3836097471642935
-0.43436661069677085
-0.22681426622634138
0.19806214109175324
0.3590985794176893
0.4812813749941842
-0.23753081608257987
0.04811024392209262
-0.5421595407655044
-0.013667396354085093
-0.10220588412346876
-0.9247831871601673
0.15960893496131667
0.0381543323552368
-0.41362018703656667
0.5049818943293218
-0.045393918455479354
-0.5864600176256174
0.0806499635550495
-0.14307402296772942
-0.09376067790797615
0.2487209904609139
0.2602303769610036
0.25928922823508094
0.04510348846009693
0.5284310321443509
0.4804822030340855
0.1487736360407561
0.5804051693629438
-0.8713989985767394
-0.06117047958055433
-0.20866447606730887
0.3509485866247739
-0.056994280388397156
-0.08308126471953914
0.501516968608779
0.3727248583012146
-0.3488116818589382
0.2781222678853562
0.38412307638220466
-0.0232856323036591
0.046766036876245476
-0.27123953892599173
0.19173030969193616
-0.09895321340658714
0.015096639805027512
-0.024168902908064727
0.04077554203266165
0.04080821351778785
-0.014208703572028525
-0.008900440483299188
0.5687825081055222
0.5254262591981177
0.03244954692375901
-0.5761488860257805
0.40276698202714567
-0.3230090460264894
0.29395787409603036
-0.3921775813147438
-0.2750243077044108
-0.6973567546703925
0.30112388426990444
0.13747386963097352
-0.22623485757611828
0.6453670929403748
-0.1645331182722758
-0.3227868771608664
-0.20705361787473164
0.4178599494513757
-0.5915967627915251
-0.3511644358342384
-0.13604921269715453
0.034110554492131295
-0.5677814478300973
0.9536085660206275
-0.29286315452907363
-0.24503479713987353
0.7759478509456169
0.4899617323666764
0.0063106391783138704
-0.465276423116862
-0.1904449394839688
0.2115514546056001
-0.008288219292034604
-0.3397627657449859
0.3672676637971489
-0.09556947667354354
-0.23441358921861177
0.27298199041347393
0.8067146348738302
-0.22253129658862625
0.6203851729838202
0.1614953850992099
0.7634520513587356
-0.1919963196419685
0.9297112034554786
-0.18891179631905997
0.41256784677516833
-0.3609779581832002
-0.7592352175640903
0.14207092585248782
-0.4165967899135352
0.2245052737057358
-0.05977367548849255
0.05069936636300487
-0.533850397219413
-0.18188396143387942
-0.36403530394937933
0.8079474355114565
0.1635805143665332
0.5522548568731902
-0.09801098632031602
0.10063392114144365
-0.16981913012985173
0.5030582697522121
-0.3120487094826786
-0.04994703093830266
0.19043295060769838
0.5110377329472888
-0.18839921960772366
-0.5594869270007362
-0.0012357629188983754
-0.36481246040346904
0.4471197910470113
0.2377703042309227
0.12493105721161646
0.13218144760018835
0.5459081038399237
-0.28299612458035905
0.24090773292477463
0.29112819223815567
-0.045656073609965486
-0.06458603468960822
-0.08728918183748768
0.46593455932895633
-0.4850062445334892
-0.19946774826114066
-0.5588993014573476
-0.05345632864544125
-0.2633562550089117
-0.4514154432274323
0.5400485599631203
-0.5176654650372521
-0.7943206896992507
0.22794910870625673
-0.018934136934430246
-0.10400237969468118
-0.033793962726412885
0.06613794464065581
-0.3257275552720499
0.11757689206206545
-0.2841960754239067
0.05725868379111265
-0.22718970655658255
-0.26724574467143003
-0.29779660016798926
-0.9532735247456128
-0.08748461932617402
-0.8098269040455927
0.08670070450848233
-0.29750971057832365
0.3631511678809255
0.08801409331973498
-0.10894013873259756
0.018594545582067523
-0.2743851070605343
0.5337246115785518
0.016246519463314235
0.1077096990608788
-0.052172909963670744
-0.49782220845029757
0.047651861363301684
-0.16744575574122078
-0.027714949552007817
-0.5652978448027466
-0.689485706373744
-0.44916318639588226
0.5266164498249385
0.7399249862283552
0.4895209187645081
0.6533709437123322
-0.40332751368506314
0.5244949564418856
0.036302949632579073
-0.5042215028385465
0.09335556583460292
0.17127483365670837
0.022579227587675832
0.3249438457162507
0.2897919031421812
-0.06854348396621901
0.4834461011925587
-0.05612621394512429
-0.08584074481588277
0.29271311313610626
0.06304124150243917
0.3408500795963407
0.03964534003437614
0.5338135902620635
-0.3093591605379221
-0.7922984033391544
-0.7291778238766323
0.7975449940516244
0.07273540207315399
-0.07735553329876044
-0.5472290946639238
-0.5934026102796077
0.5762394632761184
0.3564814472769794
-0.08072259618895261
0.43795216788537716
0.16662048385036565
-0.7343084669623815
-0.3663745605839973
0.5666814698019366
-0.2753313004455583
0.17958872582323693
-0.839852280817451
-0.21046199458074344
-0.6020106490930301
-0.3728131141577523
0.4226585568379545
-0.3424903391499926
-0.16264439872873926
-0.019887242127789917
-0.8229917647445969
-0.22320913346115645
-0.17147566363639122
9.198049927007235E-4
0.7034566026977068
-0.4177013440763422
0.4785855887685526
0.5361147056974134
-0.27565737611319463
-0.0948761797590848
0.10675943897621021
-0.693643512242087
0.22838190411212
-0.14642510907640727
-0.44397942769279963
-0.11545764447658768
0.12518512848305485
0.24474509729571126
0.18928032286223118
0.2505633358676158
-0.651754023291781
0.8593236585265092
-0.5039324546492419
-0.019019235963092962
-0.5938645277738139
-0.043756189857976135
-0.5602987373986077
-0.1403414261230843
0.4234056081407612
0.2329279441704697
-0.4464735091642077
0.6502641639798695
0.7997281403537373
-0.13586955105108445
-0.15900455599418528
0.454928785353264
0.07279204512720328
-0.4018607170868338
-0.6376700559956737
0.4177641756198255
0.4227735609057037
0.15699268432305913
0.424018564871285
0.7278235507353243
0.16252114759365333
0.31163068887299195
-0.1791302746214143
0.5523472081968833
-0.2771420277859251
-0.7608693936545844
0.9292934169640202
-0.1991738217079142
-0.4582148756892398
0.39469041490293677
-0.5402080408805309
0.19460534045865618
0.5150389612181947
-0.3940636565944905
0.1536534465002689
-0.158174776781574
0.025164191113915102
-0.25442389346081373
0.0642853175608703
-0.2757195798534948
-0.04870146993977309
0.3159411229747411
0.5309571684176805
0.1968402511260271
-0.08385446838600508
-0.7461966963791328
0.06619908710845201
0.5303658508624909
0.13141125292608646
0.9064503345779187
0.022746672620937214
-0.06282380571325807
-0.029062856415871363
-0.40051388659762466
0.6323252678623761
0.3925698947243246
-0.013227165345880088
-0.38783528569711834
0.8024320453869727
0.09437454764404274
-0.5903396545955478
0.12688358197224703
-0.059461972896115545
-0.4351064964889897
-0.43452274176052197
-0.2953044340582588
0.3326530602994219
0.03568135045504084
-0.22623445591473412
-0.1553868286413539
0.42440474951305585
0.15325374841919237
0.37706180794772304
-0.7053432962269366
-0.011916536355108365
-0.06934984034085334
0.8221848935441435
0.1678548143535077
-0.17088054455512758
0.29114739852154925
0.8199069413898036
-0.028089872582440667
0.40831054236884645
-0.1959077939070395
0.03618142863681917
-0.0967040448512494
0.30150866209724014
0.23577738368635093
0.13734723957177064
-0.4399566598940262
0.14030943111468697
-0.7048595707683657
0.3514112689364821
0.03320003847483832
0.1287999454782549
-0.7173701504538774
-0.6493616447774554
0.6957868004579557
-0.6016947768906584
-0.6625253954348059
0.21886264967929925
-0.41084898534159064
0.12115563228052595
0.4980777310002855
-0.7339213709247812
-0.15809494504767319
0.5294707849710781
-0.6778671789972601
-0.179996082669857
-0.17788189862335568
0.3398193976073408
-0.062869533242498
0.16760133374939623
0.9175617303121221
0.18596150500769248
0.8255323764129986
-0.15678220612201332
-0.4516624175686669
-0.06338990768608344
-0.2133591188234133
-0.5698377468443044
0.6360971937324681
0.8164969973552112
-0.2521934095489966
-0.280943940081096
0.5134854736107641
0.4464007156871005
-0.09902585540871589
-0.43258469108647024
-0.37041453931724955
0.6156549324762235
0.4090240196336755
0.012865200541469779
-0.7149374080753537
0.290033495401119
0.09178895280229371
0.49489521568293404
-0.38571049921834855
-0.4054477532665153
0.05822880057861679
0.5776683063467037
-0.3007310227290686
0.8354356715980841
0.6927585608320453
-0.19784349134489454
0.706123151510001
-0.3966632827833263
-0.6304893858871261
-0.2880050487452239
-0.11265311228380159
0.2393270386216707
0.4860913428788174
-0.8128698186012038
0.6793005831000751
0.2829822592284432
0.17139086707810003
-0.3569651653593887
0.20278246910492526
-0.837259904670288
0.4608028939829095
-0.24763253638928917
-0.37835535774063
0.03609783682987844
-0.5800380694481332
-0.4364076889075593
-0.45440711927258925
0.09601911788075979
-0.17597626864301097
-0.18468400431118748
-0.2741069046288943
-0.14553665991661346
0.2709032188885764
0.02190625867642282
0.6671703812042196
-0.5743525322349794
0.8847486538007164
0.4865234731587551
-0.8594285755950782
0.4169828080775494
-0.18971037110731293
-0.43751838034878787
-0.7982333599683985
0.2060257941561342
0.2876241609995708
0.2564165992803169
0.25573286543550966
0.06673976069440957
0.012553480997700373
-0.6011049047208398
0.1407967762341681
-0.7326407081781452
0.6434448944939603
0.09930986410113818
-0.26810640594781265
-0.7282635009460654
-0.09697646330657517
0.1756302074911852
-0.3374641507099956
0.31591565575705116
-0.4930531099694089
-0.42935750195750333
-0.5945094053434192
-0.07059198345369733
-0.6069194062311941
-0.1680595910017436
-0.27261272107838663
-0.5090479476966118
0.726143557191716
-0.6482992377934954
-0.23447533754989225
-0.5000632067879801
0.27801077891003567
0.041976568501586264
0.01847773642968853
0.33493723606184267
0.2046708121260109
-0.2580379029858053
0.11258342557442813
0.3570259668817892
-0.30792010064124
0.34214069657130675
0.1322438595216131
0.5804167055025958
-0.142933312137133
-0.2211295218223548
-0.8853699450742311
-0.0256339768728987
-0.43549427378823014
-0.11714728697625221
0.4209427971024078
-0.4070576575792264
-0.31871282036961945
-0.20262522003845806
-0.6199659428823231
0.2794854597627233
0.024098090741412115
0.5453580583091966
-0.1055817913031315
-0.11325653029408034
-0.6653862020286471
0.5616038449635463
-0.371977983117445
0.5952030638835291
0.027618108517890372
0.5252766638319805
-0.31529800407850617
-0.041653080174376966
0.5931728635460051
-0.7450884905358977
0.4506165574569171
0.37879925388148883
-0.38945935647267615
-0.5228129311419394
-0.11525342804130567
0.4705571314265562
0.30019003297047575
0.8367679412340614
-0.03292973951024314
-0.7791923836374853
0.40856471360366675
0.05710895536717808
0.3941667595069983
-0.11442412858690443
-0.6789647433575657
-0.27710821582889833
-0.19488538660066468
0.4302814883571966
0.3564516385579146
-0.09376245370854752
0.9562111856837378
0.1553373257172439
0.062387587492154006
-0.5629036142465123
-0.7582068822931712
0.15521041688439363
-0.21611697976882793
0.40698238149294785
0.2212585483588383
0.08557222123855546
0.5478563300699584
0.22022470194936006
0.413933715875729
0.06226397332511957
-0.4639901691549997
0.22139099767792247
0.004833038273811097
0.12235512576731966
0.5601816480177673
-0.323472714018614
0.5556168705042988
-0.32153526661634846
0.020343492594742663
-0.4987806366480073
0.4406764993977873
-0.7885045859135414
0.4073068349996043
0.3343030020415869
0.0746727999372182
0.2546623852176657
-0.2813951613785869
-0.23084956311826976
-0.15190550843613604
-0.3009299632510032
0.6373455693704718
0.14578626294661234
0.6478619013160963
0.33327457662928983
-0.25121356419734486
-0.19411017778240125
-0.664787113467024
-0.799702363231595
-0.37563218278278365
0.4367522801389072
-0.18007242051025663
-0.6069254546718243
0.1941689137117375
0.06893251732356442
0.8227384042783624
0.48050854836938817
-0.2542531024889668
0.39654992066601813
-0.17024364031973194
0.08621275490280045
0.39219112779283694
0.5357895626929712
0.6564509244228086
-0.15099933327696236
0.0463362932175827
0.9277921881858878
0.22523321897744109
0.05045474360753133
-0.013242166135480349
0.2749174937403157
0.5402703904408445
0.006951727596640311
0.6742181587656021
-0.5686200268929819
-0.015262854198365039
-0.3002523905228861
0.060553100142714755
-0.24958711941659606
0.39713131592440054
0.19398717577413938
-0.21071295777872512
0.12106645599622279
-0.022062423044032164
0.18669398572866813
0.4069999054770871
0.12358219340098764
-0.21588676914296578
-0.1163706791489757
-0.09993137469676983
0.2317859213865039
0.020416089847658303
0.46595224374791055
-0.5124804097606075
0.36852514758606403
-0.11214609555276922
0.1938517480239338
0.329749503843644
0.03574739306380481
