662888.0
0.7287572484528588
0.25471553906247796
-0.12799439361940412
0.24314015510841727
-0.024998078937281565
0.4899197895591109
-0.4473175586789508
-0.22382429531512124
-0.2736433253438408
-0.04702694165915482
0.3961972681742909
0.6682005320386335
0.13042509759797188
-0.7098095088709715
-0.20222013571263434
0.07403452156458061
0.022012743295460345
-0.12316989387845195
-0.39308734237976223
0.21124031596184215
0.15695208140677128
-0.07437757496169677
-0.8307421682559695
-0.19021196865848378
0.4352953253296501
0.309492029936447
0.1600367203529986
-0.19093208221299598
-0.8137138130997552
-0.13915893432274137
0.8545207958134055
-0.013490446301621972
0.47677756192508935
0.7280759444429387
0.20079184363369634
-0.6111143198295987
-0.03742381821434228
-0.22522625035951863
-0.6555678380525161
-0.06968172113341464
-0.37000002405165433
0.13445191673397477
0.3199489414709243
0.2746412330483874
0.2917064135905511
0.46975252654723365
0.0639710838207942
-0.4240273000362162
-0.8382780105865043
-0.040767599420746564
-0.28367983127242136
-1.0505741647430091
-0.6524529886478966
0.5605894337517044
0.5754695963398693
-0.23292025980521291
-0.01979653997591424
0.10064189726857542
0.5579750670004697
-0.6411371311796358
0.3889159321140112
0.35540850105690736
0.12135969744724637
-0.453461348878181
-0.4245302742439884
0.7553809718734009
-1.1924512889350116
-0.35445916576386866
0.32572404136381067
0.45680667761169247
-0.0025180059246947654
-0.6035106012028595
0.2196300570582561
0.6436697055049139
0.8811259771585513
0.3517891921057602
0.5502050753012746
0.23800126256755397
-0.13387491264819462
-0.31692377055675325
0.1847259941812782
-0.1682898189604063
-0.4285958844505977
-0.5285387204245182
0.38914586080397673
0.1440904500136131
0.9240322148364544
0.030488357845906394
0.08178754700650652
0.26910882729914465
0.8911011707165887
-0.694285345928852
0.05309157128820439
0.2748389211727835
1.0774294883777535
-0.03762518927005007
-0.23306223010599492
-0.6624683589297508
-0.0352418946131416
0.26232128534211774
0.6900792538351399
1.0599033707079852
0.474386530097497
0.9721002771023848
0.09029825369316272
-0.3793677266820852
0.08295910686593255
-0.01576892787426039
-0.11790244680034064
0.12038975247458517
0.5976421838165902
-0.18194054598545484
0.6989385020738159
-0.01886312880972771
0.2752563176362741
-0.042252806580355864
-0.3825371185257652
0.3440664033903242
-0.2340254321647403
0.2202341437179764
0.03363728664713364
-0.8362574982990225
-0.4066686646940184
0.6005125364247186
0.15262900903572857
0.0663679163362743
-0.08293973183600925
-0.4995905191452078
-0.32964304992533333
-0.09963153838449823
0.33974409431967406
-0.24846185346656513
0.6505043383366904
0.823591160320686
0.0484157660561681
0.2946063969068347
-0.5573841710409679
0.2677853730484276
-0.2578044527119475
0.7884645024941687
-0.25248320076500713
0.3338562056877571
0.11605019107839067
0.08715106596363095
-0.43189861539025254
-0.7593629775336146
-0.2612177333304342
-0.5611626078077349
0.277122596124738
0.011047890418185689
0.007397173602664876
0.27088483287647147
-0.8987040780815777
-0.0325821167101075
-0.9074309044425843
0.22301291120637107
0.4264426440642743
-0.6791157460883757
0.44659100130508755
0.7419264076842161
0.5170608154501981
-0.2735730518391546
0.16538900923609048
-0.8577909382994835
0.05374519443362963
0.18149292042043363
-0.18564611342829773
0.575301492438349
-0.11609414028607411
0.497000472744209
-0.36531142414062023
-0.6599611281479889
-0.6508413453577186
0.1959084597345081
0.3016043983644796
0.19236844513096651
0.5551441956346901
-0.34192123758874515
0.26763523506739145
0.10092324147575255
-0.06210718376733783
0.41167514260158555
-0.49910523371057386
-0.4861696894886395
0.3386864363126515
-0.25603309113553796
0.08142424113880078
0.12834600274539737
-0.20882504616845632
-0.546993755155535
0.8111235272906987
0.11042801238033349
-0.6394574371405074
-0.45160471524769996
-0.07046159147446414
0.253980861260355
-0.3700170374691064
-0.0278233626577358
0.7125944827405033
0.7543584649022501
0.410684518555685
0.09797098664626153
-0.3717432139317927
-0.43695930596619365
0.5476337348964327
0.05326529885825025
0.9266762645407287
0.13109042196880633
0.19591714364530358
-0.8742466640791569
0.22131921084653455
-0.11822470175587216
0.07615425690854977
0.22439291425070637
0.4519465052561511
-0.3698776689722224
0.04589182098747363
-0.742267808502338
-0.4001042654522675
0.6752762120253357
0.5868321968233036
0.06953743337613238
0.5578426605454969
0.23252398051586742
-0.6458610455364554
0.24891917915521408
-0.244150442231855
0.042610555281230075
0.7813493110217544
0.08808326485074319
0.2657844524090495
-0.2505623553819277
-0.20581542574812123
-0.18563087220002686
-0.1693639555867374
0.5092018075645077
0.993481607875076
0.2033292846076651
0.3259423673172699
0.05427637277221942
-0.5680192448201187
-0.03458672012722647
-0.7782889471911654
-0.005151065176019242
-0.3450348034938301
0.5563786718008733
0.9016716406402628
0.1476283621915609
-0.0775006869366009
0.3087301306733282
-0.5418386487999115
-0.3907431455707273
0.8256605742317762
-0.765140569216948
-0.06979797344264936
0.4848656246737852
-0.8771982502044323
0.8851248780963017
-0.3849056168021979
1.0160987909896901
0.20664199597025823
0.5773741245962349
0.09281646048147393
0.19521393091719974
-0.17227504475145528
-0.3238966822369421
0.13012594284847434
-0.5372149246965666
-0.10489798133852853
-0.4215689535412981
-0.9081334121452157
0.44959585901721244
-0.24132056451736253
0.5358270379752018
0.7114509423885733
0.4061263957734079
0.4015869505875101
-0.569987417162698
0.9539338090248582
-0.10269774867099167
0.08843037206052065
0.1795533326560293
0.02628000928978219
-0.142510048898839
-0.6097583060520735
0.6892608164019137
0.13830313158924326
-0.05623721643060489
0.07950301807037982
-0.06616551860808476
0.36299877526005514
0.11743380041715715
0.5963593276901501
0.9882052358549743
0.08406412813348121
0.09853242050598199
0.3122971764012862
0.646894247506195
0.16286976562058914
0.26943986959875194
-0.12627349158115792
0.2866261858511646
-0.4751104739274704
-0.6713872304018613
0.17858233732146878
0.5572206677837636
0.5759955223701846
-0.19837879699980393
-0.7364863599915514
0.7661668845464162
0.5986657251063219
0.01008638151371069
0.5108909119036253
0.8026581801743787
-0.5913101498762049
0.9014896834289347
0.29499653086644534
0.19045769374708277
0.1607042266256133
-0.043932680125863696
-0.2581916909634039
-0.2797916321700258
1.0809750508234102
0.14589157225540517
0.6395690238415591
0.018883971464430258
-0.19015709742369963
-0.1576512670027913
-0.4085046291355972
0.049024379278740815
0.043973712577174834
-0.06174781126820106
0.3873630056551963
0.3632335392208946
-0.08079767479910419
-0.6317162629279774
0.27007673964223294
0.2483181207827751
0.17195733660113782
-0.5295056268767888
-0.7205579393853567
0.004958104655283249
0.3518366935275119
-0.3892952514298554
0.32589095229641174
0.3371985490098828
0.06830383889912431
0.22016370129873214
-0.12022151860863967
-1.0743493619716646
0.7136900347817957
-0.20228316853701178
-0.21541846915890323
0.39515272250592925
0.30225986566430674
0.76236222985511
0.6800590713179079
0.5633544264613962
-0.010436222155580044
0.3149825964903928
-0.3743975213960288
-0.48438919762870974
0.03866933738097873
-0.16824779496927456
-0.17454264572730532
-0.001139076498206909
-0.19403058809774956
-0.45494242993514816
0.9883608665961079
0.3734454170195647
0.4372479154241796
-0.3344525221899797
-0.03414342009651017
-0.06975264377297175
0.7589672556069491
0.6503150663357953
-0.2976319010458168
0.5835294254128262
-0.6883976649764576
0.31067985463040637
0.8063008535835621
0.18389521444235535
-0.29421666930541235
-0.22443931902664635
-1.077461200150712
-0.3140808316295868
0.3221968702443544
0.44443245230104156
0.2957008766500596
0.08722467787034102
0.24297264318771206
0.50166881875345
0.06170397181068817
0.844602804143769
0.7300003929537435
0.19366915154138198
-0.4242031198870257
-0.36676525914580627
9.681470858641239E-5
-1.0106870397772028
0.15135758646747055
0.5007766387849653
-0.7246077514430576
0.9747456051281539
0.0744462519805392
-0.9079569857325306
-0.22381537537699636
0.23337907650393347
-0.12791484501587466
-0.3011491730377952
-0.3425371446843338
-0.2897142393792034
-0.19172451216862757
0.22661468703378634
-0.3498204047946439
0.2826029124081435
-0.026483582372850784
0.144309126359269
0.5508757294987987
-0.454885623357202
0.030586798786513075
-0.1935292586488395
0.6870836974402315
0.3117316340010519
-0.15443883288906296
0.28840671591642963
-0.38274397346035005
0.6916932243578631
0.17870440100136725
0.5327194236783078
-0.48375728124274775
-0.6349938541785043
-0.2880826844472271
0.21552289829046198
-0.2188516481249281
0.13362054960215422
0.2977426253594413
0.8405346402356775
0.028295614097011628
-0.6595639876198993
-0.3680808306235925
0.7060191641793174
-0.05931882457243151
-0.2014047258917533
-0.22438095009324918
-0.2951491430352803
0.8458842501840335
0.48664694502958117
-0.08910705484238174
-0.26594854098191945
-0.2756396693680422
-0.025493296659618747
0.21561306697788815
0.5437176956972744
0.32672868708276886
0.049984658866953385
0.2566460132895414
-0.7772431469217707
-0.7023034300861015
-0.3854418081173063
0.36209793622694114
-0.010291512332448266
-0.4169263370116031
-1.0208694981891484
0.46626926530672985
0.4459785477053997
0.0717928891912089
-0.5021946240467373
0.19079371037059667
0.7865649589686272
-0.07999087732220482
-0.18555144562842874
-0.1736100014220391
-0.6134400212884334
-0.033796352691450635
-0.029359117283942505
-0.46957216354936965
-0.20738166016406562
-0.055099238156482794
-0.37061420360997105
-0.45118750735327773
-0.35524794920645997
-0.2729562807355455
-0.447819001545963
0.18884545155102128
0.22109058479115856
0.005530512585935071
-0.7946150688930935
0.10750631634736578
0.012186563571582501
0.7771121990467602
-0.03770951748025528
-0.1280237059515204
-0.4794427002578736
-0.018391039376390972
-0.2351881630308626
0.12826387672283301
0.22962165385152372
0.2671289245149418
-0.49352933653392866
-0.10356124764753727
-0.59309273068278
0.45501433892102633
0.197689150670197
-0.26311617816802507
-0.2885902524952689
-0.7007103345108986
0.17135253929487473
-0.687801707985212
-1.3453156354501368
0.4290133006089533
0.7672476594325357
-0.7684269822946768
-0.26199212174064695
0.900377805548481
-0.19528252982553643
-0.2781920447714063
0.3084984168664621
-0.03622684874622985
-0.09509895523494982
-0.7292567549599908
-0.1154610020409674
0.33214811579761355
0.33686287555191813
0.03320808318459362
-0.09211458192405386
-0.3974820383208889
-0.5707351794573182
-0.36640213507159264
0.23883001239977442
-0.2872344804476755
-0.7435676530333235
-0.9477555653284588
-0.4136045471158688
-0.1391370605203277
0.12713258054458518
0.15042502566155252
0.20216699070399402
0.05725895531397419
-0.6012660115766701
-0.09129730168678829
0.17008875828308678
-0.29276325019888505
-0.44235432968464494
-0.27341459801952084
0.6134957440988401
-0.46136474098407754
0.6597941155069906
0.14637465990217147
-0.46993241499075855
0.4954499872190925
0.15727759392194393
0.6462365879813066
0.15590453894195327
0.3623653878035682
0.3352677799702177
0.18390468358923606
0.09371827521038012
-0.2005687224270324
-0.6822784432183272
0.2949033154213263
-0.3446953950948972
0.05842029454994513
0.12105061004526724
0.04093214663473019
0.5247525451950088
-0.708898059130364
-0.6192371659204635
-0.20609378973901296
-0.6309613873787376
0.404211289155849
-0.24492829815835765
0.4077957610860033
-0.24843782164937084
-0.39812029215723815
0.16251204531527327
0.2138545501685965
-1.001221303722894
0.38128946083165377
-0.640773937544168
-0.11556649726023493
-0.6762310656878825
-0.3215913658397581
0.0328352471446115
-0.7266259299759494
-0.4947143831733275
0.8081653819370999
-0.45681180886066947
-0.1602106452338008
-0.6416099149805733
-0.17201826428702258
-0.01576523919970252
0.023297891360632983
-0.09217195148687732
0.23642936331706624
0.7596686387106469
-0.42317182339456577
-0.17480538095173326
-0.23374009187561381
0.3061186964739343
0.2191648286342805
-0.38504246325109825
-0.8472356258777981
-0.4624593658724232
0.09658865704192063
0.018284971084869817
-0.6616456776874144
-0.072539642872224
0.738619217552277
-0.30371524341558714
0.12581789232779395
-0.6783387989655002
0.525355095225457
-0.6613787428836506
-0.1884377441202041
-0.511388837430736
1.0723349827189923
0.7505708970926197
0.35313469285164195
-0.17155455284347754
-0.5786506605000608
-0.4344492582908632
-0.09059634082711085
0.7171020139389983
0.7236772153080455
0.11710440804963292
0.08379832549581245
-0.6458066039625677
-0.6572103829983902
0.41001175007580076
0.511573007327175
0.5780755073329531
0.33334860546468664
0.5659162726200122
-0.31419132013544104
-0.3108169911962778
0.26279060119335307
0.8894527788834687
-0.13862760586468587
0.0662953816764753
0.056261088091538194
0.7226514393504941
-0.4822080916880235
-0.2140223129549978
-0.6403661669682683
-0.04687193642237708
0.5896647374881628
0.6148061539561924
-0.5532082611182428
0.5655963777335932
-0.2879404793453954
0.8276847112981836
-0.3112084592468841
-0.20947522024599916
-0.25265454222274475
-0.02224315025789042
-0.12462604008086922
0.7180772846895104
-0.35044708042146483
0.4951562963656875
-0.36491782839896747
-0.6467325785855501
-0.2560909974708067
-0.30114320130342753
0.003977763631352683
0.2837685764755257
3.304695541570257E-4
0.051541600305900735
0.2507422678674786
-0.3586672777267643
0.5087814628770468
0.24742015662824907
0.16786920966327112
0.011502051905615929
-0.21589626390570232
-1.0457576191041085
0.44601169664229035
-0.2799963084892839
0.10354041090137557
-0.4110100535271819
0.024188258567403947
-0.32359444125699105
0.5009287973813331
-0.35741624905544617
-0.6342101531729915
-0.12252511191802787
0.9473618337512598
-0.2723177079084843
0.6296573646813823
0.21987397557240274
0.5220365383323469
0.11402982167749458
0.6239301111099002
0.21571372588914323
0.380420100036707
0.3042681286342011
-0.22537264623156686
-0.4791943915692026
0.15337136172127028
0.10992267331807101
-0.2586638848592996
-0.009619405341551535
-0.14317188904170547
0.46957817267292945
0.041408750348199214
-0.9202533977148333
0.22948837906369302
1.1291786430077069
-0.5992130725987672
0.789935356181666
0.2050241619805755
0.1595501495707405
-0.5275689850642064
-0.31305322867094504
0.6512324396949501
-0.1800356628854371
0.4828942699902245
0.02141120785042261
-0.32529349078491615
0.31169465552255415
0.8581619554356359
0.3720470953874689
0.32470094466262406
-0.6433826342080813
0.30895806332880327
0.3926227861134969
-0.3106838576223845
0.3771322196328062
-0.2357003316364583
-0.4506742423792724
-0.13567979778020017
0.7911867856540749
-0.4334743592430212
0.1493755159003435
0.014503718716493613
-0.17989526817431822
0.30607882689520993
0.10212483879700149
-0.09265971470678172
0.23592281904561044
0.06881715506367202
-0.579423504669651
0.18027353467213902
0.44971413161794227
-0.314790007558544
0.6432383914311032
0.036355324566783496
0.4682721930948708
-0.687669839555544
-0.1075731075955309
-0.2659920206546931
-0.5520753211042065
-0.2023627973179768
-0.3147673576780937
0.17491035117071477
-0.23172508756327853
0.08746490729392467
-0.2864752083277339
-0.025689337765877243
0.5340367473318943
0.23948586872086278
0.33556922632551256
0.6979233683539239
0.005233467449113967
1.1680064409071211
0.009974553083428053
-0.5405751051421304
-0.6301502033483579
0.7053707929777124
-0.9096994469204602
-0.09415518135722613
0.26880591243730667
-0.006240143819317062
0.34956628895565783
0.1065435116844832
-0.10803925658953792
-0.0011617412127490345
0.38784693474322984
0.5019248226299389
-0.35900340874267544
0.5271346965572989
0.5800297700395942
-0.2442620223195637
-0.22175018626461826
-0.06719449442032942
0.8230280377183975
0.04423223641113683
-0.6543156265313019
-0.31700089503158013
-0.4434985918660819
-0.057405657024397476
0.3851888237279492
0.8273620421083231
-0.09274690778790537
-0.49223370996449545
-1.156787377719495
-0.4187615818609689
0.00691222745737724
1.2601719465600638
-0.40731011462596256
-0.12352386328458205
-0.35760402125516144
-0.04686339503508723
-0.38106617025722045
-0.19964148686892638
-0.23106257161511767
-0.23539682548232427
-0.08185710319482464
0.18713433197892393
0.5665205655913359
0.07094884055634672
0.0011679159168275638
0.5072638350148903
-0.3492397155885596
0.9167970410648869
0.6143854852676142
-0.16394465088215254
-0.7347598900746208
-0.42669685636120813
-0.3066235024735854
-0.32385740751252323
-0.022128995487741287
-0.10781100423447551
-0.31124189782617095
0.2239716896498924
0.3169329340214816
0.5236555471322784
-0.7196963681318644
-0.07807284801950987
-0.46642757864145123
0.04032004070374631
0.08687119931975483
0.3953532039946033
0.7733371225689063
0.7358569316613154
0.8017044924075388
-0.1821555584934592
-0.3922883423561212
1.2423621261638196
-0.37796987256068376
-0.7432676812055707
0.12077497762210032
0.6007953275880712
-0.5299694514944466
0.08591383954913161
-0.07199915479773862
-0.3778514310268706
-0.7055516710555547
0.7402455164612591
-0.5697090873180486
0.3891233496065213
0.6102910827819734
0.6218516064513233
0.39401880463627337
-0.5228903507240462
0.790607009651944
-0.3567694740164199
0.4421483823295062
-0.050441141099773476
-0.3164473534628299
0.6426932379347726
0.3362508642387251
0.33112061954189886
0.07978804078354376
-0.8332423031285188
-0.27560952473978073
-0.6200614594355686
0.660960500420388
0.42550615944504155
0.1444225562004976
0.1066695851612342
-0.16230851036523852
0.04428092586608887
-0.15525008910707805
0.25467077058157295
0.12714557798543585
-0.39437118622883954
-0.6531384031855453
-0.00743618813771893
-0.8956496987986257
-0.5020159002543914
0.22980649627168354
0.24797550773818067
0.22776943554433837
-0.3918003831351109
0.027222105286280836
0.24501130589636835
0.19052696550915338
0.08125236406638456
0.43621386698661707
0.784899868541861
-0.36370366200973714
0.5904971901269013
-0.1144527385577493
-0.649534088774611
0.04379368159577807
-0.009644898913279937
7.785646622441578E-4
0.09912556308029877
0.010989049177928534
-0.30541759715031713
-0.21401028174489736
-0.34763437051120016
0.21193397722679583
0.29417343147670644
-0.435410246389485
0.3517892654282254
0.7701765914622744
0.35747321636890733
0.08900970072782574
0.33450969612017545
-0.1845477138992327
-0.2528451687451471
-0.7699115579928012
-0.29275057566935725
-0.7676959191490421
0.11001319968052735
0.18947372869082604
0.3506103054039646
0.715930702081122
0.056755210185464255
0.22532029745378968
-0.5111224233425304
0.5213254748137477
-0.08289649878232475
0.9038121595528075
0.14361516472286007
-0.7109577557539216
0.22489367397909654
-0.19405811665397177
-0.5289450403013793
-0.4481161836123253
0.15131593942500343
0.38832783529887216
1.0720430138362644
0.2800306539264373
0.33992880761842476
0.4406720377843343
0.03852866299790424
-0.17227631057400636
-0.10374614875734922
-0.17237605854643911
0.07984084513052767
0.2652432879599586
-0.6473365677094689
-0.2754595825490136
-0.41543755907993907
0.03318046252294715
0.08840921181396239
0.5814932004214376
-0.7128801997966496
-0.03176730515017698
0.6537128791012251
0.1774165030578747
-0.5330991270755524
-0.02612796388821019
0.41617453289822104
-0.3453923639846286
0.08623632851560473
0.12159584500546297
0.00466694342577223
0.3613380716983292
0.5674187820086962
-0.2562686524909861
0.5234796169239642
0.905136121630734
-0.09378949994254807
0.47694903202862526
-0.578579710144597
-0.499287376444752
-0.3682794350474992
0.143445750334794
-0.6286001475726845
-0.17795283156659658
0.22882625723886985
0.10616917871650933
-0.22484307234075165
-0.12774717120116388
0.5302717593920037
0.036039851763491476
-0.07769013118317872
0.2892373039555034
0.23351471304838733
-0.8868072753625225
0.11563920063157522
-0.8064263969653664
-0.5042439643599687
-0.2180280033429507
-0.72671769198862
-0.5744699570050386
0.29484800053034255
-0.13371584606027173
-0.06305218585613828
0.19229675246265288
0.8066308352415494
0.3541332662469204
-0.7753335010029154
0.2723997440263883
0.8720755051004115
-0.2065487795872866
-0.15719324962550252
0.09004826187515835
0.6935332893673678
-0.37287620070391003
-0.4838618853734065
0.24393113514620382
-0.1464607287379915
0.06136263095752055
-0.5989125669399024
0.7433505325253982
-0.5396109463391199
-0.427355573119429
-0.1031714174878939
-0.3346434763661532
0.47219111744531733
-0.4339136988137114
-0.6971880223967739
0.3474042495883828
0.4005074160133308
-0.1707287239415676
-0.7283653207408965
-0.822439427523757
0.6062530936323929
-0.6409288878954069
0.07899663798975794
0.37788892180884226
-0.3345708543864141
0.48222312883565616
-0.1371142141616056
0.002812219052090087
0.19143553239383648
-0.5272852735327496
0.21356709197245055
-0.1787797428099546
0.3379489816131288
-0.7147777011159329
0.030254892841101652
-0.10134018076774387
-0.1991972128467003
0.3353568735597773
0.2498011261670925
0.11420186200452007
0.158596110613532
0.8029017947640591
-0.3840716828411044
0.16539105530951126
1.0107108128378839
0.17043646014770103
0.8028906653934296
-0.20451395302998135
-0.7565096358714445
0.05301954417211385
0.5635964375978417
-0.37398186911793196
0.5258380569693661
0.6330155504797556
0.11896275921656807
0.05069171723540586
-0.04554172674024032
-0.547685064047905
-0.789683351461161
0.3425526642585451
-0.5840925287109267
0.1414621587242256
-0.29495011000635707
-0.11229059576771622
-0.3808296730499898
-0.055287928651626336
0.17722151345739096
-0.16243626617260976
-0.07794619707764883
-0.2886945786736775
-0.10277612523860438
-0.331661838894452
0.282684886776149
-0.2335901659861084
-0.1287122157998657
-0.5507315032664319
0.39887155254587836
-0.12041655336538445
-0.48217027663803985
0.3531152355745769
0.09701251083884287
-0.18941212135510838
-0.5242980730667346
-0.14836486678892924
-0.5986512649646392
0.025084681866983066
-0.3052899282752624
-0.09368839664350147
-0.035944624175512044
-0.29878460983847166
-0.39076265332518595
-0.44535335884642846
-0.7534660170557769
-0.22806500381773903
0.027000982020746793
0.2404410251489867
-0.08755312288375705
-0.7863434253665205
0.2658197069869148
-0.3803612332684581
-0.15616856285267006
0.1983232051856194
-0.14689544765801965
-0.11792074723893546
0.17135594363552104
0.48986571472622764
-0.14533281197260212
-0.7954887713411724
-0.05685614103978302
-0.31424685677202596
0.38822608059443386
-0.06497757161510394
-0.08087166029247063
0.05545664690173863
-0.11507717948987317
0.40563757676201795
0.31520969228311313
-0.5299050219083977
-0.3315367914153228
0.3817545795974267
0.3579964961725449
0.2932645669887505
0.42055521176363675
0.12066266081824387
0.3612610306433882
-0.6456401047972341
0.23249029758016174
0.08149576085689503
0.18967837883470534
-0.4564698794256873
-0.5278590393096945
0.4225169914362227
0.21309856987516063
0.19063952249469446
0.7434597695980186
0.32165872052434263
0.057264572614349
0.6166279000580823
0.033665656398787075
-0.10266048524849819
-0.3455331699238242
0.018309660186588417
-0.6094377698865401
-0.08773338281536236
-0.14136238679690544
0.0748566505411431
0.42318243703439856
-0.029594427226014755
-0.8143623497603689
0.3290114364492776
0.3314683763913401
0.33992537191395344
-0.9147838970964834
0.27420908434238445
0.29435125788735417
-0.21644963440026332
0.09453750212620826
-0.48375768845307593
0.5181703730124774
0.05145624267845118
0.037767205082709907
-0.25121480205773805
-0.18455917881526535
-0.08091760814812068
-0.3920511593284255
0.22467402552779123
0.30823094936032736
0.4842985842071772
1.037756002852024
0.02626784166964901
0.40971109878007705
-0.35637132627286316
-0.3530129242821297
0.14944646651379365
-0.39592532760678656
-0.10407668772138003
0.012566180401376796
0.9807138684429567
-0.1586703899258395
1.0070083452086847
-0.43005891125366263
-0.28225011353728896
-0.2657300151068074
0.14228176097991782
0.1565064200440877
-0.7499323993617676
0.17892136074895776
-0.03738433051834339
0.8821897012393652
0.7473194324560621
-0.19127190304285244
-0.09125579638221809
-1.2427923774019585
0.9546066315967848
0.9113433670884952
-0.45277167082497755
-0.3506148967741412
0.34391189175247877
-0.01708662104849934
-0.05346645176251188
0.3150253606049591
-0.37098404065687784
0.791866783438315
-0.9001609275891229
-0.40149027426318945
-0.4173758004764804
-0.30320124459245457
-0.15955077580086713
0.19719957315330194
-0.21679031736951787
-0.2199482010622414
-0.0843530140120835
-0.41683953307677823
0.6270663790071634
0.7792082173925292
0.032172462502331384
-0.1383720990058588
0.5992806756673854
0.8449670585145266
-0.7937923319295415
-0.22820459658430697
0.14534451859224085
0.3499539206717037
0.9326452248246985
-0.37053097118764655
0.5058890481930688
0.23888376914459264
-0.14984575927192267
0.045313363155810804
0.40264133158604565
0.8415398593337496
-0.259639400070065
-0.5241426506550446
0.05648844350273435
0.8275874029015204
0.27751934220016045
-0.1329839078707954
-0.2678046453466476
0.005859492831252677
0.47562933032572663
1.0475671068774668
0.36493067905696175
-0.11376254924869367
0.3849286921309577
-0.347331198283572
0.6492158559773542
-0.7498812201889953
0.3263424994418156
-1.1038073654461424
-0.05659045008054227
-1.0312451297713308
-0.030224340775743957
-0.34326981200545775
0.016448932544585744
0.428428793192045
0.34382740649065613
-0.03652226078539838
-0.014486174601293561
-0.050344077846319446
-0.36532027384392785
0.8654055079677153
0.03700674523650527
0.1385785079122926
-0.309987094411446
0.15548367406539454
0.12527251217608798
-0.43296354642530815
0.9831508061651266
0.14255602776470305
0.11690672237547566
-0.339007683243623
0.1842654147069117
0.3055795706365715
0.29600616529929813
-0.4415930593737736
-0.21072130259434552
0.22335086598112547
0.562150981582425
1.1330022062739005
-0.34519906161567526
0.17492152861913043
0.12246861547420851
-0.25420186702970304
-0.16724695082642194
0.7901600477030364
0.4875295250432934
-0.40328590238363504
0.22061437715544469
-0.10538264032464884
-0.3717723051672162
-0.3136673013785311
0.18729832140052408
-0.6473884977597585
-0.1593749604187279
0.3190084454007965
0.23938996273950214
-0.5610922355172067
-0.39155508773699416
0.09689332864523427
-0.5375756151342753
-0.8723791538492602
0.16439396672087053
-0.14954577223846197
-0.2155324980380172
-0.7023944350312245
-1.0211887494775345
-0.03404852807614013
0.10484415242689402
0.37165331576885763
0.15966063375089806
-0.3788783065971783
-0.127756289238247
-0.2601052686519896
0.41564168227571874
-0.4939074787509298
-0.6958077945659774
-0.4968186618348861
-0.5229337431301074
-0.3846250149680568
-0.13200750297742478
-0.713366720586059
0.17740148975475356
0.10092959592179646
-0.1040087678415102
0.13847735868214595
0.5204458752894862
0.5922665480944931
-0.011440275910838765
-0.27924679786865914
0.6858998839757662
0.5662949813756064
0.49865726531745325
0.6942769207534949
-0.21560128954058846
0.574309312718862
-0.12998663071926375
-0.31077637499858735
0.31890981258932705
0.25451493020421445
-0.33571435859051824
0.31078724167292215
-0.6074194435487379
-0.17084467093989184
0.3112614380203935
0.28189844861730357
-0.10187703981361207
-0.3740533642897884
-0.18650940176749736
0.7370240080828075
-0.9089538018008246
0.6453915091800557
-0.6870777632423297
-0.013233495398082967
0.5635876584785868
-0.7205142125611876
-0.46720961241049386
-0.7638498377908223
0.5389215307813011
-0.3623808754736775
-0.5941720415843883
-0.3457903285045393
0.14785895960402687
-0.7430116282127955
-0.5760437628122986
0.37091236737688593
-0.12322196981302014
0.46638339096269554
0.3082410371748677
0.086177217715431
-0.129424420026153
0.5666542751854974
0.12396586523776493
-0.1424419508545176
-0.14827344871040352
0.8793612747709862
-0.15437807861634756
-0.08043084455436403
0.35204256443994963
0.36553413394124046
0.38940231457263896
0.9574835483287265
-0.009605446306428497
-0.36814831941392606
-0.04794024469523617
0.7417067503075294
-0.08473387387198278
-1.1051074301274777
-0.35205817582829974
-0.1532816344151183
0.005543256469015689
-0.2842012539862527
0.47639184467376683
-0.30470241918288343
0.28953698823721086
0.4483357903767522
-0.11023936460703315
0.312665546018445
0.15964177657848982
-0.2593891917356155
-0.09627866047030775
0.38368372787824623
0.22454023111940072
-0.4848429114331006
0.7617690827427344
-0.16271160487732972
-0.5933927954407345
0.4257081397481946
-0.0369422941383023
-0.1701689948401674
0.49441088220801055
-0.17235572289735768
-0.05578784297427865
-0.9071718563323631
0.5472765632813741
-0.6635107688403066
-0.7783389136730343
-0.06814841471120284
0.4127359841217132
0.06507394843680063
0.2514875361283194
0.3545659218267818
-0.26181939768794044
0.025935775008282758
-0.4031971038491131
0.8686169160209745
0.2080074883283448
-0.39207740034574196
-0.26716001517265986
0.3922177577670195
-0.6111442873697215
0.16943719047345873
0.21157436057946355
0.585871583196895
-0.4187381332171181
0.23343333629623864
-0.5401730527014916
-0.3465002239989936
-0.5858933893631388
0.506735025878865
-0.6662531011704285
-0.15211855854062978
-0.5348970742625097
0.7493818832269622
-0.3398419059140661
-0.7395716290901357
-0.706780690478527
-0.46065587030022004
0.3568837412635948
0.84231944314806
0.09057337629118482
-0.3162583830795953
-0.28062016583570976
-0.03227750855156574
-0.2597328838019164
0.582628619632416
-0.4161797136003724
0.4198525476800403
0.1129000463237512
-0.2551876973442676
0.4938865453402108
-0.38734477979899196
-0.6314560270669026
-0.20658993175008195
0.060224137712453746
0.7767349930639368
0.502150885150634
-0.029201315798851914
-0.3714923579027686
-0.14105521396859486
0.6053141836091278
0.35940974138344894
0.10624132030199608
-0.16609523253235042
0.5074826864212334
0.03525118727436993
0.18340291241084955
0.4135508825636508
0.19879677182172772
-1.0663988420398505
0.16474882166434165
0.16607660002944866
-0.41784195887359277
-0.523504674019489
-0.676693715502106
0.7208966414822731
-0.5961998305620959
-0.4812723641424962
-0.23211508791230945
-0.10659528377209176
1.0108067869740267
0.3688131181291408
-0.15628254391094376
1.016806341995075
-0.6106079075765074
0.48535216262921455
0.2341305984942098
0.1800792777398474
0.002643415787736997
-0.3202157865719275
-0.058273436176124016
0.35921977947190753
-0.01628891743971235
-0.1043235228723118
0.6125525477218622
-0.1027430674298355
-0.301902148447564
0.22233548391743513
-0.6814472760796628
0.4864584635835049
-0.07741815218144155
-0.1713562577097862
0.06023880230646986
0.20503401127313955
-0.4917373042666778
-0.5746525919558377
0.18709109697298273
-0.14233699436627167
-8.43801393222046E-5
0.07476164349391715
0.20200118823803231
-0.36920112407737804
-0.4530131862833944
-0.5529513832986008
-0.5985186408426331
-1.0820748004625382
-0.9360581107326069
0.38067085222370495
0.06848849517352618
0.2295535659216087
-0.35448004492982826
0.1206970699467973
-0.225679887219992
0.35702452764786535
0.2394542180555429
-0.10945711378672901
0.4689810382587083
-0.43121671550926083
0.06696973263181447
0.1456657596753104
-0.264226845441226
-0.1352405849728905
-0.2626738597824111
-0.48978639243838856
0.29247997826165817
-0.13203535767316904
-0.2530209245485948
0.5278473115593212
0.3153387522431812
-0.03049449443489105
-0.18591617261536247
-0.07570219712278264
0.20395701912960404
0.22467403475401831
0.3385222897081646
-0.23588171834249522
-0.3769328009013835
-0.7469303740566539
-0.4212137709303588
-0.43694493760103803
0.3301682906075439
0.7811209663374591
-0.16026717163274168
0.48509031018880777
0.45238219957388726
-0.06029012735355077
-0.03848435179944211
-0.738077976455712
-0.40195126627226974
-0.23328509995943764
-0.5075957315882561
-0.275767308446279
-0.6113640933690373
-0.10764445784331539
1.1437022704730124
0.14240601259204247
0.8613718799606754
-0.7821811897396277
0.3827971112637585
0.3306163652307711
-0.15619097104699553
0.1364853294247372
0.47130851779138705
-0.025917832984416536
0.43355357396474503
-0.12162152328094122
-0.3204513174647915
0.00493669664050312
-0.6231194159337103
-0.12634468250432632
0.5690475186027575
0.08563367686126741
-1.0412265698644187
0.15951100308224997
0.5552472942943184
-0.3755235614918651
-0.2508681557734442
0.553337385794627
-0.062484463727776884
0.1010751920499833
0.08404227195471473
-0.21471298125167854
0.5559023799517138
-0.09984429123382983
0.08435912888344763
0.5932412435671314
0.2053947075005922
-0.48583095673523435
-0.6492468711783557
-0.18338110639892416
-0.2283689027606121
-0.619677174316502
-0.08133456484608238
0.11963724700279106
0.6431876706347284
-0.4171518048625972
-0.2650468909802728
0.6231589691243812
-0.5135880148727995
-0.2716631126787726
0.46162310925966066
0.06834832498874704
-0.7240756950580481
0.48235618964856564
0.537454277399765
0.7285041377494603
0.7993957465383777
-0.007358996469977147
0.6982782742634932
0.22779225185375143
-0.3325994858544051
0.679855444659636
0.26149342710499834
0.3325518987949155
-0.035880808042643465
0.03140015684137176
-0.8291517062424468
-0.3166683121760383
0.2690966362697412
0.13242493564908492
-0.5560351933074286
0.2784329377265845
0.5854398155193015
0.29248171254633887
0.604088312232341
-0.11442774945796749
-0.4870965153692498
0.45513729723956464
0.8284092276458952
-0.1138754808842639
-0.27210718800068356
-0.22347859098590922
0.175314242607928
-0.09256668289430992
-0.4388538341032404
-0.24599054700153766
0.01568872307743202
0.748569246734096
-0.09970412987600233
-0.4127483300420544
-0.14158969934539412
-0.5450162864415272
0.2351183583170718
-0.003028150662563539
0.19231385691143027
-0.3726450790765662
-0.18257108790851492
-0.19463002477242858
-0.33411511393176685
-0.03827642926831017
0.321906407244593
-0.05397006537966461
-0.10474612511107616
-0.13788116506730624
0.21034780087144805
-0.3735745030225978
0.1604177401129414
-0.10537547840801156
0.5327897704594847
-0.30367097140445287
-0.04602631338269231
-0.3905323351047758
0.1514902414480257
0.5845768690725313
0.2463713432795286
0.3784166913398762
-0.10769212504804634
0.19846633455326135
-0.23790005120605218
-0.11752805476545068
-0.38860588383639943
0.5182243545907805
-0.2731813215665647
-0.6957473648041615
0.2497917986037116
0.330995556867376
0.31246368033615035
0.22811046917211564
-0.38482936619349645
-0.6056530322716728
-0.515296974794754
0.4646651599585397
0.08114612878715508
-0.7002450521454068
1.0884835305938148
-0.04189741892038781
0.09376032078102962
0.6432568792933471
0.09072578049768461
0.07008081897127932
0.7526237186765982
0.7683199089164804
-0.41477809185991776
0.076709666331681
-0.6676080491561506
-0.16073503168067543
0.5026912211004427
-1.1344114171320987
-0.09640254474365438
0.4099855478032398
0.22296415274818915
0.6826300886981022
-0.3332000399568367
-0.6143318199104693
0.7730907257582853
0.2706547745687332
-0.36907522065955783
0.329331817136215
-0.5455454106290991
0.003526879655200821
0.11880813614083668
0.21575767539067206
0.6104783357979886
0.6766139742861128
-0.3921426608149059
-0.08139699094170781
0.04248290445386588
-0.8707543024335384
-0.057361803099231334
0.750938111922349
-0.30072274433342616
-0.397835121901282
-0.4376112337615068
0.5437988030577653
0.2484803546692886
0.008881332174166368
-0.5889413841771681
0.24312324250507783
0.13325095070544696
0.5842166667112922
-0.29767993179442376
-0.3751772587607923
0.6215281449540949
-0.36131007721039077
0.05569396229129934
-0.05754883197411526
-0.20690951706672003
0.38304504694594305
0.3329700184794805
0.238403084495108
0.1342031072510997
0.02123775622335977
0.7401077517149299
-0.08910129424851249
0.7250271629115621
-0.16089416775550236
-0.07913313815733634
0.6024485697341405
-0.6153617480660457
-0.3775666652185553
-0.15507809973232817
0.10484714413734271
-0.5818857177247911
-0.40600656970685073
-0.3801898415222524
0.07777245455610068
0.12257385193856224
0.033718623831709656
0.4206315150785199
0.09952689155434696
-0.6539819594984697
-0.19277555777397268
-0.00445366922983279
0.5670296401160686
-1.099571120901043
0.6013272799874213
0.5260549228697469
-0.04178193208047794
-0.3505025253235958
0.11498909617899875
0.5086023666039516
-0.45615132172975104
0.4451502704309468
-0.8242141241614741
0.314218956043983
-0.18133374150942902
0.29700012241039286
0.19271315398263728
0.29109846383747856
0.02951210358223394
-0.26042901045507605
0.4800718594019137
-0.14264104248726725
-0.3450644806830024
-0.5909545175755442
0.007085034726578631
0.2126576085050602
-0.07697431870177912
-0.20769336339108388
-0.09684525587091414
-0.7596617295617472
0.976842477785381
0.24346883895135132
-0.4795221554912895
-0.11677544714256116
0.4509601655194904
0.28641462150732416
-0.4048671570002547
-0.1019495167679012
-0.14645355648578018
-0.4035773590889383
0.046642929645783565
-0.5219071955735555
-0.4104574452356955
-0.44351930531421896
-0.4118813865044696
-0.08733590345372841
0.46315267260229825
0.38245725560571453
0.18246372982976056
0.03768701863929562
0.3370117788829111
-0.03137271891604168
-0.41870603914599935
0.028101031129636633
0.27462198778627167
0.4628752174104094
0.5288677393765673
-0.3753268245544159
-0.040009696633040465
-0.3983158595911107
-0.6164747231025255
-0.048935228572845074
-0.8718252668036559
-0.8313174555962667
0.7242678400599675
-0.760608520067553
-0.5974653599966315
0.2610368905170588
-0.011062536781747956
0.2542131269022918
-0.2359064513501863
-0.22203814800773247
1.119933200854617
0.09102934401664009
-0.45013318009387215
-0.8431313003467688
0.17913375511329915
-0.5771716546526002
0.022920833137259067
-0.42476189966149863
-0.5341124302758178
-0.44997524457199867
0.01286048819407408
-0.5642804991917915
-0.24967921636274376
0.27281345659041906
-0.49059878236594084
0.20996995499141685
-0.322796017357016
0.858522730453375
0.45789984746248824
-0.40559759576257653
0.8346123066647682
-0.24731996804171863
-0.6211051073816058
0.36817945598390056
-0.32230560064837
-0.35582637144765483
0.1893820022065671
0.6776516753279072
-0.376050605872406
-0.3300203474751933
-0.27506074480852205
-0.05857749253066602
-0.2153645574513519
-0.6541870886623399
0.21441816350465231
-0.34538870493664503
-0.2939705593501434
0.14986780288291252
-0.7159314225268042
-0.3216764859306045
-1.002930657267154
0.33215288483195526
0.5310375951318849
-0.4862212762493664
0.08115804626492595
-0.5047556187972726
-0.5947494440296409
-0.3103887785132419
-0.09610793738381977
0.22331287354739723
-0.11138482896685398
0.2153362475579753
-0.32029619080865607
0.8934970236062867
0.17279903007895858
-0.22814291710138032
-0.28185626181366097
-0.20900043858367934
-1.0918549525547294
-0.005028248285905354
-0.3862226406763204
-0.010611626198373691
0.27018852874482774
0.49542300541577966
0.517138585043204
0.19315694024544217
0.3857051890211246
-0.5638630469084925
0.009930428737732644
0.5568417915573786
-0.3042049164291185
-0.7493742022596306
-0.3261178789846113
0.6715573286633083
0.12391979720630554
-0.011902039204735598
0.053301579562554185
-0.30266509320529433
-0.33787110613390714
-0.44824253561716065
-0.19530624211560382
-0.524899262443608
-0.039935120565117034
0.2092726216969131
-0.07753080080182997
0.21191770845556102
0.5887657030814003
0.4090122927718406
-0.43838312480310615
-0.19598642053607307
0.12705247554249377
0.1763144893990385
-0.5670305628824961
0.03814399671156676
0.3824492764974074
0.31729872728720027
-0.28074830245716786
0.4010722414699682
0.27161830843789425
-0.09040750077150515
-0.0830865659249291
0.2878238226907036
0.6514683418297228
0.9989368588735452
0.266767434596457
-0.03128365803485017
0.37220476307960737
-0.24541910472492082
-0.06270408239885533
0.047116391517520936
-0.32711229131351305
-0.7503191683394419
-0.2808131602214604
-0.0523130397534987
0.26151320420919266
0.8441055368549156
0.2040152311785225
0.37941410720209606
-0.4246331570325007
-0.19335027655838166
0.02167250923081465
0.26035567656861514
-0.42492166866052816
0.21803184406899023
0.039844318583409755
-0.23155237823846075
0.27036150534503645
-0.6727303229775443
0.17553762177728927
0.4587197644157063
0.14300631248028814
0.5504380471198026
0.7075424911278321
-0.7887430607371303
-0.06967369973218923
-0.14717277983078383
-0.7740080344139368
-0.030844257505077466
0.25564172336965396
-0.5900779419786633
0.4459336161485917
0.30862081127856245
-0.4959576395236271
-0.08412713395242966
0.07366935228810645
-0.5954812081800267
0.21257404263117774
-0.08934632299491585
0.2637976859737171
-0.6625394816159695
-0.4737754901937693
-0.6333719456477562
0.04038667831215695
-0.7778290915382795
0.27504569151555947
0.29479405713478973
-0.8926145249777271
0.44321071194426626
0.3553294894836568
-0.2142835000687358
-0.17900370164116522
-0.1694832376600003
0.862905543824865
0.4448576027908583
-0.3787135160830002
-0.2257147887404986
-0.3402134950461756
0.4193346597958097
0.4090061354462774
0.0896482507771407
0.0680092880652805
-0.7588407595041063
-0.5819860307934842
-0.4363845384683417
0.6979254552781358
-0.40572218085836176
-0.3046558770211345
0.4592756099240094
0.5450150092990165
0.18168782860327054
0.25629916690284205
-0.025586480161624903
0.703589726793914
0.23252246882518535
-0.4785316144217121
0.5689700062141065
-0.19331459606574714
-0.3206994504807698
0.2800367987337537
-0.008345298625106329
-0.5109895885251774
0.17375516123588358
0.1732750749055853
0.4312448343493842
0.629627818189536
0.47673340492684513
0.16282426273686518
-0.23540745404607494
-0.12325386388253824
0.11615700046903062
0.599252976322632
0.2923648317496169
0.2411399076194644
0.2594154151239604
-0.22684550480761223
0.8566456975587665
0.3791049150020068
-0.04139328609045701
0.44968741319457317
-0.28479410211345524
0.24990134685708681
-0.44927809788689604
0.4369405987457542
0.562042615150509
-0.3129411991338985
-0.9738316028057884
0.03603900539197856
0.215888086956655
-0.19561661944357783
0.0756473016276594
0.7737816982076472
0.31107344933159575
-0.43877497330717985
0.11897018056723271
-0.12227158922527648
0.23799324894351215
0.04669551291098775
0.264271196669874
1.0382291585641539
-0.6777554956902443
-0.22069909301766222
0.3801950449147087
-0.18115022409689593
0.37496673399825675
-0.2921636980107398
-0.5923289023226039
0.13027925727223627
0.11604719145096098
0.5068512639153131
0.3259293818334159
0.026876359732704178
-0.11101380953632643
0.19548787790585742
-0.30719801651504797
-0.08406210059495588
0.45766056064411215
-0.013836163712481489
0.08330940116787057
0.017952145469304626
-0.23055745534178257
-0.20291047881344085
0.5024889438385928
-0.28552939873478483
-0.20409292273512347
0.44847410273330013
-0.22056821688641653
0.5361709732099493
0.43438929877425897
0.2249472082881448
-0.13471026599987393
0.5455289425950699
-0.07834036773667241
-0.34478938184725383
0.10994375797526942
0.16488907526690696
-0.698991628834717
-0.6497168245765088
-0.7916681716159857
-0.6708442803657721
8.107531964541836E-4
0.3644843678447384
-0.3492195488834171
-0.09794372743370669
0.2838859905670261
-0.23287410959835472
0.8143124859539497
0.5526360965394325
-0.3782551873256338
0.6941444561747279
-0.6521800127730677
0.022383724256988813
0.4137771850468638
0.22592683833499114
-0.3637055950090203
-0.2230847502452477
-0.19025641099024
-1.1891541908233612
-0.3573404032012714
0.7163568943007785
-1.3786934671062399
0.4805647629043277
0.2813074143274923
-0.3683008105396011
0.061233404745620716
-0.09612739485725491
-0.38556082322405083
-0.018236535962959367
-0.38300376362837907
-0.008977748669884345
-0.6264815825949187
0.2811693745314203
-0.8789237086941207
0.3287181472919949
-0.4251834907047058
0.5959875322973146
-0.1583510812626659
0.1542760357808979
0.06058028759693403
0.28774048870078905
-0.793850832528306
0.8972921007802769
0.2689966291464243
-0.2788957008671579
-0.06662828751314515
-0.33894480861840387
0.6372253659405013
-0.23538300184010807
0.0385516438229435
0.19688206688020538
0.8392666275060927
0.2876527309531616
0.490577095513973
-0.15080354341384172
0.7667077160842496
0.22293412494181586
0.20351369089358112
-0.3327219176673062
0.22640529225140915
0.045487560211091474
-0.13705240053776707
-0.48473215536777015
0.3212964007246094
-0.1817899266782721
-0.1796104825602098
-0.46863383554706606
-0.06606247354741834
-0.386844363352975
-0.9888378656993899
-0.01608819328622868
0.3453292928290458
-0.23378782997626607
-0.7289434015446401
-0.06543739801586679
0.49656072530777035
-0.24515033436930084
0.12627764033038316
-0.3666748424410784
0.15394123037532745
-0.05842066000840899
0.14370304454779378
0.10685655706614376
-0.2383286274580467
0.5557379796533386
-0.1223173308001467
0.21101668123956185
-0.12365855365572229
-0.4337024226688971
-0.5620573363125564
0.48113660155017174
-0.4628705728517148
-0.27552778823169144
-0.04187912070040367
0.6062467436270654
-0.8511252942413344
-0.28007584574797606
-0.3003929045420295
-0.23063168276316054
-0.07208200697257963
-0.6058768474375772
0.3570217108273452
-0.6499913152012708
0.18240928508444132
-0.11738214855365253
-0.01291309322796309
0.4153153196449945
0.26178089538270205
0.061897671852694014
-0.22223256386079654
0.2362968199820648
-0.42486828085288875
0.3593080468695747
-0.014006304112052281
-0.20481016700516472
0.4595672934064471
-0.8681470257626914
-0.9191767517039112
-0.1570403222197599
0.28404159464135603
0.049534130222794126
0.5121362743491549
0.6576282567978956
-0.48840431891443337
-0.1754756726168679
0.6044085243013028
-0.21522619451717626
-0.17194131557928097
0.16041990830920866
0.22783469734377784
-0.12511851175336242
-0.4799058485495121
-0.2334996021707051
0.06934774962695278
-0.6491773362252385
-0.3111856362142277
0.4021265301941121
0.03838833395760277
0.05167474700814165
0.6067592311902316
0.5941102647291214
-0.7864475066780914
-0.7287278162353173
-0.10582247306759571
-0.10892026161503676
-0.3415835067278863
0.006568430151249083
-0.7321383109266454
-0.6278495231260514
0.29631284104274763
0.556638621866468
-0.061226009495564004
0.23847258493882662
-0.14486898904751933
-0.8818977204193346
-0.20341178564352458
-0.46479039019804486
-0.7526029086224745
0.2734201874024062
0.6747594628247986
-0.6763488378154027
0.437266989621759
-0.14893564759703545
-0.5601177412807635
-0.6471052564331452
-0.775519905795476
-0.29539117172978435
0.5139877994452574
-0.4484325037193977
0.20282803665617632
0.48611999875687945
0.31116104482360446
-0.004284680973795224
-0.32254813116404235
-0.16731087967809471
-0.5065059947770613
-0.2536178647934192
0.2527959047196154
0.5591014650315393
0.4149192192606272
-0.47675554286759525
-0.08628967471697861
-0.7636712740695594
-0.3557393844686223
0.059339854702237044
-0.09107502540609114
0.45939228617971833
-0.23790364819063442
0.2871070513593116
0.45214687144919347
-0.22220565211078536
-0.438365924793762
0.5260874367965797
-0.4192119669495412
0.17806705222165434
-0.4015921778725592
0.09023397068712935
0.5745591900937772
-0.31986276937605573
-0.07738982244228625
0.18228184337836525
-0.2426662341009652
0.5470021586115743
-0.14166845489887298
-0.5874583106486031
0.06182766990780919
-0.08798255132820143
0.1720362306500142
-0.2827306859747547
-0.5053415268241657
0.7986380912816942
-0.11147328145225469
-0.17840659474410536
0.031895224699429486
-0.2973088232116806
0.1387279509378362
0.15367730465409732
-0.4687490907451673
-0.10819872069152218
0.634901524907584
-0.22943218847602193
-0.5013128265437702
0.7771727558311694
-0.00481121529372084
-0.8839677826494541
0.2399406452809334
-0.6363228713256215
-0.6174869001598636
-0.38763361124433854
-0.18337790680216992
-0.051573852935015575
-0.3913028442929152
0.41101364290083553
0.04399990844394745
0.5291291593802504
0.2559807560207989
0.255734083623708
0.48373418419532066
-0.14571872143100334
-0.642026460381477
0.1165896298716888
0.3445151197976482
0.3465742222380868
0.048605378808565775
-0.7406118126377538
-0.4284995036179871
0.20969797299841975
0.3665246815182878
-0.7943709130378801
0.43025357980462353
-0.1172339083266837
-0.39116849982627133
-0.20600496059747792
-0.5910864573455119
0.006295308713911818
-0.5010080963288281
0.06420050772877746
-0.7199463233216169
-0.08802649899747501
0.6196597502476975
0.2300429589311616
-0.48796816579637636
-0.426586316007731
0.3691670104281548
-0.29090773896207334
-0.7313302516301933
0.32897224553641774
-0.4637676917291533
-0.28749435643556104
0.16314726076536745
0.5887599915725145
-0.7944253230168431
0.42376305765377514
0.23719331385171416
0.009174317894889872
0.1758122290316868
-0.6105386132537017
0.9849538021222353
-0.005411504702771547
-0.7148456110352656
-0.5745597004949021
-0.2315883260259046
0.7277193052186448
-0.4557002267366415
0.1583836711299394
-0.034422007381601755
-0.22969856939596583
0.41253860948672405
0.03928127339016935
-0.22658460054878568
-0.46459534029815375
0.2603150144627198
-0.3207256588581946
0.03802709180349312
0.09861517827449268
-0.3105313351059983
-0.8711843802677671
0.10309942238671688
0.10321426579528215
-0.32174782707494776
0.32151665637690297
0.032384263413453525
0.47605103045336566
-0.7879255178142581
-0.543928851917548
0.8454382596107767
0.14655997428400738
0.14546429186516144
-0.41683118872247293
-0.5681819769952572
0.46937568637447424
0.3834092627437228
0.33652885164969387
-0.3293956653723239
0.33319519212167464
0.5151244764938033
0.20315649991849433
0.48311042948603056
-0.137729406201615
0.6068281776127481
-0.4832659738012407
0.3585728769348732
-0.22348328340595564
0.1205917423292282
-0.43353042679922776
0.5165250968423712
-0.44354832003572164
0.5050808977107439
0.34618650936347584
-0.5314395569646545
0.6293124974068289
-0.9419008334826721
0.6584152435422027
0.5229683095195331
-0.06983776327251523
0.39682726107406785
-0.9545497884196483
-0.10482397347438857
-0.286748152497868
0.18397602434766702
-0.06178166968599722
-0.7409057717541337
0.36003975142328953
-0.5824034781709626
-0.7384297846417326
-0.20736549470342341
0.0037628548984952465
0.3069414720652991
0.3343136592541628
0.433332753855174
-0.3231437790541195
-0.017602273399772404
-0.29175580570554704
0.16677576392114252
-0.2542047269304217
-0.805265982660822
0.8430376387519591
-0.4418423284235058
-0.5399914735045811
0.23168842217000807
0.039085153405816614
0.05061601726635505
0.08959069493842683
0.07395033072321527
0.29909809800997056
0.3460244026173678
-0.20636987854218702
0.6768918583659294
0.505866849025487
-0.5659458194135316
-0.02392141160727121
0.3476327758436668
0.18205013903526357
0.38662280370247837
-0.3927865259742604
-0.17028791980047872
0.33482247619063926
-0.09912636349027296
0.3395944157604652
-0.19145087330870322
-0.3617470826760932
0.34418211678086885
0.11176460441787678
-0.951757749130894
-0.2312529458363547
0.0071393707616971835
0.17498141292076774
-0.15781639858877647
-0.42603418010096233
-0.4662387197404815
0.9837403864728766
-0.7590932067825792
-0.6436268693991561
0.47800895492517864
0.3516007013155865
-0.1371190291388917
-0.04412163410012124
0.3091704752413419
0.6913712601346448
-0.28209882481083726
0.23212020898092278
-0.2556032584305814
-0.12790729513575597
-0.3766162660066286
-0.6645785644139446
-0.2995558049638841
-0.5544761360474132
-0.439391478326943
-0.40994006287572315
0.27201180635269473
0.17685356985846723
0.15252924830688191
0.11870771262331846
-0.2574986803549264
0.2739736609217752
0.65671533757261
-0.15902509821165076
-0.2527539694343892
0.4090434939409687
-0.3425311627752783
0.12907480106411606
-0.6463294568757584
0.7340588260852715
-0.5325267193476851
-0.15462689369414317
-0.8371364743198624
-0.24032061345479483
0.8415020561052023
-0.23387932890047747
-0.8902581155935874
0.058139316630283475
0.6227518225149105
-0.4103809131478419
-0.21563168540150926
0.4742145355107713
-0.2442954211532551
-0.08866203808606812
0.1838294278326545
-0.44817302512640794
-0.4506295216037478
0.08121716636121679
0.18668295324710113
0.06639118966327048
-0.008325172790561053
0.4508607037621928
0.34831302533594755
-0.6967456698340996
0.17319381081597052
0.14770847839711065
0.3704251174533304
-0.9529409099106874
-0.2236601207561786
-0.3483677238970738
0.32778357530976404
0.7915443805275173
0.32803026482660785
-0.7396149108796449
0.4162122624964265
-0.1034298362235001
-0.660504126730572
-0.3164634946468011
-0.2800466833124372
0.3005538465982111
-0.18410145608574888
-0.027779492887268775
-0.03392967009338108
0.652589293234463
-0.2489712268787494
-1.0526982082851695
-0.48786198347152643
-0.441505935643973
0.2368844158841129
-0.3382691847407162
0.962333609223074
-0.7644785172692752
-0.19847334104456038
0.8237336235260418
0.3732893403507149
0.15874194518734874
0.24772333478613243
0.32958612089103223
0.26631733285261555
0.3841855315181836
-0.7804066833100193
-0.3017616530500722
1.3227379456225905
0.3681840008919566
0.10603739722145308
-0.6245382929553703
-0.5995924043890659
0.37097074025700516
-0.4184042070459605
0.059746474933053656
-0.06890934059499769
-0.634560035175692
-0.06625240296642698
0.261851543325215
-0.21812438064758985
-0.025656408281606966
0.8970328541836083
-0.6428808341101155
0.8861253821057
0.3363761541174216
0.7896796900854772
-0.05629312765519054
0.595417474989282
-0.8864300713649501
0.05518471036695312
-0.5605177769973655
-0.3537803062371739
0.6421788807358756
-0.24801063995293263
0.28253316148885643
0.6649685628743907
0.3288499587581742
-0.09676143873853016
0.4809181079321394
0.8942768662477362
-0.28715641539717557
0.3576109275633449
0.251913947815146
-0.26306754392293186
-0.14751695361673783
0.18646031095476548
-0.6732413863938348
0.3956385580194467
0.6175633171553793
0.43727852384373345
-0.3395678436888674
0.2177695859429673
0.39229551856456685
-1.0741986946734245
0.04750904535808942
-0.08594642555685289
-0.15288173393740226
0.7977873821216508
-0.2851780042630566
0.7287160907155115
-0.1643045598802222
0.46469943600622804
-0.02635994693433108
0.327163928521391
0.003016836489675101
-0.33785222237681506
-0.39710218752998205
0.20791860179820412
-0.9104648739906882
0.08845121473217918
0.186321755437874
0.09652111975090794
-0.12180463859144243
-0.11817996476337128
-0.2759577206243385
-1.0973566281876357
0.44833470988568
0.2869542848837787
-0.6022953806356163
-0.22760412261836707
-0.019530315415386162
-0.41451362550315674
-0.3773744965534288
-0.11127047134087543
-0.2619220560666594
-0.25257114230665345
0.4479598303448958
0.039135804938490226
-0.9616534071988876
-0.6577448894563229
0.8272037788539013
-0.37863198819979615
-0.10973840258514889
0.05097866980514054
-0.3903273596507788
-0.45844590714739786
-0.04609157040565943
-0.30980888040093696
0.31575850030875796
-0.34988652422167416
-0.38843920863440906
0.06718060194868032
-0.9095534013694594
0.3316369095128052
-0.06428346472119902
-0.07794643079556537
0.5531893710030066
0.5933258217557993
-0.5736447556717835
-0.4025649774142007
-0.2949156423111229
0.3406712016694031
-0.4101786716018608
0.24352021537750876
-0.5924883296541447
0.3564690646036123
0.04895809253852852
-0.8494844206665898
-0.11923773625651002
-0.07873005638814068
0.8734831682055337
0.13508137484328542
-0.18094762005698808
0.7950622231711492
0.14395080328553345
0.08200882347552893
1.0612411402633566
-0.5741238123943995
-0.30590478019483486
0.255601663656825
0.24019416700542087
0.014124014032022347
0.10296575989026914
-0.9414775610767627
0.4179748575184967
-0.32825140920832463
-0.5994034761895438
-0.7930892032019553
0.1753164887986137
0.25406617350868227
-0.6659198194421106
-0.7559724090886725
0.7462241117948162
0.7357751611892145
-0.6872840030199223
-0.2310243581060757
0.4176126048401026
0.20584023752716635
-0.3736312607486547
-0.2613737295675325
0.3260985435831426
0.5859905026074141
0.3133720910746961
-0.17663692822361463
-0.2517828681634955
0.2651839331042029
-0.6334671594342963
0.18186827248666418
-0.2433559399176794
0.23064390642607663
-0.904964067196674
-0.3621100988698196
0.1533253679057507
0.9896570172554381
0.019364857487297632
-0.023113897777181647
0.5125541436705603
0.508085594620356
0.06894863569950271
-0.1983650657788742
0.23451953691873267
-0.7723727752324571
0.08481491048436798
0.48193529212125696
-0.6367423232039092
-0.14523791723629687
0.49314921530876943
0.062236555510608776
0.39076821056190864
-0.33704935264580327
-0.03154831389855117
0.7697897822359507
0.6021705740550272
0.4813467713029561
0.09466910807362339
-0.4361085752753652
-0.4434334349955079
-0.6744944232841257
0.6772907018332266
0.7248489253775308
-0.406483322067179
-0.7566430121633483
0.018179414896101753
-0.567732303269359
-0.30844307314507874
0.10999329533771876
0.4923263840717012
0.13433827433104034
0.9962924768146966
-0.555447420155154
-0.03786744290350218
0.38371237822827053
0.2293819493364101
-0.03486803241816275
-0.23484897480324052
-0.6350797469392788
-0.2784563963511633
0.6542748260069294
-0.14525200019896
-0.5464333916153024
0.5511813558772515
0.6276599481499627
-0.5455616851088352
-0.539462341586647
0.06216205105872796
-0.1221659679993056
-0.4370906197141216
0.37451190104445675
0.59072466486085
-0.2190467765805328
-0.13664039058039634
-0.37585747688613325
0.04843387103486621
0.1935715080131052
0.2514388985864686
-0.4801873743048778
-0.5929815109205112
0.6447286760988254
0.06717261622839747
-0.2508981444907226
0.13665589294360936
0.23208578808110958
-0.2377219128159112
0.3546721609358262
0.8037210473523325
-0.6440816696917788
-0.6488776953812986
-0.4060148559179868
-0.39038424161353835
0.04664708680919502
0.9236678011984084
0.49601837474623567
0.5378793624489696
0.5105131740664361
-0.2831164685790982
-0.1412627358532945
-0.21786941788945194
-0.11877758867596062
0.6628086262371984
0.0406761540914035
-0.8793961613955129
0.8647472819917235
0.5127006287379332
-0.48554900354617186
-0.6988721386388775
-0.5193114149657773
0.16344992557814794
-0.04332838137055964
-0.6689479021265747
0.4919038650747203
0.4493148491948714
0.08389854662995638
0.01183010662411986
-0.2211217883650877
-0.817429545786492
0.049752865907792196
-0.4018613053409945
-0.10471831933998621
0.6256579026944514
0.07040953634899322
0.568701820970449
1.0743245875088778
0.04192520672171535
-0.8134979360671196
0.9679430455213757
0.8573863511259292
0.1667304502624684
0.0025043352326919732
1.136911634478398
-0.8206043115345266
-0.8866109465521175
0.30545046257979325
-0.6869885785318542
0.6191367117611752
-0.9659471218188068
0.4008376358470919
1.2285767076029352
0.6552316566321423
-0.6014337912759928
0.600760302602316
-0.3348183633964398
-0.31064476900191995
-0.8313952547458071
0.244268076651512
0.547218959287625
-0.14203928996125917
-0.5207157778633961
-0.0947651290699502
-0.6909798410628694
0.7085308752327454
0.12007804894357763
0.8938276704820229
0.2732006982780516
-0.3340686773611929
0.2836566086406435
0.619838264386754
0.027722392295566195
-0.25166066044352164
0.06089936982260563
0.7065535976089153
-0.4172344599204726
0.2613976901003631
-0.2641232393511584
-0.08864415784201216
0.2221244875268083
-0.6679371836592517
-0.05681654231111065
0.025562266884911256
0.537229705824177
-0.48249026002680584
-0.035663752860972814
-0.5431269877641896
-0.9292493153851513
-0.7246681610975496
-0.09631563782648056
-0.4566024112450998
-0.07824666366932309
-0.32061799884427483
0.6871881125452878
0.20326879627867106
-0.1797523620954647
0.36184241192046074
-0.40272540370520354
-0.8325129540905802
0.31129648813447447
-0.06469758469969866
0.23881114773371603
0.5984883102468409
0.5395770618206848
0.31118010794860346
-1.0035856215313907
0.04083917655457697
-0.29469619332477565
0.689617955195427
0.0630195535204284
0.4812939470867247
-0.8943236602654681
0.5698712621631428
-0.5982910390373655
-0.07388204906963382
0.262555772674018
-0.5491289525795434
0.22289441147428735
-0.6246047243540914
0.5210808640083209
-0.009114246239219637
0.28607994385479624
-0.005588019775353947
0.14452487125563823
0.5649436588229363
0.08738893456038997
-0.5268919281539979
0.3282859227207299
-0.10241969578842267
-0.02321521000079034
-0.6104354732964012
-0.11160969664672737
-0.0648764813504477
0.6725601937755936
0.05506293971433027
0.3989336848806496
-0.7514892652369228
-0.49300374922367796
-0.5253343093915459
-0.32653887725924424
-0.0424978371834549
-0.8174483950345768
-0.35327482981557534
0.3099420703533913
0.26138554296725425
-0.5763115800471712
-0.2175592187904104
-0.12871059361746273
0.6971163022643124
0.4252133297607117
0.17639819658040046
0.9178643697994925
-0.37256548481562424
-0.7832678629140181
0.10433137692118427
-0.463176211192856
0.030127833743254645
-0.19048383820708648
0.3224897962894494
-0.18332179689912814
-0.19138547426489338
0.7882564564314131
-0.46694881146033024
0.47074514849181354
-0.06046856251682799
0.014639253685463816
-0.7737063123040071
0.2669200916250186
-0.5916498188816094
0.46059557181793837
-0.3953773836115174
-0.6435691050435588
0.3707292453669332
0.1634622533538761
0.31366798442034766
0.48601684501992504
0.7656816032619833
-0.4415166322299688
0.6874966094958256
-0.6414719658519528
-0.15682145657302635
-0.38053342552541125
0.15714784634926326
-0.884655734000956
-0.6261583792976286
0.05603218167474819
0.7496014513331529
-0.033728799351406304
-0.30687626497256304
-0.11708689500037632
-0.10012062803844085
0.6098542899931698
0.16574396144286377
0.019215966578871785
0.3851485381094306
0.23194670297704142
-0.2353846779987328
-0.24480010204195352
0.24746897819736113
0.09568867130987244
-0.31382823088302414
-0.36511998037244153
0.9112616387820444
0.28875994277429395
0.3250710692836884
0.07158733917472533
-0.5339266723917039
0.5283862511657771
0.21212971312187526
0.40833098488430397
0.366405209799332
0.07397323773734152
-0.2475636871186785
-0.4425126639001322
0.5315647716895286
0.05471267400491202
0.3400961264686969
0.06742042175904017
-0.1759760840132769
0.8338573326751121
0.6835995347403739
0.2719400190476362
-0.7152266899768147
0.7500789581109533
-0.490701939244142
0.11214778401231909
-0.0858791333866817
-0.3626626199522953
-0.5877846500549688
-0.2975932790617553
0.340511434923317
-0.3015553099167872
0.2712266357301423
0.23548225078185447
0.5784870876956186
0.0568527229594715
-0.5443467907057516
-0.20299873825771902
-0.24865803468383818
0.15617323508862413
-0.23543724762904655
0.6908042412394211
-0.5111760756409673
-0.3077958704770396
-0.4405962235701868
0.20688959304134477
0.16625655398017053
-0.7458077493993114
0.0016384358825129453
0.023057195632054106
-0.12212330650719994
-0.16380902008235812
0.4907284462116952
-0.3984770797529166
-0.29646382704245494
0.09463364033426222
0.459556412745895
-0.004495510446493701
-0.4577483701729278
0.11926879456053006
-0.2918474365409927
-0.3536603438687369
-0.09601394754106526
-0.43945671210360765
0.7145513687373636
0.588280945366271
-0.5431692069753243
-0.628821414498856
0.18897293516741545
0.6251598448173779
-0.11188134625851615
0.2242853492733899
-0.4282074607893662
-0.15489296180466644
0.016927347017109254
-0.11912989622800185
0.11185421342508134
-0.5144534000537744
0.09099449959912327
0.2883785059350251
0.403949918290262
0.15627786504671506
0.0030223071285598244
0.4357725838964379
-0.26310142842624673
-0.787871487439546
0.31683740641454794
0.10516882757251156
0.21061558050963414
0.2635871278180893
-0.8782002211904267
0.26384611123176926
-0.42008217630067135
0.5051678812061451
-0.17968365440770884
0.527580816287414
-0.4414585040099005
0.30423587705489086
0.5550402549138609
-0.6745363385096776
0.03208317863643185
-0.8680457798721553
-0.5802461563698516
0.9736104413041883
-0.10254891843422
0.49997827282168417
0.23703089163366348
0.5611071477680407
0.442687909311421
-0.6972124722486055
0.23151326981450449
0.16240235253872348
0.34968742861674623
0.16069415565732287
-0.04134153655595685
-0.7316552713416237
0.12075979138552373
0.1880751005586872
-0.6906798242740306
-0.34772226780781607
-0.2230016096189757
-0.0856922198271055
0.5784796420524576
-0.23354323665278462
0.2424860445014509
-0.18562361344678968
-0.02382698014271535
0.14627009639996638
0.367393641069632
-0.32950091874659565
-0.7934395774517747
0.20567023410197394
-0.33770913200203206
-0.002880978406192669
0.09049684892491322
0.6670255620485589
0.7287648599528421
1.0000311873379615
0.6503658991293878
0.4822773141017025
0.6918775085237135
-0.20538725631381916
-0.20602609722164406
0.31861187559188725
0.5804159881070372
0.21171707197709727
-0.01261798391671936
-0.5830014658995106
-0.2491295996560858
0.02682062305318833
-0.9405210512213458
-0.18063611997403672
0.42991084633370236
0.6781954571616634
-0.3526121694453914
-0.46353564055641944
0.1257191512857771
-0.5075356663239929
-0.36999559290730455
-0.7130786776729438
-0.4903710534008033
0.6564788783735498
-0.09169516205988609
0.2908384511885332
-0.7266475925748829
-0.5826696300226312
0.21513938029307672
-0.6611359365843514
-0.5536040491833462
-0.37242991729947983
-0.21830148163603846
0.7136729207737779
0.096188720733107
0.32867879852915727
-0.21183626953184714
0.4630391907403618
0.6679936507119633
-0.2722430528119859
0.2550604270563074
0.7603882354859102
-0.32964143072335866
-0.10514556962884705
-0.11307657722069517
0.8226765606651741
-0.15380393468456335
5.661284167698608E-4
-0.5678057395024243
-0.35811121376197397
0.03533984739921303
0.6199438737537858
-0.135322875300021
0.5963016874420748
0.1945279616796721
-0.3608326327545172
0.11703233250470735
-0.0271655391062825
0.633913726787696
-0.29008272773873817
0.8805149908202836
-0.2480554261987473
0.4840103318712039
0.028959294198733943
-0.303479999824459
0.5313085456052296
-0.5229261424800795
0.01247692699466696
0.23028620392511973
0.06180026946129861
-0.8527169384945839
-0.263547276885836
1.4931856992064267
0.016867576960305386
-0.752355997817031
-0.07983524692358548
0.19719761531733504
-0.5404970930926016
0.41969092371843525
0.5751874826220138
-0.12021205422026485
0.06487756729379746
0.5529532861284194
-0.3341078798658581
-0.21131670940082184
-0.019986842053948073
-0.6252635133458887
-0.6018730606540699
0.15596315890710089
-0.1034459302311822
0.6069363755263935
0.4225950758244972
0.6030611719440767
0.22722657788250267
0.5553281613796084
-0.42138626064008633
-0.3155427253034876
-0.26526108292266315
-0.7664249068122709
0.5975742837564558
0.018226410083668897
-0.42217186585637256
0.19746223758538045
-0.7438939791472641
-0.7669695148293679
0.03010133890745295
0.5915161629216119
0.8145564334913046
0.8479302102141549
-0.11637501886918486
0.5370788672604042
0.1669745505228344
-0.815684740448501
0.1159153440922064
-0.2883025222962291
-0.04400283592640186
-0.13456649156127004
-0.6582366721642287
-0.8137436397862212
0.4333984115939076
0.26987874792115857
0.7892343566674223
-0.1659290701999071
-0.049979834079523625
0.07590033120877002
0.8757572583989004
-0.15631135638321664
-0.047561537856804725
-0.37139511407828096
0.15234884912930294
-0.651700775447405
-0.007631665510233782
-0.23174088212856792
0.07268304862166677
-0.1288012163615169
-0.6965145965694522
-0.9612306459045996
-0.37684435838230684
-0.2857434408258756
0.7000110479561635
-0.7243542614557144
-0.22165819208686183
-0.2552433832136966
-0.10710368788825327
0.3356353682610848
0.06998403142313572
0.5714697085285119
-0.5414483824148795
0.17750931686141133
-0.11409625913454344
0.06287327442018112
0.2963133783159958
0.3823315323252453
-0.07463709173232716
0.1591806429137873
0.006400622829858094
0.20546713357908236
0.4119907604709987
0.2781182953986153
-0.008904551047272877
-0.5273928092227435
-0.05807267715054898
1.0673077915841191
0.18608606018871654
0.40226894497779275
0.4893755093454758
0.15584220320873293
0.2810281112453896
-0.28036005315414164
0.013431995662022744
-0.7475028553062748
-0.382427877611593
-0.05416241510251962
0.19425864322555164
-0.002046365804836553
-0.11015289935545935
0.4931106249959134
0.5074435858337641
-0.7073602148364536
0.3606640151363256
0.988139111195958
-0.6354105679007231
0.48615895132355336
0.217074275374588
1.0160178290575395
-0.47217250154658685
0.14383531974287356
0.5140147315491405
0.1812857092877865
-0.11363387128808655
0.06690717267190109
0.48918427088990574
-0.10873979694885678
0.5281824686697605
0.3159337800513422
0.28818033822510397
0.2135631726105429
-0.3740432798313431
0.09291525967297783
0.2928343964390726
0.2368289494014925
-0.10585856485362963
0.3536935204631922
-0.012067120658484042
0.1340638660203985
-0.06662405691146157
-0.21838399632154182
-0.3804509638698145
0.002831515872000756
0.010488414455661538
0.28574729705646845
0.7172084976640839
0.6080371424683059
0.4393008725475026
0.42734192012525407
0.2257569101410733
0.20591973237897981
-0.5034886687825549
-0.6559710862000266
-1.0024325826098042
0.10755281114622643
0.5357553119074537
-0.40908295704587333
-0.5546489514652112
0.10807564677010328
-0.2064544522331708
0.19816691815499196
-0.6213239942042016
-0.18395485762921088
-0.8813022973968724
0.10348024535347145
-0.09056312252389209
0.27217951783846456
-0.1341531781386869
0.06677852928474604
0.40194139805398743
-0.2851056111512236
-0.6607980507392253
-0.2758764992494054
-0.6843124597491432
-0.07317397231962006
0.4207156593523599
0.2024818896898327
0.5319390785390447
0.17170799571015516
-0.20044380559240138
-0.09986808939612404
-0.33095900036897624
0.25705200416631063
-0.13649190785007512
0.13663398459735468
0.33411965171825175
0.5137206750915295
-0.413002908491194
0.45385922036848547
0.5373494248413551
-0.2932043937790864
-0.47036604200274224
-0.3395377049508382
0.5504309888315483
0.3795629443819344
-0.4570096766009619
-0.44813897308390743
0.3193130114544262
-0.17710241628482634
-0.3675966216986616
0.08859357474819114
0.34493123878202053
-0.17571605283387914
-0.8194807190252106
0.17810397525507493
0.38500051598816687
-0.3416716172425351
0.6078934785313347
-0.4020593809328404
0.10322737641501693
0.09888345308260586
0.3264555977867331
0.39657634836521694
0.7406568534363998
0.5223700976419596
-0.18344301083661282
0.42252231079259817
-0.7988286521146017
0.21697730032206272
-0.32471413319616654
-0.48365027795472004
-0.07914090867595384
0.11920645990760323
-0.19348602343387555
-0.4358849276352815
-0.5523690671050926
0.3905392641410842
-0.37578004687697786
-0.08918964567125316
0.2644509320839934
-0.3714981644854566
-0.6321850732935143
-0.9027185535250766
-0.5352940967578789
-0.6114774036803934
-0.01331231537163963
-0.09532261223995439
0.47184028963092767
0.9220977163595476
-0.039018995574002915
0.6774503846194736
-0.26505508873781447
0.3129768581274296
-0.7272339343449348
-0.09228248115726266
0.25924764921649524
0.1929040136713175
-0.5929706619655026
-0.4765322803031332
0.8089803499434511
-0.5458576881265739
0.8881671166420262
-0.34453414203301275
-0.1316642081901784
0.16269770075164644
-0.3888520756938778
0.7680632489654686
0.13691234975599398
-0.658997896447153
-0.05376119913260567
0.5088664246496546
-0.21474464024811482
0.7628659094524352
4.7447965607749776E-4
-0.19443750563787282
-0.46658160229658396
0.4736154539682136
-0.18642267308301372
0.10595292873276865
0.05815870319665536
-0.30515519415413217
0.009977630293735218
0.21290489034875998
-0.8193517822860331
0.019835288353100444
-0.15677971826420192
0.08272933935646203
-0.6297146215837387
-0.08287395308297893
0.048455915350129226
2.1170779253640304E-4
0.3987177142882909
0.1887315046221577
-0.1360426739028665
0.15547146618923272
0.26740543168697795
-0.4045385868361152
-0.36383888103654827
0.008018196875260064
0.4142365640177368
-0.3566666494459861
0.566786942496058
0.36835212025883146
-0.47107989814053525
0.19540170988437205
-0.42272391708979085
0.18575399440177293
0.2547051720965543
-0.08062972581982357
0.5528353943237064
-0.6380599223344928
-0.16703885251286935
-0.7506208211982979
0.05180223504300896
0.8562052725797069
-0.03198100125141316
0.09322099161969499
0.1270772980393892
-0.4635375346927711
-0.20153974348643763
-0.04066270641965386
-0.2206659340142313
-0.8600464935014658
0.3981527798433609
-0.5134905436564237
0.5689367646225103
-0.6081141547806433
-0.6964352623002146
-0.4535094837996628
-0.4132694686527522
0.7666964676237796
0.22724735822509382
0.1162976004330195
0.2562811935598971
0.3275847427077745
0.27788439457017944
0.6567323913983654
0.15202466894526623
0.004190662741188414
0.6139481948551668
-0.20643280165110434
0.29005556112057657
-0.07365637375504683
-0.4609486201391343
0.6021532457292843
-0.6164820249725221
-0.01849729292322346
-0.43198736762098483
0.5536292199768058
0.5243406654743774
-0.32193162212467497
-0.44874797162908964
0.2589290357383714
-0.3361808069709576
0.22341899347790622
-0.07935916422713986
0.5608305150477538
1.3042745186737874
-0.5224393064718822
-0.41567775430876797
-0.0757261883697003
-0.30720500131933787
-0.0952075389748396
-0.8660167806463777
-0.11039020507810271
0.5712665290284024
-0.846606398565446
0.8945991458564689
0.09933117283123405
-0.4596748965441099
0.6251196355120401
0.19989949269022908
0.027796912694537643
-0.28982996095346036
-0.39629703647793896
0.10902765344284071
0.7848875078722507
-0.4190716101726686
-0.6150649298036549
0.5430518496605834
0.1858334342414587
-0.35195897409279875
0.49475003913606963
-0.718689629127432
0.11671691343256921
0.2736305099844474
0.3392209803151407
0.49566497757421957
0.5072287783558869
0.20096099486858943
-0.2156630909329961
0.2365677746418629
0.07430639235371259
0.21245081563048673
0.13340363984639186
0.05470777896803472
0.3093688080971459
0.41873357660019855
0.04831463098339411
0.09781824927343256
0.4745400115762152
0.40809528669171713
0.4402628913871074
-0.47543441805809905
-0.3601836805332394
-0.6574150914304655
-0.020004070554431354
0.26797257556892706
0.6445110994620348
-0.11842963009696929
0.5151943438169417
-0.4864280853396302
0.30223296605453964
-0.0057151413216849495
-0.3669956601095532
0.049756097498046506
-0.0025972174170538556
0.7660259863822587
-0.3909602261270777
0.5622362692500822
-0.18498632721045724
0.18730194099609793
-0.7141521242334541
-0.12885530845918525
-0.11981748387896024
-0.8547464986358458
-0.09477158349045689
-0.6614015023690197
-0.17781170143533015
-0.8254691444494889
0.8250254891086297
-0.4910592090404874
-0.04650161045574802
-0.493344212258809
0.3618488405677757
-0.5947459678822693
0.2767215187705684
0.33307493057138754
-0.1473892750623168
-0.8629265595916693
-0.15557649398051276
-0.1983176162500384
-0.1186764208215173
-0.35154123458843495
0.47737227954939365
-0.7989555467702675
-0.04338659117265033
0.5437110489136635
0.26202640955850287
0.034978350620535587
0.29689117893933203
-0.22201009880601916
0.33704638819300836
-0.44432909155781125
-0.004307894921488059
0.8052006620968282
-0.299404120268653
-0.3565732584382602
0.5108768654173474
-0.05361177073205611
0.5858025727997528
0.4142753084249027
0.4680602123207771
-0.1391722479880649
0.06330361891750022
0.3139950760261835
-0.5139154730263911
0.6841434938485603
-0.22666356905856394
-0.41636773163085916
-0.29412217829866183
-0.314742959262939
0.05788704679130366
-0.5024278077796237
-0.21714492567442978
-0.0723037575909551
-0.4394930547883641
0.58127731490364
-0.3583592028084127
0.35629746330295886
0.026230733630469488
-0.48866452432363683
-0.30220749781454564
0.1303029848790286
0.7355707710946936
-0.03253466348125707
0.10405344425696084
0.8196436813742053
0.32619266883948717
-0.1629838278005304
0.2186831707823801
0.016884247711555583
-0.3550027054128663
0.07305891592842353
-0.2528633190531245
0.1277821270320993
0.5643462565241971
0.6827687575344412
0.13425172995140572
-0.23568245392894982
0.2946055240216137
0.9822962223951847
0.14927117274646512
1.0266363838932941
-0.6915101799461059
0.21921006388694325
-0.5248918755899096
0.1755747567998739
-0.20718990406097107
0.5292041819361322
-0.4557660762657877
0.31783867280213596
-0.6192019681036041
-0.08117861420112801
-0.1763752712893107
-0.4333298576975585
0.6287256061615645
-0.10478433394462526
-0.45344268810071736
-0.41874504875894336
-0.590800645799185
-0.06795734108113138
0.21400746512465507
-0.7191797888070484
0.12501845046226712
0.3454934720301276
0.5991532065414723
-0.281967636952733
0.4427223138657883
0.45012494566483213
0.46985259926882283
-0.21943200110002486
-0.8089909942385638
0.3465086990049726
0.5871854052718191
-0.009157399630882024
-0.5867764805594257
0.1479246276080674
-0.06569230346093324
-0.9585011876117717
-0.40027646717330617
0.10144142060225336
0.13221511406184452
-0.8592207890885025
0.14571928601964168
0.19277747078563834
-0.8750464315587149
0.26915286824725415
-0.3122800258797237
0.43754772031655814
0.5968643632741214
-0.3231461983985451
-0.19381464936308374
-0.8431749001320893
0.31199437068118047
0.05349096736079045
-0.0893623440013368
0.44984133573537655
0.22070418652688922
0.14078848623115578
-1.0113611278123031
-0.44309576714054183
-0.010342569072320673
-0.14366702810111456
-0.14831177800099793
0.47245608361992875
-0.8550077529045804
0.30864746686399647
-0.06851354840391403
0.7659302823587013
0.6711174664220669
0.549297617236047
0.5938288187431194
-0.16368609380962715
0.43730343536542093
0.12022280694012746
0.33505532750325084
-0.2958457609333298
0.025405358310439788
-0.7189865626177564
-0.5244500283790682
0.21385740289855779
0.2029402265616097
-0.05892743179215182
-0.15917017287303425
0.23970660880540917
0.5394281986582369
-0.07194181548907053
-0.3946202324725083
0.6608633688809764
-0.10793310761486152
0.5099282231144479
0.17615869379352225
0.6305296048036271
0.39866461720157703
-0.18149815474743924
0.5487211323915505
-0.42793057643218835
-0.03831779518818171
-0.21135646321992377
-0.07201609654669099
0.534154234270949
0.0834267162277209
-0.4944411585526703
-0.4184745209015791
0.2653958561709192
-0.2545005132162298
0.6125973100278139
0.7918598989389621
0.44349501901260774
-0.9158723894613832
0.0586572897784675
0.3505132061377797
-0.17789728086267598
0.5225768196463356
0.11730211574100757
-0.7312088667927417
0.7172880627999448
0.5124583087928041
-0.07555698160102992
0.682671068367622
0.05797349278295855
-0.12238463502066294
-0.49604282498495156
-0.5382247893801446
0.7794832192491471
0.38534426562746826
-0.21958588579952723
-0.08416802241250813
0.44632887549430417
0.2820798088757865
-0.5852786860134618
-0.6456125778706964
0.17239035286829635
0.2202715023438173
0.48431509512656706
0.7378413244529265
0.08308684548775362
0.8405183090684668
0.1665900226170689
0.37803218005473377
0.2557507518739764
-0.14292885329337202
-0.34055080677151406
-0.4186000079705072
0.4567192945972115
0.3330303766656541
0.7726434851285793
0.33116901892955136
0.04463102924246096
-0.13208618045852713
-0.022955060593899533
0.10785766936317132
0.29939904938264394
-0.18734733556460428
-0.3887503446487266
0.11036573461496854
-0.5462131299701921
-0.16922778312031767
0.0029644797093481695
0.16533987791659777
-0.36233131665579377
0.15471685828240833
0.48805944966704373
0.04973557565792344
-0.7028384016494792
-0.04603566368793621
0.08502186496984408
0.29404297242446065
-1.2190594991563761
-0.38435628910481207
0.4810636636297507
-0.35188296354877957
-0.24060454236520554
1.3002394706621125
0.30099669000418416
0.46257960240139273
-0.8037545405618779
-0.22852382965803952
-0.2461740347461442
0.5973013688535822
-0.4289085251238392
0.6454932929587472
0.27927026010153966
-0.565354679474618
-0.6994234913655839
-0.23208442461359433
-0.15076777236855837
0.35943698082411646
-0.5259927917488231
-0.14646036921123035
0.5587132771895427
-0.2002551926854742
0.11204153982826104
-0.10021142475456468
0.09017453336322664
-0.15575613909447922
-0.1734875715243543
-0.6624430423868151
0.21268936519837717
-0.3765258317549198
-0.2667537184411109
1.276375398108611
-0.3503833002544827
-1.1917890703326435
-0.36751256613053884
-0.9712982411532678
-0.4052603430693243
-0.2407403562407453
0.2740357305578517
0.13938045876497165
0.006196768556987864
-0.10781567602234371
-0.4408903751041418
-0.0032393644571184627
-0.022526444384319763
0.0863697122695416
-0.523629579386677
0.46312520366138
-1.2144802493658182
-0.4734259781607689
0.7060743773537367
0.6678645328331616
0.0022840438915039812
0.3255905786595956
-0.33784094847598434
0.38930881320554933
0.14493195659775127
0.081960506887687
-0.8300947991297117
-0.36458574297559865
-0.37026972405364245
-0.33514250985585126
0.14242581537575932
0.22235192959512723
-0.22489118327586388
-0.18882578298508468
0.2624098950279273
0.06255799274235177
-0.03931095046779078
-0.15854301326715228
0.025459973413769953
0.014171558865436973
0.8193923745416426
0.043909153611053804
0.05134900455802974
0.2892637383042241
0.26351367974611545
0.5173669827986973
-0.2995752471272213
-0.21525170509078217
0.030891875217285508
1.0270043385383625
-1.0383885887452908
0.5096287006115834
0.14194340857930932
-0.10021113454614598
0.6975348056535468
-0.10226839824273187
-0.303646912429278
-0.43904604886718945
0.8077969898438437
-0.009535364447838174
-0.2536980177400351
0.06876138922361108
0.509143189884943
0.41901245238154805
0.42647141844364167
-0.15746417869499846
0.4464353220031161
-1.2955747792395418
0.14013602150764548
-0.10377596421548815
0.2243732230425958
-0.511920712356461
0.2207686266900345
0.423811002902127
-0.3024249266847435
0.5048034147117371
-0.37188824508552176
-0.6884229098639876
0.42278673250525234
-0.6234297501615088
0.6170035034510705
-0.1658139594333154
-0.833966695196539
0.4517707197509399
-0.43104068673184787
0.5748269783131804
0.11124585420629592
0.130969851913569
0.5865409618933767
-0.01839865975998467
0.036611171059698404
-0.09413274885819552
0.5203746819835392
-0.4307773979145536
-0.08856016750750684
0.19232631479824985
-0.4725387212818492
0.08149920314784467
-0.022713534976422867
0.6205545343982499
0.5826259175052723
-0.1652244567304077
0.8582260252007468
-0.026806945441229024
0.6085072707302319
0.11939510492217877
-0.4934491875474819
0.33885420472937344
0.1800360550636229
-0.8283363996764859
-0.12633926439344062
0.8186794547491039
0.4662144309473201
0.07075033587325281
-0.45410725140458025
-0.24488789636864225
-0.17240530896157866
-0.07759536136040739
0.39632509155708284
0.014736501999829815
-0.5248157946112969
0.059336842744102315
-0.35408921317238984
-0.04177100438013426
0.33645764027273845
-0.12640344862670977
-0.8811755636729868
-0.4060474074242515
0.7395371311246417
0.16252622083263446
-1.1122170677181817
0.1937661313526011
0.051780843828412325
0.1344500098269507
-1.2142067634473923
0.36787344691808543
-0.11725086773048965
0.038969802262125354
-0.5240316271181473
-0.44724718457274315
-0.0859946005141066
0.1902444367778217
0.7399306790534816
-0.8231543748590585
0.6756030260802198
0.00325700517075999
-0.18265334526281052
0.41443596451260156
-0.7426722452235226
-0.09231301836756221
-0.39052114936262916
0.47081986006657284
-0.3960928941944109
-0.5868958189925036
-0.17305468430261162
0.5182581041514358
-0.019527446671733117
0.01760113729021665
0.10534228203961613
0.39334133464556326
0.12403483785128057
0.18742991359310618
-0.47318506614165157
-0.3220621418295688
0.0333970732955306
0.8045337391328493
0.3890032512519616
-0.1103164397676207
0.24003296411832475
0.1585960857693737
-0.10141264910282821
-0.0835866610066044
0.09708193852891707
-0.6032536430328562
-0.06834084576388408
0.11337893998086629
-0.49435184824132855
0.08685249054183906
-0.28321350253981037
0.03855616506317036
-0.1362884042445165
0.7484154525589195
0.04945842999179351
-0.6223969896626317
0.42114312745306376
0.5726142385398881
0.3038791552072672
-1.1204385520247266
-0.144254577233757
0.27095098128882367
0.0879242040684382
-0.38658494828629886
0.38202703002554406
-0.3269726733926238
0.09801454497964718
0.09133789750961001
-0.9590383886603793
0.22903060443955794
-0.3484061484469957
0.102086607222034
0.46227930721682886
0.03412969997620227
-0.2727473045843024
0.47989071234631014
0.4773564075380422
-1.0215067479171702
1.0355173420673425
0.3097243727594952
0.17896600027220916
0.06611925452881134
-0.683422502194562
0.8798407498935403
-0.7680302184513629
0.4597425811275
-0.4684131322330581
-0.17224782648546463
-0.14195838645859282
-0.6958965831662477
0.36694643304562174
0.4760660611337736
0.2850226861181917
-0.4575019491278919
-0.5811647268867176
-0.5233142423916167
0.2526842327643426
0.41773731361447863
-0.7994648856172863
0.21622893273970578
0.21059958395299827
-0.02722306562757959
-0.5966116239503342
0.13743970285800322
-0.08975441760904523
-0.15287842655296802
1.0730748367252316
-0.10562701704747735
0.5665046897141266
0.09279573303814063
0.5669912074946267
0.25342106825637356
0.7917486455610165
-1.0969022679219589
0.12588738493248705
-0.1423732493986352
-0.1860915807518529
-0.6796829780445992
-0.7476543813360256
-1.0091453365106267
0.2825992471613958
-0.11942057962984015
-0.9585394544734649
0.2081165764132711
-0.3723567664188736
-0.6876458470406349
0.3127608462172242
0.5595644386459844
0.15121062378015962
-0.43628139887640993
-0.12830576553601952
-1.1624507463394764
-0.40075362092268685
0.043568710257993526
0.6165224607129511
0.051908754223046596
0.0825626908333206
-0.35662029075771706
-0.18174827623222803
-0.03897292143313068
-0.13907713079554435
0.5885789073319279
-0.40141943432375415
-0.15592481825578863
-0.16808235814532446
-0.07203593029062083
0.5748054328257205
0.6299537533785422
-0.3829562987678894
-0.04662069061389755
0.29983389894008594
-0.5308973842573204
-0.29617093207386586
0.06372731357020187
0.5692695443699908
-0.05433911705445399
0.10052949839758385
0.05312500363314454
0.22772118863119584
0.23874759216127506
0.2513832134023244
-0.6827348181856405
0.6693163948026327
0.04887584946018564
0.15629459774472776
0.023300874462229615
0.027806553804775445
-0.16484398705032993
0.07316743160961596
-0.06737206343847925
0.18277643508762426
-0.03938924961375367
0.22709032501070425
0.4783482402746569
0.05092562714664077
0.23484654727359883
0.7975455154973695
-0.8989061673387844
0.20885290523226935
0.48714352101837255
-0.11199701996171671
-0.053239461574052876
0.45489798272940535
-0.001826272462109202
-0.47097315305260495
0.9506745806021575
0.3933792560284969
0.45286660070885365
0.025472424378058592
0.3215497377358959
0.29799772682142317
0.5330358565624309
-0.19522953975812724
0.9120117395404381
0.46725147880219076
-0.12972759615556778
-0.7049385559272031
-0.177837327907446
0.06382842578784356
-0.21413692114475225
-0.2879892939544493
-0.6534112112496304
-0.25614449179004334
0.6647875563682829
0.2561027619050706
-0.49856108909116137
-0.6441065038727053
-0.26457372946713176
-0.03716690617586591
0.6475857211619159
-0.3793022957529898
-0.4402409874104657
-0.031477376596003886
-0.47944794470534813
-0.28741661866263263
-0.2788278397483212
0.1664097652988608
-0.22000846611181468
-0.2697139891912774
-0.3024784039110726
-0.05247292876033661
-0.0015798135744960473
0.23151206687326506
0.014733067746501016
0.37035990726819995
0.09642637103549842
-0.009952409597306977
0.8428773589375105
-0.04033323689435331
0.2679768009442598
0.4490355901922622
0.09111445052430525
0.36918060185661133
-0.41166581693498644
0.58481995974662
-0.4951206119904513
0.22448022214054436
-0.11446290289689348
-0.723674808430416
0.05958813518577433
0.4251384476466493
-0.3230864140201314
0.587251724087033
-0.3002534051994289
0.03059975119304703
-0.22325577725509105
1.2628088394600832
-0.28058026125545754
-0.701726872570508
0.24287112778098913
-0.33665224333101673
0.2412555358094673
0.20883616600616264
-0.6265442415393475
-0.26450240252576174
-0.6933042003595301
0.016227213339831226
-0.2798421199065668
0.25856586248324975
-0.41159192535808553
0.5186455199831781
-0.2776937724313577
-0.4257900584647235
0.3428882841373971
0.32596446233390863
-0.25995702064035964
0.08690902725052882
0.26533795154090967
-0.35835526917099797
0.11027951633251254
-0.36774990139469865
-0.2733213011828684
-0.1965593813749734
0.6118204722274191
0.2244388092503261
-0.5189356292220753
1.0951591370845721
-0.02338895074947321
-0.5153450201353702
0.5205394777352133
-0.22079568967750232
-0.5870591915367495
-0.10879484087438163
-0.30465125556705064
0.5127401795050277
-0.12765094560764434
0.6344838897436587
-0.021566930114918215
-0.4122296114792613
0.054884195220311405
0.14099862068725527
-0.20894915542306391
0.19026429018267552
-0.5988733970182465
-0.41905972371590694
-0.1516832139620203
-0.3060659107496979
-0.13877442343672228
-0.22132338140452018
0.16561727122598421
0.1363804022783872
-0.10268406368698457
-0.1759736211763409
0.0027507895831981877
-0.37615112539705065
-0.7805418647195635
-0.61134861810138
0.5819673554369743
0.2829961462321218
-0.34791293572059284
0.40254339641733705
0.5109627703532199
-0.31015624783601403
-0.08211669890381312
0.20869306148113903
1.012885171513913
-0.7624715212326504
-0.30570635482160213
-0.5204453495869289
0.13215011525945017
-0.17543358886741148
-0.16663906433811837
0.07222843071034252
0.8176254184346013
0.19231945371456194
-0.18097246452599752
-0.6224061343397309
0.20393433954345583
0.35424741676939175
0.07856513854183958
0.5231203366851255
-0.20958918426688952
0.40272855448413175
0.12282052278389018
-0.5241303299216352
-0.287938113071768
-0.8602721070754281
0.098751045663189
0.2113295390290381
-0.37348699831992244
0.3466980439156691
0.4429149331892078
0.09002012553571628
0.10862921891615926
0.5092087268231127
0.32444019115551576
0.5474692141794613
0.13776870475989755
-0.5784010563670783
0.3301077452275134
-0.7169040404194033
-0.2563686949885742
-0.18699696791278583
-0.05361725341670934
-0.06969970679262157
-0.19650403780140743
-0.7468523786936457
0.10558824353853717
0.10294729606222147
0.26687129493390876
0.30723478805208576
0.18872891354715993
-0.5246875941684155
-0.24754388110143585
0.11296541151912777
-0.17381767973236256
0.31923774939944805
0.6033936711487519
-0.2952845723279763
0.4127089339900678
0.9124632039280037
0.624192439369671
0.48082492602246574
0.1536872113205979
0.23679832643227308
0.15193511806943252
0.7773749467690703
0.07328317691533076
0.035767488060908015
-0.3350756886276943
-0.06173014036111172
-0.06788102109061309
0.36613098987564
-0.2055032193245595
-0.6339939876375479
0.6687934509565716
-0.4140918674651842
-0.32754437582698426
-0.42627354163719977
-0.2018727325278808
0.07516790031873122
0.16744133030132707
-0.5006364078077614
0.4622118349497886
-0.8960855915900259
0.1782803626112372
0.0333557682293922
0.009152155078004959
-0.5431005677004543
-0.9934552451446583
-0.7199755716727244
0.44533709941625194
0.530566493912245
0.295142292562658
-0.6581831401017105
0.08476444484360568
0.8153131970189562
0.8866717053165866
-0.4221223153153494
0.33959773246620856
0.852868258359342
-0.41877078715717886
-0.5113914863851083
0.08662152980091738
0.4554467398739929
0.13298124199800734
0.001060393140631638
-0.13555557721893796
0.7952508267474495
0.0945540959429359
0.6798797182327388
0.8361083304006756
-0.5066785655389505
0.251166166023413
0.09738088967759462
0.011434543684173548
-0.2664434971722709
0.12718733098650456
0.15578153548451457
-0.39448912075917153
-0.13342316090413808
-1.251252040868723
0.5900355077182678
0.042764742504348696
0.0037948290242152405
-0.3043102474576797
0.6264555960364566
-0.08351128653892781
0.3544239216465402
-0.34781076063309985
0.232130789677546
-0.4711942304986104
0.5284713240836307
0.22369339065603394
1.10417603380553
0.7044384587791155
0.6294699380575006
-0.20284417591458145
0.6538319423665708
0.6422820751019874
-0.29079589127835676
-0.11109699195866059
-0.20487623312169123
-0.04117901534261653
0.30444866111624463
-0.07257378308989659
0.4112615106997396
-0.28241335675451307
-0.0149128855233817
-0.14603966933857804
-0.7049398362694297
0.0355858487464583
-0.985678049507802
0.12715590338029661
-0.1819855380340476
0.641612275327806
-0.36984271837256205
-0.5685349758311105
-0.8033095265969551
0.00730428821017734
0.33500934925944115
0.05957216947284716
-0.42156484923520515
-0.025487475928244407
-0.7149118770804608
-0.12457376775133927
-0.3994740623471285
0.2453968707610546
0.10000980318651076
0.4646844022775283
0.5246685193318208
0.3028837192189552
-0.2752804979997196
0.7527596420267751
0.7162110817706743
-0.12002861603327453
0.09334401113773194
0.20586204507771888
-0.21050488703858086
-0.03678430837010416
0.6644484091943753
-0.201193579381092
-0.36912027084674853
-0.05501547742758871
-0.7912123084296605
-0.249957258750647
-0.22454689453120968
0.4756857423417867
0.5785406896649227
0.13303083498565277
-0.08101794754750075
0.01188464820585218
0.5940326541735095
-0.194118924013719
-0.1861462128595294
-0.5350430846692185
-0.029393680551684065
0.4602464585785479
0.538174697306215
0.49679317165022563
0.41200867102008604
-0.948811712420637
0.40868504160378205
-0.3172188585951077
0.11685697848654039
0.1128675319458593
-0.07012371712702084
-0.7118019085448704
-0.44728591196655104
0.14184831209224627
0.1008362012260552
-0.17064643361462414
-0.19054927676328498
0.5739396090734348
0.26380401159647987
-0.1998556857575901
0.6367406988256094
-0.5202295736337778
0.9095732736537416
-0.21803867166988597
-0.08820206328341794
-0.0026065950403467153
-0.1386582829925272
0.4496844125541938
0.20371343065154138
0.4205904526428764
-0.2645769998720272
-0.4534699731481538
0.46620719595160237
0.023823288050437125
-0.5118826657775495
0.15648935856360846
-0.03761516329762235
-0.39726380035824627
0.02978245457429851
-0.17622608030938006
-0.2987303884575991
-0.0011242100565198032
0.35569735550045306
-0.24198372921902353
0.125321481931576
0.4039016017329522
-0.42683940345950977
0.8481942465115024
0.33241019841701047
-0.9100497583146832
0.2584570073895135
-0.11305526134289898
-0.258660279995939
-0.5942305163398419
0.6214430789818728
0.16846783950839167
0.0824005489115335
-0.054867214404322524
0.6302053217784109
0.5345448866557545
-0.46368433734309705
0.4168884523053712
-0.38117938910954197
-0.10414751665079616
-0.6099392343531395
0.8164324733376451
-0.2619555837568119
0.4658220968251623
-0.20575614221677702
0.35780368606312324
-0.6324752726944987
0.37418594201366956
-0.3950091732385055
0.4384353794304952
0.14535675108774138
0.6157912943539235
-0.6194900543192422
-0.25973884865694724
0.18010681687194663
-0.1807440603764492
0.2925582371050115
-0.38321026765822397
0.061184944517924444
0.45701419376848607
0.4585701255183924
-0.5420878508983291
-0.12221173718486637
0.5135689140792841
-0.3724252444581736
-0.3349001552464176
-0.21386650224822276
0.8158585226270957
-0.09073892361539859
-0.1519051965995447
1.0340608641611457
0.2716169487303436
0.09031601626256289
-0.3966802933285336
-0.25804818905582444
-0.3527466516101066
-0.07169038297306186
-0.8337033294130135
-0.6553338470433926
-0.10512972274060893
-0.7005761666124322
-0.08877385037542548
0.7273385213744396
0.4976584746405507
0.28142469887230814
-0.49711882740338853
-0.03617381942749115
-1.0824500973969733
-0.1413108563029682
-0.5680701662067087
-0.3262620948831512
-0.0020715683324571896
0.36320890329147626
0.1863467827693299
0.35528566968798203
0.01196976952168445
-0.37750717604379197
0.2907539239842636
-0.14594906737764052
-0.4414226736370104
-0.9458418067032802
0.15737736252924472
0.15264896501047903
0.5219145119873833
0.43611191304784236
-0.49707360849619514
-0.5525819568400039
-0.21386605449722262
0.37422522606894104
-0.3308373930651596
0.08652491099930354
0.007869479456405488
0.11326986691281682
0.603559890691395
-0.4768654395570903
-0.16024458597440758
-0.8792983722060316
0.08833260836390422
0.48420938466258134
0.4934025295272565
-0.02728173075935103
-0.34857968396046635
-0.3190542686662198
-0.052440378869659604
-0.23229281819135153
0.11744097878429564
-0.22995507520734476
0.03843358566652941
0.0343353821531783
0.24426852278353872
-0.33826431191674244
-0.3559039469113959
0.6544259473182419
0.5740894875825946
0.11510080881542473
-0.08475018727790253
-0.5813182861468592
-0.19802404161257275
0.28074393458407143
-0.3657756365356441
-0.3141223029423407
-0.04832990508306112
-0.3123485695335665
-0.0579342508985749
-0.7074989187349106
0.3718698285025532
0.8107243624293443
0.364790056277976
0.05598397450438763
-0.20194938409366492
0.7304869530010002
-0.8840229880687002
-0.07580003350304323
-0.3198848424466312
0.07698287634468615
-0.16680450402913535
0.45477819228489785
-0.5618058463878166
0.1652067628207283
-0.010408083578387406
0.8120552930157793
-0.7248031598128227
-0.3951839840233222
0.6532845501829745
0.427208493257505
-0.08175318637631035
0.1822123695473069
0.41009330084822226
-0.13374368651700522
0.5914170841490347
0.12050942873655399
0.5711516176600919
-0.23332647328979073
-0.028918243812508335
0.05620837965158403
-0.14251622389482432
0.6269536239995773
0.44195681504192275
-0.3454661263934994
0.5165951320032051
0.17543369095007258
0.26591654125199227
0.2754893008596941
0.38505438971386313
-0.18019803622280756
0.14241133914362353
0.2618503596672651
-0.25388169400207816
-1.2504861551858983
0.07162340515321483
-0.4991712795669603
-0.9451027130532842
-0.3974545236166644
0.17543163948185506
-0.0041972800927188025
-0.3652586872181984
0.7264838906438003
0.13741495332931586
0.028801100467720386
-0.7019368477808725
0.5935863976906494
-0.34166578260668323
0.7223074951770316
-0.9599562704777641
-0.6760815122715716
-0.5115873410808204
0.5570582477837549
-0.05645349632737737
-0.11864944542243583
0.4128611265340505
-0.5066478958067411
0.7099029289736518
-0.5684982590277143
-0.14358229040048037
0.06987722753956685
0.2710321697752709
-0.9428716565364206
0.32268990615843707
0.30707038089197897
0.2932228320128675
-0.6959907359719396
-0.6497757202740216
0.17189829867666762
0.6800178463594184
-0.10298309785066113
-0.47366729921956535
0.38559100372710137
-0.5233535031164608
0.11636082010317506
-0.2913882620234233
-0.4481776724759091
0.6987317532988012
0.3038060522746661
0.5288438540969927
-1.124974571886169
-0.7607071074144501
0.0013828878491177754
-0.2987453730959454
0.07997297488704198
-0.2650873040587623
-0.22611408286326742
-0.052957287205104266
0.19574703361283824
0.04011281953701021
0.29878970473983935
0.05901649944252145
0.09790783221094235
0.8575488007078061
-0.14514644432351215
-0.14818004519448866
-0.18248542717834942
-0.1558528381013619
0.314672964356845
-0.2677364833807665
-0.9811762919390008
0.3922077288939501
0.4490730710741919
-0.26601645624249176
-0.4899501744706237
-0.7296683236899393
0.005784790328180432
0.8449863485775786
0.9536026497002694
0.0039712917486812264
0.11978291367025695
-0.1704508060061631
0.20829185629859204
0.31018887339923057
-0.3186256979619497
-0.49195521461062625
-0.511855536481081
0.6043674161479348
0.6388618917165216
-0.08610857702750445
0.09174115772253869
0.3861965290896954
0.37985187685981037
0.06958291060660837
0.2450840361061325
0.09099639043715788
-0.5251669938251998
-0.04952706941006327
-0.5647047947109517
0.17092817232501684
-0.12106381795994736
0.2469498700598728
0.23140589706666967
0.7449947726951127
-0.8265190951849247
0.0265336824322093
-0.8322845468150861
0.4657032850111737
0.44560399783601257
0.4054493655062014
-0.6018434823514376
-0.34972368237750306
0.22223730895092336
0.1580942011867607
0.5531954301148927
0.44158702130964955
-0.11659603841933774
-0.38518654223763593
0.06862547889451406
0.667973039185003
0.42427204802778906
-0.35639959052922343
0.4865385454592484
0.056578532056315106
0.4770997607869697
0.02917372939960091
0.2591421472103448
0.8614747640397162
-0.4485260541442193
0.3653440769383067
0.4712046854483628
-0.2009910880373289
0.038680758370702235
-0.4564818737365396
0.5455561221603139
-0.5025693528168377
0.15239318772980612
0.338451803754097
0.003692685849212227
-0.1773467680169074
-0.03478549850923347
0.08615528148097679
0.7572192064347361
-0.43718818363547807
-0.7188069335412731
-0.4544173192441597
-0.7364363598214488
-0.2606805013442448
-0.14675446258047178
0.18079047311943186
-0.997801206642662
-0.27357372976843125
-0.6363511026794113
0.7247928940917625
-0.3928890251253985
-0.11353230745818343
0.04609689806591021
0.9646959477511741
0.7871377127202686
0.6527866482404371
-0.48875248249763703
0.16915750247403383
0.09780021866796756
-0.24544354249871725
0.11090326589653175
1.0003666064723764
-0.05009392427743371
0.24027899429332755
0.43645820585178685
-0.43327111541199914
0.3438065184430983
0.014173781341495495
-0.4572796257842448
0.2342861566308449
0.1376972741990474
-0.30800067654274027
0.23766892512790078
0.09424489841609685
-0.5553300357393534
-0.06240852182191524
-0.34693085012023983
0.5020146260152933
-0.32325320370017446
0.03575986842496126
0.21738304585427592
-0.5323609560677846
0.1157721743139084
-0.39309736848719573
-0.7647028767377706
0.20623665135902003
-0.4234840354948571
-0.9772143415382224
-0.02529794066389538
0.01843571246471184
-0.056832610654652144
-0.3740955064604648
0.2860302945021577
-0.45118960518975126
0.2107029634000579
-0.41937243966197013
0.27231167491792335
0.10370122612690813
0.17589528911583496
0.11291995028620468
0.399072811776677
0.9253729397009327
0.4727169434844808
-0.028673851575502604
-0.8334056279743339
-0.9431812773830641
0.009008882213105491
-0.21644119387075986
0.27500011694076204
0.25442600492505496
0.6196971376813517
-0.2776749617802525
-0.0019275248270672202
0.047783614362441273
0.11960993747292666
0.30346818459369285
-0.009716354521796401
0.28225247610451454
-1.0104910841440315
0.4342387163163324
-0.07691136843357597
0.9099334846905923
-0.020187353128647827
2.3378187395844963E-4
-0.48164310599320515
-0.4152534862840281
-0.433858121273354
