Fitness: 0.0/250000
-0.3505907952115357
-0.15851079129399082
0.4330046591143202
-0.23400559242197883
-0.4526444576158829
-0.8412821284789438
-0.23488699918000222
-0.4444074641840077
0.12495503593046531
0.028351761136105602
-0.4905097372580074
-0.89154891019067
0.07613820049859821
0.38114941099214317
-0.22855605543589663
0.20244735783719248
0.10111052178300362
-0.4907272766506948
-0.3024903189151583
0.29821106288306776
-0.20446581757352877
0.34538102879611077
-0.4148811173353977
0.10710282966654172
-0.4684536866354675
0.7195912021971848
-0.05663276601134182
-0.09553057000830778
0.8094122687835518
0.019576727140577788
-0.6869633679023591
0.04637521450797011
0.15869904184560746
0.009142425211007166
0.022871847374780874
0.22634953737068142
-0.09181346572780003
-0.05866735830623859
0.5215879329600321
-0.9512957716074593
0.17411056174440387
0.4475973928440846
-0.6708195072718761
-0.12639890457058478
0.02185991069260207
0.06503964779738292
-0.3042809600969393
-0.5569153477088326
0.24882573493043203
-0.3233492884551945
-0.8481547930187666
-0.021295373684360963
-0.2840258163107091
-0.5190720056453353
0.403500494125164
0.021445399411729404
-0.060851047842652384
0.09820160338265516
0.6338914921503181
0.3887958693410697
-0.4619778166128714
-0.690723040081509
0.5043267393770005
0.17736127714370076
-0.3203930064905427
-0.2180385313599702
-0.3100889911923811
0.36934467617405653
0.5566365124035129
-0.024803348322526286
0.9474099891725404
-0.1285192539092238
-0.2946929927169242
-0.3984705300651771
0.37430021017517046
-0.40032059833614975
0.3089036365662614
-0.7846473147454817
-0.6258802314147182
-0.7708832052356029
-0.2806625645373143
-0.2642138673500226
0.05459423458253587
0.4243754178802137
0.4138471041840551
-0.44892702576278753
-0.6176551237285277
-0.013586410809924065
-0.2198733215807971
-0.15863159121807813
-0.3630777993310328
-0.17313370946733042
0.08432885929187295
0.26907342982431337
-0.1251999142019723
-0.7200465744755495
0.4489997270406113
-0.004289941210004367
0.0358237000416205
0.6811487563279075
0.14944777821610966
-0.1927332060923379
0.351831248667956
0.7965917147652939
-0.46696481090784947
0.4447179425543819
-0.515348931650417
-0.4073343760157998
-0.2434567598639643
-0.7275858334111936
-0.10972658010578529
0.6915219696195146
0.058309104914942234
-0.1539416872202255
-0.6613367815095901
-0.5214100860715656
0.15224279694801102
-0.5624884586579639
0.05275938393229895
-0.4772491734853834
-0.4858037594861424
-0.007625243619557853
-0.4387546642684984
-0.018030626292483087
-0.4894816926579324
0.2474354205120498
0.42669580691702524
0.28178623044972984
0.579855097785916
-0.3803178482592753
-0.2713795931474332
-0.44098594818961045
-0.27476274544783197
-0.2948299162390633
-0.10887254699876414
0.3535293913651999
0.027503031185850957
-0.8272646321398917
-0.1225510319552412
0.6236251757419154
0.06357692762769385
0.45254179700202934
-0.5410278208081473
0.10690664756889068
-0.6337708775106776
0.15011595661237342
-0.35279537496673097
0.47262222569704093
0.47575059800915753
-0.08690405137981871
-0.25288613178542163
0.31845547366501814
0.1117290500041872
0.47658905016841335
-0.4155839344262314
-0.06905913679228659
0.05670538634679301
-0.636261814436908
0.8262090350537619
0.08621830000482189
-0.6656243642668671
-0.7185690771609196
0.32065695526644133
-0.007491510124969736
0.2990431302030466
-0.5375588259567912
-0.7968877480300762
-0.46601953049753897
-0.5021815719856945
0.38795918556489406
-0.3913217153600369
-0.39823503994615916
0.28235686435742924
-0.355462878025252
-0.3999305701283984
0.5337126632650778
-0.17871351500603216
0.15695701780250326
0.7606362875958865
-0.427339184230797
0.1992573528000282
-0.6963963788065195
-0.497394805982459
-0.15532687276279866
-0.0614363155864619
0.23988105288667916
0.5357039783304473
0.3636767865877908
-0.44565446166502454
0.28743718021644005
-0.2255214751054646
0.6467519330764514
0.33630720350852106
-0.21317657838333592
-0.7137930455414685
-0.6635044716004106
-0.5782744783689436
0.20944571254411593
0.517572375838776
0.16962827970617256
0.15112259265584604
0.5131450743235382
0.6484262599877688
-0.06158419287741579
0.38757300080145873
0.14916961520985805
-0.118344206313441
-0.4210178661175038
0.2784218880878836
-0.06421389347499173
-0.7369879210064361
-0.22811998514349918
-0.6840411910839881
-0.05545362415608657
0.011787784278405211
0.47679543667113
-0.5736408148827165
-0.04520686658299744
0.025686651300519392
0.20615254381743886
0.016821530296602494
0.0045116178974055066
0.3995876210438989
0.936293592408437
0.4110989365602109
-0.6576036568521726
-0.7534502271043106
-0.6364685317927445
-0.43167736218835573
-0.47189033945464154
0.2322725097374322
0.7124606489629538
0.2926968269624244
0.10806538061785464
-0.013883270611056764
-0.11106215111914741
0.3887171464208615
-0.8020086465666149
-0.6397662044524488
-0.39339625315413584
-0.2409672120254388
-0.13757737328082698
0.41386089270697923
0.19394499769702545
-0.025990155794303305
-0.4599178390552905
-0.24772580973174452
0.07679189934461972
-0.2362575993877376
0.022901861696187797
-0.5206433227702318
0.3027809342695408
0.1564764842899441
-0.3009748570566706
-0.06978071915906237
-0.4520403901043959
-0.046891782638718627
0.07284077697975799
0.08680145242287096
-0.9234485004391786
-0.1702619779320359
-0.8538616047234375
-0.45951988448467884
-0.4919108115355414
0.354615771085694
-0.5328017882848878
0.44022722131243386
-0.39777383906146524
0.28524426918853507
0.2135744592051979
0.44083519969529317
-0.004494182775367395
-0.5387249205022493
-0.6547780141113594
0.18977552152585586
-0.29420222684601516
0.2595978501604924
0.4799960296628215
0.38423715817980375
0.0030831298694423692
0.28285184984811007
-0.04385385671460584
-0.1671055635063834
0.2767465985249943
-0.6430320685708805
0.5659463339275496
-0.1114888033747613
0.15180376918292537
0.2979486908637159
-0.05160793451009482
0.38668935402780824
-0.5957522332950687
0.02997475089038215
-0.928202640852917
-0.4977957941843385
-0.5197674469163971
-0.1799648951121614
-0.6389152409624721
-0.16943173657158783
-0.005610259315376731
-0.2775189182608636
-0.41926088295394504
-0.5985312676662164
-0.09079292182170196
-0.5051597899717737
-0.14841060304376785
-0.6457938645216196
0.539295839080204
-0.4974159130633439
-0.423368838081428
0.0721791458398372
0.6634676246238705
-0.38464154625037783
-0.4403984865929319
-0.19509239379605214
-0.13030800693269617
0.07387501587014578
-0.7807151658146618
0.05100706064756888
0.3840290555804028
0.6539046204214791
0.3241671976301227
-0.40348794603701144
0.08740038884654311
0.5256348235051306
-0.6493606907126562
0.05679029482556852
0.3007453359068034
0.15058053639726454
-0.3341293491443269
-0.43432502042656773
0.21274906733093224
0.10000653123087
0.4380065473884709
-0.033192458471303254
-0.15970840475003756
0.20366656096522884
-0.8443012350428022
-0.035751629333271806
0.3114853561752736
-0.13152659185448357
0.6515544637861491
0.732937284214311
-0.07286018195051813
-0.9110461172908502
0.07317737956277193
-0.47252778477629565
0.021667921989673378
-0.6942423849930238
-0.681637570965811
-0.7382263144961744
0.10677590466694942
0.37289340510817137
-0.5015841455505016
-0.6482320168055633
0.13332360629374918
0.19514999084965956
0.3823444711058013
-0.29292177020297405
0.12409099589984696
-0.12752424496861592
0.8193318415052087
-0.4397969474619099
0.015213820120695387
0.22622309338735846
-0.6444526818359391
0.689900220957766
0.5281517774102685
0.440016304362879
-0.019520003487102366
-0.14368406112108334
0.4623356090271682
0.014377193926156329
0.8917356290681268
0.38287318842845586
0.6476134160794009
-0.3212746802324118
-0.012369735889438682
-0.09540573809891295
0.1928733470138806
-0.38461064371249576
0.14684722882346024
-0.18256095593931265
-0.07086975472923218
0.2908366599594059
0.4233342403781769
-0.17168927621180252
-0.38617945180276536
-0.625885555880325
-0.7108563604302621
0.10714750583936627
-0.6863820792911572
-0.05071380765822864
0.2594828957768719
-0.6389014834490547
-0.008301961846251538
-0.47691123355250475
-0.2693762040639729
-0.008587939960922442
0.3889929361899258
0.5975523887550026
-0.30575881000307537
0.2747089189290113
-0.09492971535324113
0.4921458344341221
-0.5105429874910438
0.5404372997340011
0.18372478003847093
0.0538313772531096
-0.18415920248003914
-0.6430846394595773
-0.6082231151855568
-0.03773463260397558
0.32307143355842927
-0.2060966751372303
-0.1995804092518051
-0.28627814067121937
-0.10528919502865075
0.15854882696126094
-0.7284202349891628
-0.1271943163098208
0.3041525356778978
-0.05791250343133403
0.43914199337406423
0.3904407641084292
-0.4587694182565738
0.9283197680096521
-0.16056349607292664
-0.18945320029964652
-0.7666683683346536
-0.6780119000204698
-0.49954732931270496
0.6426148160654831
-0.26008840396218647
-0.13034042684346347
0.7441081079268143
-0.19154116489449413
0.6094639776573143
-0.01245977795270059
0.05817931326648873
0.18553647651582228
0.4274968410107822
0.081361044159459
-0.38466013132971566
0.626450446307657
0.04662228836099935
0.5704089774822712
-0.30220713144477673
-0.19424071745554938
0.6599654150450901
-0.5308915458930871
0.430220423323732
-0.5915486528341544
-0.4315879472554036
-0.9437632786375582
-0.22949340867604562
0.20681197777174265
0.20072604901826419
-0.15876080870015585
0.4903973885469829
0.3056564965276396
-0.6599614213005539
-0.01829532430317915
0.5899499260309522
-0.5429472827412269
0.5658881268579959
-0.1780681503256616
0.5637343993811375
-0.8673462075259207
-0.2763220431844787
0.07287550485942906
-0.23044576104272274
0.34367639621762414
0.7727520847787159
-0.03915977108942803
0.28113817310652334
0.017430704646173356
0.25618660148588757
-0.4967487879065793
0.591551873220637
-0.8353504476324775
-0.1258057623747103
0.5179483070735093
-0.7840769520366502
0.7085102510865947
-0.1365170507316752
-0.6870909548419518
-0.1404119711939028
0.18884608043519402
0.3305234292281638
0.5059766282836689
0.4837094783036453
0.028908688634882385
0.2453578582556758
0.35444223165427113
0.4413434166630663
-0.00935929855616291
-0.8107716965483218
0.40678593987282496
-0.18012743198805792
-0.08903930985386133
0.520894975111903
-0.04553396216643768
-0.3114188970978736
-0.5529294938496957
0.1069037979628561
0.23284712846101552
-0.11408373239568448
0.6860695206730221
-0.43977588254470545
-0.1427814144510794
-0.2898791277935342
0.04907081100810884
-0.6398982783685161
0.24419739511734373
0.46656360030597155
0.3829026482674255
-0.4685688876494929
0.005560768981359154
0.32510214356390155
-0.7524933398102862
0.01082481820616965
-0.7394642838606603
0.35275739279556784
0.5452269751972398
0.1275694245425788
0.0329828153642755
-0.4314769314806396
-0.04456863610294215
0.4626022336108355
-0.11472636934990865
-0.6564954301891649
0.6290628356800013
0.730785641281336
0.11673718161788449
-0.14711637008071765
0.8155351537093061
0.11245310743559211
0.6721776898329419
0.39234632270635783
0.027092172016239147
0.14317377766970063
0.06445241249214873
-0.5102691566084355
-0.042706538732213195
-0.12708153068219052
-0.39762664575771445
-0.07114685345909522
0.3104889367358068
-0.6173151034114847
0.8767481635069221
0.6871133560957345
-0.32293433757120626
-0.4096686147204739
0.06507854757540377
-0.5238661498897268
-0.3731993839782758
0.27209234600373977
-0.7718845823530933
-0.3819617806242823
0.48586982912295806
-0.008322015795810489
-0.17407871913616457
0.11070257812572759
-0.7125634857748621
-0.4392072894202007
-0.07226445214036614
-0.2296311167253936
-0.013768899240817145
0.8568896483369915
-0.4514313315600764
0.024279935423957233
0.7530482675649607
0.21910269344432953
-0.21552824285081684
0.08817940704463012
-0.0513978612069248
-0.6058523758160401
-0.7108099932422763
-0.34610053764866366
-0.34543884437382033
0.1361040075788077
0.0093570469598373
-0.22954394031114445
-0.02953392889347206
-0.043036072635986966
-0.28979348042568487
-0.24681705925025388
0.1336476087191979
-0.28081151766436985
-0.5480560589617537
-0.6178228894807973
-0.17544334160125863
-0.52912188257989
-0.2871228420481522
-0.3019937637039294
-0.8921845834769635
0.24601553356513728
-0.17167537499680208
0.29148735738302156
0.749589195807112
0.28613999506366217
-0.571843241427287
-0.49044121289738807
0.1418005815200819
-0.1930825243913874
0.09349860780474695
0.08301457741894458
0.20986782607757504
-0.3894452128339688
0.6742521026320862
0.05458705969671174
0.5158895018718568
0.6400408803951312
0.2663433589228541
0.40475984178498836
0.11556338964210433
-0.2306354695596764
0.16796907629618318
-0.18734593385789144
0.21887956068372694
0.17692936213661825
0.4823266183432753
0.7349988433894677
-0.6519932913346816
0.0979207796638547
0.2951988091098736
-0.3734150373385722
-0.5974857531536908
0.11268347118622424
-0.6671440377965906
-0.07061355568651995
-0.16785214595855114
0.47413815662931624
0.41241507564672275
-0.8266881262399143
-0.26450354060229075
-0.004683131049997402
-0.8051948329073739
0.09635933667017982
-0.546003322284617
0.3007760199023011
0.12899484040109332
-0.2970207319583519
-0.5049389564950155
-0.6222696449882171
0.3770168565156512
-0.16103371411674217
-0.659213733023198
-0.29321209163876105
-0.001276418624750919
-0.4102601014480489
0.11629343327936215
0.15353102739836133
0.7516824528303877
0.3759548236420829
-0.2979305993542728
-0.5481809243082048
0.014585988372361247
0.1785021996407291
-0.7716753192092748
-0.5605553298642331
0.2461394996821602
0.6973420034061929
-0.019693150309409546
-0.5620315448915087
-0.16979748404986206
-0.38988802905511855
0.18778259131658348
-0.5269266653926371
0.1460768870335507
-0.12043454249447128
2.931433425334973E-4
-0.10647977874943548
-0.3720275885095137
0.3885086341662597
0.5803994244145634
-0.7593306696631733
-0.0033608673994931504
0.422169775950787
-0.06800588035703992
-0.007962028846518865
0.014319572962774196
-0.0817183052547018
-0.6020899297383286
0.1606789145931291
0.16220493416424253
0.06916581053531978
0.5068083314691283
-0.31620495536149373
0.11243595826137143
0.16045579591929826
-0.7373729498240025
-0.04407657969452594
0.506121021818908
0.6867858549452174
-0.016940684730125555
0.8436182343096172
0.3926958130353154
-0.479345614100985
-0.661081167132699
-0.5539518912196533
0.29812492887383046
-0.4350483591381189
0.0018781597105838044
0.1150636968621569
-0.0832502586675804
0.5211416437307786
0.007599018845514172
-0.4518709102298092
0.49006943548219384
0.14912090677081513
-0.7087894826407969
-0.3222856704347066
-0.5258068497622255
0.26848812019951895
0.011373607718469514
0.112551870347817
-0.030250709041468093
-0.4417935651111068
0.4229470770005903
0.608352032230399
-0.46900744913593007
0.4382342225437288
-0.18006418456907292
-0.04179778782716714
-0.29647900576000286
-0.03376550204644302
0.01981295206361744
-0.26191047747233354
-0.27478398531269543
-0.16598081839080803
0.053494476853011896
0.22185096364486623
-0.2519180502605247
-0.4057502152231319
0.1903561362940478
-0.11794933259222184
-0.09140012604692482
0.3369237678382053
0.02070588195170664
-0.32459845483711114
-0.3305301422994027
0.17168047578105483
0.195898923104468
0.03152338697802015
-0.4849397869879001
0.40965342561277585
-0.3323169218093569
-0.8571155583035094
0.5126470824680809
0.3401541121332323
-0.6336296194808094
0.02147845473391985
0.5321004529004558
-0.19907637928387534
0.22332920842011839
-0.6080089235647003
-0.37354060818333423
-0.20502916138467497
-0.5719131999028106
0.3093821882971586
-0.3625856360853057
0.606820400364485
-0.6416935482821918
-0.14977419771013734
0.10125597328636327
0.47104194498828955
-0.39972366665544923
-0.23552871657044017
-0.4303183719682865
-0.7152233043224345
0.02095502311813835
-0.08071845595074767
-0.13757182129977796
0.46395011664042574
0.3216409175482652
-0.07124356012032729
0.39148924759276327
0.008079267677412849
-0.19926048853096845
0.6117164585241817
-0.1990824061740203
-0.37684992541221374
0.6991508651620547
0.15387020968701448
0.3646188836328358
-0.4004145088964911
0.2974694333975608
-0.5732763358826752
0.4938588373968368
-0.5267078824643187
-0.1276934046521676
-0.47248368429147436
-0.09513254114715419
-0.011609132627996899
-0.10288247434579556
0.0411072510825673
0.2879085393450339
0.12619637823062013
-0.7030598819684438
0.40825891533581815
0.3494731501736471
0.4277744283479431
-0.16725836351628554
-0.10101182364688843
-0.19028500036741636
-0.07560670108357237
-0.1749325900832096
-0.29794744866920564
-0.03824406207989495
-0.5109154504853074
-0.5456255701225069
0.5442255186659921
-0.2389892853929304
-0.15507864840762198
-0.5015839872692395
0.3320616443685569
-0.20408302493332253
0.39310603732242233
0.20629360569066024
0.8228703097321416
-0.4144174016615211
0.7422212630250378
-0.3783771424219442
0.054988522790705985
-0.2061012714523094
-0.15944011415278758
0.14811743443974212
0.5821869903832513
0.7385401012815136
-0.678799424133101
1.804196186244722E-4
-0.5156145591515225
-0.24645126419738528
-0.020259536485851104
0.3566139465384782
-0.2303116794999328
0.6746382845538011
-0.26835830493977886
0.7534246792185068
0.46409740764988994
0.4496619949702755
-0.023775637776122016
0.10748746572945989
-0.2782070068995205
0.02142704880984503
0.2610039072666306
-0.3056518665738087
-0.3276240715612504
-0.5622253873394963
0.8163331538694756
0.5917130984955502
0.4015332211341459
0.3003214809404112
0.5584003997715986
0.3855782732139198
-0.6619405767257142
0.5896189618788188
0.5401974858448144
0.20919200459039522
0.20850423399359952
-0.46174512225717723
0.3814380614597126
0.048917988499147635
-0.31586996496063235
0.671534537863302
0.5341257154709982
-0.4426098609108998
-0.1865839588624899
0.5908243906935047
0.3010002600096737
-0.6541857102771922
0.39518302580858355
-0.17885280985925933
-0.4072365564946402
-0.20048965303953503
-0.5257987350674993
-0.3662396413003759
0.013826478925365704
0.6023031598160553
-0.3703152705027313
0.057976712036143296
0.06836174518291382
-0.23157068698361094
0.35636540256931737
-0.11875024705255977
0.4258957169432538
0.28132925891349836
-0.21803770758222163
-0.15760537356551485
-0.2740991177041181
0.16962780214666917
0.3121332200084106
-0.2636288890899833
0.2793788044222216
0.587364015731874
-0.15616038904957064
-0.6003068000277635
-0.489097431689525
-0.2992709805489664
0.4033114601536655
-0.5167679731053095
0.13805450405813624
0.3507323614962088
0.1750488891469032
0.7082829953495157
0.1364144319945476
0.5270479877513797
-0.13247256764812543
-0.5337027160953975
0.6786368747611016
-0.06862844533181411
-0.04846761787162168
0.6772958211850247
0.12092293512832364
-0.15387587309839923
0.7858957166839611
0.7212015440606636
0.20740410989275582
0.2874629325771446
-0.017090550925188963
0.16984933619325715
-0.37688318021691936
-0.03177531577768844
-0.41170940522676536
0.1824530227713521
-0.422863004035289
-0.10957497945126682
0.4798165589388934
0.08131990082003893
0.5495731643070788
0.10748624329347733
-0.8525980457935927
-0.8504080133931765
-0.04900973048094859
-0.11238992935902925
0.32567657052694843
-0.44531396108261145
0.60243750305636
-0.8884944975261408
0.02429655411157361
0.18513630240793233
-0.4873636095528111
-0.7447581637830211
-0.22857745649754768
0.42149741516242056
0.24864294349613458
0.336062025028963
-0.2371171645367256
-0.5476892183970025
-0.2817264076132514
0.272300744768065
0.606105543744964
0.0759433401490186
-0.6847864968422716
-0.07053608867444483
-0.5318957611178715
-0.35912833900028873
0.2291565128826215
-0.19032905229080876
0.3407952908681974
-0.5319366755282019
-0.0496895543752075
0.017462877353855766
-0.4010599030961015
0.4389689625654736
0.3332277284922399
-0.19701893062970188
-0.6928130421699558
0.6244345138226274
0.44241598883452293
0.3872042213223481
-0.2150353027843499
-0.46866670071883754
0.09413581949860428
-0.12660836413053633
-0.8103169564682026
0.13356512091280504
0.1408384006182175
0.09533043937137908
-0.13225642616605582
0.9581954349451167
0.9439539071880724
-0.4405650290487335
-0.3257285006508118
0.17251282772028287
-0.6583932975890986
-0.03756517610659538
0.06748453576546554
0.5708931206172412
-0.4288743912618804
0.9697253464338972
-0.2550653413017443
0.44523241133500346
-0.17974572240612074
-0.23482623101747113
0.683897062693725
0.33500919313174227
0.5449528845116085
-0.024882964776863026
0.7375449345523688
0.169574291100277
-0.7339463750961654
0.5177802530984825
-0.49416690799576624
-0.049985938114269546
0.13778031876247654
-0.5837517054134856
0.33851285837138745
0.1959503088729162
0.46466125832506167
-0.18737062232968238
0.16952556594461554
-0.16869387092284438
-0.2849021482586177
0.4196654353437974
0.06719098163003223
-0.18286647106497633
-0.19870744732454892
0.21281352317051794
-0.11718792710033832
0.2438137665199599
-0.41667567982378806
-0.4221351839463423
0.7009480985355133
0.6801688222412531
-0.32819965023298314
-0.4952659450707467
0.6005941456718494
-0.5315051501667983
-0.47613153289472876
-0.20305195041093582
0.3764220213915319
0.27932397273622456
0.11164087429083225
0.5833956923574815
0.5538534658905001
0.24056126850635517
-0.7551282208131257
0.4923201995192338
0.08299838493265
0.19067747585096084
-0.5298249975612744
-0.18393320902225785
-0.32465337110273396
-0.1563053910684309
-0.004993136504733875
0.13252437785133442
-0.5955218974295083
0.12049983388233576
-0.7507944329621378
-0.35891314489370896
-0.11573934952131404
0.008584656703548688
0.3264037512313054
-0.5315219122986079
0.7973380730768513
0.6239039318523519
0.07929452374879253
0.13110548670590938
-0.29614492158076644
0.07696765583584753
0.299580771254489
-0.3267831058976003
-0.6762866253754106
-0.6909424946952516
-0.146768694704841
0.032276459465114815
0.5428133897012665
-0.5574194728117521
-0.866017289425864
-0.6344946933599547
-0.19951256163501152
-0.33659098281505195
0.059677790670123465
0.6035523498869869
-0.4975343780509339
0.191243134151861
-0.44833520761423906
-0.3460301550038052
-0.1503291616543957
0.14087874005294154
-0.6267902891254153
0.7501418158734935
-0.04960299182909067
-0.6893389861413832
0.6873425173630272
-0.34571905877525555
0.4578613772920139
0.3575915615012478
0.22079487191561886
-0.41152839713285194
0.4717499061144026
0.08597516427789675
0.04444452813118083
0.1756579750543753
-0.3842317999483821
-0.05536146957482024
-0.3404203064480158
-0.17146346659785727
-0.31849836108174445
-0.18511162263570924
0.8060944929514384
0.28273016578596954
0.6590543078339822
-0.117360805432152
0.15262877324042845
0.17491203013787082
-0.05072177645576592
-0.19275617156121472
-0.6827434856253771
-0.48347407494853056
0.35625412825561054
-0.4859583681995
-0.7634545103196716
0.30445564612539977
-0.29957020697942705
-0.7812500049207338
-0.6834813574858571
-0.4608218113818059
-0.5004477484578852
0.3759912097342264
-0.666142257154779
-0.06357504561890936
-0.48089486430409456
-0.30968922600831894
0.6219020456048611
-0.7202902131676625
0.6855834828246783
0.07836802400947629
-0.2459021557097617
0.046204174656376384
0.7143375481822655
0.07299192942630972
0.5852551796003086
0.3379372746807373
0.3697233333669335
-0.015959536482485936
0.40351573710144206
-0.13152962684669778
-0.11696292930567997
0.11469363311920011
-0.019324288140152412
0.22581533684146105
-0.10304403862471001
-0.3477728479715708
-0.6904756975672048
-0.46745404807857327
-0.7653533254235195
-0.27932338276713287
0.10657955290542365
-0.13542994716183443
-0.539467687238874
-0.7708109666727593
-0.3402077410529326
0.3863397871835468
-0.017141933274212207
-0.6635942495629664
-0.8763066410020204
0.8947983574874449
0.3682851478426348
0.016646553325736946
0.4843585238351622
0.476536936622017
0.03983629433673963
0.21455594662030197
-0.38904614738792886
0.23240982624468765
0.2579703748317722
-0.44646046079186086
-0.09475325323391881
0.5161959004257821
-0.2224356492177738
-0.5477882529794912
0.47297492325306334
-0.5683244339593656
-0.08676616373132606
-0.19603512000916046
0.0885487042682791
-0.4364765347926367
0.7617192583761255
-0.1992408193380406
-0.32739357317081863
-0.19144186056759038
-0.6567002600189957
0.024444968035173598
-0.1505363166002064
0.36149411676661536
0.47651026507075134
0.17666838833853005
-0.17962847935661963
0.00449709460218517
0.049077796834422815
0.42163828013111326
0.13781286617746136
0.021512291554174112
0.012730591437975947
0.1273674146672369
-0.1808101095822917
0.159722427031173
-0.57043670605931
-0.10545445510795848
-0.25904248625854476
-0.7502358523695757
-0.21361720086605274
-0.014447344336521506
0.19871849838814937
-0.19928543731773862
0.22790028569466858
0.2782299808072981
0.08389339504502391
0.482046052920155
-0.4327350248985934
-0.008578028094195722
0.2837821521128022
0.6734198620235023
-0.3433753206016624
0.03698121167878965
-0.22319482471740937
-0.9183621713560652
-0.32399694382142397
-0.15099950322700328
0.38584954390085013
-0.16649145940727272
-0.17823450716909706
-0.080753640521804
0.557595827823116
0.635429675644536
0.5153028273015942
-0.22549325810383314
0.13963112756752205
0.9524870509362999
-0.2200710421204184
0.4630686091965409
0.3894684341508394
-0.6686353164524067
0.5133831499554736
-0.7769731532036833
0.007904339716895414
-0.14140614107472704
0.28071136848343403
-0.2884261529523796
0.22800128611451842
-0.028406462747168737
-0.6529181733142059
-0.36374511766568796
-0.4070680462050478
-0.1414609266322432
-0.11008725001099229
0.5956836536638231
0.48259772524230093
0.019340180870767387
0.13690605842759251
-0.1304348417077743
0.5804812217981656
-0.6406905563626687
-0.1633562613263949
-0.5687249489226949
-0.2990047459465893
-0.25731659284584885
-0.11067157427093044
-0.4354032195232399
-0.8345508693865786
-0.14091541310320377
-0.17458387652303808
0.0685655332207179
-0.31233342323838387
0.5379357650593359
0.031019685423800847
-0.6145083777750731
-0.2735420557164635
-0.7620663879204477
0.015516971670543667
-0.4479272911787937
-0.26732373289048106
0.4367146803778499
0.06841595098381636
0.10562807474188274
0.6638661721032373
-0.2394654176559612
0.006198836595672219
0.652720577258891
0.2293355385731234
0.17254844363508104
0.17673401533170563
0.15900738006320203
-0.1550748476646412
-0.3837660420262202
0.11180182356463719
-0.6969756969309218
0.11898674293570866
0.526803226143929
0.13838902254300145
0.15009042313119136
0.5874318492986381
0.5065565713140517
0.46265102865948005
0.47186231578428905
0.495876686948969
0.9463005467290052
0.7679519339459712
-0.5965238961968029
-0.5213935298006293
-0.10443511841927611
0.7349892269236854
0.2840945972935124
-0.12717303238935407
-0.4420777993557935
-0.7789363066123368
0.4657534383461941
0.39674037255929706
-0.02572011270962271
-0.633444840935839
0.10520361110086218
-0.20789422508166078
0.022430454944714517
-0.1317577969074777
0.061270321838476915
-0.10843101252345544
-0.018008680318276182
-0.11116887205274817
-0.2425194596833511
0.09048699370236024
0.25640919705462817
-0.32646355788454173
0.27350326696262817
0.07992250310970006
-0.16783375150198832
0.17844560443570567
-0.5586454185691795
-0.030953319938401336
-0.8916230242797412
-0.2321989084249294
-0.08628020181825402
-0.49112576346254755
0.1714711448508217
-0.4843921862329448
0.22674879200633247
0.5937313105516963
0.1340184459906154
0.6181806314908418
0.7865215564652076
0.3877600245912006
-0.11764570289417542
-0.822459960753484
-0.5309746173134952
0.5109055503712947
-0.46163113601502925
0.02862729238854933
-0.5555495870502793
-0.23730756568320688
-0.2978960913222968
0.0718842203110095
-0.11269517915129956
-0.14051290587274956
-0.4168614378084413
0.23729544163221872
-0.5902499290302898
-0.120165813943104
-0.4859810729219948
0.4564578976759508
0.5685147642735968
-0.4207541830375693
-0.6983717967063117
0.29067908066608183
0.937506329323463
-0.015019883211489504
0.23808296301747578
-0.3760675947937512
-0.23435379196470751
0.09111386800232191
0.0938198766661209
-0.27493946878928044
-0.05864290165495378
-0.0900433288893755
0.7035262749164101
0.03215982666793826
0.19350992666470013
-0.02711388412403859
0.14398183908243944
-0.5090325908412594
-0.7422218977235834
-0.028217294513227742
-0.1410405235886537
-0.31775298411163266
0.037283228148636716
-0.5475107462875498
-0.4151166772889684
-0.7409515125284435
0.26801332417259827
-0.435623919608636
-0.037461856228700574
0.26414151484152093
0.11382236664895262
-0.7914223745638405
-0.42106217434991444
0.2746175868524646
0.17551899993468312
-0.121361241095708
0.8479323718232126
-0.003882196072132915
-0.7693643022628469
0.2009748757428046
-0.15036478364699202
-0.44662458001880456
0.7330010005835197
-0.2114010650488254
0.6745412200424938
-0.27362423327863805
0.09886779564646542
-0.3744987036824077
0.12388338647038777
-0.3934860599494402
0.20913540956010268
-0.2645274947384252
0.4948850206000577
0.13477336003765183
-0.20551268570731585
-0.2912648895586397
-0.6116278713752314
0.048158576084265436
-0.5834995300366667
-0.7782934643603627
-0.2633167414320542
0.6470153150863307
0.23800418617977404
-0.16431681821287525
0.27070892011724856
-0.07362918062504142
0.7014611574841106
-0.22546100570023941
-0.7128467187096962
0.159987379758453
-0.08006082287739846
-0.47726641840119066
-0.0015735345516931787
-0.8003302765645224
0.35868845949909034
0.43334239484269677
-0.39624280831706815
-0.07844613202541906
0.21163202036826523
0.216724984489723
0.18282795483528058
-0.24755079212250064
-0.4875601135381957
0.29286934853532565
-0.08120769897174995
-0.6804162789946904
-0.030993713148244173
-0.2476657477927402
0.1478341231360336
-0.534873571680676
-0.28095505781720975
0.15994565482213274
0.16596832368705738
0.31862020199106655
0.43371640313055826
-0.09429636380209772
0.03970463054693707
0.15782149519812083
0.3173286132329429
0.8185443151500539
0.36431312738344224
-0.4675176291546579
0.35112590857734427
0.41708359047025423
0.029807476197823424
-0.2994978250500042
0.5389561916832644
0.2228708595452522
0.6148950930953788
0.15985941288580408
-0.26232153161303917
0.2852409841886142
-0.21894929087272863
0.75049902211718
-0.32802433381382634
-0.23515388163861473
0.08592281599117513
0.25929443401208596
-0.6419936622010107
0.0385440919503931
-0.25227138617360156
0.22426277861525967
0.05283221138669947
0.8556686070317139
0.19146144376947793
-0.06487776491678576
-0.06904225004040687
-0.2675865091846775
0.07523036991198762
-0.4810557444550908
0.14939570036547634
0.0827945251734522
-0.37451495513128275
-0.030444403047357405
0.39207845407842434
-0.2081053816559556
-0.5437232566084081
0.2304974880010351
0.11001920037120161
0.7381595555149952
-0.24773832073721402
-0.6789434960732044
-0.3603010006190246
0.2627096728867001
-0.24715621870248627
0.4971061347086517
-0.2638250223051808
-0.02126842080547553
0.1246916329387362
-0.573347236226045
0.017613303799642654
0.4875711895028939
-0.784172157331004
-0.12825730776441746
0.464544268559296
0.4353718715513354
0.6039701708989187
-0.3787619840846487
-0.8129201293301651
0.38376762833935707
0.49873206461435127
0.49979504430045074
-0.16183228412536987
0.14555628990829494
0.1839761302298728
-0.24418491256936248
-0.1018147448439084
-0.4627895374658987
0.27449816505968483
-0.051574661145096456
-0.4830175750567822
0.3237266403037795
0.3869654192937906
0.8662586438473563
0.12783802938653754
0.31079160062575273
-0.30346066787306314
0.02348782145691064
-0.4075027266923822
0.19386022333689168
-0.35666300633138426
0.509781911119744
-0.25577636421762173
-0.3175209607925037
0.18778201921913995
-0.46711365498448354
-0.10242977169339229
0.06682297450910946
-0.906701708447265
-0.941661780656872
-0.09543232849681749
0.4396319145881121
0.15465879794120962
-0.24630922999038618
0.02291315063082
-0.8285168598864178
0.7270519647096136
-0.5681872358078993
-0.143022006580642
0.13073361055145483
0.24753406129420252
-0.36196729168567243
0.3893652053216703
-0.985424651734295
0.05116163868419632
0.9650257033210563
0.1506015733461551
-0.2099035159409387
-0.010362718856456565
0.2189808387551222
0.14428988793672037
0.43911555671392544
0.2989003547157313
0.09247764837101768
-0.06482225708279366
-0.041124080475351654
0.446481625133881
-0.5487030427921629
0.6561588160927386
0.17940763094682144
0.1187252918677314
0.5897108232434636
-0.6460296200020839
0.7382767423703439
0.05882403267010683
-0.24907240490845173
-0.130779807223954
0.13431942907671568
0.3436888657857641
0.170720995915849
-0.04484633493828716
-0.12522804606888438
-0.22546084972045888
0.5521410126407961
-0.21883633537642566
-0.39858776948138397
0.7122372552588421
0.16571818306831398
0.18021151813375302
0.7472095069495278
0.833660499884544
0.23133939188264552
-0.4659875197248631
0.14703515692785418
-0.5118116776856195
-0.5762174858224164
0.23339534925477834
-0.33188438935387254
0.015941615967552503
0.3663172412999469
-0.4787485253605501
0.35572498925008866
-0.013637741303090367
-0.8912524486441633
-0.5530983404318555
-0.4410071448293321
0.22464452997770012
0.4516736975143122
-0.3707001483324922
-0.5758174214211383
-0.35934603762837114
0.5480103714528095
0.2657043944913199
0.13931938039738312
-0.46830165698089554
0.7078188628748873
0.11646580895133973
-0.5660209240074593
0.320030073806994
-0.32047740408288194
0.9134765918401713
-0.11668602586463184
-0.09429210066480476
0.0714915276589011
-0.26318366072704913
-0.07845405493156898
-0.43413904245776314
0.2554538744814545
0.04825734805549997
-0.10606625881592946
-0.5524143567276466
0.5282141221754383
-0.3305649875605683
-0.5767897786114418
-0.28624909381019226
0.37401209256680923
-0.017377733335408152
0.35234587516428917
-0.08053277460582953
-0.02733163462918009
0.2032830848623306
0.6852752280880998
0.005691943998995419
0.3758316476948954
0.0406457254683682
0.307633672228529
-0.16008748048010657
0.8810829011680468
-0.6821263736812395
0.5665187887785268
0.4066283863618626
0.4652220131154524
-0.08355564503044144
-0.6820747634250662
0.20251487354974562
-0.06441537065225877
-0.21249107241068244
-0.6251099176244248
0.01771711463718073
0.09354435008237383
0.01686353569943244
0.4392145938385248
-0.735496029769088
0.4843831209607745
0.3612493717460773
-0.35761241863462956
-0.1932329713071148
-0.29394624258678825
-0.27726055810450556
0.19455163882272397
-0.3623938562183948
-0.6077283008590487
0.17215368678965304
-0.12153786451076343
-0.642432529011094
-0.1326786668525468
0.5431489814959116
0.6893262628461462
-0.16884766568000953
0.1798508133531328
0.30735327894964803
0.6627770423284449
0.2972931723109262
-0.2560863953864555
-0.3717774312580375
-0.21778948119068708
-0.7672576229158165
0.4583308337204942
0.14612905851873303
-0.5565853031428402
0.09769043835947322
-0.6757526617960448
0.06301529726626509
0.5380806142381227
-0.19048790106069735
-0.2111749357580187
0.2428830418353496
0.18832551281268106
0.08882558170014632
0.12320646687282544
0.3720152353441609
-0.05691657501332659
-0.061492392771060556
-0.21952245439397688
0.10676616024418284
-0.24475759279860032
-0.18404730310008033
-0.22356474426206652
-0.249643617403996
-0.46227669086317913
0.3397838862798642
0.8775518668651228
-0.19504316425268586
0.58637231218561
0.8353612891568762
0.6068859316729437
0.1738177702787128
0.0436172975042729
-0.12498021453035568
0.7504865340034345
0.7844172409872721
0.760474309111834
-0.39684093879055304
-0.26757201645456374
-0.0637303737418421
-0.5860357016258384
0.299222874642295
-0.41679655339013955
-0.16316528196013147
-0.33058834542445226
0.7251158506584445
0.09349011865154044
-0.7017825944033538
-0.672586740425434
0.5416276579516738
0.5728986117479796
-0.03985887272541311
0.04184451905518549
-0.5161902551139393
-0.05574831261472424
0.341473847680305
-0.6725065588175576
-0.25483591044600484
0.4288056055174073
-0.5386184688671919
-0.15480888137718585
0.36029605311813073
0.20291835642485323
-0.12543856124068253
-0.2447394350920954
-0.3290954704537081
-0.059527078777427134
-0.16594867255815582
-0.19954813054508302
-0.11370539984221983
-0.2193259523482226
-0.16826164909664443
0.3362832628331647
-0.6313710595231402
0.2953371238843078
-0.05888609674678791
-0.7004070031894485
-0.6134086418515008
0.564505047900172
-0.15180222307608493
0.17821669638538806
-0.15237962132863359
-0.8041549975006392
-0.6095464137564055
-0.47303854916755816
-0.8505738103236744
-0.1098843002877028
0.25765110687034987
-0.46012229869574583
-3.2516012070049616E-4
0.08350469676255978
0.7295207807585185
0.35891065739706907
0.3709765561423882
0.7493935362191878
0.19283678756297673
-0.10108420120842121
-0.47009996616998295
-0.5133069578891192
0.8571794036533962
0.7772206476118725
-0.6813418401234685
0.9491244817645722
-0.7023057346962063
-0.3766342323975095
-0.7612447191185276
0.1356634773886214
0.001288470781928841
-0.5973952064393582
-0.16001430972945785
0.24414797427890822
0.24411976256125356
0.10202496279608986
-0.1908701592598434
-0.6156527659054467
-0.34569200147735557
0.5408577429978217
0.021812234928577978
0.3079782042398611
-0.16098517566225135
0.08741935547604807
-0.6826324852230469
0.1834825588367679
0.01706018135980225
0.5142251112326326
-0.08989102325619458
-0.47802877370075625
0.14579578499364887
0.06460075674664345
-0.13365099316068751
-0.24584657454783887
0.7927902606952426
0.4176118904940527
-0.07502333311876608
-0.8331097668557553
0.4532885609750722
-0.3629342256146796
-0.240421810904476
-0.5567926958996727
0.20716287943983924
0.052581567619707226
-0.6435580965012212
0.09631861666249597
0.30288288571606714
-0.25025469174430537
-0.696057442624736
0.6139660741997776
0.3434395990466943
0.11389703626401249
0.18865466044076729
-0.354909347699109
0.07447298455774964
-0.23444203259631335
-0.09047001400956656
-0.24806985199933662
-0.651107587890813
-0.1982934998971949
0.2937436998246711
0.2091317896916597
0.4431095740908738
0.8178054959005054
0.033981992684888995
-0.14205181242303544
0.6950816513209646
0.12620649820738006
0.6317411069855899
-0.2664984652914799
-0.06784650105640133
-0.34099660976072954
0.49194112268609846
-0.14917741194086276
0.35989486094592793
0.09208843524862453
0.16419582172565084
0.9846318439520563
0.03031108357762502
-0.26415244821048756
0.23058816310072983
-0.48764130626627766
0.016335712720036866
-0.10204877322083217
-0.05513781028933584
0.33464897561971485
-0.0689153681562209
-0.018700032081768403
-0.3303249814274528
-0.13638864256920824
0.501102708990036
-0.10563633964639463
-0.11115822376772744
-0.5630350739152257
0.20624629245080572
0.30033133667934175
-0.5637182994420098
-0.32705490439269735
0.45175363453169803
0.13578513264550074
0.6702685542062418
-0.68825150716019
0.7445098911695041
-0.2348412863892122
-0.2162934834188005
0.11103356883463289
-0.16085893004818297
0.5931148915403952
-0.37718778843549405
-0.08404562908859403
-0.21091297858412483
0.1909513370038638
0.05566668311071399
-0.5787196160163215
-0.4256866362580657
0.42111637391452295
0.030659032953009646
0.02334335480930716
-0.14925201172076252
-0.8080493972808865
0.7350234973212273
0.6370171295139351
0.6550972203005115
-0.11361782192276193
-0.34018027663356654
0.5571362555742744
-0.4840142619094773
-0.10303976584355579
0.05035428816944709
0.14163355677342915
0.2787376569740566
-0.030063040422343867
-0.02086354670271906
0.888770531763923
-0.8425354904455588
-0.6114528605189297
-0.19062141915919506
-0.4365612467202925
-0.0687827965268295
-0.7781949042568526
0.5160069653915639
-0.1346181196955828
0.09580466577787938
-0.22759935042256507
0.0115528248470802
-0.909170548315975
-0.16908456594250454
0.5244162682224797
-0.2462361430033726
0.6104029927721087
0.7019305194491906
0.4766139565486508
-0.9248396845505004
-0.02243177358134274
0.22343048034253432
-0.8776694260654663
0.2191707280256765
-0.5031753052136564
-0.2500578064101474
0.3971250390132649
-0.20106422251147116
-0.16568480146888598
-0.19478296792566163
0.016028463446925656
-0.6186352644124187
0.39256164194989507
-0.21093773490643242
-0.34871975051198656
-0.7556582628104912
0.2554131578668537
-0.016728593403953274
0.5153280148778011
0.15722606863020971
0.08918195901537773
0.09019611715259479
0.5700580862921769
-0.8475107714699736
0.5760610669701366
0.23390250835776272
-0.25842369122888287
-0.14644405431492324
-0.49064163603791267
-0.08419233560554373
-0.41949110836293246
-0.32715142488273485
-0.5230870871226203
0.3764476404951149
-0.12676408574085973
0.4039118320414532
0.09846922642973976
0.0727680554093103
0.03822332982668275
-0.36416636276270375
-0.19824222528087954
-0.2026185273103993
-0.6984132848022381
-0.6192245086051441
-0.39715158490487934
0.10741628473534959
-0.4097157544594776
-0.2657585409697465
0.24185366588589796
-0.20221109885719313
-0.054390372887700766
-0.9561682376993619
-0.3192858403715608
-0.044397472530615434
-0.6493244583456478
-0.544462466930011
0.41002425236549356
0.24082589417050126
0.2607077563668355
-0.564473372705772
-0.027039028862401282
-0.5382706745696967
-0.1368469190467917
-0.2150832048742629
0.26230988639423036
0.03375669839215367
-0.22337585491170686
0.831057748226976
0.006891943737143413
-0.5645079787813212
-0.5879514926744785
0.4448427454802133
0.43970832472808885
0.180890715774221
-0.3837130166095303
0.18194274635830543
-0.10610757006372529
0.0010914112548313648
0.37407299389037996
0.28020274703461456
-0.23717744046978206
-0.5892549578619557
0.7624867237203565
0.29811784533071584
-0.04507091892295634
0.02304316330295475
0.4848267236116286
0.031321844149791556
-0.1774790337903407
0.25646302826859957
0.5007534144375636
0.3012363706384861
-0.2720004989028054
-0.3505195000531872
0.08920986618156557
0.20225105328641835
0.07555888502704167
0.3302285151205151
-0.24417417655402596
-0.004310494879546045
-0.5154230464793684
-0.7075828914465622
0.1319338580940268
-0.38324710022153985
0.5764376986740726
-0.07243620428458264
0.010420594964187013
0.7261653571238333
0.025415205228277893
-0.2793536736694603
-0.5968266882115498
-0.3876180260210236
-0.5918468815020008
-0.16700581387292435
-0.017067500128660318
0.2444162769315319
0.38923609821734584
0.41106432170329466
0.38103679692057024
0.07753209658812121
0.03602818087053328
0.08932770516255228
-0.7781914122875103
0.13553049061590494
-0.03729207961483805
0.015425612506060449
-0.09593873692489296
0.44826128906160523
0.35184232396327464
0.3682619342761133
0.20192586670690926
-0.304260651922853
-0.5917528834368013
-0.3084774401196618
0.55365822612929
-0.44902777786056436
-0.11113433071339163
-0.14721085726383654
0.07565270448155414
0.7237775276867545
0.5714315444254596
0.1367956885038143
-0.39425473412784895
-0.5985139670765718
0.4522564594505699
-0.7392126354643932
0.2244761563319949
-0.208021625400866
0.1955456257884579
-0.05210176914976694
0.4856058537948429
0.5112781754808308
-0.3159835974265356
0.3634718743570686
-0.18674235607270762
0.32630541821772097
0.20861806773670089
-0.4578824264459669
-0.30606631244953475
0.5727116764158576
-0.447836552696242
-0.09937768298638272
-0.20880783806596515
-0.859711512322109
-0.26881321879618336
0.23596972783216785
-0.5205621099521067
0.10581366514041346
0.2391271738006885
-0.48477315305066915
-0.5346725216131323
-0.25678850305354417
-0.5000573352814263
0.4687221328435265
-0.4042068615020409
-0.2629603197500363
0.5227244183149812
-0.00922365673279324
0.17778299370065764
0.22485202256558645
-0.05169717666620477
0.6752831921865992
-0.24405991116241021
-0.5341697877297323
-0.11451101691084642
0.3344656063717265
0.40322963293255587
0.3039734368224326
0.054560417845170184
-0.7200784201572955
0.46251345629914553
0.14440930287249887
0.08583351396572947
0.3146371676570947
-0.6659373222563569
-0.19198121711404015
-0.10854592032451083
0.09700251592187015
0.9692702218176198
-0.18952202145087205
0.26617079070874095
0.4374229689033632
-0.25405948926586264
0.2107651406216169
-0.1572386535236593
0.13097606917744642
-0.4654343647653444
-0.14328933132249366
0.7630371196875372
-0.24745887718025716
-0.32348999698228487
-0.3236533533544298
0.25870566662020267
-0.3833046493668817
-0.5074077554039934
-0.14967655676831115
0.038413470671140315
0.11262543382473233
-0.5272235341269033
0.2739060966909389
0.3299496028554688
0.22947041446917082
-0.6976213879812659
-0.20003946218591873
0.594997304598834
0.4527377066640067
-0.00765963915758705
-0.7328836370957647
0.2868150114934179
0.7697165035666897
-0.07123951191247413
0.0866336308059047
-0.4761192501627307
0.6600138442978463
-0.23403257333155436
-0.048401304690292135
-0.03090875227211376
0.7591364357845194
-0.3223576755487336
-0.44086358670360704
-0.4327464851951368
0.5194161172476858
-0.7250370385982531
0.5862831537156279
0.08042631337754313
0.13559821382647141
-0.2942236111587584
0.06110145121633903
-0.3281969309808772
-0.19155083911905302
0.18190416849422175
0.5761701388589235
-0.3692279826992926
0.5448902126928751
-0.11729862185707651
-0.31331230661087894
0.5283031549226278
0.1725942107172106
0.40727818232578494
0.15004157157325837
0.0993851768397056
0.4944892934320546
-0.8607698719104958
0.05467347763995278
-0.37602692301117635
0.743070264288156
-0.09957922922760132
-0.3612091618828205
-0.7180053940276714
-0.011818018943424158
0.1275837131665758
-0.26085874201296333
-0.7948217541437299
-0.1494483731310675
-0.5588632708426182
-0.5042870865704574
-0.6442689840905691
0.5873050792435578
-2.0579645952734094E-4
0.2157916772442693
-0.011158128544193513
0.3240557690865876
-0.05474913222931177
-0.4573591262513309
-0.584063134718237
-0.18730868167883563
-0.5138414524431
0.04788826223768494
-0.4310383965523473
-0.17505299150128317
-0.2659602654812938
-0.1926878202834753
-0.525053924868577
-0.1877023556585663
-0.09953559361964259
0.007340871992607578
0.1634105743510379
-0.028739075783329016
0.23663049469513875
0.24686290992228865
0.7368066189138538
-0.3779467549021913
-0.059369842917130544
0.206850684960577
0.3246809274959678
0.24704779747420358
0.35630371737111055
-0.0481029414403874
-0.2319651994654034
-0.2783671177296291
0.6384629233657704
-0.3873601883990905
-0.15803752365180923
0.9216730401522679
0.0042399964161822234
0.574635948157993
-0.024320439375660197
-0.7797370205915368
-0.5064038413168467
0.6648413125910451
0.09794721486904834
-0.7957196947763641
-0.4996708271882946
0.6508733012062405
-0.20755253781160488
-0.22948765684447214
0.7607223547106431
-0.3952022557026694
-0.3589127513867374
0.12289274225086844
-0.0565920641943749
0.38465404870709063
-0.1481653140953838
0.2107351422024999
0.19427249343471986
-0.811540488592377
-0.19179602210458668
0.5615002306700071
-0.0349309308796788
0.2791591165496595
-0.006771764189648866
0.036255153524603845
0.46144697991605865
-0.03478677283457787
0.529516080069796
0.33775188614462115
0.5973351214266931
-0.10220056254137
-0.29932383100889204
0.251015711295002
-0.2698299952862464
0.3056220008242877
-0.36934978616597536
-0.8603467234640235
0.019535324634525897
-0.6051287742792533
-0.42274460581250406
-0.6175761520114692
-0.03496224659205527
0.4911774144329156
-0.48010097358471526
-0.41824786458576946
-0.24889465272705658
0.3173310707237812
0.03219311998363006
0.37008967414527205
0.4912986254128696
0.7656546146885432
0.19431918340483367
0.49511542980838075
-0.20913669845807725
0.1894721161271571
-0.634487985621507
-0.5855177720564074
0.36177767512200687
-0.5414960629036891
-0.22161829319500437
-0.02385043778875673
-0.40637021381257266
0.6474881851869644
-0.07096534928889464
0.16764982165489417
0.1805400304154089
0.017393549784292417
-0.5260744804924546
-0.6807640739427078
-0.008630070525722955
-0.4104824763180991
-0.0823797202437464
-0.4032018295676205
-0.6503631928168182
-0.33098054733072013
0.24055738403561167
-0.09439602776254641
-0.30515697151658105
0.11733933397692797
0.2696016242092695
-0.25303395305729204
0.36855496554631617
-0.07952624603502423
0.6545652132215014
0.3540425492283068
0.7855634211089102
-0.21501311811166746
0.14342782195532078
0.27487037051471763
0.06566933362633076
0.09802434751362066
0.7528894195772885
-0.4660303702014673
0.27956155967997054
0.04441029673487962
-0.28397318421159723
0.30166588072535394
-0.2231075017604659
0.1600276989985432
-0.28012265689088633
-0.03814873351414738
-0.6983767732870488
0.5262065467629663
-0.08871135061396518
0.20641575333586915
0.3447238681410053
0.45248583587486546
0.45776458032798584
0.3055453132849033
-0.6617237321259559
0.3493910874780344
-0.1564755177260645
-0.05698751360039578
0.6770037743105656
-0.4452096187972533
-0.6250119850470759
-0.0845386243325349
-0.5662924051633987
-0.0589192272290987
-0.7523666680324775
0.8253719852931612
0.00990719175080601
0.1943202963452556
-0.42798437491121355
0.03941567952097591
-0.030782974696744292
0.07227486252305138
0.0480392891062722
0.026209989637961617
0.24374395209955613
0.8744700102465279
0.22236677402633453
0.01727737652142125
0.11844087677192683
0.10296351962594474
0.16050469876869988
-0.48191424037955444
-0.22436112245180395
-0.5515111650957977
0.09267589946317267
-0.4093611829521776
0.5367196451194396
0.09130401178630054
0.190943273400627
-0.9677518905341649
-0.8859811182400624
0.33453814108006585
0.4653255082394412
-0.24516867313603996
0.06749735556932068
0.0555166428393018
0.3104523435931493
0.6302419587622056
-0.10359146352330251
0.3712129163304896
0.38631162586013124
-0.26150401024931935
-0.5296007754085739
0.20244648517087982
-0.6440635369587534
-0.23045627054207452
0.567564944652641
0.5918529328344955
-0.05802070899467571
0.10402004883908533
0.4943571135278315
0.07714275729135578
-0.1369292981657131
0.5478871538743366
0.7815949702279874
0.6053281160554213
-0.2011313406309848
-0.18656637941643406
-0.19488749840902697
0.2720643582778912
-0.8943971409971012
0.037346317405707485
0.31274262786287244
0.35582205596303595
-0.09375596094631278
-0.3148726108175238
-0.2932506104166931
0.14145751814751906
-0.646183517451729
0.31126840304857384
0.3249142962195728
0.39544644198146184
0.7127379876169141
-0.24242888061682477
-0.6691781600072219
0.19588343354956939
0.4908031089984034
0.32127910076620525
-0.34240398126300686
0.2983670035321936
-0.2953530292754939
-0.5051239759858938
-0.10901004947465298
-0.06095252117517791
-0.23348429724825703
0.20386643272667448
0.4573463656854926
-0.0014841761569330814
-0.05063938288414116
-0.112134522256498
0.24310733211195013
-0.1515855718650273
0.12267637340851045
0.2058613301275607
0.0058329403294349325
-0.38072320231749224
-0.08811546928704206
-0.1150854328213935
-0.6483978363601981
0.6025451076578638
-0.5067746703163128
-0.023569501417910255
-0.14328888438843723
-0.6498539670131672
-0.09308548855070886
0.5406815519264289
0.1442573892050355
0.40381577426104687
0.6427620634750064
-0.29434747622421
0.07949908512750936
-0.05373150939222504
-0.205420025385176
0.6749705257870037
0.5770323849168236
-0.5607961448996169
0.025133548777989123
0.2240030306569235
0.005513054722750987
0.26929266236878346
0.15571608751897859
0.6913423809618962
-0.8288055687445769
0.2777351459173021
0.24211118434303236
-0.05826813650514273
0.5575297501990077
-0.13226196141610225
-0.6921296103205147
-0.4039043464185925
-0.8209780849676634
0.7067106014544393
-0.42221840062785376
0.17512539074204847
-0.193598762085344
0.09772158332932579
-0.3412367069337221
0.5312768044285672
0.08521050330177038
-0.6199545490003241
-0.15378535195831822
-0.6932940206773036
0.09789780458587438
-0.29403174514015396
-0.18877993236593915
-0.6390448419820286
-0.637897369596904
-0.41704301135874766
-0.5034058499837685
-0.05746749878915047
-0.34468472350307333
0.4476193032651651
0.7049184145191665
0.1922981252611793
0.6905206651004006
0.33996246117692597
-0.16557457860285174
0.18330193305802123
-0.34559173304494306
0.266671177401288
-0.7759064266480689
0.3917467222767961
0.7210982180502351
0.12897007894121915
-0.011323500554299759
-0.29292203832062247
-0.36443615782000915
-0.6098347377696274
-0.3671441654439924
0.14294460715984558
0.95620193332794
0.3543225534957445
-0.5180951439025377
0.13448314806783412
0.4725280533174858
-0.31559169653926944
-0.35096530050854635
-0.2571668891343267
0.3928777732926284
-0.4041897792560657
0.12374106869152868
0.7521377204291201
0.13732573801639336
-0.3088618564311548
0.2497468390741383
0.0036601472717171513
0.8298236576780618
0.13047680065953937
0.15394688100749143
0.07836886972173973
0.1694013683657325
0.49200181333696325
-0.39726911359284633
0.2386564679052534
-0.3555485869930465
0.7149111326372264
0.1657013059471768
-0.3438936994456864
-0.30923104997199735
-0.1454017677321371
0.2717336443677175
0.48349230552747124
-0.419718715889993
-0.16250074956170113
-0.1685585412659174
0.20563264750399013
0.2879991842457533
-0.5411505966183766
0.1281596141904614
0.42791145863903945
0.17624228063654868
-0.15988165115284425
0.46085778322813853
-0.13383680686010901
-0.5526746640892085
0.21261887318655093
-0.1263408246147728
0.08392721206368348
-0.6683165816125175
0.39602262414620415
0.469487492641513
0.19839365099199802
-0.18217215680672272
-0.2770695250994544
-0.14193737220452451
-0.7150368508161311
-0.5398295111779873
0.34219008458504363
-0.07661820712839063
0.3720200515068459
-0.7094902922541985
0.5936430082438889
-0.12333095581492637
-0.360895468264814
0.2602209987036115
0.3331973921709689
0.41118154761289727
-0.017636896437236538
0.2910157115545269
0.5340009210551404
-0.04475632337681368
-0.09640056327855251
-0.06421489651505463
0.09507128064211401
0.4896571721262395
0.37528943319341757
-0.09135891056216061
0.04297200416612623
0.08497263190115956
0.4353813347050357
-0.2617088530596031
-0.11241055933336475
0.43774175405042004
-0.16517917710677288
-0.05017463232658437
0.3930861156696296
0.22413601762052382
-0.16651983947530347
-0.1727059630100778
-0.5445570086829687
-0.41022224059146506
-0.3080250385379347
0.04664111531729398
0.3613838443458429
-0.2283029315426215
-0.3545956458018501
-0.06940009895736354
0.5022691097227452
-0.23329012853052256
0.44014904750519246
-0.21659796958324207
0.6879308238295471
0.24207738631432119
-0.31139285537084804
0.32288539352573675
0.2586751340285477
-0.25852765219690255
-0.094559090583482
0.3588376595468492
-0.15549633175570576
0.43460989142488393
0.8172159752494413
0.3024286024344677
-0.062138763926352425
0.6942045180380664
0.2796808818247766
0.2920214951179603
0.20548817161533406
0.35901468180383544
-0.06575745302747693
-0.7572892285723776
-0.3234688957988988
-0.25520671288912256
-0.592292293915248
-0.11588299130633284
0.17113423600133226
-0.15030103484942425
-0.35813239556477017
-0.6022802595586043
0.7571008601777329
-0.2474468336602902
0.14759122973691374
-0.7855394499707327
-0.31086706306955303
-0.017895543049921137
-0.5490767365176704
-0.027335727711049862
0.5559648974341624
0.17998755157379653
0.36150406748968233
-0.38586167031173124
0.7625949908785716
-0.21333858681218487
-0.3020150837156953
0.09087449039782369
0.15890402621339705
-0.28883897697857885
0.45065441846795595
0.1568795085982122
-0.4294133664827471
-0.019531972817863452
0.05290450567144134
0.1491279603953335
0.15660943927848914
-0.40149963196957594
0.28416308264567947
-0.6240547946735919
-0.297998682558534
-0.24594710985498758
-0.23574431158804054
-0.03828219644710118
0.3818791488652814
-0.2735254237898692
-0.06231495064776671
0.19656443282195568
-0.1031348560585783
-0.18600630237240812
0.6748342862112641
0.21350982609438263
-0.3195030769911189
0.02748321657661612
0.09683900633757347
0.049013207604449716
0.6787672443558246
-0.12304047640513016
0.5531648752981342
0.5312890824639883
-0.13491664476208787
-0.15747169844611897
-0.4027267684122854
-0.20243052293126362
-0.45950220828915767
0.4392479782387221
-0.07025842966582496
0.35974861923444
0.26620916260434757
-0.05017215080128956
0.6268579955125926
-0.041830909341917355
-0.5349780514778515
-0.052958116324969495
-0.05931410752908772
0.6670727717987699
-0.41973399814389534
-0.5795651280624338
-0.10958512963497868
-0.36934859031213807
0.34037951720365855
-0.26946864512950874
0.7196783159840656
-0.9506042753198903
-0.011772247293390992
0.49487976527570865
0.40010720573789815
-0.14077072248775158
-0.49824265831865144
-0.26938365887582305
-0.20973932666728
0.28189827997533057
0.6508656278660556
-0.020628011301779714
-0.04965631612365329
-0.27550515882104076
0.0746808700430992
-0.17513327214357166
0.2703312175450978
0.08377797689366784
-0.4172158184554625
0.43983519471685384
0.1980944100634312
-0.0578940689687526
-0.0773375640426397
-0.5726106710949102
0.5519598825006126
0.8191853680536556
-0.8089591638776379
-0.34670480537945514
0.749386668387051
0.2586781299884945
-0.28192671783800416
0.6549221568814338
-0.4002977158423897
0.09239412086832388
0.11148711860114036
-0.011536084115948975
-0.620199658957795
0.13092330841527655
0.3152911103377236
6.407889769237674E-4
0.29468567404853807
-0.5923661930681918
0.14277677208096928
0.19285945819550254
-0.21408285389599302
0.13704475733042187
0.6333204825810574
0.19520709559786809
-0.10891437258774306
0.11552077614985845
-0.14002183772852617
-0.8574548009426013
0.08806642518693142
0.26004116635314356
-0.042499774050870465
-0.4040710620849335
0.2329175769120312
-0.5066138021021983
0.4239639710925056
0.1696359765387101
-0.08981089614866589
-0.524532790066508
0.378371552230201
0.8479664201747766
-0.033661328027466686
-0.4355551294896708
0.6591136986700065
-0.07275151682242509
0.024004226534304673
-0.35260740877291397
0.5463605916490158
0.24878966814385206
0.0689913557132188
-0.21959572159619933
0.36337499399137796
-0.11502503442012024
-0.00789020943312635
-0.29000755863767813
-0.21279042409736892
0.5804557616638379
0.1632088449395358
-0.8168555059430376
-0.224953457322553
0.4102414021089228
-0.5631869084063461
-0.27027021453862154
-0.5313075931173001
-0.06850870639428253
0.3576804579339339
-0.3683021907627577
-0.937601764994708
-0.15923945663574113
-0.3263148011279696
0.3576067979763189
0.3107456852764434
-0.19272952513889863
-0.5313981785977757
-0.4396611982076126
-0.6001759112253578
-0.19478808366316946
0.23440896411295276
-0.06984635912865955
0.4855503270899938
-0.8562078497813956
0.15042903334363755
-0.7031857637442078
-0.3602592647674243
-0.41322195102008086
0.456129966355043
0.592213905932639
0.07425661428881514
0.42482952103768057
0.5332104942383987
0.06175884222966466
0.1397983364066112
-0.05167809410339985
0.08139003157958691
0.5210668197574585
-0.5425472481490596
0.16228074058891961
0.6355355875848198
-0.6583324501370096
-0.16300641424741713
-0.048340107217333506
0.2871230037435206
0.5296700001547796
0.5217456742275048
0.06242823249658025
0.20615643633331482
-0.3926447059535966
-0.26494555111402673
-0.8244467814081936
0.16170469436172286
0.00606513784412932
-0.20602624100491496
-0.9250184490078388
-0.30605527182429715
0.510215292703002
0.5682582212914775
0.08316916335537494
-0.21166258477360456
-0.5680561567100266
-0.1480563660504075
0.11394484851728037
0.41328390116560665
0.34381413073512435
0.28136735421198766
0.0771740794316792
-0.5014999849686139
-0.1331978859847024
0.26454058271428216
0.12173148797039823
0.6223234172206824
-0.4761693605356009
-0.39976523547855924
0.08435734264836803
0.4595012230349075
0.17690752939366938
-0.39373628973551755
-0.41325973550076
0.6038071548220614
-0.2872009723718214
-0.8268815650485293
0.32306371068414064
-0.18149599979373343
-0.60161202318371
-0.2793915126712868
-0.04277466151660636
-0.08224991309322727
0.17837929317504897
-0.5698642376050698
0.4578261955575571
-0.5294956008094968
-0.3315319072168207
-0.015287122174943546
-0.32118408302214485
-0.5670240321883632
-0.15723639624579477
0.4365229682581734
0.12951440367036204
-0.1252120649530094
0.374226943833496
-0.597084289677342
0.7154532467233159
-0.12036711981687498
-0.007594221155246883
0.3460594417313254
-0.7444259460662099
0.653512515273134
0.2377219298179556
-0.38849424157286483
0.19410212853179254
0.05313597124900782
0.11363260111164641
-0.4295804859786495
0.10864674345830483
0.4410900480345239
-0.10475981229335751
-0.7087232259497434
0.683979913320187
0.061191426075809074
0.6720712644790077
0.5708300338180632
-0.41505555997229215
0.01645205986298004
-0.762020122795223
0.007865928533570377
0.0942261230370417
-0.565673943538207
0.21397599660410815
0.23700858502479039
0.5919441613172524
0.05066882752456492
0.14693719328920107
0.42536449200261783
0.30776305883736765
-0.840995165358702
0.7092671489584886
0.1442296068128548
-0.6202989419832334
0.5389982457281277
-0.3961403764078093
-0.9002094000963059
0.20573458607720818
0.09226530281299827
-0.39571161373987895
-0.39779080214239415
0.20884937256954905
-0.3326244223919198
-0.2961441326897537
-0.42926149169710615
0.7421638848095907
-0.23971939283599497
0.3202957913625799
0.4192957879047964
0.17680242669635304
0.7186573115456775
0.12073216188676583
0.3895447536218587
0.04661132284468106
0.05142610665296321
0.3034942966673999
-0.2689565083718052
0.037142767554598
0.6507936110812008
-0.25125982042681616
0.24921660809405444
0.36972194006248815
0.5356558778506344
0.1963002304200966
-0.4361692765814704
-0.22192436434929186
0.41599711747623447
-0.6989401975008485
-0.25680622728878366
-0.20577776878689524
0.46136401137866134
0.2940628152909034
0.3355815824796736
-0.5247437569607526
-0.6875384836517066
0.39250676082362235
-0.5082407961546472
0.08750951839433674
0.3812578848524607
-0.12133797825514825
0.4325416936044596
0.13586287043807688
-0.45271787971128963
-0.12854306438702068
0.2721563338573111
0.007482750113090297
-0.08511312053220377
0.37295533570867245
0.3071842353963947
-0.7223348962635232
0.16546231561147984
-0.6343727638952295
0.6150160402922807
-0.7214073814632913
0.40700637761813263
0.7213765187573904
0.6578736858981008
0.5839668047202639
0.3499454658166271
0.5219517257328666
-0.5820998118331142
-0.05074425487749923
-0.04318533857738471
-0.6488337869011083
0.16021541162820596
0.09793374997847049
-0.8630031426975238
0.7476002408306036
0.3874186202362355
-0.2185942100141418
0.6623942565596157
-0.2652573126691914
0.27423622215931276
-0.07110648113901319
0.4255409544541908
-0.026795325534495373
0.052943633383941924
0.5785270363118934
0.01641167118077269
-0.3791028514377871
-0.32549603460340537
-0.8217629745036248
-0.3592197597931802
-0.6270295283719581
0.6968372172215322
0.2676645525573841
-0.6882992124162575
-0.2181109176235455
0.4421378540707488
-0.20225693560696378
-0.31779609129528985
0.07398474219992468
0.08206880334603905
-0.024918419443453632
-0.3681822547492233
0.4068917537109704
0.03023839626179048
-0.6957709109847684
0.21981894628178833
-0.21464049106270044
0.7585836241839895
0.27111998138292537
0.17488882820085883
0.18458822533137065
-0.13477906806956497
0.05620500771898185
0.1840844911861229
-0.8651201531581355
-0.38366450856850287
-0.029922782943632376
-0.7107795424018696
-0.01442937064721972
-0.11409773195514994
0.007327284374285203
0.005270607393268345
-0.07104109166323602
0.20683765089556605
0.08423413130765722
-0.08914206676060465
-0.5933686056218886
0.2761100216711633
0.2500836635735555
0.04120575422151762
-0.4344666426669209
0.4336268159990109
-0.2744371239148913
0.03848160268191214
-0.0776432117576995
0.22770488221934726
-0.2309482101518615
0.4039646723369734
0.8440597933707903
-0.832830057435338
-0.17974011983021143
-0.4282025408165514
0.02465607323406449
0.41424512215937515
-0.1560424280859013
0.7975802031259313
0.43555107360538137
0.127932935618552
0.3280623154043796
0.02681197230478316
-0.4941340202821196
-0.42017409425320795
-0.0610831739806843
0.07683974647608827
0.4046308936135855
-0.5532310860715094
-0.33157005547778773
-0.3390909957285123
0.3629249611103468
0.8618222415418515
-0.8898716888081767
0.6987892680812438
0.1149898607956481
-0.5296735675014059
0.04127785348167601
-0.35821986610132905
0.12069688739242401
-0.577611371207475
-0.09500629630808455
0.5167065667054538
-0.4067730266914461
-0.13276691063440604
-0.4975019906086362
0.6611853781314656
0.017051395879454034
0.26123884541293596
-0.3415236772271003
-0.7488536387628357
0.2519016094252169
-0.49770648871808676
-0.3636064559315656
0.056897188624799866
-0.09236930226684092
0.22367827068675905
-0.03173725023782814
0.08371493498041549
0.44760217915604805
-0.37625652693150613
-0.18132671566876757
0.32693725824572417
0.04607543704372008
-0.5538374506108871
-0.2415157908401333
0.19843671951998743
-0.12911697224507102
0.09905073301260892
0.2646877465481394
0.6953864441503972
0.4983839895600438
0.05899648526918211
0.4309517304274657
0.7150740399343343
0.43952215763140345
0.4803046889771323
-0.10297447618226518
-0.29875606669771937
0.7315119481758618
0.5037968964760247
0.6518527908230807
0.7080360346172484
0.04327454736352354
0.05454661347294254
0.6969448243178377
0.635037545129244
0.6729703194777371
0.7278247728206207
-0.29378649615776176
-0.49503269881419465
-0.20671820592247137
0.5594894582282572
0.6702985390957371
-0.21537253833570136
0.564404510232312
0.6387684203423901
0.36294616777394684
-0.1739874379317431
-0.5052889446977492
0.23533331206328068
-0.06380487799595935
-0.18161020475212442
-0.8650519394024369
-0.7005393641009746
0.24568773188319037
-0.3980193089253333
-0.23476172034156517
0.4597975560476768
0.15806231074897759
0.10123334131533257
-0.3705842457929184
0.7823909867960993
0.2374470545718499
0.441132194563132
-0.5999506350729148
-0.14735053263040487
-0.5310793648312623
0.6322834727832767
0.22128364787376464
0.29634002856772923
0.6866489613709016
-0.0016598687345781293
-0.5383434697026773
0.6160296987175353
0.3371306049465127
-0.5225884892261321
0.12649981639982721
0.40820541038238267
-0.8175195091680691
-0.6568161011667745
-0.10418389006694584
-0.030409221736127034
-0.3944861161835995
-0.028409358664258755
-0.1510344907955845
0.019733144585126428
-0.014806784025271913
-0.19427808468545993
-0.28666638792456767
0.5961688033641608
0.5517971708387334
-0.06065220658161663
-0.521536465240721
-0.5623020451456654
-0.1429433524387429
0.9024047730834949
0.11854348842121842
0.1471610224399975
0.28645277405920877
0.2922391663890348
-0.3009913556423659
-0.6384874098714679
-0.4940056813789995
0.2004366527938286
-0.40895172422222525
0.024489693695333714
-0.7059918135878546
-0.6913169482975329
0.30692359603633323
-0.28018141106381456
-0.7646440852062818
-0.7622596430171106
0.3772995645891234
0.4558814302871721
0.06949362813647131
-0.1716368310747185
-0.1820522037200315
0.28837981296023785
0.5592976134631774
-0.47156225820662834
0.1980944303883655
-0.7334373659488241
0.05246171121948984
-0.6350883930518315
0.06796595782437875
-0.1482833477807879
0.1157941754391314
0.10231402144840784
-0.7585449021284932
-0.08457078510150118
0.10115671840351159
-0.6121500528842075
0.7383910201039536
-0.06554412279065736
-0.44438895654797916
0.17790455353272172
0.16476278823333645
-0.4828963058403539
0.12162882468924141
-0.13234012080269242
0.11881745879484407
-0.15340062164283463
-0.8123545824336689
-0.3555075410999239
-0.40776388394267993
0.7501266752638932
0.4661280884004295
0.7907760661146775
-0.02527424716868154
0.564568831525506
0.03484283062221716
-0.6533278234675646
0.5982812251038746
0.30790068487376554
-0.08633673481174897
0.40778758991877495
-0.8613271775849499
0.49292753666552025
-0.6829789111083306
0.7873906832562736
-0.34819613493162915
-0.07582790208966239
-0.3034394696939714
0.4304590736168016
0.6579388499117329
-0.06598494682841816
-0.09223530972220628
-0.3302524138627033
-0.620413304444523
-0.6371789340007795
-0.18129714997239432
0.5151601688212136
0.07684819124593756
0.2801109441713414
-0.28111851115908826
0.011147139982763288
-0.15772186426738133
-0.1417639275917172
0.025306077714514097
0.9374588973173111
-0.40441930883920174
0.26749558970577525
0.040000185637323105
-0.18308972642089272
-0.4978623045245335
-0.13939844327979445
0.46181103278758806
-0.05661017085027931
-0.4239714638855082
-0.6158088221993117
-0.4133437498820228
0.009381242449672533
0.49185414135119476
0.33805338922185824
-0.0017248649963159668
0.23891032977079474
0.19673233058615802
-0.03720025945169192
0.3337089225689105
0.038409682600339834
-0.43105877362796385
-0.3460619973778526
0.15277809969946665
0.9020981317268614
0.20964141851127271
-0.4143303033674056
0.010232154439462793
-0.11200315915598724
-0.3136276852869525
0.12504577578634524
-0.21151718652422324
0.256444192403499
-0.5092398999658582
-0.8016640706914182
0.26250399522400325
-0.13351362644096587
-0.021594078935293637
0.38714070854884564
0.20075813470044945
0.2146641458124957
-0.20904690497245126
-0.7345896485291266
-0.3136767869213011
-0.017673553285412757
-0.5367345540895248
-0.48113065434707425
0.47109668975898544
0.028378108978724947
-0.2909533081212714
-0.05352834485921254
0.649088937404445
-0.3410174138795812
0.18959155032884645
-0.014301363438924186
0.42175830324410524
0.4786608975327419
-0.5410523375846673
0.5733216598203529
-0.5645322763252536
-0.07273127475222241
0.04233926616979922
-0.33269156366571184
-0.23144535004624223
-0.29695891099871474
0.7578945922294984
0.32290078459768046
-0.27840302017998975
-0.5774188314744978
-0.292468086959527
0.18460721598869
0.02124252289318518
-0.2899994285717089
0.3442508342811861
0.441020999732172
0.1579472985625472
-0.42780491813902677
-0.38421731961321215
0.13295489327293553
0.8451297045838646
0.6204666809661991
-0.23810971080609689
0.20275101389518901
0.192138172354397
-0.0016351328461434722
0.059051250123340226
-0.017728466248856267
-0.13657054507374689
-0.4876213198768744
0.49799736692422536
-0.0015207973460786839
0.2625769343044161
0.31804192630713446
0.5076218196142954
0.5780913674194422
-0.2017163140555832
-0.17331217224950535
-0.21977130045388105
-0.2668141056680172
0.022490717916883618
-0.7411240030435002
-0.7519360964983902
0.35570341850466736
-0.42624323528620933
0.005571578163648727
-0.2967563227516642
-0.20825858853837464
-0.604263004860201
0.25415323703787807
0.2886915041133743
-0.10375894657836848
-0.5659120659936233
-0.5907414167919575
0.8086080110870943
-0.5173150831386002
-0.17043694537936793
-8.405725617508519E-4
0.43265182651714984
0.15963550076530797
-0.6077146612205798
0.4647782193554155
0.4421145693169507
-0.14154226653796353
0.2836084096118763
0.013158311852659366
-0.43277716079065565
0.6260117200274623
0.3491374077487851
-0.7853681057986035
0.7945331775667324
0.023603592406359897
0.3707168031772189
0.24263694390507962
-0.2749322484439616
-0.5390299582343901
0.012027375328650058
0.17193634764413146
-0.2682696489051646
0.6007978383929434
-0.23467317221174444
-0.1049999746239958
-0.8491337979522103
-0.3234239666164951
0.4913644132526084
-0.43213783997626953
-0.47428497825639804
-0.26695008338341675
-0.38815860637522737
0.21916877554669278
-0.25293048209218894
0.5053307122480668
0.3137216701822948
-0.425633819947857
0.33781270828703913
0.255095362486946
0.7266007175590302
-0.32230880447261356
-0.21078624771799992
0.267398405502537
0.39012669190335025
-0.19094001680959793
0.15242459110929962
0.03918880614629683
-0.08991743011959497
-0.1057106855241211
-0.1389775978566541
-0.7692199615400015
-0.3138402643730186
-0.0693568360326845
-0.35342950586754285
-0.4571969855494623
0.0234611370143738
0.1685116495103255
-0.6239381473981875
0.0896096590055625
-0.4596405671264372
0.1481064133798906
-0.5774645053107996
-0.27710547492022775
0.36934513964061166
0.6887760597771989
-0.16458954717109475
0.5144580222904818
0.8593205277230259
-0.3148938290804878
-0.17281418358646627
-0.8187512925908892
0.5062556234165947
0.2645507568499337
0.21459125604891105
0.4451976178089435
-0.31658118583136563
-0.6177636413828225
-0.34754412554558956
-0.08425579356934365
0.18144624119446917
-0.6989778664274284
0.06414785179432025
0.19054754499384152
0.6330269036121052
0.043944120893363414
0.04451353392131763
-0.25522202978738495
-0.6336593985136052
-0.0829598785364063
0.17504304038835394
-0.01153230559060947
0.7927760825379813
0.13111535881630954
-0.026549735849136558
-0.7206785193359728
0.20696442205065768
0.13735274418249965
-0.12234301277972837
0.10722674527811338
0.006482959949787426
-0.2396354478733247
0.24184579726312005
-0.3757923496526484
-0.17087671294246876
-0.3349486799427577
-0.25248057791424605
0.18709705350219452
0.46543228088439503
-0.4214554454377858
0.043826012162016426
-0.27544782638396614
0.07464625958960203
-0.13248381111498408
-0.3383421179749877
-0.5796717044258632
-0.42806049693980075
0.5397958645902582
-0.7700460054026684
0.0531873087739001
0.7599100544554026
0.27391406172235255
0.22495489852471784
-0.2376003194860321
0.027177581834786024
0.06369245015224956
0.33535249024160674
-0.5472861495459316
-0.24128368067588557
-0.17951657988490444
-0.3449667443787092
-0.4533826812206948
-0.5315327257068228
-0.6502936062114113
0.3863057323005713
-0.16324996297095795
0.3033227697428217
-0.11809974006567903
-0.2213591045710125
-0.21860526732480623
0.22499631790927943
-0.042094166996668125
-0.23021914354990058
-0.2590143700915869
-0.913156187468777
-0.607605356687227
0.37025478586962357
-0.18663772727296257
0.7288545975349252
0.5218665002216734
-0.2581268686005964
0.19633388279276442
0.30499690005945523
0.08794867631896774
0.29544813848287443
0.14714258614365772
0.018523293257988627
0.41225302359213145
-0.22393828514526037
-0.11229694442084004
0.8308510916044092
0.07765769947341128
-0.8668258915064881
-0.2583639220221332
0.1688367829907178
0.07233009734671825
-0.5429586634119782
-0.4529401302988414
-0.6370195699007339
0.27204150283954887
0.14611568388704876
0.1874141022800968
0.07921991945984863
-0.05725344380962505
-0.2956010704605242
-0.7300183775705642
0.27898396440017836
0.2638504386556274
0.2781931328375514
-0.6170688505890156
-0.1253331872523562
-0.06959832182796
-0.4642532358281586
-0.47077158230513083
0.06413008003002163
-0.003282231088144405
-0.43344985087119603
0.09618465395429066
0.2555534059704313
0.06474468864711491
0.5660691934703442
-0.7430680327785887
0.4583869672357336
-0.1206391661925521
0.24312624128211247
0.09157633646223562
0.28094374456523996
0.6336692146904499
-0.30925563982254134
0.5681011256554973
0.3032749165167826
0.03314724732188279
-0.11830129149880464
-0.8891272820923509
-0.3849190127102563
0.21804822924833722
-0.2629804908617295
-0.40512861643788467
-0.38412132868217264
0.03499538549876424
0.29169030244352
-0.24054514634220014
-0.15386566568882243
-0.3277898757378028
0.31517273289623937
-0.6501475629139839
-0.14112169716656908
0.14572185556107742
0.13953745713761434
-0.19030550962373227
-0.04721688042984362
0.19571555686022235
0.13199280362005172
0.15254810104335015
0.1704072534076796
0.37236182021615605
-0.06488189753463613
-0.5076176050231572
0.26737105211168577
-0.2648458073094696
0.02143542345613092
0.021447023877236404
-0.2745352180140763
0.5901925158678086
-0.4590737911377262
-0.6528358914696195
-0.7196189110625361
-0.474550868222836
-0.08783337260353397
0.4686173954861965
-0.12266949100667313
0.05550213923558467
-0.45193895629342573
0.43674233797755246
-0.13105318540846178
0.1846191995630304
-0.16100286150003873
-0.473698729381017
-0.07475454494889022
-0.7069625444735871
0.028079868222247617
0.8605490119310062
-0.4850980133797208
0.8765482257326238
-0.18192987166123797
0.7344502807150981
0.30594616652902507
0.143831725919233
-0.11025117420270025
-0.32546504785202335
0.40129119260488444
-0.30996345770830225
-0.495646938337552
-0.3312042267111661
0.17644720551864745
-0.24334327589738414
-7.693344919337264E-4
-0.3882384390088637
0.28193645612013285
-0.2727109199068881
-0.5035119106723893
-0.6191165333732497
0.1831820907680427
0.30078362504045764
-0.6456947722111721
-0.1292695488267901
0.23000498963482108
-0.6913151457506427
0.22906181506460377
0.07806822832915417
0.04022316649510649
0.2629311045803939
0.023026439919331176
-0.5610329463566076
0.4193739001432446
0.81145782864484
-0.41224719178320257
-0.0051409165545777125
0.7196733380354384
0.013831762136295667
-0.5054666565428005
-0.896499040763331
0.01096298698348619
-0.4488256710970048
0.4025937484085532
-0.45165074271518557
0.00396788116711122
0.09542597301788935
-0.42904465390595015
-0.6011727765496822
-0.14307281148771267
0.5161242823432709
0.2534178786239183
-0.4495972858280459
0.08577730441018738
0.2682822147143339
-0.30933415130713016
-0.06587512269447027
0.6461318395405372
-0.18530949886498405
0.6897988378521411
-0.6337322033501437
-0.7832012123944109
0.37655134254382516
-0.4040834691567651
0.2314707758767659
-0.04715122176947084
0.37175487853837386
-0.9045543054954156
-0.2941905178044343
0.5819579809952816
0.6845508501150835
-0.15096511118336442
0.07114178164478036
-0.5278388507304232
-0.6733646962044544
0.4621480914042573
-0.33629889727445306
0.7477436700431384
0.31773578095982424
0.03731526897639548
0.5243379917632579
-0.2927253868117228
-0.8681013482572998
0.5099235979339263
0.014916765889977812
-0.19798323524789152
0.3111543672369286
0.04683370736529924
0.013773521425149537
0.26891040193446425
0.2868202587525185
-0.5550657449995792
0.05315813819308546
-0.24545310402236642
-0.05059782015398939
0.026442542865808272
-0.06425262194225512
0.32993504379695215
0.4176921314929749
0.06712358541029262
-0.07608137919812241
0.4843143799858203
0.7532896560262496
0.706700686479112
-0.5253226829558353
-0.2999429581328945
-0.22412955937979373
0.44734026701881713
-0.02341838103853866
-0.07292960821925631
0.33295301445739256
-0.33718235495105353
0.36569846070872436
-0.07939038777218532
-0.010444357479909905
-0.2221238363904704
-0.5141791669404702
-0.09138612006398206
0.43512102500979033
0.062029261239600064
-0.1850750620396442
0.18106427361627375
-0.15811593872938412
0.7946675471248168
0.14177346183027395
0.19385154636246515
-0.025575981631346
0.9178315599191658
-0.2668889020761209
-0.5468093070415116
0.42117484623882295
0.020890710058408368
0.06357358735949381
0.6008287873860714
0.7859526110810351
0.02460832615629871
0.12184289248946845
0.7368752890727281
-0.13585999183090902
-0.11526493703521412
-0.390827230069118
0.23289183781656908
-0.07894829275902449
-0.2636936180819517
0.5332947382977002
-0.506799160283891
0.1896683229345547
-0.25544423342959155
0.3378050192974348
0.5753947642672416
-0.32193887916039354
0.2919616786221386
-0.5161716293639619
-0.30115295484437077
0.031561290222332894
-0.4922326067065952
-0.6395473404701875
-0.3196548962662318
-0.46128795814778534
-0.11311671881198326
-0.14691240556635843
-0.3220841696762202
-0.34040168962036566
-0.32769581755592214
0.4438870764008983
0.2485819840343495
0.45323046515378074
-0.2858810997104744
-0.09090099381244576
-0.5759537669903809
0.09699237064492772
-0.35872039890786545
0.34067366142007105
0.33108846677212356
-0.6579828222936142
-0.1432884799831079
0.1261985633451379
-0.09594044851400851
-0.5544449690090418
0.5454429361830988
0.4076528914292248
0.7718250727114244
-0.640228112271378
-0.03384575932065259
0.36608885101339694
0.46955373315959725
0.741271875677344
-0.1656584113676074
0.9119903699449353
-0.13670784439406658
-0.02869039363024173
0.26564672868084105
0.20215191006019928
0.4735561171088636
-0.1267586484169314
0.011518344367507427
0.5481451436365583
-0.7202459714242637
0.12025757424543404
0.5320146239997557
0.20270236244684547
-0.434118804553527
-0.10186727564992581
0.04588959528138992
0.24929880742755195
-0.4269887786983194
0.1971282806984206
-0.6661321019724916
0.6077786403235432
0.34570150456404025
-0.010328494739133331
-0.7995075074675
-0.10387857367526643
-0.3343301458393221
-0.5115798024095171
-0.20923053357417476
0.3691532592774456
0.04942839663940002
-0.7313732950920276
0.2614634324238031
0.7151037754929873
0.7648594180754181
-0.03647557871016183
0.784150254557296
0.08518799078588324
0.43817580020280855
-0.20603468842376305
0.3697041669788482
0.17334799696905157
0.6391595804027446
-0.2326233785916858
-0.4211086058978756
-0.16842759626540627
-0.12703680298077924
0.03143243513789529
0.3747034250799115
-0.8493675196078282
0.3011404695403984
0.18121900698880533
0.025592230538218685
0.8225930365081264
0.6542306222703451
-0.5948202606013349
0.18061327931833637
0.3356770893282419
-0.0952516755144508
-0.24797612333889263
-0.13109718071834542
0.4709344054097012
0.07917368254688406
0.5874260591278607
0.04120803892766367
-0.26015393091489036
-0.7359743562235023
-0.1850488887567887
0.32691649892705743
-0.12416494518695154
0.3494995349652712
0.27357559084231786
0.5002135539608559
0.21673572817431608
-0.045479320734661766
-0.2537850029434823
0.12000223600781101
0.0479020835618571
-0.5211521811401166
-0.1362716059362814
-0.10142348545062196
0.28590289117914336
-0.01429536419196109
0.5154811787527072
-0.03620640586103707
-0.07617191222174557
0.12897499966400028
-0.5491677281620784
-0.5368992580679987
-0.8357060976493386
0.5700574134780202
-0.29359917401596225
-0.1871075958963906
-0.15790139612940446
-0.7274577616474607
0.391671062884299
-0.6036164095332339
0.4897079279777271
0.05478944143529285
0.5215807247662215
-0.13755057738258825
0.5248175695607838
0.29329987259556756
0.281509383584186
0.13539534479475535
0.028201473139808586
-0.31256450260784885
0.08904910464967242
0.6802651255085704
-0.7293726522321518
-0.46608738678449746
0.3634387957594025
-0.36383129002830994
0.41826796502094765
-0.656175801262607
0.3233732135267334
0.5707636676867404
-0.10389985558980941
-0.032841459075366286
0.31029988657970087
0.3820725736528008
-0.03779670864352325
-0.43059250200377663
0.1123098846693027
-0.0834194617602192
-0.5264252424002255
-0.1267273721483161
-0.28832292281334826
0.193363238194583
0.02292161813701854
-0.8046842447837236
-0.8212281606788917
-0.4666312198799486
-0.3583449680517563
0.29737270280846406
0.6946476758424043
0.7637923959244114
-0.1988618993732696
0.18227334728953193
-0.05623629568700961
-0.12933828325293173
-0.25519420472136933
0.36289555614640234
-0.8498201826546119
0.8772417528739016
0.4832575628411895
0.0191995971042761
-0.3628103079359226
0.3427789783220595
-0.010772329439859063
-0.3568602466200044
-0.25946988573161844
0.21240335234203744
0.22869299813936572
0.2599924469083349
0.07548517645318309
0.0703020518407752
0.4263928221180171
-0.03724199028298658
-0.8426323913112184
-0.00439680034044776
-0.12558485950675735
-0.3797907606491989
0.29377036083845565
0.624118425861838
0.8662948983005228
0.2917692672552279
0.2125316743883987
-0.2059276253969321
0.007355192095704899
-0.13911332513657837
-0.10313457449567998
-0.10289173723030354
0.6250605965014147
0.4568263389562748
-0.7683909866751154
-0.17327782644290812
0.3106143524412279
-0.02421949903356435
-0.6901224125025239
-0.7441122961801081
0.7916861661865658
-0.5383387146459061
-0.010578548980984093
0.0985625403794812
0.714593578334467
0.8939498118841926
-0.10704590509863465
0.654243568437208
0.49588022307070634
0.3597253916370632
0.10352785160068467
0.22264844758150748
0.3528612186995953
-0.1468691656070884
-0.16173125714039915
0.022721576930010978
-0.25480882717076736
-0.09973669591021306
0.3394075001252649
-0.15070198123041034
0.5636487712112841
0.5626520913430384
0.1717598737013356
-0.5712021397651045
0.2948623628914463
-0.1104080704066811
-0.5795074968537832
0.1738369129832692
0.7183965144202749
0.26791370463016007
0.40537290601386844
-0.20732457994427322
0.14066811688162406
0.3064558803686611
-0.25506827433990376
-0.3692886008841987
-0.6429350681029308
-0.7007788486114429
-0.0368947095786879
0.05557666562173513
0.2184708492736942
1.123612215314651E-5
0.07701556896718253
-0.07503554131974899
0.003069474890204704
0.628065105413487
0.26597961565038697
-0.2125330717513948
-0.6044075593211589
-0.03337305134495605
0.2591132032588319
-0.7067299936232677
0.1857215865039843
0.32300321836988766
0.0035131963139016786
-0.1844072949080141
0.023734833389438936
0.2777819657446413
-0.3116015267105331
0.48760275249785867
0.1607392383844627
0.3642629721369811
-0.3714651693683695
0.7085228529448114
0.42612793576563057
-0.16543556993043884
-0.8533798399416282
0.03792930298480768
0.10301290676853458
-0.599953895344978
0.6171163750200093
-0.16972298478921222
-0.5515671234336195
-0.6493320334549132
0.6874078795447971
0.7260009437326862
0.2046944920397603
-0.019942305075326128
-0.01667363095628216
0.796444022659219
0.40669501578974043
0.009042049035589805
-0.29358173496011075
-0.5760128796914311
0.7499456335182568
-0.41067460795718225
-0.11102541467692206
-0.04504257361624664
-0.4031748759317255
0.3007018946353174
-0.15915812420631026
-0.6069739572568329
-0.7407805969991249
-0.08568776869419836
0.07088859479528498
-0.08098107412890176
-0.25964877834955447
0.24201134909578004
0.667929860802987
-0.182764656336856
-0.08536663361874086
0.4411435416108517
-0.2581211567892904
-0.6399631729901963
-0.14794774408495304
0.026939643928994728
0.18972842238941334
-0.7517380375581856
0.6855449050357498
-0.04343159577383526
0.4608020083332982
0.10532397025831908
0.733933891388949
-0.8234614663414546
-0.050104332950733355
-0.015223067240142996
0.17947394939475125
-0.28504956540214443
0.4986426661805712
0.5925997415092223
0.11529151149241379
0.0611236108133737
-0.021459800931135198
0.48787846284248104
0.002687460961073307
0.34069490981723605
0.9074064049312466
0.6217979538819898
0.3727037537544654
0.2830973367029582
0.4251957418405381
0.2663776263272396
-0.5090499575812057
0.46111463801084795
-0.3527489829074757
-0.0026818799365018187
-0.07154832224190266
0.32328437058119974
-0.876894085080587
-0.0964377809008009
0.07882551197093002
-0.38544346043364397
0.9146297841586611
0.2033932229763915
0.21396324492827934
0.4641644622289982
0.8099502937437612
0.5488356162544903
-0.5559604105773018
0.5247416031475285
0.0985160599232009
-0.22671058094811947
0.532995790965151
0.07253868974763988
-0.7264902987516215
-0.09332688847769843
0.13891334432575897
-0.8958646174576231
0.16626543278176664
-0.694271542274497
0.7643328621131449
0.1116611330017867
-0.19078321316815305
0.0032153643479264638
-0.4579111562958942
0.8382280636190862
0.3726539907099021
-0.0013719708149565468
-0.08798647975520812
-0.40950509889757614
-0.51448515438795
0.09526965368052054
0.5740729560911824
-0.37164537548396204
-0.010674785324711777
-0.12161524464381823
-0.857686640061086
0.05889965412525533
-0.08211733591672576
-0.3651123637771633
-0.3384654381181963
-0.2737480268296
0.1942682571885077
0.7908093716513175
-0.02264564739713737
0.16742235718970688
0.8729933942542236
-0.4026195362559062
-0.2470148713905046
0.12016859585534978
-0.6050723425825159
-0.445203910642445
-0.7550504874817628
0.26527151416945216
0.2723091866522721
-0.28448183064780785
0.3738139238052589
-0.29056318935314995
0.07674175877776812
0.06252683883482324
-0.24077207990746252
-0.15981204524762493
-0.21895943220939562
0.5076497017513011
0.7463232689518605
-0.013943288122309827
-0.20069010977475366
0.27543940621831575
-0.38709300733518326
-0.11117563228943084
-0.18019186111989494
-0.9202647810813279
0.2023690936783289
-0.7596127085277466
-0.16720639315123553
0.4329788088706993
-0.12385665172824312
-0.2718991674086886
0.1256793228635832
0.5530759702759829
-0.6637743335369969
0.7823502984765314
-0.0874387956056022
-0.019868712340291972
-0.3078257103298415
-0.22479772139348564
-0.2042389143340142
-0.5360362979650682
0.03683436451482869
-0.007901685456676466
-0.6184925963553682
0.2804601272412055
-0.5846042905817445
-0.2517533414164229
-0.19740775068903027
-0.5464122738539833
-0.8935956833364648
-0.48760869007978325
0.8861767887778177
0.03553086280565976
-0.29497300375159663
-0.13998036027554472
0.16798640120730535
0.2790940178872212
0.5851206601336227
-0.4730345492133662
-0.5165509446482772
0.5122144834124448
0.06207419381590473
-0.802385396525623
0.7208491318124706
-0.4221357732338642
0.7654737135289735
0.2407246690613315
-0.3390345000878884
-0.12124257681955286
-0.14157595041589743
0.6864416690995032
-0.1544446434416732
0.1820042885933909
-0.23995301225296983
0.029490077194647468
-0.2313667209695458
-0.3611761233013451
-0.4708370951813282
0.14323036095212516
0.4704377661424993
0.6811723378941861
0.09817405329970652
0.158207493753591
0.15378151446519928
0.6052203219420451
0.0956781190907311
-0.26227532626978634
0.37411276888081135
-0.9126812348451914
-0.3854073458202161
0.07965790585075816
-0.0976875439487217
0.3059513432226002
-0.08947511420846532
0.5588523848410837
0.04832846088929088
-0.24544557183667692
0.1950158257490069
-0.48084819429405423
-0.12961129514691638
0.32670499619467386
-0.5951388191966657
-0.03476699029629793
0.03133586784324727
0.570352358792348
-0.6354168578220701
0.037220324725960485
0.12520951279697812
0.1198808119979714
-0.5457835753227513
-0.2769811947271451
0.46060202352973345
-0.35475276484770235
-0.2309060826011693
-0.1016811670930613
-0.17673461049716088
0.4009166668633086
0.5287844770357765
-0.0805333022294582
-0.04695216442569805
-0.15248812562765934
0.6546313963218416
0.41919892708687445
-0.23791112815467963
0.669088303836532
0.28843638020938467
0.04197769185297695
-0.24321582133143083
0.6139307830044667
-0.18577981490811302
0.24119788009146803
-0.003906393681866183
-0.0901918035809044
0.3158283315090227
0.5750234635866891
0.5892293274958679
0.39204109386739416
0.163982681217123
-0.4436133254929093
0.2895716192003195
0.10908374578368185
0.32817119798398664
-0.3160718404176376
-0.443338187526379
0.7806681135842624
0.20929655463307806
0.059646721791458024
0.3364007330434172
0.32674305650916624
-0.5814615754621931
0.6125316547282622
-0.09997216484897997
0.5190829205047722
0.4077735012031195
0.3628017777560739
-0.03199872698153905
0.36171012071911557
-0.5112557080451542
0.01062800597787994
0.15525473987177607
0.4543186274872062
0.16176767374249246
-0.47035854278768807
0.20876917941201967
-0.20541232751366034
-0.43123623855428517
0.1388697746602544
-0.27423260500209834
0.566616005224566
-0.4485323159518214
0.3353104197114207
-0.029585437043086138
0.21921848326271998
-0.19081577848059683
0.6544635065473433
0.1433501637005763
-0.19763257003347612
-0.04366027945734219
0.21054275540663114
0.19413647923072275
0.05660883037185749
0.3544052304775416
0.4016846339036233
0.5920588516210269
-0.5624947006057524
-0.12953648139710816
-0.38340802154177744
-0.8377134225443975
-0.6333355858503018
-0.34975166215211095
-0.8678199293228264
0.843525631088442
0.0684085213033272
-0.2432216063308864
0.5026495721575897
-0.38181899893197846
0.32558766376841375
-0.4113725509029408
0.16106484000662324
-0.10491703375263073
-0.31947080527389893
0.6908661539094391
0.3133508715935218
0.5895828659223957
0.3969581510979652
0.21719178665439565
-0.18960086232576767
0.6753641177583602
0.09870370772126136
-0.034619824189427995
0.2607979994802244
-0.7663487613441525
0.3395566183998936
0.16375280968620953
-0.3580213624029315
0.22797301123871028
0.6170080009184441
0.6375710690632155
0.6183703829843847
-0.3864692645771971
0.29854386209859873
-0.18669390539621167
0.3453336022038518
0.5609547288996342
-0.16709528548806385
-0.2896551469673454
0.06780882936140831
0.15835849608760322
-0.7393224089743698
0.1794356642922934
0.3543143306705906
-0.05896224315828236
0.23269580495446018
0.017685858074476868
0.3003475697209872
0.16413173143843052
-0.5932992390208917
0.38956972013637914
0.250518371955442
0.06758509274536606
-0.47762750569135193
-0.20135683842643592
0.12216309555315807
0.2138931367110013
-0.04558228242977547
0.5728655108186447
0.2850851152646934
0.16869028798259178
0.16765281398974952
0.3012320030157889
0.20159224852084245
-0.3554209624474155
-0.6846575895364783
0.07129858817364831
-0.2687590288458488
-0.01861968164496941
-0.34803875645779225
-0.5637727368454233
0.029262656030696776
0.0496864580300459
0.2596648114712188
0.8954037118186059
-0.4083633775808344
0.2813538900524284
0.25845896616738395
0.6989350055079385
0.36906133133336483
0.06669235802760376
0.09765522470322296
0.7197329716798333
-0.2337237345499772
0.5303026415384754
-0.08064526882873557
-0.3675458089009045
-0.2758886915403246
-0.5601402229803845
-0.01296685861976965
-0.04014392513520049
-0.5843745818296
-0.44354274629750845
-0.16642553609269328
-0.0807018960345337
-0.5512201756666318
-0.44829807988189896
0.029119084372106974
0.03200900718361743
-0.2933872419195457
0.45581184490642745
0.3595674034290389
0.17719416774940866
-0.7004688066888307
0.6540475698058801
-0.14369219200153915
0.5579758409837376
-0.001419624931300656
-0.39981985616935956
0.3091520649194426
-0.06809526694625079
-0.5884235421924824
-0.8361753575491089
0.0566442302042488
0.5387043394046553
-0.03609977623246641
-0.14251976177162928
0.6929281595232728
-0.14263330087088322
-0.5685777511159629
0.3633908424233284
-0.1115165999268316
0.03720561930532662
0.758109614656564
6.273627450024133E-4
-0.16738012869359087
-0.01959340395760556
-0.41777977892354345
0.4817120196091419
-0.004587353856533305
-0.4441154213274645
-0.36356714547351443
0.4376714058166825
-0.0695032767179864
0.819438848702577
-0.29306402707625
-0.20852326254994757
0.9129246537516285
-0.717570452656874
0.4587968865577471
0.3830529695011301
-0.10860911868567336
0.2917795079674287
0.009693870258398851
0.30382569648999713
-0.2784070293009392
0.15294895807360565
0.3768305794951715
0.14759254634461438
-0.4177101735264428
0.5479887365259777
0.3871716438131567
0.23628784219173582
0.05337932056719119
-0.2272800116433371
-0.38800532713452374
-0.2756734820337823
0.19580904052818204
0.2773359723704165
-0.432979094032903
0.0850489315939188
0.9383163311717614
-0.4876223052715556
0.6187754831252437
0.875962916070573
0.13308735166829677
-0.5301704768078687
-0.15138689086048118
0.28219282355906994
0.8918311373276671
-0.0111655673805926
0.6231912427494632
-0.20446690736380235
0.10783654583767754
0.10737155462067727
0.26983686574245613
-0.28749685627532373
0.13005514217494452
-0.40315302746832293
0.17099394032825854
-0.16371552407007672
0.3125373733225577
0.20847399355656726
0.6046424792691137
-0.20554338410668127
0.0038646753404788514
-0.3085485082779479
-0.6819149767426246
-0.52453845428054
0.8785947427559647
0.05919247000234551
-0.39809585068994746
4.39557777148325E-4
0.4805560183318711
-0.35330924310251377
-0.5708334403504273
-0.8118642722700015
0.2745897188706655
-0.22529609136067186
0.27744040093381517
-0.3809877248386382
-0.07014731708230693
0.34349158435876603
-0.33892278960505917
0.09687872006794562
0.04099768959262262
-0.12551664636905047
0.05278989019849534
-0.05713128114210675
-0.6473601612721098
0.36028436034649536
0.3500449452803026
-0.44039518665526556
0.16617560545789933
0.4697605456291547
0.5657469659439994
0.7456149885251742
-0.2605185270388617
0.008030457624199627
-0.5551406620589989
0.5074182846742933
0.25303220224334866
0.10482015947441459
0.5695071080528857
0.22889211633655382
0.10422761227166644
-0.4930372763498049
-0.19174274353413512
0.2598333009381446
0.3248298616068712
0.06082726053101084
0.19226955410527824
0.4933211169180567
0.060579746019224445
0.3257736339944719
-0.4706533714212007
0.6067577603483434
-0.47747748323060546
-0.45658380825213807
-0.7446075058020933
-0.3403077220894246
-0.0036414421096628846
0.449015931827359
-0.4317202092932596
0.003706987965437336
-0.27808411402521327
-0.4616627368424887
0.3433519505091859
0.024016257290156662
0.2849980609069127
0.4899145112188924
-0.770343302879074
0.2655018205711519
-0.5299572461208107
-0.6284307982645725
-0.27744190206684316
-0.39630084195263604
-0.15091519476951687
0.16293531511531634
-0.4699568451470022
0.14578392549237396
-0.14761938343262626
0.6504015525230578
-0.22662812917198305
0.6788974396125557
0.7718273371175582
0.7365668539054462
-0.0157584940080846
0.20608258297381365
0.07524174080796231
-0.07088884066299506
0.09722238523928062
0.39496891142759905
0.013662217983760883
0.5953858641557493
-0.15899679828820945
0.005169894044364742
0.31340325987720097
-0.2080504381213275
-0.444011504673957
0.5365159378623812
-0.29284378904267894
-0.3307866398637991
0.11422151847929429
0.3443402834004342
0.9428311836106359
0.3563302935050594
0.3772420379495618
-0.2887313676538942
-0.1150098114694531
0.7399399543265368
-0.2568732528466311
0.18502397075239296
-0.09334496611661625
0.10124564076095133
-0.17864667723042194
-0.5461606450567208
-0.5089859042566066
0.3954428553018813
-0.5532247748017
0.1745119166013196
-0.48582777467480187
-0.3584524452446004
-0.13456817949888322
0.6054642154916816
0.880092018484591
-0.002512599743636823
0.24228971878450267
0.2784831921905674
-0.38994476782211474
0.1597766837110538
-0.1155184351984041
0.6286773129651203
-0.18352968923686763
0.47356519609152126
-0.14225579752094542
-0.2567173412412862
0.39068012554057896
-0.605246585452101
-0.8461987332764862
-0.05454977288684604
-0.5775137950919232
-0.17548248257900145
0.025045531108535246
-0.08101483626752504
0.09865085272033824
0.7268043772042869
-0.5524256664751624
0.1143678782876888
0.048906707140016326
0.5489850508088682
-0.005120990892037325
-0.35387309458196803
0.6783649097494967
-0.0466912729512039
0.3888582005531217
0.1640115164431064
-0.44574612150542214
0.21726831655140044
-0.09676971940103973
-0.07965988411402314
0.07298952849492879
0.44800735087587273
0.06015980878622795
0.2230778691693951
0.5873718260503688
-0.4008731783497428
-0.008495144272345323
-0.44915010340740513
-0.3650269598267062
-0.07096175958213435
-0.3978008302190703
0.21166113155754596
-0.5352763960255597
0.16093128428829617
0.6038955076809654
-0.2918299183891758
-0.15514810356400532
-0.24296308469497507
-0.5119465687799506
-0.027269627127974982
0.2239748207784804
-0.4351230686963887
0.7238036633822392
-0.7697594174317013
0.6787442709647901
-0.36019418530164304
0.10678432852581643
0.10439998933858252
-0.2046099913899757
0.40464159829282864
0.7410612653782029
-0.5410542544390001
-0.8220964642721863
0.2952841593555099
-0.6973110165324056
0.05853971604174757
-0.23291922527174236
0.2934507103213533
-0.7894703306317391
0.1936885921138508
0.3094319576226384
0.27494065085693375
0.3285019731544876
-0.2102165064384236
-0.4259722794946238
0.11394650311804255
-0.4774712373701274
0.36602460572079876
0.6709245939810476
-0.41055847586032634
0.2009994661811375
0.5929504479362135
-0.11693888822747467
-0.20563643782246366
0.2376485080437405
0.316092115042816
0.2997198193304078
0.19877375493501603
-0.4726280984380571
0.04352188660255285
0.16047601002131628
0.101520260612323
0.46764337109533194
0.10667492392649791
0.26722029449878704
0.445241319180011
-0.014763611308541313
0.17377852964013563
-0.0131099353194144
-0.013313610010055044
-0.015536181389561254
0.6349704551391337
-0.2655801666395502
0.08277066740927208
0.449556817720259
-0.1993600560726474
0.5086880421970859
-0.18330702093413564
-0.3300154279169807
-0.22979159126704363
-0.13504427304280464
-0.11492977516525726
0.5862152653480628
-0.7219645849139702
-0.9302100334092988
0.06763300304320219
0.07590651130230819
-0.30733429778107235
-0.03853972418145679
0.5804036426099404
-0.10423291002060608
-0.1024774664045337
-0.09058024287241462
0.43576849157023667
-0.7693777766945034
0.42804612994975855
-0.5342840395551631
0.26289240496329513
-0.6222489913568886
0.23386031158334342
0.2153039089055967
0.18851498333358507
-0.831187842980574
-0.9681439487519478
-3.551320694551441E-4
0.24088144911119735
-0.5397480290488967
0.10853467481903467
0.4170740222094117
-0.8657578501127194
0.4934061455396971
-0.009680953551118976
0.26117137336135543
-0.016662005493395804
0.7818696518636943
0.0861115317491844
-0.42359102107895186
0.4350804892987922
0.09236698498937224
-0.6821974448213085
-0.2548241472987538
0.21920032682564983
0.5069123724169665
0.7263866531068158
0.23286984925984155
0.006024144600135117
-0.2887357589948423
-0.36169471101664963
0.6253228113937742
0.24119807459183862
0.3326137200398074
-0.6008115152018263
-0.7781127192092533
0.600762727577782
-0.47407683161927905
-0.2869789192098273
-0.14039938939788343
0.7233520242847211
0.26293229109009353
0.5382050367961322
0.02219938005254718
0.03661116156341271
-0.2556564659303526
-0.07624318520311224
0.3514044741638316
0.35840899272209736
0.02562121141762297
0.6559787944461171
0.7632722669359392
-0.504345481784077
-0.11431420242626888
0.6448339959260027
-0.1472990773632622
0.44395432362591447
0.10875399583411649
0.26375443668661613
-0.056989293203918545
0.288876476092634
0.49845892627292043
-0.37026696386063485
0.4008233553085827
-0.20419298624002047
0.25769219144980215
-0.12914249565085978
-0.29458235120737
-0.3480233729453841
0.8273996396508432
-0.3951645932900454
0.7761531210482142
-0.27586714829506453
-0.21889993335880353
-0.4389195220187987
-0.4696984102192636
-0.23714890231114705
0.11887198089351725
0.424347720665498
0.05698135848749386
0.49149875760424866
0.7595290732381151
-0.12582679793782592
0.11921181025765559
-0.8027502484679477
-0.1410409369479939
0.40252708124440906
-0.09057724068240769
0.1858413741077476
-0.08513590141441152
0.02984127975915485
0.1904552743703254
0.20508830909393194
0.7473600034887021
0.35378459022879916
0.55743794156161
-0.8297284224122523
0.6457564636097362
-0.46877968510533385
0.48819751927544575
-0.14264700035324773
0.1155706354776449
0.47792765738521437
0.5281145626033666
-0.39252459823173136
0.12518953175061975
-0.25887725560512387
0.07586285406811699
-0.7163356733353746
0.2142764205410137
0.16371942978364862
0.6596380455081573
-0.009965723350349176
-0.09443906115685341
-0.4340561875643252
-0.22245109108944694
-0.03179577985703208
0.6201399330563152
0.8809341827138362
0.19131203451712264
-0.20054585341787923
-0.14467475940408503
0.25771632088414553
0.22715293541229387
0.1512913068886408
0.4564532174135757
0.12020598621206102
-0.5508865279259578
