673752.0
-0.21598300257907221
-0.4202112798724933
0.022120329640688663
-0.21141896084894346
0.511649134781089
0.34615515691756404
-0.5971965095687342
-0.21441900697719712
1.1146923295790154
0.018098495576030493
-0.18038951974934492
0.5442817948398343
0.6783696433499952
-0.45885959112724084
-0.20413573499605087
0.2055863486711038
0.2596192186055628
-0.11589511179278489
-0.19285602898967003
0.5890377364871988
0.9635402404460522
-0.37422848515831275
0.3303670196534567
-0.5418979961958343
0.8286361777503914
-0.09371646123034005
0.739569743885226
0.1254906219731341
0.07146785986716675
-0.6580718626641678
-0.8745181509571677
0.34588942167289227
-0.2503201672674987
-0.7289677631825761
0.09074324184284788
0.5501264376305159
-0.499342738652261
0.040004879021173334
-0.6488203407348425
-0.3818448958713282
0.4668066075925943
-0.7329723652771986
-0.6174764326600293
0.3688279218361734
-0.48652647118328507
0.5681639365703313
0.08961501877475553
-0.0863583547514617
-0.29883635764817473
0.13137314566538527
0.04259450453850633
-0.7570332923033004
-0.18318397283250082
-0.58554645122122
0.22100001667950797
0.22983969100207574
0.3806627548987751
-0.37435260494812084
-0.6047900768525892
0.3286838511781247
0.01683448105177389
-0.15978218366668717
-0.11520095240634076
0.4300771678970672
-0.26291866079325743
0.05911414109900902
-0.4791043433070553
0.45356330413513235
-0.7486280347416341
0.011445884180355304
0.2626124097212501
-0.35380370503307423
0.5075463528830918
-0.13116031040742415
-0.16040702646479965
0.5945704939747365
-0.18765430244858416
-0.1461403155514585
0.4668993548873662
0.06999033880112873
0.7402778603845478
-0.09237938873879899
-0.631071350904706
-0.2796378185740266
-0.4148007872430547
0.22937105144959358
-0.0010159805583143111
-0.16331702669286463
0.4526927435268228
0.43801546969446725
-0.6278188151897045
0.45962436441759147
-0.010314220659746298
0.33170319851294006
0.008104248310104853
0.5999830989197111
-0.06152473430424166
0.4458745372077778
0.20584755395417997
-0.3808593207613469
-0.32639008222285126
0.20293916202735074
-0.467002649194714
0.12817295468456225
-0.05926048736769046
-0.02404567639630273
-0.2648431498847167
-0.3903683409790252
-0.1354187274735308
0.4520493417004874
0.715072441009772
-0.2736779488505209
-0.6956902847215086
0.043149736152487184
0.3205886920382729
-0.08286943226219823
0.5433902314724793
0.3227050412712007
0.07642895328896515
0.4869811056966469
-0.6885869835481722
0.15821489196849758
0.113356010581773
0.35981486877470237
-0.1355381147304583
-0.6384911905545159
-0.07237460909911453
-0.32081131337552504
0.8109019560845677
0.48737903661198034
-0.05494540688556093
0.06010657295906774
0.5798795495752352
-0.2828451467561262
0.33510541322543874
0.023624503830485213
-0.07739231573973826
0.16182451377415918
0.5629012100278237
-0.04637842811772963
-0.05306242137148598
0.2625843255003998
0.1110720015700516
0.6980370668580149
0.5116736983805439
0.10208819251519932
0.2844468025213824
-0.2687722091104032
0.1389894467573013
0.26868488794914347
0.05339416342766383
0.7834693135101223
-0.6629630916050023
-0.6257289815758008
-1.1262259599672892
-0.5726255162964151
-0.28826174750366007
0.4043968682700807
-0.21285921905042707
-0.12236773525526014
-0.30333999558558655
0.20461428369321166
-0.3035523094953134
0.8144028877718006
0.2560750225230147
0.46164777260806633
-0.33139306327899265
-0.11666389437813969
0.11372960791290632
0.24362942333137647
-0.1840845631494259
0.28573001788935193
0.3025870048690297
0.6926260110712514
0.14631508172955177
0.3935863768777723
-0.20731868565150113
0.28531399956504067
-0.8233663501198097
-0.08887126801767078
-0.2388430278767612
7.960885842172027E-4
-0.24019815164752856
0.33702637844048533
0.17562379174671505
0.086205890239174
-0.27278638760378204
0.3219476899657384
0.202361045700856
-0.6724724554847611
0.010861469672598878
-0.16767928351930828
-0.261463681312298
-0.2724870704169484
-0.7158704419050398
0.19728194047824932
0.4766307266384976
0.9214183153336744
-0.08355054827335939
-1.0389859496484803
0.15187229979936634
-0.4277367076830418
-0.27859999094743193
-0.14284819975574614
-0.6045507810943176
-0.18086166203729986
0.2016257096013485
-0.6106405807240715
-0.047403765834534595
-0.6131643193891715
-0.5901486232830687
0.3286332394774504
0.3707310461095834
-0.7461735548241121
-0.41407084176298925
0.7018401619396616
0.20725771534110893
0.25392087758058945
-0.5626279951669174
0.24027763646143008
0.3036857521642677
-0.39366520649879866
0.20481222444975045
-0.14353629355203645
-0.5071675320422793
-0.5845587447714276
0.28197274171040043
0.5813332568174454
-0.12335689386999737
-0.5131183894247795
0.2101414680540552
-0.8101791802667703
-0.38907690946594864
0.4977344645822891
-0.7457832776204347
-0.056794103595390916
-0.7853811394418957
-0.4250344256625834
0.09626015500681429
-0.04104199490665017
-0.6653777064285147
-0.13710915990988282
-0.9733461410498294
0.8724441085110366
-0.310896055230361
-0.18967388573371213
0.3371440317545359
0.46861319754545383
0.03549250594714104
-0.10347352414750255
-0.1974572253522402
-0.7768421929285693
0.5642274527980655
0.369903233881431
0.26519426866678086
0.029526709473247537
0.19213383996418465
-0.02325683315781568
-0.13775892060234918
-0.6987155001182722
-0.5709417878234984
-0.09193403028223457
0.6130000189667335
-0.08682269917446517
0.0667296622863145
0.07649923807258596
0.07889622791818629
-0.11135675759732955
0.3433091652942176
-0.13094150531367643
0.2267333549685432
-0.37008367372276085
0.17203977625378553
-0.013107646973952836
0.5041042413083084
0.32775023439536743
-0.5992576463116248
0.47338109688466967
0.19529399774309658
0.22662167422347101
0.19024664843874173
-0.13885695504548112
0.4582622231556128
0.2518316246263207
-0.41672414709372685
-0.013563038027213925
0.44028549495507563
0.3924490348381916
-0.6852699412714559
0.3703107652996105
-0.492651611903838
0.07671994519335956
-0.4215410724969719
0.1383276118865545
0.5898294732560582
0.3576378592376719
0.1003787246173895
0.07069148259554436
-0.06819409794650899
0.22872220474570848
0.31441068625476953
-1.0629189221196267
-0.2925246834780869
0.2578873896812016
-0.0850002800473777
0.369614508248405
-0.3649026352565852
0.020573649878656508
0.5417720636032516
0.20786185240897626
-0.4863769006405603
0.4290277249343144
-0.07579288155323427
0.2790657448258814
-0.0746107158956419
0.8102856606643039
-0.14585092685098022
-0.274432776929764
-0.5979079599620846
0.28967173097007537
0.19857906434631545
-0.557865592693082
-0.5525616541498428
-0.8473934152596926
0.7626728680770698
-0.7026885978193625
0.6899648151831855
0.4909799202786971
0.5021695506615929
-0.14813926746660733
-0.40872833177038836
-0.21262409125051193
0.6081988080105534
-0.1831872513775591
0.43904647242395417
-0.16788477977395833
0.20106840865759182
-0.4279822147870802
-0.47772440613797457
0.3249981314067475
0.08647206937540786
0.37415986939690804
0.00940029680528165
0.030252758082847997
0.02628228736666327
-0.33586649679144565
0.08832164065984416
0.2664685178495133
-0.7134212952115677
-0.2144140431839745
0.11923353593937769
0.7515576685141007
-0.4950404809922142
-0.061798714155094414
0.46735142969973853
0.09349207133964432
0.09910248868232194
0.2738848173771933
0.1479441556424175
-0.2575722914188108
0.836650899927213
-0.0195901374389984
0.4779645564062215
0.6190667168858526
0.5062353534286798
0.2681402018245169
-0.5586630883007787
0.46717911823345154
-0.23894879299268235
-0.33986043407196975
-0.06948383772542666
0.4460371208611794
-0.4990315478592108
-0.1654186403512874
0.7069182127911653
0.33984108748532593
0.15143770155431735
0.3483141664806209
0.5657198718884533
-0.2080583568390213
-0.29108696655597677
0.047015722954120334
0.19071670857466239
-0.40093653421950476
0.7430089556763957
0.5181718209540159
0.05948945170495645
0.2864264650367837
0.0329643563295432
-0.5849758359201079
0.3067443740054627
0.8871096982244027
0.6465698995873637
-0.47430595321172686
0.7938331222680983
-0.3643529021581263
0.08449406901898379
-0.521253531707707
-0.016267419778425406
0.0643487145421742
0.5952981326758825
-0.4861845248569679
0.21389836464488343
-0.5506890867364825
0.48227885410741267
-0.2861441671785051
-0.020226835500676166
0.07724680679691465
0.07601531729942002
-0.025829652585722118
0.10251520319506013
-0.383451819262593
-0.06586785414985874
0.11861205542764974
-0.35764584598219945
-0.05528700122430863
0.15295796464723702
0.5777871423873528
-0.28393495674702207
0.2362277428954863
-0.4632309725889323
-0.09985275657946668
0.17661685546623462
-0.6677654082295675
0.33168505610418997
0.2594308343948765
0.6322675656879398
0.7221946899253939
-0.23012262401415362
0.11677326820933631
0.4037909603958276
0.10604634763381385
-0.30101905542299434
-0.48514671185885805
-0.28397300064682796
0.322937671439543
-0.26399762521865877
-0.5881374456718669
-0.20801559863080765
-0.4582374836885391
-0.6926930166040783
0.7643073594106875
0.2778979058634925
0.3878830801537356
0.037725305804570564
-0.612868938221488
-0.0018260964401610735
-0.05744261042479218
0.05192424556406862
-0.42054764277368406
-0.022247778121918582
0.9079265085581514
0.0791669974267234
0.5192525439734731
-0.16001652271793532
-0.5874159335909608
0.002200226059780541
0.47760497950954617
0.62642019310662
0.8986088367420715
0.19540615167218317
-0.2506501387047855
-0.055134266102813356
-0.33616669073151284
-0.3636284784584639
0.24039934157511822
-0.2750435572719634
0.38910054363413205
0.6371966988045025
-0.2450245463957491
0.8484642642577901
-0.4818966665131431
-0.3363850605307126
0.21462707011045543
-0.37307804763932134
0.19520173054551504
0.8552993603184279
0.16670094966092774
-0.08674449628745085
-0.18483257917814988
-0.30172373496163096
0.30353159998732027
0.4158340008885702
0.048851761222241864
-0.5318761123855557
-0.024585626488971335
0.35126917893732656
0.39350155889073035
-0.2711719302268433
-0.440301017149318
-0.5206555859696422
0.2976486818177202
0.332894315882224
0.44554678170231554
-0.4902226648041038
0.6762690485960674
-0.8845579201792246
-0.042945247431745326
0.0378223793868232
-0.27316722114066666
-0.304228858191291
0.25455848884707594
0.35558146494508436
0.35961800653624043
0.8513660350897073
0.019148169076804167
0.3210224274337822
-0.3449067895297666
0.29268899314367214
-0.6166412975544979
0.5834317066148396
0.7224781396087846
-0.04192183327670662
-0.06783730308530989
-0.06764226194574274
-0.12708273647564428
-0.8878756615792956
0.5368399117258322
0.4961795558110883
-0.4921705998710896
0.45112191436368587
-0.2215626288409569
-0.2165561707020799
-0.20254504543881852
0.8247406879360996
0.006710025424815802
-0.4788972444980573
0.13179236298945873
0.3238403088499958
0.19648131929959212
0.5032250460496386
-0.3386925003331702
-0.62748652443452
0.07775259554018482
0.44128798152486737
0.5803972332509405
-0.24619378466076602
-0.7474966864110547
-0.19050650165615898
0.28482714306472573
-0.790845149895369
0.1898411099347918
-0.11940127507573717
0.3582969910360897
-0.43304411245531726
0.3904181829439529
0.6424239612768075
-0.7311795874730006
-0.456723321384023
-0.3825337666136558
-0.7754627919958742
0.19329959478691583
-0.38824246531743634
0.022873420325759897
-0.1890148159374918
0.3668391872228089
0.3625230606248997
0.7273945246166283
0.9089712238939223
0.17822518000688747
-0.09319594683588756
0.09469488119678426
0.3190712032952596
-0.07375603659555803
0.10304603295576575
0.15892825659240406
0.6334539305920522
0.2712287309173451
0.11614603606066361
-0.6644806658948537
0.2215971121384961
0.03478718243514267
0.9258429009399567
-0.4901303849955361
0.8665563359397773
-0.24965943636934082
0.8779775342864409
0.45513340087835197
-0.37245968877172
-0.43176712059233413
-0.19299644807469762
-0.3674730498580061
0.29459079151585255
-0.2822528002711149
-0.42949528299337747
0.5413640900787181
0.4123972183186025
-0.6571621480848487
0.4530410436619643
0.7117996495495111
0.25176648421545067
-0.15485840799896167
-0.09920292589027224
0.0846121711085821
-0.27320612354158025
-0.0653451293897207
-0.8394773611553652
0.28748223652047133
0.4372701815763427
-0.08039009643284245
0.37322344675485175
-0.09458208160642045
-0.39701060748622874
0.05912804216989048
-0.1200813389899945
0.14425454284442593
0.13730147330863762
0.14961931555321406
-0.22451861953711105
0.06262193348656356
0.11347784894390972
0.10727137904174655
-0.2435112744175748
0.6156343819094287
0.1902079486731019
0.6438794131921215
0.8978956008028982
-0.456961448669109
0.25783667836660584
-0.03596193507822487
-0.2988666809280369
0.2700501657051432
-0.22875181601043726
0.21978516587355224
-0.821615045000567
0.09234927701538492
-0.26400761004395157
0.0021490495346816463
0.003752111070203859
-0.22394631125859843
-0.3308615706228888
-0.514600325091538
0.6611275933331835
0.8478551736071122
-0.19135770326790164
-0.4489812361679142
0.5223329403673908
-0.21954819866546016
-0.17482489518816025
-0.8852874376161494
-0.1207902572768843
-0.03672863506622019
0.15443932435156782
-0.7796529441868819
-0.5434730927507451
0.11790466950946865
0.2912155805731629
-0.31272454653672077
-0.7996084344601978
-0.19558029893601003
0.6582373556358059
0.3560625804200349
0.9621710212638348
-0.14908103652306304
0.4666912705085559
0.3307186287549444
-0.0996992460046967
0.163898898922903
-0.031651566599302
-0.1904619202278678
0.02687808688773996
0.3753443002287735
-0.7303699962684985
-0.3849867255255267
-0.30407645064954747
0.31933414452674325
-0.012833687515438452
0.51128948759685
-0.36295414335630205
0.33211270041230057
-0.8392951748119204
0.12466016593541074
0.6489875064279154
-0.5361238165221286
0.12759623855637037
0.3070235325680549
0.20163505991218722
-0.35351349037672064
0.2758101384869096
0.48045990415117357
-0.49854876105713863
-0.5347441961707117
0.09215387389888507
-0.04892860933488785
-0.05354741628297363
0.2890541973597782
-0.145060344505337
-0.7039363446841385
0.03463888018145819
-0.4294655656186913
0.6238030352503732
0.854124705220378
0.20343349989889434
-0.11165679302548981
-0.28737208129402003
0.28009147394617206
0.36897857998609485
0.12800039529063167
0.25788443050704335
-0.3903482699284385
-0.1081079298029485
0.4134193085254091
0.345859383820701
-0.04975730762630082
-0.06257865729068024
0.0594323223263471
-0.008982201678410906
0.43643355177775456
0.33279473769013623
0.33198788080451713
0.2589820109294487
-0.7678933662456117
0.03624000638878524
-0.7353443441648213
0.477234823149685
0.6222453378874003
-0.007724694590018788
-0.14576418634321767
0.08238350582861385
-0.021598669549505234
-0.4656004417160644
-0.17078157977725095
0.0463662325327572
-0.4237012171594434
-0.5221194953544183
0.11277102851168985
-0.2942329676518485
-0.557606244329794
0.46772625827719827
0.26502865002687925
-0.22346101904165827
0.07503743877052517
-0.49863402528190426
0.12014934395582472
0.07440391675876042
-0.08028203004917711
-0.7089631983185477
-0.6447011132720528
0.305672154987339
0.03471951932497763
0.10399993391141453
-0.31987438624319264
0.3630658608841547
0.7932435502866781
-0.09705160032409124
0.47811196473184703
0.3583231999905764
-0.19621616526432584
-0.6777773426877887
0.08744324592790809
-0.3321747405218912
-0.3132930759095042
-0.4467288244508841
-0.16929076469477744
-0.028974083689413788
-0.05058430031049488
-0.10641155436423187
-0.7885102927216772
-0.23577719392884267
0.29450255532514386
-0.30972598374104965
-0.0016336243134086742
0.33791911755878956
0.14873033410768954
0.40544622747644965
-0.09396553480659045
0.19771715923153588
0.49204937952738553
0.2555631613847722
-0.5802861053414538
0.08691272879352041
-0.6348534410719918
0.561421301243954
0.029149131735761544
-0.5987064008480734
-0.1814927934075221
0.08541227030917253
0.23828758572390002
0.04453655356463598
0.3605019823045642
-0.1972127132905529
-0.2789726028135834
-0.16805905597997273
-0.5275271494485085
0.22344716412323515
-0.3593404428161615
-0.6240691273561997
-0.17428615637754807
0.40992036961139366
-0.06487193698744192
0.05765564650073618
0.223275088103835
-0.1548303301679741
0.06947180815483182
0.10042873590438417
-0.5269283886027205
0.39886579272080813
0.37691476654765144
-0.5779378309389789
-0.34126676731071726
0.28920381408358986
0.959379371912759
0.5320132729829109
0.7398013538991068
0.20052836799860874
0.20441125420417028
-0.1440209341640375
-0.025037920920162632
0.43887040454149095
0.11268032816841993
-0.281636880925646
-0.42309502985326386
-0.4081866173679798
0.6133495718002516
-0.2097116754373529
0.08716060021795469
-0.11532803695220473
0.7907275005428739
-0.10379660988272665
0.004390735630399822
-0.9004607831590711
0.45889199090424426
0.08943120119109582
0.13684952267253203
0.4221458471137476
-0.5308567660046094
0.34610377170301865
0.4381160123866323
0.36201825639907814
0.41830110630828854
-0.5272659359195309
-0.13362956441040263
-0.6669800354788193
-0.12735851424829725
-0.5320062475131226
0.0517014663835339
0.6911532642087433
-0.025807363569178343
-0.21911758134452852
-0.554461147514524
0.632542758220717
0.4722650402117802
-0.2624631902106289
-0.5494923276516817
0.312312596794099
-0.041533003281395864
0.7420568287724992
-0.1265989403198472
-0.7209833224783383
0.8697040179385127
-0.22710295193085994
0.3659594843731041
0.24214946448583902
0.037249040949728696
0.3860108342521247
0.1277847247397006
-0.7480211425489607
0.006955316508654108
-0.9338279456987373
0.28896714207036955
0.3540154482677784
-0.3650851012517281
-0.1919306449054843
-0.6505570916170587
-0.010565816104066372
0.362833461981909
0.0073219729674706
-0.3537128357062179
0.7757038700341389
0.39617746246865354
0.36906327940553596
-0.270358862535243
-0.6225006233641163
0.8734420810080448
0.5861247994738261
0.4152405763404251
-0.5224644455366333
-0.028766547545541865
0.049912487397796634
0.5231741717327992
-0.07335556753284067
-0.726884809774631
0.18567126438770454
-0.3112501979615918
0.23188719586494672
0.1489117261424129
-0.008441838580927508
-0.20010569837890574
0.24560942694540944
0.49620636510887073
0.0861381830393787
-0.1996232438952762
-0.19449920073915672
-0.5015398038979606
0.10200884692819878
0.5432009621864976
0.35642236203454236
0.027230611198810983
-0.36022097572588097
-0.5395582398584501
-0.7217352393307974
-0.13385485283983145
-0.5196214972107918
-0.4456485315665917
-0.33190754721734306
-0.6261730488846565
-0.5601154800379793
0.03571336915880052
0.3317651629399949
0.28295811865250386
-0.7144369583579917
-0.25982776925631246
-0.5620078597035368
0.7435807434561605
-0.09480202658091119
-0.27926306499010195
-0.07988392225575436
-0.1818396878965649
-0.3662024049999292
2.9431175110375407E-4
0.4681959944925874
0.6994234022213729
0.4459741876549098
-0.8408079795665041
0.42170159080406744
-0.23201360212260835
0.9284619703627491
-0.13561254037921722
0.5289426721990454
-0.6218855520766119
0.05045488964228728
-0.28362234430209543
-0.12153008503248075
-0.028206326376068014
0.3222786705677243
0.040919096046349995
-0.4806111747954784
-0.7171013912555266
0.28528377737099986
-0.4450158689259499
0.2731800687124317
-0.589012239013233
0.3246774213200617
0.2412122542643998
0.25857576646653396
0.1831236611151411
0.19681927615815065
-0.14240025646605953
-0.35605177128713916
0.10071600345370657
-0.3691968996734749
0.5831467542359365
-0.49523592408933303
-0.13681314866300368
-0.35928874586626125
-0.43561593465504755
-0.1773074131198118
-0.057038041815030915
-0.03952932311857871
-0.22888122166573543
-0.5618258602224366
0.482262561653403
-0.4352810268612362
-0.5394513414285086
0.1976019560715323
0.12024363550981343
0.3567870374380324
0.4423332384725342
-0.210952297958809
-0.13532392863888787
0.004469867058803333
-0.08189103739393941
-0.27566720319488697
0.3986497734349578
0.3358200252673399
-0.7095759887705392
0.19980159218481897
0.7674970302325198
0.33603820599263234
0.4079530879380655
-0.562882787251997
0.22971876184124562
0.6616836403407877
-0.20313868981078087
0.437608685079631
0.11247097161939479
-0.4315770725023662
-0.634159015790968
0.22462639276518825
-0.3946418885481323
0.3676253076420317
0.08298457892648203
0.5933309151856357
-0.011696104916415706
0.26341701461119466
-0.6824040930782403
-0.3420041303674247
-0.2350388742332733
0.28395666934730335
-0.5751041023135521
-0.7656825888901074
-0.1498912065336051
0.004476209557062211
0.05984745169358152
0.029474349858341187
0.1512420311987661
0.3745217221964181
0.36638893389947225
-0.42153591343292834
-0.13723242908938416
0.19538970362273783
-0.5401834019485722
-0.34684997645110416
-0.016679180254480452
-0.27817559367610617
0.1291628248038258
-0.6949439703664609
-0.6051558013944636
-0.20782151558591633
-0.2929541245573505
-0.6990466112312014
0.33800119096849135
0.10648681379179215
-0.7673341559365752
-0.32774587401189553
0.1952590234689524
0.8588248706494301
-0.2806437833741642
-1.0143659615309197
0.5548362897537167
-0.04950014393834176
0.01406788071483478
0.49064227606206257
-0.06700310508212383
-0.5438878803775676
-0.11907349300531167
-0.005440301205195119
-0.39387494696148406
0.5277466775075192
0.30028310132064584
-0.005735675922439842
0.343661088319398
-0.23160197169206131
-0.13603180094795997
0.20897762952912435
-0.4917227769948581
0.29087884449380574
0.36602430906397426
-0.7298382002575767
-0.36603560745821007
0.27873926614690125
0.6993482994938738
0.5922490830296308
0.038356284691666936
-0.6879563099453324
0.3294178406327375
-0.6137773648987598
0.14138989515960154
0.04778762023065963
-0.027023625318085776
0.7564228050383615
-0.7873020659178556
-0.3733627919771917
-0.2568853111916076
0.2997494032182919
-0.13049612534287547
-0.012610638573627986
0.14484998645570268
0.574869230814658
0.23629571861672138
0.20224200391636074
-0.40044478889607993
-0.12104951560219658
0.006463834676401992
0.4596474848269141
0.4795195478486799
-0.7564779974545228
0.08285115764049777
-0.2795582025483089
0.302704066621448
-0.1897393259562078
-0.382077544473166
-0.9744289162776196
-0.0507429815155086
0.43776195106564564
0.22148920161959051
-0.291841419704425
0.4673711201054722
0.037164022832275156
-0.11156857018205123
-0.11309346197961145
-0.12558497762339482
0.1827388436974977
-0.2949848264910422
0.4658606757489316
-0.12937262834761654
0.274549070129642
0.02409188925087824
0.4142321095925143
-0.5736611252072676
0.6195686836574934
0.10043753304288172
0.1996554455918777
-0.4922527835155852
0.8575917827803661
0.4901783892700784
0.19485168883718207
-0.1387497234335413
-0.21313637044430572
-0.7405066138875334
-0.07532043997804028
-0.3071858736120384
-0.6153326774080159
0.5793959303065503
-0.22837566390564212
-0.08805833372630611
0.1988282024151935
-0.04080498457025006
0.7101013866849542
0.7473972514454817
0.4048768096144222
0.2886598208583836
0.36544116367246904
-0.8327592982349038
0.7106803229773879
0.06321227921371686
0.390224829837314
-0.23706650285738717
0.34490767991673554
0.3517672848620339
-0.7075785586973933
0.11768995085649603
-0.10516526286991934
0.3425297224806907
-0.3755478323476362
0.3856251562562251
-0.859055395104651
-0.7128700358686292
-0.10489318208395548
0.06643439908704896
0.08357723441961029
-0.8151955849465389
-0.25699027780913486
-0.050761961590916505
-0.3725646278984076
-0.011391452520296275
-0.13140491695271705
-0.9851963528464789
0.00261044685366274
0.30568890756110045
-0.40007095778942914
0.3447637644193092
-0.5631945251731727
0.30220278855294747
0.5399008957065492
0.3719528179100855
0.7711578100508761
-0.4201883050397457
-0.806216800756308
0.4309357466902835
-0.09643070198796377
0.08792957017826328
0.03533981366312011
0.03557422753041262
0.38240400864416824
-0.05886282317236036
-0.5890529935859273
0.21337661925863638
0.01724028982902681
-0.6363717245262757
-0.2649553188996423
-0.2751105272731207
0.25675511688526886
0.32076229255406585
0.4884545282515774
0.21594219327729547
0.5873793209852788
-0.20889273431566158
0.12000113619857053
0.2497098736326655
0.06409969512032643
0.2645039540704139
-0.7831164368140385
-0.539139357617378
0.2761536882288539
-0.5760402420248021
0.2559242557873609
-0.2998615608595758
-0.592072800180651
0.2519217177244679
-0.13949442250708213
-0.3267696618240453
0.2649993224846887
0.24808993044683159
-0.673672436429382
0.8777065109609167
-0.023924232348576435
0.1441573414741274
-0.3180314100103263
-0.031247086641575494
-0.02148685941052951
-0.42823646664346215
-0.23058315485866165
0.01567020226150162
-0.04024510335863141
0.6662687881453511
0.1427229350881376
0.06764325382191523
0.018279961045783895
0.3842162040394985
0.18954276075476462
-0.1636076124235755
-0.25979751239319127
-0.5296074756750134
-0.46989456601823265
0.31173050904392696
0.3010891690464559
0.48775296260250245
0.23232637111102383
-0.292684094542769
-0.1687525923486657
-0.32103419616098766
-0.5460220846626755
0.12094470327364581
-0.23610781167558936
0.34568982698525896
-0.49363364726675485
0.3937729994171928
0.20378234932573022
0.0831998706084105
0.04377144163573332
-0.3638342831725193
0.27057769300391277
-0.4332755396305783
-0.48202311423128197
0.1939685798253935
0.23603531999088542
-0.24226007787585968
0.3172835935039017
-0.8498587312718882
0.06720629183951343
-0.40211738153720405
0.19312702004571092
-0.5990657924532543
0.27442061545479013
0.4699267898485902
-0.5952452644256082
0.33913908978405805
-0.3474541531052726
-0.2997956777713878
-0.09939009824030975
-0.721421237376843
0.5939856637107547
-0.07771394451746896
0.40498837725192893
0.11548217212395595
0.4762471312465951
-0.6934048921592298
-0.21621079078307426
0.6291631587185084
-0.09744156405687304
-0.44487610500824115
-0.10820850010942895
0.35174838243469847
-0.7049137687164287
-0.6020758931238056
0.2099547146206684
-0.29176377569224377
0.5573259447769716
0.3601555902425705
-0.18163435785345627
0.3969067935495897
0.20086044882895623
0.015545809664471166
0.3264630130524501
-0.015776689769512964
-0.27528280347712236
-0.3298512519435939
0.35503763013679157
-0.3366997659290548
-0.10670216316961095
-0.30073781020978374
-0.6231314924297767
-0.1286886563935863
-0.6007478226122149
0.14513426421710163
-0.8551610316967161
0.37204417088941466
-0.47472105054567326
0.5774433000539612
-0.1669518730460099
0.36587391595840163
0.2860332007133963
-0.12185931845860165
-0.07022440803192109
-0.042372786339760604
0.29611852803669614
-0.3577708868221454
-0.2759771728056202
-0.1332658274964732
0.012247571407883455
-0.14884346009965013
-0.6007885755939533
-0.42151765701786925
-0.4398894295278142
0.47091036963559796
-0.21271312746708304
-0.6762515344430392
0.3728261190094829
0.16041363846387835
0.0018381445992659007
-0.1315699790950339
-0.11337539419605996
0.19652602030581368
0.01925726113402293
-0.2765549392515445
-0.09417717002153136
0.058098535101640425
-0.3226921361931074
-0.5567761893830793
-0.5526910568822918
0.01143370952091849
0.0947374167118279
0.04045437536742558
-0.28919067457067527
0.038101185269085236
-0.5032111727555744
-0.553533183506733
-0.39916911673829425
-0.2519272703032992
0.08820863296284506
-0.14669722317688647
0.11786807002635795
0.312999537436792
0.3185827790250223
-0.06171271216908175
0.39563551098348215
-0.523796594997669
-0.5281997580575737
-0.30272433162656215
-0.006070263721444147
0.25048302704432757
0.020345576876994675
0.24472045344476212
0.5205249844492654
0.9305785204785106
-0.49196001062754213
0.6807078233793864
0.6171870370326829
-0.11402617975417878
0.2120746529461205
0.5752663428155446
0.3350687366019629
-0.35956880651939027
-0.38295596999227466
-0.36486766879900895
0.289036923904949
-0.3612239255874694
-0.9095730876279869
-0.3544727798541163
-0.3585400937269536
0.3107462378605248
0.09665747424571303
0.1665204921136495
-0.530553290331798
0.6883209621988319
-0.8108001915015415
0.16149200964320765
0.34868791013604183
-0.5798891915383498
-0.40895441181590486
0.2982829345736413
0.2467103870396804
0.03788452999985692
0.162851021957778
0.50976489817059
0.01132886996517779
0.3508832400567351
0.18315501153788583
-0.012544994468016046
-0.6989942484485082
-0.029260840757969864
-0.21646220434868235
-0.26954438095312994
-0.27207707723342806
0.22726136882025322
0.5195576111070382
0.07762727881214604
-0.1807356576464514
-0.011841409144664805
-0.08351591276029902
0.1481661709968939
0.22111563169115847
-0.4973656795639237
0.05867887562323495
0.025381028692414986
-0.3441845671391407
-0.69494957233843
0.07258278053422461
0.25253088574086746
-0.6104000553575825
-0.7502686969113895
0.2577053663073475
0.40184890579420096
-0.13710434886794476
0.5986474454060815
0.20594264542663254
-0.3326330239397044
0.5459652355267364
-0.4240447686246841
-0.07800633242962263
-0.0018333033737841786
0.1462851901221186
0.20627452515640465
0.426550713117024
-0.16692231084090525
-0.6797595572264891
0.16704475379727846
-0.3720294157123592
0.3088919824020092
0.30392221353739457
-0.2839322154290055
0.3847383224240796
-0.42472497528096353
0.1809382845066857
0.09653697234151437
0.6655069386989758
-0.34883970085384974
-0.14398239492108722
0.6234375832555465
-0.24924703400177672
-0.005385917326810291
0.08413573289803267
-0.1464067480845122
0.8061756692295879
-0.14213714508953568
-0.568108617382751
-0.2595996880942012
-0.11959509051862963
-0.12080885414220588
-0.6369432611413123
-0.0021052365463702927
-0.7902422037295198
0.6576164943292158
0.3193239758766312
0.7790937226475674
-0.017198210639698508
0.270153044564602
0.36685669379357333
-0.005508335793818042
-0.2337602468815424
-0.06617234665391636
-0.2512947304456218
0.1224474805071144
0.16521188436702894
-0.02507637812744551
0.02555813015457245
0.3476535605612847
-0.5381818310131249
-0.2923057665162224
-0.49396840406180786
-0.23667666988025204
0.7607954245908715
-0.040824551263963074
0.22480969490187752
0.5587245125831667
-0.437567690984492
0.43597302658060855
0.11263665856293614
0.266797517293873
-0.9459348324684352
-0.4528237858347443
-0.7364726828756211
0.8974594585611338
0.31843934586362
-0.26379253413654846
-0.1758181438222951
0.4643200783954037
-0.08056576471252874
-0.7058412676355501
-0.294885245522329
0.04026372001250578
-0.2976474467872037
-0.18244964722286616
-0.15431675720841276
0.5402274160849325
0.17671144266220976
0.1578865526597102
0.6408862045105739
0.2362915715861128
-0.25749363493125765
-0.21352885117811649
0.4759878478870477
-0.2942243271731655
-0.38232545481214286
-0.881519808996014
-0.6986368945604207
-0.16858663561855908
0.34601164772761106
-0.25846510255795174
0.5276932037211918
-0.010537532332749788
0.039978268467152495
-0.7726714872259267
0.02323488391378381
-0.8268640735033422
0.8420082261138992
0.002719613434920788
-0.25709139017988003
-0.28580104682321417
0.009037781005141188
0.020932843895643094
-0.14202948238101876
-0.11944372852090465
0.49338441278179335
-0.3773121402526274
0.18529745128810693
0.08297758205473194
-0.7023550433267804
0.4971751092215204
-0.3569127180943938
-0.6343865122089504
-0.05712501442747253
-0.2737734119704491
0.7114837080174466
-0.6218372131104984
0.9166796711337603
0.22087365310209173
-0.24399704569053748
-0.31015075008046644
-0.1887527992445911
-0.2445488169351691
-0.511473240188348
-0.9120255736342945
0.32932224144492606
0.732756721281634
-0.17782566188095672
-0.6380154173100056
-0.21846163878591074
-0.08334621805315767
-0.3180755703570767
0.45499614475895667
0.6538237586619747
0.6899786328541772
-0.6770883058396191
-0.1372325446334084
-0.3250667299362331
-0.8950295476012441
0.45713780059375697
0.42642844937282515
0.08815890735074484
0.18683874764522146
-0.1947047412488177
-0.09372073264536193
0.7022984262718054
-0.001405123642381878
0.6865797244454659
-0.08763304616380764
0.08040631682601637
0.008609425727883702
0.25438244867038007
-0.6011518548196686
0.36147322824005657
0.09698164583438573
0.22401357457634338
0.9141157933008776
0.516594617437031
-0.16745824128382844
0.3871952442058032
0.09064136887359375
0.15317617713003984
-0.30558827249703946
-0.01541161518179468
0.07947393498911326
-0.27575091549954167
-0.5546129417782727
-0.8377570293641282
-0.8117414974931322
-0.5893188294711046
0.2163366490413151
0.17925930587082173
0.6400393854196249
-0.3997191656456073
0.394449913463237
0.2533441757426419
-0.7643499219891865
-0.03642732970412921
-0.40366957381824686
0.18495296360917246
0.33866908567429904
0.044653012090210664
-0.761753416249984
0.07791810510517339
-0.267284010150425
0.41769975348020455
0.14169556815458625
0.08209144690753556
0.3872792212768883
0.7037776215323608
0.27322074973378463
0.38818348137045416
-0.09370376632277744
-0.10425421955554304
0.035767142434572144
0.5782652223391997
-0.6704341103569555
-0.5584174558095462
0.2678072992372147
0.7126224711526021
-0.22757674287808838
0.00267837005668059
-0.5929572272048169
-0.03430125613846992
0.7584492458271357
-0.18654065679483145
0.6596838984608177
-0.2431642656002574
-0.320927301381983
0.016158258005892878
0.07776024063104327
-0.5808046146841084
-0.12926648596267665
-0.3356956490021612
0.02095106370097788
0.46028200743167935
0.06004770633021661
-0.683571632280684
0.2316577351579927
0.04128309091359175
-0.08583984785090831
-0.0560168422952676
-0.5441297229758626
-0.4945068559078595
0.1666389090302497
-0.10506032994052528
-0.29601088398745123
-0.3346391542256443
-0.25627567073681423
0.18119267357593472
0.23963563364181228
0.7311096162714565
0.4990980981946219
0.13437477946215692
-0.36146919082666373
-0.0172726448437176
-0.21150719954923697
0.4151257322413071
-0.21525026630862498
-0.8375239148672237
0.7644218618504353
-0.024634685521539468
0.4790076325743966
0.08268145145234573
-0.43653436526509926
0.42621721160665355
-0.039585360151629945
-0.06640249973154633
0.10080062299614134
0.3271151801520992
0.20750677904190573
1.0935543020179659
-0.665126970885424
-0.362558514596501
0.4738920803238779
-0.37613158368186567
-0.3269523549957588
-0.8468261418621967
-0.5782416416258276
-0.3273525279492363
0.21305873786585972
0.6525932724872475
-0.21282925619243992
0.1710052804082779
-0.820251265863023
0.0122546330770551
0.30120588775275847
0.21888321058420068
-0.3478868619422628
-0.9265624211491786
0.5321317189640158
0.40319966597788226
-0.4388262485579256
0.6041122090657837
-0.7932193955386055
0.24114125379089335
-0.041344251963832866
0.42920361618874403
0.33765923020883537
0.19303837440317304
-0.14712605652272315
-0.12822035656675396
0.08793895927309325
0.19049424643018315
0.17922223960931427
-0.16134104904706525
0.25926675767533214
-0.40005235465598443
-0.1404789627449019
-0.454099553362604
-0.24752206842236524
0.3874732420671252
-0.021168377205595723
-0.4044308060671783
0.1839164841536067
0.0641122468777291
0.10660081547796452
-0.0269630190113731
0.022446171552551575
0.0029156530624794286
0.009331680431905146
-0.18169723738451815
0.7052973725612215
-0.7042765417329243
0.017171460902589253
-0.04450828054744693
0.26135660356535206
-0.33403691860411167
-0.5730458207219056
0.4669430984814237
0.7330536683855953
-0.08415907827445245
0.733325529460353
0.1970277808513835
0.3463571350243718
0.5019369308833891
-0.011085591851745152
0.2658711824094595
-0.5543127488466698
-0.9062380453266473
0.3389930668965293
-0.2614236580153598
-0.3540519629992661
0.22872697397159314
-0.10741469095946934
-0.47645286910500195
0.11477525848568815
0.2586434795426823
-0.08007493249599829
-0.25497808212528705
-0.39165835355575523
-0.5611167038006828
0.5505607858551292
-0.4312805562215605
0.06606087313631281
0.17076308734462908
-0.39462253997202523
0.10222721415985186
0.06972880319058217
0.060347622789961974
0.05991502663895032
-0.2775028370943825
0.1296085900707714
-0.013598958139358214
0.6747414225238846
0.11479833915275828
-0.34034957087874307
0.5294730971086237
-0.13264318346007323
1.0453514966379613
0.6061346177950124
0.2315264420258455
0.31400946503774224
-0.39008825651369416
-0.16787931787044208
0.10549888350926129
-0.29103802135875145
0.2146740564050208
-0.7861518835844471
0.13541982813391362
-0.15365519419550927
0.3726183182665973
-0.12764683630808593
0.05150291217229519
0.37247162240117315
0.136727346757874
0.3716812340125158
-0.20641527832832895
-0.525723143159825
0.3154353817852633
-0.3395068700984455
-0.43934020342260516
-0.6835228151701713
0.4347704485333813
-0.617787765451499
0.14556673709975554
0.4490000809403703
-0.6369040564384005
-0.3123434132804769
-0.060959828722323195
-0.47631136141253627
0.3707421694678811
-0.46504193166469066
-0.2416387702089377
0.5740410789650007
0.299560541869777
-0.24822151023105965
-0.4030309506514904
0.2520942259644685
0.39961721491866037
0.04633956993189958
0.18125020015456156
0.22280547113437355
0.6892018159914675
0.48424529892012846
0.36412547494066183
-0.19508599054822995
-0.3150873901372052
-0.2338268693540435
0.24238518998113412
0.9129733258278184
-0.34997445525722287
0.015679379564677576
0.26963314030985924
-0.4612572917329151
0.31660755760104253
-0.0016586779844640076
0.4795468512533392
0.16631204637155406
0.16748153616562544
-0.16238690625758426
-0.32786194755359077
-0.011152562313227143
0.5362767307531282
-0.08129361815160605
-0.3675842600830591
-0.1633827599852712
0.7954613052783671
0.08415991956038281
-0.13672244833865532
-0.22390795576689093
-0.061493955240054965
0.3448918417129092
-0.4913539042348375
-0.7457477555904303
-0.039962974526856154
-0.1120436556833313
-0.38459623684804956
-0.5393739769222317
-0.012222649191165003
0.2696996190775608
-0.25680765965733565
0.35972434273679277
-0.3996241812803928
0.6958799476821573
0.5013337486225521
-0.1292668933563852
-0.3128526873311169
0.19437209047549986
-0.22596436283445465
-0.1068927420119472
-0.14373224210397428
0.4453962797167662
-0.5099596035361355
0.19128312879760512
0.2601139189574522
-0.3315370054130664
-0.8106130192252198
0.2610393789816595
0.1023928749119778
0.5520277238956913
-0.6968718258271311
0.7130125202801519
0.3900100493595424
-0.0015785866558650566
0.26003748595283827
-0.3965114642424049
0.1505342763964269
-0.5669369911248084
-0.08976734139329245
0.26165870649757983
0.28257726483497636
0.41537324158361083
-0.32838026385409014
-0.6818775171189421
-0.1006010120811411
-0.3166260670981951
0.45136648259100165
0.28008267578300944
-0.3643673152551526
-0.3752257109889324
-4.2456149517577924E-4
-0.46917729810222875
0.3434108104125514
-0.04414597044937296
0.3108065064591056
0.05213858370280511
0.2361322852362348
0.030123659319604812
-0.15001350231544444
0.31387110395522644
0.10690769978052217
0.716287734851655
0.7294494295955355
-0.5123055927352348
-0.5681588641062384
-0.49814119881504826
-0.29730214442498226
-0.2819331019512755
0.05651708502083175
-0.40738333319856584
-0.555506571933793
0.6140630002368535
0.9758200064477313
0.4952130307560879
0.44273780491785586
-0.44169782254628415
-0.40952169446661046
0.5534610140664646
0.41447620864548296
-0.3912439459417648
-0.14621021912637303
-0.2886772861473233
0.387157224359609
-0.5188338298475436
0.49798543771515036
-0.5660411011651342
0.4701713727400074
0.5037654270186844
-0.7167386672706308
0.6776030262721359
-0.12953065843783718
-0.0958387596971193
-0.2543090861519768
0.021264395766750988
0.45349891755386285
-0.6343931467703489
-0.20054548062848654
0.020546744641592785
-0.08219708694268324
0.48521978037881797
0.15385720484605026
0.10150996304772733
0.02575949539909894
0.3981823319139709
-0.33633257338446587
0.2983311567779925
-0.7092640436496915
0.7558246672264155
-0.7029009590308953
-0.11080048728128755
-0.5003433915356971
-0.083830107634286
-0.6876711529539822
0.42488925266422184
-0.46423726579655433
0.3393843549307195
0.3497018522554771
-0.4915292042674497
0.17036768923444967
0.09306683691434489
-0.176113386596497
0.13519562728193424
0.7465447361582661
0.3003864866314915
0.5232470802342102
0.9441030184066909
0.6164442036285932
0.43085764062602927
-0.4071585887487219
-0.46778353491404523
-0.4593380652746015
-0.003310942287858984
0.2608509829000275
-0.3021980813464662
0.13745649056745957
-0.8216355410287258
-0.13381358107757246
0.1670406471896732
0.5611049518093328
-0.45723843067582326
0.028647600242848847
0.5153731354547828
-0.20570249460049206
0.0669972593844641
-0.38105328022775786
0.3584426420381313
-0.096588947215179
-0.028465602358177966
-0.20308563888675735
-0.026958106001314097
0.0456978738953282
-0.2717707280275151
0.4788753057512674
-0.885583956564602
0.5162216958682961
-0.12189156344216656
0.06683998864308946
0.3881913172476548
0.7777266762752354
-0.3717237173746497
0.15392698400367075
-0.12217572126348245
-0.07819848063138957
-0.28424557758508473
0.23777941400421443
0.2999742035647339
-0.7545568244483205
-0.593584281056274
-0.05335486389905106
-0.0023222795694346487
-0.6626042907155226
0.566019689226952
0.6254620484221064
0.5379139376218451
-0.7285837159681465
-0.6050790450710216
0.16111366291104434
-0.36439692634949405
0.5079782951322301
0.2746996270857589
-0.6390187038644992
0.026737145780084237
-0.017153730002327894
0.5706396069777904
0.07031514301071384
0.49951867179014753
0.33269111019952224
0.5823554797860921
-0.1884048972094412
0.19760161054497183
0.24310061639952849
-0.414207714317789
-0.42842687855288564
-0.5151338799996524
0.4847663179568025
0.09727239584617729
0.23311642398937196
0.26950054964572434
0.46837942946331745
-0.36408665311422506
-0.49128921165303807
0.08231502944876301
0.3017056378429449
0.0912037802349952
-0.46567478021824543
-0.5154721754431174
-0.24176549749651893
-0.5949638743816451
0.6623534472988831
0.18618995650455059
0.1583866440790841
0.6930139388917169
0.4091666880358811
-0.3187422392142075
0.21596103978055547
0.04063225934766257
-0.1507720386648811
-0.3478381318699148
-0.06472745746258501
-0.48838809052809173
-0.8421557017911568
0.6355067059702785
-0.018677259568343013
-0.27268748091741335
0.27879463287663997
0.4212597104923269
-0.3563545721088171
-0.17671690204006424
-0.5127697374677145
-0.6102973132441328
0.19221387627698205
0.2788490947767365
-0.2648721163117007
0.2076610947573907
-0.1318715319556466
-0.581574313098352
-0.04999682079955742
-0.3805267757992215
-0.2744971614134888
-0.008868059286561758
0.4711027061909165
0.2589885957930008
0.4347712909344257
-0.20544627509296096
-0.17498782243067554
-0.25929853823903176
0.1622477237409538
0.01177203358470802
0.18907269806448201
-0.7591411344223682
0.19332575143377723
-0.1226448742021049
0.551133384426749
-0.40743120740335603
-0.010865727362716307
0.0021277270332558107
-0.36837856747385056
-0.7131332074482296
-0.09494280491275808
0.1540450956190792
-0.12040306346489829
-0.20840935811544786
-0.24516011348147249
0.5486433715330088
-0.11397939203306673
-0.8205801763596713
0.1671765118426956
-0.46806856997875135
-0.7051088252037725
0.19547880267919604
-0.12610951501645717
-0.2775967125444102
-0.11847041034679982
-0.4412415499186071
0.017206263144567635
0.878799139944891
-0.5331210625123588
-0.13045056438457248
-0.6876923916867416
-0.05551841915548726
0.5521986142702459
-0.3900077001212008
-0.21475665344656683
0.7292712247791355
-0.5368745777429588
-0.3463771618467515
-0.3758109229693736
-0.46286022494760715
0.14402702354369148
0.5210316383615716
0.8168339260594717
-0.043621121753441155
-0.3421533119048976
-0.30287175573590974
0.19532687195355652
0.879567329964823
-0.07767255773756276
-0.7709431200416035
0.5965099448906637
-0.6006269613722868
-0.8830117074357541
-0.5096356105494931
-0.8149585211942988
-0.09200700290630447
0.054627388267298294
0.7491108879800158
0.31867162514040437
0.48860815490253495
-0.07473600613035791
-0.35267053151384453
-0.19468719719723593
-0.25672550029350955
-0.6376240337519695
0.22604877839820978
0.06679915730137537
-0.16237855810760318
-0.01427790511990723
0.20392097144892674
0.1843710449079905
-0.46242506279884166
-0.36867104880866347
0.7012956605780728
0.47506916739760885
0.6983127391007355
0.46209843955200774
0.42756350200086735
0.07124794378369081
-0.6647791461894634
0.16993573571538656
-0.2347084191942912
-0.04957702019683674
0.28520824467616523
-0.351883240077004
-0.5246322431545468
0.20684133713509312
-0.048219190493826836
0.427678337053512
0.015399258379518985
0.07371252144600153
0.2971398114863226
-0.45392046972290595
-0.008956680413529289
-0.6271688953532047
-0.36345567459701966
0.8967499781753682
-0.5897145745330857
-0.3960901824470294
0.0911919026788327
0.11102571565448405
-0.388531148884192
0.5152367867714518
-0.034715084605151714
0.016531174823435912
-0.25612930822319635
-0.8551665172473406
-0.25879901161915075
-0.1314177074446159
-0.8713264388900581
0.31646042847125144
0.11959559016390839
-0.26116076543493216
0.05926861088854756
0.686339102844951
0.4762930531675429
-0.6062913302001783
0.537973032431591
0.44384122049526376
0.06587682081163493
0.45863109848086614
0.014941389883732559
0.571401229948563
0.48528346327501115
-0.1117487656149011
0.05493998233989561
-0.11611530351062915
-0.5080353860041367
-0.22266247648002668
0.415253414152586
0.5561849746761526
-0.40787714954948845
-0.6179605086036646
0.3738993663464675
-0.07008479007432955
0.09143873636873445
-0.3334937763612309
0.7916875278983292
0.4862176600768226
-0.7739371124811643
0.026468328218073343
-0.07232600501247399
0.4410560155016
0.23188432373619883
0.5681405264075456
0.10741375144014798
0.35061678410284974
0.10236379912222077
-0.02041284871125089
-0.49137834815164144
0.35937030097050415
0.13979156584422425
0.09811328749663173
-0.016321875713116413
-0.6528956204534929
-0.08535150573837047
-0.5307577574965746
-0.6249618492215595
0.045710283960601616
0.10146193755866273
0.019153409361220786
0.792553115582209
0.08258274707372268
-0.7625618890188863
-0.3837662638861432
0.4872879171244696
-0.4499844233842293
0.006104767639970768
-0.3460513635552681
0.16732203468544254
0.3995056100418332
0.37203781747307185
0.2855586578344622
0.4710530721916637
-0.11276270138533545
0.030371053461305864
0.22468955698227144
-0.4055879184106128
0.14218777612801647
0.7405230066618883
0.4343872997002319
-0.4717710309909181
0.1235715666086904
-0.1678365111353527
0.1946667031652648
0.3777452062033724
-0.07420067478098624
-0.06266560314601399
-0.5531747467359933
0.3359206440961521
-0.18419835633895132
0.026301586036969526
0.90335738733476
-0.05387098524540901
0.5265382156007293
0.3535345777631912
-0.29295807493885767
0.3532271784052573
0.3598310590710974
-0.3235745355361186
-0.9758978721453561
0.31246291913105595
0.5648177262813185
-0.25474374412198386
-0.5637034308322751
0.6013148636697132
-0.863643280839482
0.011938489491269882
0.0437225847571141
-0.24202582281550938
-0.11354416998862936
0.6436488813111148
-0.37480019167298284
-0.18021055519555151
-0.26167457166251734
-0.7012464360050948
0.3219756523715772
-0.09698805651551023
0.1464977562862675
-0.7134371605594632
0.2629704644096963
0.19654978725110583
0.08636401001452532
-0.29205526140956567
-0.12276631415215933
0.2801146971123289
-0.7169832325007102
-0.5469073480640015
0.5521814846319224
-0.2827308853224032
0.13969942359786702
-0.21874295980160097
0.14375815538803371
-0.5178271363435412
-0.35614160434335407
0.29685893522001505
-0.33668838747615065
-0.12326887683787624
0.3506822969581566
-0.4140283901695814
-0.17542177666236347
0.650546497047965
0.7866531686615593
0.5706259282056174
0.19919277199512297
0.0011393603130881585
0.002274805606517716
-0.32332101880511477
-0.05242949035527422
-0.5304053912304462
-0.2569350927192412
-0.10223510860437635
0.11192464635738086
0.2339759116444855
-0.3330444100301207
-0.11396263395396163
0.0027137284410106988
0.2258068179375603
-0.47331399048806083
0.22270619948955583
0.33767958775118645
0.3169220429991637
0.21845514641470642
-0.2409139877616058
0.16133550650675246
0.3735427023290109
-0.4166269196589038
-0.5057230517805975
0.13689311316896435
0.2751133905085782
0.1631633259529508
-0.30453085001534363
0.13989331320712847
0.397549490898966
0.678343474648089
0.5512935758832562
-0.31927115047354504
0.147665548942847
0.34054696438766474
0.08745671734670368
-0.07101688252391278
-0.9028381263375849
0.6575712713301572
-0.8980615468436801
-0.3577845339916905
0.4165846522044919
0.30547116289306186
-0.2316507961276624
-0.7212094814550323
-0.5675526974476129
0.2674469959216127
-0.9406560264346941
0.13483150851800763
0.17688287396744662
0.3635196143249704
0.3825052045218659
-1.1524309352992932
-0.10850709896903832
-0.5903478276342935
-0.2847383502521773
-0.017806018308257898
0.7356030102481051
0.37403143365045105
0.6207742772345934
-0.46249367434410515
-0.38892095223297474
0.4486769369302964
0.15055397489262579
-0.4111172960342988
-0.17312146862919886
0.10258495360931041
0.25248558237735275
-0.16468437070250785
0.32184500471705413
-0.31456879705624097
-0.19384265288709346
-0.43652269509609143
-0.14224695185097438
0.5390786458880067
0.3061761794311437
-0.25004181707279366
-0.3552788208213256
-0.18846532972985475
-0.5219673175752227
-0.28706422555191546
-0.27197409418576324
0.5477544880542614
0.0342310897781517
-0.6759948532987093
0.32648514429030984
-0.0582075513809841
0.05960055084034868
-0.06861537868513139
0.13176549255290582
-0.5757618818775717
0.08484431602081188
0.0035299582354955117
0.6530897095847547
-0.4774300757002965
-0.44793426473661224
-0.06441563757049526
0.147314070546808
-0.43445244942673056
-0.20898118680924985
-0.45844462303796796
0.0721315995742996
-0.3791265993670465
0.46181547299750236
-0.6504761604648328
-0.32268957460346115
0.36414729150859787
-0.36551292548372954
-0.4990936383818334
0.020663783318843
-0.4293322223786312
-0.39035689305660504
0.5818638437496395
0.3181280123060798
0.09046629261360739
-0.3530656415653547
-0.481440294521046
0.5949326107360156
-0.6298879538585842
-0.2722834588618086
0.3445909224668412
0.14869002293265476
-0.3576496876359371
-0.6994278330997385
0.45567229860605796
0.28389156606290966
-0.07413329953951886
0.3291289626738503
0.09515068270668059
-0.4358001339714339
0.14365913296673527
0.22842718097983863
-0.283903148409793
-0.5460447869003144
0.28098412602920253
0.17088617704493947
-0.002344773991890148
-0.012782792384841368
-0.19134453777607452
0.42839407242274563
-0.1971974562104668
-0.6859290029638133
0.9575818589180384
-0.5921810577710541
-0.05567111501663741
0.02853152092394029
-0.026558851390076105
0.03979008897841596
-0.06771183730418284
-0.07576484296026889
0.8601347094486118
0.19213374739507894
0.3855718117500015
-0.6657038459580483
0.7594808885701442
0.6210691109722442
0.3259117069222537
-0.001170609428189029
-0.08505350809522261
0.26351620213849536
-0.4703490309015882
-0.23385641653404754
0.300500921093411
-0.12042506034551903
-0.8918739417221113
0.1566719781110485
-0.4229351755893315
-0.7317865385309905
-0.7701048771326535
0.216886852740743
-0.27610505460085233
-0.5558831274235855
0.6309375120920568
-0.1367477129411805
0.12910338390473974
0.08224331141230135
0.4331577908823723
0.04401845738499288
-0.44617130588030846
0.27961457719777827
-0.009559379628589881
-0.484129203144331
-0.5049674600042067
-0.1823936117387629
0.2631470505901701
0.17670286011586112
0.45553201775845875
0.007337008957936431
-0.42727950376832347
-0.17591256702352942
0.23203695810938973
0.11682885438969509
0.18194543525348872
-0.38471457298462575
0.012376532690930614
0.27781875824672453
0.5476540513220698
0.010781498081016805
0.3244461066439448
-0.029640500890263044
-0.399362556564413
-0.12699485084420692
-0.24637283818077216
0.09297271808916074
0.2605845943434957
-0.030804881467004663
-0.5205824959927843
-0.5607771685761374
0.9742284267094052
0.07121975468536523
-0.46333972523103195
0.02522054269017221
-0.0414979993336152
-0.822488625067763
0.07101309022118674
-0.01823238758487089
0.24222206456982087
-0.02160541987902853
-0.49850657274387045
-0.3706224294868301
0.49873597557663557
-0.051566792685419305
0.25822163826458944
-0.4334523973968424
-0.10521877886490849
0.8569189451705095
-0.07032751301501083
-0.06648475305229629
0.0024514670924009607
-0.32706392779616966
0.10108006395088831
-0.2811065768582258
0.10203782745980097
0.2201435004175123
-0.5447288462425298
0.6080995133927145
-0.11096953868887968
0.6544134597740565
-0.0329606604446184
-0.005833840029444315
0.990263056016277
0.06824740234923443
0.041642132012526756
-0.21303194144207493
-0.4917114906505682
0.1942794734505285
0.45747852007345546
0.875977252261712
0.13403257212472375
0.16574589409414944
-0.04560470423846685
0.2251797868059328
-0.20154170333604737
-0.10956737449722875
-0.09877866985089823
0.2718792321224677
-0.45073505966085764
-0.11668458598416664
0.19091815198602358
0.6395523471280725
-0.3287405621928337
0.6668866374428456
-0.0054721451278214595
-0.8457582148052413
-0.07543923500004895
-0.5101811752212824
0.17323209583453203
0.5908717316956831
0.5325010609935271
0.6493334149231436
0.1887055380982021
0.6823342681491633
-0.9027695785736405
0.7300821229179423
0.09216800026752059
0.2726544034377876
0.15439054799026763
-0.12482081960429336
-0.30462927558286257
0.27244998160874223
0.5430479189216517
-0.06057583156691393
0.23318921326731012
0.14092708926936923
0.14030579469250182
0.3740070869754941
0.48571493444691394
0.0952029964105101
-0.43837745588574917
0.44254215190039214
-0.602654831631331
-0.15568844817905114
-0.11017082235080478
-0.40720899387843046
-0.4046365999857475
-0.18494117264659848
-0.15910613339683166
-0.6041059631546337
-0.3764113027577366
0.4945587742033297
-0.11409595079666257
0.17003175327069184
0.3485194059800289
-0.7686266826795204
0.32879834293228416
-0.16001932814699577
0.08038540496802607
0.2972308188077859
-0.6186613027855932
-0.6422867331550569
0.42979156238661687
-0.36556955923919054
0.40715950443417415
-0.6502735505477888
0.3215500390554141
-0.12307440111226675
0.2614760056190744
0.1926627671632607
0.04837543765304669
-0.1638048530011198
0.6824904378179936
-0.4989290299981374
-0.9639121678257313
0.05570966666078492
-0.04631971804060431
-0.40757826242152073
0.20252223935799837
0.11824732716741715
0.06166811017118033
0.08170256996672831
-0.8712815403284733
0.6896983894444463
-0.1092913629409662
-0.23959368994271946
-0.10084494952005098
-0.9249924809722776
0.9015720566443541
-0.4156385750580191
0.46731493392392853
-0.7264897073966333
0.0872251906073625
-0.07186089704756582
0.4079261605011152
-0.6743904389938826
0.140260856903198
-0.22246887407489224
-0.44037418214384627
-0.252086355449449
0.10485140364800394
0.2919106826738417
-0.08478902417513462
-0.384127953270324
-0.19172242447183063
0.06708916937734943
-0.17806673631643188
-0.6051274398802777
0.342871421614238
0.001478690232580404
-0.43683644128113674
0.229132206830494
-0.09576520028590854
0.7719338141473817
-0.6113097531328403
0.09208698095753638
0.17726151617651215
-0.8765444560384913
-0.2630518347066021
0.233563831607412
0.026473779557202648
0.5261181993653025
0.0745299334293058
-0.22378001637320677
0.02889994732102452
0.07134783157967717
-0.8960174747646531
0.5763874611523709
-0.3156423532775666
-0.019543167395174588
0.2458781162246081
0.43275166829273465
0.07355075623946739
0.034431628440810935
-0.0697985930490852
-0.2731997856584367
0.09931184731865
-0.1178284321490991
-0.439260719189298
-0.1375408909830952
-0.19456970598697176
-0.44536791713549495
-0.7724306312781082
-0.03246807006203711
-0.7153603838589703
-0.5827470817425577
-0.4113988000143128
-0.15476432926819106
-0.11795526057743833
-0.2912843263214665
0.7097540601925714
0.3129346866618733
-0.4343966734967635
-0.08918101288222774
0.0051206229394646086
-0.20192121652793713
0.6591092341811143
0.043161995115448826
-0.011859994242707672
-0.45718479932946
0.2469973529366121
0.604372061576839
-0.37412678713150416
-0.12813270956720624
0.4584678520420018
0.3687042817401558
0.4527245404955802
-0.34158287536705967
0.0077751692915978485
0.3369088476347184
-0.07955482710377815
0.04657970600301209
0.35757701087212096
0.5373215569595385
0.19247715324559267
-0.8553686989822902
-0.29584888642533574
-0.12150258322330508
-0.17127230577778674
-0.1408752335598027
0.2640327155468405
-0.6167634076762348
-0.3453912341413718
-0.2012843248243279
0.19147219737752547
0.33752192942576476
0.2791531514540123
-0.7604787818529769
-0.5187206216313293
-0.8155635982446594
0.7942661206311368
-0.8427643262005501
-0.34364025015741445
-0.24567550185523213
0.5517423892450682
-0.45119810215326117
0.8995114378519142
-0.01161052182286515
0.3739407498082645
0.24580091593547393
-0.1262695796607618
0.450425018414808
0.26409769300978586
-0.8585363591116022
0.22384474934468968
-0.61070191423084
-0.20823625328472062
-0.8779522350155397
-0.26562843462272034
0.9104524253040615
0.65402962288689
0.5319099472054006
0.46616451325473174
0.3304826010114641
0.10017502255840235
0.7009526951220233
-0.21916035840425363
-0.34760280280542766
-0.5185784403519657
-0.0897130940460847
0.28045075530245533
0.6582490510667209
0.17357225786623698
0.5385052313088612
-0.1562433232023126
0.07752646874494684
-0.21160318341710715
0.4086868741756108
-0.03654704182565893
0.37220916913756585
0.7869937081391362
0.43699756926510047
0.20924623331815528
0.6058034678392181
0.06795933208676747
-0.38271049904515086
-0.7303287892613918
-0.821826709526001
0.4859913692846453
0.5699984673946575
-0.27533075295173787
0.4533942357809534
0.46869541659793845
0.9575630078048593
0.5240454798228483
0.229878563485513
0.2422555702884367
0.1977899141660021
0.827848766523528
0.05448736154485945
0.5394652086128832
0.02053160439477053
-0.2016317041561173
0.06450166426400228
0.40433578698341255
-0.7278256685309742
-0.10304611228293525
-0.6928378205649054
-0.15413776528784007
0.036349548575541915
0.48000909383997314
0.288284230951004
0.1397122681245403
-0.12717338707199743
0.36385718098135134
0.2949148301672947
-0.09445273890891731
0.05106604489151234
0.8499552931129613
-0.12254934306830845
0.5608458635442463
0.12712883557374038
-0.24830441821045446
0.564873242472532
-0.21037579953069524
-0.18206439730862434
-0.255158092826986
-0.35865859796598354
-0.6125388111286374
0.2547444788623896
-0.12034915261538803
-0.09796062845814713
0.37573184483432887
-0.2134028946003698
-0.01185831986944863
-0.8424017397105019
0.7918696145442979
-0.11675499545563173
-0.07715576413758042
0.3331884271263401
0.8887862216376404
0.00933671816967594
-0.24826689037949068
0.24926700065082585
0.263133211021059
0.052897322660977575
0.3945778676026914
-0.4634410663477584
-0.9275878780940287
-0.33259053791034643
0.38330466797118135
0.9791431878644294
-0.9204502689423142
0.8769138683651253
0.31800354876801107
0.13240033500623793
-0.41566016126276695
0.49400215608781806
0.6740872249518083
-0.2933411545097422
0.036312970072614886
-0.5441745105602721
-0.09922333877701284
-0.4012515989520755
0.05579090446500756
-0.26546685714933926
0.4705371204215136
-0.7562003887304113
0.8254854958482046
0.13384594224815594
0.6741871169172895
0.10579168250931137
0.5988692866761425
0.2824229012603555
-0.6927794980788886
0.18517970471097023
0.2055611771390435
-0.003073082115859105
-0.18332835092024202
-0.03449724773751979
-0.6971789267891405
0.13428761784521187
0.4688359665457159
-0.5428831660453068
-0.8123223473322272
0.05275050303613393
-0.7867037652960993
-0.5917062875262135
0.14265419915789435
-0.6683632025266167
0.38885346532949583
-0.5708524946947898
0.018503057969679215
0.5820052280162834
0.1166325109873865
0.22477798396998228
0.5924315519199476
0.3169229890120705
0.8221775293507195
0.09241306186275833
0.4084654408409948
-0.2602504034476085
0.17336845540211115
0.04814897476680907
-0.06547904728625498
-0.47594379441053286
-0.2969156329839878
0.9005616095510433
0.01660029665646645
0.34276386414022764
0.16243047631490304
0.045777648614772404
-0.7547547848717641
0.22202773743952764
-0.49356968422220593
-0.5345835475467591
-0.1427964756121128
-0.04844567585737347
-0.10510889439615458
-0.7232212862192217
-6.995232583223432E-4
-0.499688307586136
0.6811346515763402
-0.06158826948657892
0.13016623216246725
-0.2154692850198897
0.26665953984182034
-0.33539543935684585
0.075607215214059
-0.47926139201202134
0.6727809702137055
-0.49478082053582895
0.40681071018086257
-0.48814148847479244
-0.44707203322000133
-0.506058575966631
-0.20512650679221456
0.2045071700334109
0.08054428716312165
0.3914413507769169
0.285455039337586
0.4379693794534769
0.05461074991776782
0.39479662927542025
0.4735828531191997
-0.3245603363687657
-0.21492517412572676
0.17168895475182067
0.14195536347017876
-0.26705755813237575
-0.41866228601794897
-0.05968439548967863
0.2200299288106617
0.053901462056353516
-0.4581255688150274
-0.19935035858510308
0.2786557543159661
0.6245947786581492
0.010003972650265869
0.8192220014342645
0.3112342235667551
-0.4417348238866293
0.5385053371707361
-0.06684614845985837
0.016056667523664747
0.28360462588099633
0.22574592868708276
0.597139166381659
-0.3231030852026747
0.09514457148062672
0.07803429912242954
0.23633822051539055
0.5563494035473144
-0.6552816228338516
-0.7648974210457653
-0.04704692999875981
-0.2825445283580392
0.1195486333792497
-0.15806559643519036
-0.8526431661170694
-0.16251060513898552
-0.9880829796574822
0.023351782089264916
0.4152622349651547
-0.4136829957998549
0.048793851613636106
0.07524248544505195
-0.3678134119660482
-0.30219922162497803
0.05688912848784733
-0.5886905471982203
-0.6610695914967076
-0.1730851175375434
0.11133205531773127
-0.05350906804567601
-0.2411221256820853
0.47247371211336875
0.010402776847136863
-0.5617543017183483
0.08098536717846061
0.09444969860477193
0.06412542591992537
-0.31313058295351825
0.009084712148977325
0.15935489803397285
-0.26866155078221354
0.1520689750228541
0.08466200986599748
0.024812685428840964
-0.42091368069979945
0.43552877954587876
-0.2539980962625671
-0.09767256008921232
0.37370396282260665
-0.559193416548383
0.03422331708602441
-0.4368626519471713
0.33523573479438273
0.5790296130370522
0.4092461964137245
-0.1859560347985849
0.006582996464229551
0.21517294155070893
-0.5419678910570183
-0.4934693895421334
0.062235486516997396
-0.029013075971393576
0.4342149594968786
0.7666839887495298
-0.10292985326951598
-0.1053002017593796
-0.5799109329478637
0.05668965296662798
0.6834335081195593
-0.25946072535133136
-0.013811381385857524
0.6941820962922154
0.4291179830969285
0.6187528074271362
-0.14398696743792794
-0.5771467223631179
-0.38886067029302007
0.4960763707545432
0.4358722184983525
0.2772172743429685
0.13420678234297723
0.5996268443849297
0.1667982185505393
0.352154488180242
0.307883966292661
-0.024328455745280086
-0.2101313407654833
0.10591009523055375
-0.7588738277129174
0.00842476813508164
-0.38769997565761416
0.23987449750990275
-0.005950475075535377
-0.2110971521678433
0.2332957943155629
0.01520294641844444
-0.021005544366276246
-0.1796517241070654
-0.03453474331386708
0.21449784764415292
0.17832423472620024
-0.41418707489731577
-0.018251450873536856
-0.428232393830109
0.5646197477609234
-0.6576159977513077
0.5581340955084939
-0.35651797943294583
0.27313828965942843
-0.4179218068578259
0.4100193230779621
0.4020783357134585
0.1522199715743803
-0.21759909595874533
0.3726134363152728
-0.29621552780781546
0.0034781431313720135
0.2112259041217237
0.9850223319703532
0.38069083785091296
-0.32892750981455854
0.12268481584378184
-0.08844218968104411
-0.639962196028264
0.11412964583860208
-0.2809137869379369
-0.011601586224007088
-0.07452188142795872
0.7216748194493492
0.3014245169638595
0.15709277164469837
0.7885845592834465
-0.3326199400149731
-0.05062469779777412
-0.3046728907018482
0.058789934479592465
0.007870741812868023
0.07303023882049367
0.08213463801570509
0.24285583472575892
-0.6439254809085657
0.11906765645334383
-0.21005010921337275
0.417761464543819
0.25348792890666216
0.6048023352372824
-0.3507562234684022
0.5797534872549553
0.7462590239778358
0.630656701880106
0.32013854646810636
0.28095935949862694
0.2717916371896396
0.2261679967793897
-0.4912050619527001
-0.026157705044221352
0.4123321055967406
0.37585142707467983
-0.9606950931009984
0.7143240669130596
0.729167136470742
0.26874242792063596
-0.23922187724225885
-0.4351631979423932
-0.2102545554019779
0.771264563966621
0.01278437732202764
0.42609389152837207
0.22283474531935132
0.12739368044113986
-0.3402618429827699
-0.47330004538470516
0.04932351369402338
0.40447081180256705
0.1729176704459109
0.05218917922244837
-0.013284878201019312
-0.6255575434653461
-0.12103899882231776
-0.1833165747818919
-0.1365038636174674
-0.16052433485954343
0.2554994033706408
-0.5145142160056674
0.00448225757110754
0.30314382062085654
-0.5241318109729521
0.10443471329607174
0.125184822365342
-0.5850460396212657
0.017124242013054625
-0.13024278374824091
-0.5923221244985487
-0.014556551155322173
-0.0312213591766681
0.2064445196063193
0.091611136680814
0.03644485235972561
-1.007295801186741
0.12504616159910764
0.9665431133287756
-0.2861439597174352
0.7552665055380896
-0.6752857433584297
0.2414762523895184
0.07347269466515416
-0.35499916462911474
-0.07478942106370165
-0.3083042908032688
0.47892725762607957
0.08036034533723713
-0.16692874672982566
-0.08032155776142935
-0.0021217897446370593
0.021046168177028285
-0.5419774915205579
0.5902417984047518
0.2659067924249102
0.07450839214691007
0.19487805619423015
-0.7238960362499145
0.43735913547148975
-0.5029157320322286
-0.6113536049761648
0.14008372443029993
0.6311759057163197
0.10044712135590728
-0.5142921887911956
-0.15943457676521255
0.6688729484368791
-0.5363533085082892
0.16203199006229252
-0.5137492464819146
-0.12420849419809143
0.20895746469581405
-0.5033852183989334
-0.0027109088031554707
0.14699392479593087
-0.4087374301000932
-0.6004992702997303
-0.7354247382477366
0.2644891737904087
-0.6434802280213401
0.12563476115552397
-0.11662569046291194
0.9458757525212075
-0.3672365206174313
0.00874094296354988
-0.19608317454392207
-0.3066487135693695
0.031370620058933055
-0.2495123081916687
-0.10875262726167712
0.2278243200462972
0.2478056306736779
0.022511278117183675
0.2793515348239223
-0.14605158319710998
0.25700156838336197
-0.03700599377260469
-0.28924610542576046
0.7905818629633327
0.27693960975867615
-0.679481029472823
-0.06861087225037965
-0.34941102292233406
0.3215712505901195
-0.5379080083407776
0.29044680933601197
0.09170258043536439
0.5589070938851112
0.18174170844403992
0.017646081210408116
0.08549342415982927
-0.6326931432692048
0.10996882480107001
0.30889925262297124
0.600556523682607
-0.012158695748783144
0.8614423634195997
0.16163100997499447
0.1664539370009962
0.03636084501238224
-0.5283980203409577
0.6676893272305567
0.27668629771934705
-0.04245597208810725
0.8843234003291944
0.41261557717920555
-0.4377057009997659
-0.5097880939260001
0.15922722895576033
0.03786351790261888
0.03649233280840027
0.6476484541317981
-0.013307422134977168
-0.1550714263653712
0.5739764511183496
-0.10361810590147841
0.0832426329912016
0.01602683022904472
0.34617875346278926
0.11528880644435602
0.7212173525875116
0.32419997599561556
0.28638083696565686
-0.5947350308663505
-0.19879945029762003
0.5631092661693222
0.23995511829735464
0.7006799202014193
-0.23343653766256223
-0.19836317757282818
-0.4440393809935711
0.06610011918851189
-0.007925330286911503
0.05004764624468849
-0.3567862956771056
-0.033148295912216505
-0.46488779209457365
-0.25642883381104103
-0.35317130937564434
-0.23139403936135944
-0.08009175776585842
-0.07693120719730295
-0.2988217263653802
-0.15300014492997616
0.42961962200424303
-0.6112640105367693
0.4833297506619991
0.0739823805516446
0.05088056719088431
-0.6703084651930656
-0.11498525404416371
0.268454470178598
-0.28815793899127384
-0.3862167637980606
0.16070992454872274
-0.21981628957176746
-0.5641563005918824
-0.6868724605000496
0.11918145192420485
-0.6775757219248709
-0.9323592488872725
0.7792567099072829
0.3471031900052054
0.15223509280698955
0.6077084942277987
-0.1420662818454922
0.1565936081447699
-0.33283629661734765
0.28692676563838343
0.20427853813321462
0.2937966947952605
-0.30817997365143623
-0.1189217122258219
0.21031044230047624
-0.34157844517395075
0.40333166045004243
0.7571282032402636
0.2772228587540075
-0.08304265651024301
-0.9685651412428361
0.6136649059632583
-0.2516061642802536
-0.8154078021484895
-0.5926090584511952
-0.10657795754472532
0.01727308480313968
-0.566146790503638
0.25191704219439737
-0.43536372850310034
0.07255767057842182
-0.08698157589060143
-0.5517799018131362
-0.1026628588365387
-0.23332128128330598
-0.20079197503781532
0.18662533622834376
0.056355928092659185
0.1441731389839116
-0.8867883740553835
-0.31960474384322834
0.004140250897705783
-0.06442077723140706
-0.13810916108810323
-0.692928861401116
0.13663176264664212
-0.305450869916319
0.2592393776162978
0.05392809328233701
-0.6525516586416794
0.2637840219023082
-0.6365891030386938
0.30846140742462935
0.4889974988395923
-0.2783898604931879
0.1302095988522212
-0.32780564285210534
-0.7805840606447287
0.3978164277654772
0.7079397221651099
-0.6328623408972862
0.1749378384944894
0.057895497105399985
-0.6200710255729105
0.49635323532278297
0.8661928370315151
-0.3330679727817464
-0.002179071375045999
-0.3213357137274659
0.23510685849944346
-0.26120108009993814
0.7824239960959579
0.17837417726603422
-0.3921931036577263
-0.4437064518306876
0.2514766817497969
-0.010105416003839407
-0.35760068088556274
-0.4018985711340732
-0.0020617206757471696
-0.13314028310024717
0.33548166510160593
-0.08783921619715662
-0.24102031673114044
0.0037324801688003346
-0.2802274421859967
0.42225909495289415
-0.3801869561463832
0.19431970063949133
0.6951567482397718
-0.6443585542225531
0.19898842648140036
0.6296186185226843
-0.337505384559448
0.0790133744679676
0.30662153799698644
0.08053710422879068
-0.04450119659631513
-0.24648534474549333
-0.15413767385127586
-0.4822025695717731
-0.22865595438076292
-0.19168471432116785
0.07208714015316231
-0.002474710592006879
-0.20579761037383337
0.3793930951494171
-0.05282127203170961
0.07044956717591233
0.226655964938847
0.03762409322681172
-0.054509874789621326
-0.6929427681630805
0.8811620699155197
0.19680765712900106
-0.6064473934679845
-0.18509052033027645
0.2272541247543317
0.16111783971781948
-0.33349561007149264
0.707489065576006
0.6200929493844074
-0.05053635741867557
0.21927023764307074
-0.3575654176058235
0.6182239305994984
-0.12478798719208306
0.31702070604906935
0.6314903967858551
0.749472444000392
0.1458960074825154
0.27022225785006104
-0.42558394724823134
0.943569039329251
-0.18995651831169663
-0.6027100206283011
-0.022149219935830522
0.06327248969397077
-0.03131557215133085
0.18752841799179293
0.714828006267629
0.2773805530184875
0.37972625481732036
0.15514027412758025
-0.8402311001256467
-0.05320245786884614
0.16986499812811479
-0.7106301349926073
-0.011431875596237373
0.1033744882969781
0.178429551555229
-0.6440125055128612
-0.4146877728973595
-0.014588036127271012
0.36629428873939995
0.03231306603975159
-0.3782395744425459
0.17938813570676226
0.4054437935946158
0.08256756568392609
0.44969496361005107
0.14130321446953253
0.5290902543558161
-0.7362713868370803
0.03149864296437077
0.036827034474461603
0.5981263205849243
0.03240188036591385
-0.07017443348009444
-0.552426786986042
0.831538372558467
-0.4216673598943293
0.44541334173113845
0.05957816534083149
-0.11364673118907886
0.37179550597058475
-0.43409421272859117
-0.024738588123467187
-0.0195642033968476
-0.5584729752048345
0.7640863243371101
-0.4001172019648125
-0.2235245734103002
0.32125325328371934
0.6442829667567667
-0.5752246367703948
-0.06928330471791466
0.578987403719194
0.07237226044693221
-0.3481078449493621
0.8075410834052469
-0.4880398432290603
-0.6150809292624011
-0.26298130698504163
0.5084537598628948
0.12881695803670257
-0.07225002808697645
-0.19079854145593966
-0.5677030157938218
0.32568515778346496
-0.03967984123320023
0.03095717036515211
0.03799204388168409
-0.7940360533956633
-0.9434390228710812
0.1285522568619034
0.19378021140548274
0.34462917695489004
-0.13233275434924552
-0.9220534424919955
0.05496374383230451
0.5278162020054644
0.24570923610619955
-0.16532173310577225
-0.22357073316189524
-0.1237834943730706
0.46374302682231877
0.9450009630287327
0.19085592162929466
-0.4955925504618961
-0.03431050511143008
0.16714782523743044
0.7857863530418508
-0.19493681852652317
-0.8142829955071769
0.6420787955944974
0.20341321571255433
-0.3439067980190854
0.05312311615267372
-0.34946224559134986
0.18258317080023867
-0.026678873212966553
-0.28650169602809605
0.23896469628495492
-0.7198459015669559
0.4212171135491599
0.02688116358370196
-0.1809774536553365
0.27634084582459006
-0.02141021046080893
-0.5631173776369143
0.022523270946149476
0.9394739622250385
-0.07448838804146451
-0.023903015294146512
0.1807955428363316
0.0134307790222018
0.37313671709946306
0.49880724781004904
0.1535596317208915
-0.38362935171926377
-0.2771300559417653
-0.5921226800236363
-0.17892903868020862
-0.023610261563172585
-0.12704403032011768
-0.2526131584956284
-0.5558112287311597
-0.13314901811888086
-0.039266834570387654
0.19991909189491686
-0.6392093572402677
-0.5309782238654226
0.7830603610805532
0.1315825241862313
0.7136136856830002
0.46685462027311164
-0.8281940414669875
0.39194352009152655
0.05081516111800809
-0.3813725898096831
0.3545305353413295
0.28037758979148586
0.1131252164675568
0.12527873886054977
-0.34692456257697596
-0.11974491727444381
0.09070457118892303
-0.20692146966008695
0.42912537311455434
-0.2837883488003765
-0.4593468797799948
-0.47454491411760225
-0.6542632667397866
-0.5267395758270867
0.38608680198736467
-0.07071030977282466
0.3307311935664268
-0.5353078595456694
-0.4031677865268194
0.7928289025359518
-0.09194595311618292
0.4858819040272216
-0.33798182128595666
-0.025602308717871024
-0.59913504069599
0.45471350996809445
-0.5526539058931201
0.7105030212049483
0.3586100351264574
-0.3351057487108037
-0.7535053729475534
-0.2776916176852434
0.21516966890133535
0.4161522197698425
-0.019239513230651928
-0.3033346588355429
-0.03562682158863125
-0.20585695051875777
0.16681327492568765
-0.2823342891541193
-0.2932290775019222
-0.1847664250925557
-0.31667145869379815
0.6050033484579337
-0.15065881233744427
-0.533454183522139
-0.11205404851083767
0.0683403978645561
-0.5482644895116952
0.19668335107625579
0.38423910696002794
0.08365993641731403
-0.22435073771631237
-0.10892560740036183
0.10211236019242909
0.38893259639013644
-0.4157214788808258
-0.30845166311536565
-0.5947779370948808
-0.7462008056672907
0.6091259592002111
0.2582374988495105
0.1728224683283881
0.002032381541519135
0.13763234510590638
0.9619551329267859
0.8420960622257412
-0.44684251751728343
-0.4045520818869984
0.8928893892992726
0.13678367929352986
-0.6674708945212419
0.09296984197452844
-0.2147894417111701
0.7474774547599957
-0.2346327018709403
-0.3243841928573997
-0.5754431946500408
-0.6730438332079226
0.5917632699386004
0.3038712350721364
-0.16352053398028032
0.4783611099639936
0.5252271310365294
0.10141338672458211
-0.0943809269332111
0.18665454542367693
0.22921442032322026
-0.5408947014189882
-0.6269656713998609
-0.1441565146740601
-0.280321030393631
-0.5741686378694035
-0.13153666896688354
0.5881447649781422
0.15170942895674222
-0.42384131034552797
-0.5692936528248279
-0.27441766359983844
-0.0873594371697034
0.1777583202784241
-0.39866850670962806
-0.4989818364168509
0.22488583776877533
-0.6759558322616734
-0.32741303164498325
0.5179918439330342
-0.7004673124132387
0.3518617554815473
-0.7611492549854753
0.24795403775492053
0.3236254490772996
-0.02126078318279301
-0.3340230285676695
-0.039756779502556405
0.21309416232447065
-0.5655887943749961
0.4465680473822432
0.8324008558283339
-0.058809971748972734
0.37641888901910114
0.8359063238404094
0.5094852929165776
0.6370834228667848
0.3644862582241193
0.26045391665081563
-0.47280201043631276
0.19213872828625733
0.03962152317849373
0.6708812437432699
0.0050795438319932995
0.054026173156855095
0.01010105052788972
-0.0698331144654124
0.3661623523506889
-0.017099599289651324
0.26631717023266743
0.8344651387771768
-0.17144959843186558
-0.4476147654783148
-0.36562718801141236
0.5165160643396507
0.34168492980026954
-0.6711949256179749
0.13941077149650957
-0.7654699683458864
-0.3564915228243756
0.47468391531742316
0.07025642523581774
-0.21168249303058717
0.2039310525230853
-0.5092906774557214
0.15491091034814997
-0.11523382925595249
0.39842295265549166
-0.6103207266354385
0.5426677920813232
0.11636072635617437
-0.7447871337713501
-0.5482118211996667
0.026287298452286355
0.5597192274552046
0.12342782354442705
-0.029159857752300344
0.6177189863907793
0.02260880638412499
0.4481966068603662
-0.2994276237820165
-0.4817875622133604
-0.03439168619805322
0.25066841819379815
-0.33960988797725045
0.5600174971589169
-0.37579506662621587
0.26221704352157216
-0.5675983396830853
-0.005503778664124548
-0.1411519184198481
-0.4130893720962321
-0.12489615170709212
-0.6570129188607607
0.027970221850676446
0.5728891271275033
0.7091582446813274
0.7383596929192564
0.11448051875542231
0.040106918598194485
-0.6852241484570001
-0.053441550048208164
-0.28827536197838133
-0.02808080319011863
-0.4012258032843695
-0.301508162313604
0.10689062469243993
-0.18509969959603612
-0.14991811439461245
-0.28841606420102917
-0.2546825111986949
-0.3307064083389717
0.2526011356984865
0.3852878358634093
0.5924758736234288
-0.08436931002228787
0.8633352721119751
0.14750608676695864
0.35312199532952526
-0.45291353572955095
-0.029955465382360824
-0.08983737021416739
0.11817901420238575
0.5573997800872473
-0.11417008844890997
-0.2866616658752002
-0.41294884681301147
-0.062280854152300336
0.0895470802994377
-0.09362557407144667
-0.13022667765477913
0.6479874745510205
0.23273736737674577
-0.4888778519485414
-0.3585231741431073
0.05642005811740303
-0.22268894172521958
0.24589989295774506
0.1921849207184516
0.028211530856859568
-0.16487348996160855
0.1303938233584212
0.2838853915338067
0.005572872030862208
0.12089264992946247
-0.15664771837466018
-0.3613004754092807
0.27884638491503044
0.3283145544051649
-0.4089588967168166
0.22747742094785217
0.2452244179121482
-0.07278889237754316
0.350487771092874
-0.15269790927579374
0.4610833310281761
0.6257994682291046
-0.008690767530034949
0.35482102845416597
-0.13376259024527737
-0.8748323951776309
-0.21817954784254612
0.08826584441396448
0.23547137983540573
-0.4283868430348889
-0.34551469131417845
-0.15522362751569985
0.23256621195351768
-0.009292647998259684
-0.21369799002087547
0.2633902616432462
-0.20505836180225812
-0.43633738769634367
0.659927576145824
-0.00643988238318749
0.33018929776795625
0.3277259883871806
-0.3292983238788936
0.38442745037762427
0.22076866853852084
-0.5306852815275407
-0.24266691111643907
0.32433068214259403
0.049275312948250605
0.7850702278133788
-0.5523408363420321
0.14138911931985843
-0.8399294908050533
-0.28124165505232784
0.23877472887424323
-0.32838132177891766
-0.3825937415154278
0.06910386351633668
0.33945488553628744
0.22785319169281612
0.1537948117444916
0.12509088976090332
-0.650358734387076
0.012725909051563344
-0.05641935719172386
0.45144291544756276
-0.2233700424145031
-0.36583470589739275
-0.41697890395325343
0.1273157850884844
-0.5525413764465813
-0.03756442085972883
-0.708441716347577
-0.7146887412836973
-0.2934459942040827
0.49695905107333715
-0.6865716096587181
-0.13181349065263023
0.13703724595150307
-0.03473983952959259
0.19035045914573834
-0.06579712425514475
-0.011799344714802817
-0.04859708045279865
0.0030815932261705203
-0.4386173013018693
0.0422065641788488
-0.3742875499255839
0.586685801594267
-0.13562282994861374
-0.5759569470076321
0.09634295287972483
-0.22454048141625216
-0.42921445931201335
-0.9260647791036516
0.51682597334739
-0.753654362274659
0.4618413030885691
0.45196940379923856
0.285791726522738
0.10943472098367024
0.39878372120656785
-0.08848431824887204
0.35461121449875355
0.37225071978272617
0.7280296063617893
-0.17822327013116912
0.15312448305142978
-0.050584079998518994
1.5807163813286174E-4
0.4719308859001168
0.43815013049637497
-0.0020328100792069703
-0.037772288905807805
0.04236011306389742
-0.4389977667081195
1.4875118160978529E-6
-0.43193945249964394
-0.6372253901725222
0.13262516723634343
-0.4440463414226884
0.7728990078079959
-0.24208031414264897
0.5807064104847427
0.031256305752925484
0.06406250486031728
-0.041823992590573456
0.6507790595917476
0.24689149591550594
-0.007081519561726424
0.12532601192710932
-0.016258991541927004
0.13091780858781293
0.11162360594587806
-0.20985057222917183
0.13718268992895388
0.7115066552705607
-0.35012400686840717
-0.3008461751544663
-0.21533644530934515
0.9447364842674149
-0.32169666840842714
0.2547701892612857
-0.23541625175514447
0.2794256675186012
0.37392886571869866
0.30978483965288384
0.3447789973698697
-0.8975642409669217
0.5297065311284781
-0.5117092320852867
0.47835108786342273
-0.7837148195260442
0.2484092489964866
-0.4006700313954027
0.05067424682034283
-0.08054943938563744
0.743068183803364
-0.07213972609789217
-0.015982645111237856
0.11991724731457709
0.2675199789972334
0.44395661913107615
-0.24072653707122327
-0.2074496506501854
-0.6209495095071503
-0.12279594677222538
-0.2599297299071246
0.2832431656673178
-0.28940840370761367
-0.03247015069109327
0.481213507699078
-0.5948799711235316
-0.05762938020601316
0.5612302652382152
-0.02176981283468482
0.33832264771995907
-0.5181252223229372
0.5188740503885789
0.2884150852977573
0.4782448355758776
0.07979242967292122
0.41662400579510994
0.8860213168106859
0.21986019429761405
0.3558209478084956
0.12037281508816133
0.1091090466460517
-0.125471007262141
0.7313027593032438
-0.8372074869586963
0.08408715910465696
-0.20812989380563302
-0.5089180246411458
0.20280006299604347
-0.7432777979631638
-0.13844763376572955
-0.018052602642448234
0.3556288685812245
-0.7033143239059775
0.01856243709472183
-0.7619859970367501
0.7826950266246959
0.11487550858477669
-0.4167729615933261
0.2806869967085349
-0.15581395934420758
-0.0182363301034697
0.20935026021369285
0.17962214140331167
-0.01415900275134896
-0.3565182586558089
0.6177237904826564
0.002640720503278682
0.7167904843729538
-0.1283173416674971
0.17279747373609655
-0.12216913233446369
-0.02418520783872352
0.26075287559380633
-0.207147668504151
0.3769636889834743
-0.3634191662115952
0.8617405059708787
0.4095365011749359
-0.5757785597570427
0.49535646351061813
0.08732645231755687
-0.032957323558687635
-0.07925496569370905
-0.5437169714682971
1.0372967211012396
-0.817819574542017
-0.2993087260179462
0.6399719402707295
-0.05736885293919758
0.7251740666048434
-0.5071500595842974
-0.488177216614614
-0.2334790961706652
-0.4019092190154566
0.4849451550209839
0.09442448607326603
-0.17550867397150072
0.08349711488041833
0.5995494700341364
-0.30945465063816724
0.6932013106922807
0.6228476244382847
0.16386147938498508
-0.5787878734707546
-0.37327022685447775
0.5431723223017492
0.42964200414467113
0.6378275812184614
0.22215840113628613
-0.24731888594550022
-0.09494599481786226
-0.11311156445307838
-0.712753532576218
-0.02918077586242729
0.3222432592359393
0.046237380071354806
-0.2604593264790239
-0.2717787299153741
-0.3411652215066654
-0.0011321074649036644
0.08272221937620489
0.541161466935051
0.10347540035566039
-0.5909874381464891
0.44493725108016285
-0.4686212653000289
-0.548520306021157
0.5000562165831769
0.06729878109170565
-0.25676741424513383
-0.5932634376491147
-0.7685473743266737
-0.2608125965361274
0.8840472120620659
-0.0901205579199554
-0.049467018069293545
-0.6813362990873137
-0.005136351405725659
-0.3579161264640677
0.6519127222609872
0.23234189019832108
0.5107984999523469
0.0650395598269301
0.6993767697950128
-0.3053766497789467
-0.7751377818126846
0.4843155992730518
-0.2259933334524069
0.5786788460322665
0.37923535805376674
-0.25807465101783433
0.3794363126881859
-0.5071597216511986
0.27442694359860714
-0.27440697673713044
-0.6533697430256026
-0.07739985930385507
0.21121526582202987
-0.4900950798339908
0.24855622062390426
0.02069014711927422
-0.2781296794660245
0.21587284026342346
-0.5970796368397792
0.35281007482042503
-0.4028640671635416
0.09731801906679768
0.17737470543704814
-0.8685287005783302
-0.7120719366797897
-0.06189602024101981
-0.6065597341726067
-0.5301166833861408
-0.5456412808605551
0.22320739602111284
-0.35977193852409617
-0.06335404840165415
0.036043268617259705
-0.5323001487902475
0.4064643154049101
0.41303414614121176
-0.420005885726111
0.41679740667371123
0.16066973930041134
0.36855042936577675
0.014850637753504703
0.2625325174996782
-0.19358162315728233
0.31013972694402914
-0.06650534306662714
0.5582755262466214
0.28197472440588367
-0.19110634000775706
0.5466709559994514
0.06816665215006035
0.23215250175281366
0.4611915192753404
0.22306341592791523
0.1812568048951787
-0.5832353038993993
-0.27418247549490316
-0.018329650815427173
0.15785735469424866
-0.22979932888188026
-0.07086701376929205
0.4424949338218183
0.5413896215090831
0.6975773282663009
0.012115900876707386
-0.035297934768697914
0.07786629181940796
-0.34285099505753747
0.33305116100398025
0.23992094775500922
-0.6150892200407424
0.4529671457990211
-0.1980938961991392
0.13501172021814534
-0.009442444430510316
-0.8352242892647382
-0.06956454949498081
-0.36073666301618734
0.19206482813242437
-0.15892105344855856
-0.46361435426493947
0.14195186997108566
-0.34025761312499747
-0.2301302151427631
-0.5560723957673965
0.3396326795596396
0.15521750331944117
0.08284949279970244
-0.28476604029452474
0.7901207196578444
-0.6841169827776652
0.8957841660702771
0.3116863779204089
-0.0204911862329914
-0.21375653922405446
-0.4465135762099687
0.07061838160273207
0.5819530566007464
0.6004590467904924
0.1675761417933137
-0.04337579492912701
0.10539476730864414
-0.7215425629019618
0.45553228429345294
-0.5770524491274324
0.6617340542932906
-0.12957140530853928
-0.7939946489947586
0.2360206224967144
0.5122125245690407
-0.1535824031376224
0.6131213533412972
0.004959112341479499
-0.29715564906441383
-0.21497632937756256
-0.552617399102532
0.21132025847333968
0.3141947457471842
-0.07151492763145673
-0.18343310046585448
-0.13997005121072553
-0.32804018103281674
0.04570318982230126
0.4060236159955797
-0.16856273868712912
0.8084756229581541
-0.31784391739349865
-0.42116454758512945
0.4960024462925677
-0.6172567636722843
0.5707720754923977
0.020580377423897844
-0.13959934309890043
-0.17719907023565795
-0.011291925181920681
0.3019753341055263
0.7015614559838097
-0.02517589739660194
0.16854845813170805
-0.02302829123165262
0.37368360290531655
-0.13381823914509805
-0.2846986238540165
-0.12693737776128855
-0.4750114288272128
0.797693130151281
-0.3036804884462766
0.13344121987762975
0.2293788339935372
-0.3246753077808746
0.5361129122199582
0.13829827468443973
0.5766958489403294
0.06226653402088789
0.7843547267254966
1.7183035712076133E-4
0.16237936640987982
-0.3223408957780667
-0.5011524513121279
-0.4297368100957879
0.7138942384619421
-0.7032110641230878
-0.20565395451489132
0.16015235794308091
-0.02716236196338273
-0.022011138354017246
-0.3690994608423882
-0.0751666560326295
0.5981912569597617
-0.011431660969865476
0.05702740581211907
0.3306216230808908
-0.2555855202755518
0.5662334259630021
0.8163857751952948
0.3162190966464121
0.7205438508028096
-0.5891980497889183
-0.5265178508928942
0.4287396088802103
0.1869777195257295
0.39318326748065896
-0.9284863416953616
-0.3101909788118319
0.04331770664410539
-0.25344093349453767
-0.6672395387155898
0.5540600719089058
0.28196551961608984
-0.007587041981510348
-0.02098577790366607
0.6818921762562947
-0.12074554630261869
0.22112432023771733
0.3318049988582571
0.7375311637789278
0.5033865566895483
-0.47325915024530385
-0.5487079129999759
0.15499622543321112
-0.6434373054127507
-0.7838988325050953
0.12328742536220716
0.5230433159509664
-0.8068436525916961
-0.15826895980187605
-0.15428751208584524
0.33479443922462077
0.09281882303512334
0.4989968895014072
-0.25653735109035813
0.099241650610792
0.3522535896817708
-0.6912379698075776
0.10907992338394068
-0.11944296472645488
-0.04006107485922328
-0.23155587145404832
-0.2190764368758299
0.15085344716341362
-0.44256092790277
-0.08086064666812474
-0.009891048588424156
0.020283574648171987
0.31796347254299606
0.599945070095336
-0.08268043772649147
0.526985845170739
-0.1826280397619361
-0.440215863572222
-0.41305389289968797
0.1405994381770822
-0.3645833827428704
0.04612147611740802
0.15760198149947677
0.8866354447104856
-0.42196101375070405
-0.1356732845012013
0.004773038922635697
-0.9953062799024043
0.5860824069758269
-0.0856117664399737
0.02166550977645576
-0.4955885058699041
0.011403737006562498
-0.5853580874176395
0.8079701232257565
0.6254169898883926
0.34591185759517645
0.20503289202476094
-0.22074576798521028
-0.4914004339756258
0.3862892816416281
-0.027732775237662533
0.041042378578450694
0.09734089894538911
-0.41538917294322975
-0.21451713717086307
0.20480129298069294
-0.2276594193186421
0.5419028917071547
0.4995440947168083
0.11077732527918183
-0.07346917520289653
0.43755870427027754
-0.4110593651107223
-0.06369549836432431
-0.2382828319699115
0.6637845104361042
-0.11169781059575001
-0.5426694964310357
0.724501711703941
-0.7294496327825559
-0.19138027668199975
0.3881248828888523
-0.55697507733891
0.03082136315271644
-0.09178809077574179
-0.2093670260628172
0.02042380600360877
0.2533564807030284
-0.5111621694245806
-0.10088411664028125
0.21416173023294782
0.5733387756340207
-0.5002343669809609
-0.344409483944885
-0.21080078474015507
-0.34457300567304794
-0.5258576426139705
-0.18487540642656167
-0.47911553392122525
0.9057099070272939
0.03941759841542847
0.37367488829233675
-0.6062217764913719
0.11597925125659822
-0.09501765538847452
0.5601128169925007
-0.31211955656729096
-0.49122605796823393
-0.04194884572107438
0.465607844702253
-0.026603418517123223
-0.026149957015769207
-0.5100322674541363
0.48111845892324956
0.45288200427200875
0.027507842279326455
-0.3714977643623856
0.12140512993002714
-0.2067543888546564
-0.9077874796078115
-0.2687741406174251
0.33875035789325714
0.29170669727252985
0.29021926967943423
0.376043116707915
0.16548036140789646
-0.03835118457308641
0.7669116315374399
0.0898889878851955
-0.3704865119132792
-0.553231298662471
-0.012478676587092896
-0.37634976159115774
0.5693899081253737
-0.4592159643236088
-0.6353380313539649
-0.3026131583610141
-0.07622917411365485
-0.07414759923106917
-0.5447418765778739
-0.635371197432484
0.5451232068567615
9.62980334560215E-4
-0.1936275931821828
0.2817423395788282
-0.31142694727655185
0.4835867624760827
-0.8847354139734547
0.553150226406586
0.004515470506724406
-0.12461744279034037
0.036151852889918526
-0.12090302115876311
-0.7732821543327193
-0.14298603177993316
-0.2784238172498615
-0.5597667324881261
-0.7842214421211172
0.25731905582964065
0.9021251710018595
-0.4599806563347534
-0.4066535028817936
-0.796422607987433
0.38271045151142435
-0.49615142598921547
0.08848438541923684
0.2608483878326917
-0.1194771695922022
0.4227116632987381
0.5025414586696786
-0.015620136920193706
0.3553425457180267
0.22650872136883538
0.6813136934756296
0.6815608827650214
-0.373270904667111
-0.1970725286250422
0.3532863639747007
-0.5552439052310668
-0.24530065410083426
0.19477129147425443
0.02788349730060713
0.12657711614424277
-0.5510266469239709
0.3368176692322702
0.4393460617095849
-0.7563163306299238
0.08748876809725262
0.5473226674893246
-0.5676646630127035
0.280676042565042
-0.3601623710109577
0.6442432868391801
-0.116633619220387
-0.7243984757562796
-0.31487785130775103
-0.2843943461789421
0.9299847546043783
0.07824691293436004
-0.3587851339978676
0.21255703669629
-0.8687227254871313
0.45903757229184783
0.6235947009984198
-0.1621762357032485
0.008904151566563467
0.2364640682534449
-0.3151663322715167
-0.7624464130663117
0.1664854351415369
0.2609395902308651
-0.5645762358062777
-0.20007072039398444
-0.07496860593707821
0.05675053417288434
-0.38549524176725813
0.28298688429764474
0.33868291808962947
0.060210784942614226
-0.13997609464993255
-0.09745468435447824
-0.36952068691431783
0.2687973049220174
-0.07094916804234189
-0.17111820672670586
0.6098940689104778
0.47737012636874765
-0.2100255193272682
-0.49225753497237484
-0.09776163132640403
-0.03349149772906641
-0.1480015829804366
0.5745174908017276
-0.14821510621115475
0.40667674742726345
0.3610730233703973
0.39758287969001854
-0.29419772364838526
0.43131489635188824
-0.5849515695595962
-0.032311582308639175
0.4121552824630583
-0.2128386555577969
-0.4084110634551369
-0.35406666147674526
0.7319156515957532
0.7290989928196888
-0.5885773058174906
0.30504806884508495
0.41839804043086715
-0.3627583317133669
-0.6415358647577998
-0.010247416312730429
-0.19032881875689878
-0.7780588513969686
-0.4527743818083584
-0.11414540888776481
0.4314320642284437
-0.740656623720945
-0.2825549028736004
0.18969599559896627
-0.17970874546427873
0.45248711147844145
-0.7873467866613628
0.48958867764871455
0.5840041747958293
-0.5033451426732172
0.07230507069349779
-0.8390352456881789
0.7128615247789538
-0.22217657621960457
-0.0743868193463385
-0.21351312010389634
-0.11217828528633625
0.29770173066175043
0.17853834022061427
0.31057012739820966
-0.09248294618150721
0.49351800472828455
-0.47138447026600216
-0.0708848354512466
0.03343070632574163
-0.11975865402587904
0.3469461602287046
-0.12834883878880787
0.6408018898452502
0.755314513893818
-0.3110568557725406
-0.07021609874148843
-0.34535649121239353
0.6358466232869052
0.034939588359590656
-0.2801535638222509
0.1623287011465575
0.5342933484598278
0.37294277339362536
0.6642247565750451
-0.13227608840675614
0.3739858559815499
-0.2544051389718013
-0.7071561543673649
0.05717900955480326
0.11688049975219539
0.013472222206522777
-0.6875837599959458
0.41342011350345687
0.8347107267105516
-0.16187373239558478
-0.11803928868238384
0.09983358206360127
-0.14196783073011604
0.5959729125104004
0.06920089359773596
-0.0029429904736151258
-0.2937221675720326
-0.2667149163483544
0.681319741001796
-0.10916695096668207
-0.6282547603012173
-0.1693908021681337
0.8005964885410546
0.22781696326837575
0.13448942854319845
0.21512096069255082
-0.3965192961066587
-0.10353233560583286
0.2397794416546043
-0.03184312248148746
0.42890300896927447
0.7431973670403305
-0.5896250549811044
0.41140665460126125
0.2207140464539895
0.005796261225652688
-0.3248580702657483
-0.18947666962138776
-0.03387477032556374
-0.6338305015226078
0.04763573196698001
-0.556952003776528
0.5210721100981581
0.29917566783364435
-0.27794167376159484
0.32915889588968905
0.33941587101433046
0.06581900021378118
-0.10281952706229291
0.3175134368706407
-0.05899038013406254
-0.6039656784145389
-0.6518251759629115
0.32213177087932465
0.017588810544216883
0.24593730422657084
-0.06838071212151153
-0.024180003752008683
-0.5397293349517853
0.07836268229267501
0.274014196045384
0.4448976599226484
-0.2879837077085535
0.45669430666747773
0.23315048560990181
-0.7686644739888968
0.5352127744983555
-0.46295167047623365
0.5210559727871168
0.10715303453484715
-0.35700015442730987
0.26495816240868764
0.3123398877198472
-0.1761696138851902
0.19335947535892725
-0.12112562492436219
0.06852638262055699
0.1808953500401255
0.011946977045478827
0.46623979620260314
0.32979921723180516
-0.6519566197847102
0.03721769459584301
-0.7800493525995474
-0.26401296080869896
0.27566508874421025
0.37236378652919055
0.9062026013251413
-0.31006096860745314
-0.43173629004075986
-0.5449739780399867
-0.4286849308573727
0.7388350690667295
-0.7542077909613962
0.4558568351863168
0.6671894615389133
0.23118280671553276
-0.45445316329654106
-0.3939528242760825
0.07689842497427168
0.607530438008892
-0.8645479898668365
0.11339669205073966
-0.2534726941651631
0.07608097456702412
-0.4305652624842312
-0.36899497086056343
-0.7122977547503916
-0.04982955512580989
0.37822430347049407
-0.16460863706205353
0.5698760461448101
0.11433839929750622
0.6486597736806069
0.27288883067463343
0.3046632605587545
0.1682197458999938
0.024445807486708757
-0.0026580248409882046
-0.26534084929691243
-0.4104291179525079
-0.2359151145649766
-0.013743154519404333
-0.41928933604337787
0.5252067310541789
0.8863027019900549
-0.19329590133656438
-0.5650934684054233
-0.11732049003729185
-0.20673055866515966
0.13047773050113654
0.47675115043985467
0.5428465877302873
-0.9160367153588603
-0.2884897679266217
-0.4351797764277324
-0.13054196499041992
-0.27144655639577375
-0.831473854534696
-0.28393071886831456
-0.6838123929609765
-0.04108349855663237
-0.5366801684927698
-0.46970787954267235
0.7344817863063042
-0.01977511617011607
-0.09243271383917029
-0.1683721663143386
-0.42235423088453167
-0.21271257604654736
-0.037722592697264634
0.4787298694696688
-0.07994659545556229
0.4612546618908143
0.2018289704258649
-0.20605984318715054
0.5293819517494939
-0.2278346989150708
-0.2568713720131055
0.5789396118985478
0.5051320386444099
-0.7233085769870163
-0.5723604140021018
-0.4904958142124104
0.31807626544687584
0.06585102322762199
0.16043676905207604
0.23776941439536656
-0.07057309185215943
0.02324445075083903
0.1103779241782833
0.021630548642805225
-0.5282038507343129
-0.10826140481078828
-0.5160657082434371
-0.3994636142476513
-0.48363994722686365
-0.5756588636708335
0.5249934357292783
0.1723431516244687
0.04735154983616674
-0.3172346469462267
-0.36661969819216944
0.3606555959154237
0.4436358683520796
0.4007546978586194
-0.16544606918862914
-0.07566502842959932
-0.19620702253162703
-0.9703592505789663
-0.36975229752829886
-0.21557891777740257
0.5418596224429167
-0.866581822220719
0.742183983393274
-0.14657186037292794
-0.28773213222985117
-1.0566490126529073
0.2659682897108827
-0.7709860677126097
-0.8971421200231495
0.2956487016955348
-0.43632282927456556
0.1168461125452277
0.35247192106652214
-0.6589397252894837
0.025036396745319413
0.5152260639188033
-0.09167195107600026
-0.032919992696089
0.5217918389666013
-0.2918303398700891
-0.9136961414053014
-0.8197660047111096
0.37801391827763353
-0.1210003284361213
-0.14467555204898708
0.23906323957246334
-0.5053499049835871
-0.14470870311448344
-0.2263569526885546
-0.1919608387003504
0.06766234755073078
-0.6065970412320788
0.5436053310084616
0.011585790958736686
0.11803836158254832
0.013875832219973724
-0.21439408888627773
0.1840808985318213
0.192342075956179
0.08146691988079369
0.557452306461772
0.3846556888513304
-0.36855982778966345
0.014312291853681436
0.17761852107602794
-0.05962097079528095
0.6135400327447607
0.33885818934492073
0.7573695104190948
-0.05109282725973661
0.5602465363508241
0.3660321533827603
-0.5728415490744465
0.03901989592241095
-0.6224001879705328
-0.9403829209074357
0.36410735907861425
-0.096244093068095
-0.36358649875712135
-0.5023947415520089
0.9029706305009885
0.10470537000883402
0.1821158956760479
0.22866301870636807
-0.09484674228805859
0.5832770776029207
0.08164266431941247
0.04293664733427183
0.07804106624173848
-0.09643933737985949
-0.3797559655857131
-0.2404512688209236
0.5507256080425865
0.16619299745410887
-0.3050506977566275
-0.26179913131054555
0.011170365962425266
0.144562411280432
-0.38484457938870886
-0.3699573340910581
-0.3107132557971827
0.36496413866517974
-0.26153260916014365
-0.18097412833907356
-0.14486481923356875
0.4093943448272994
0.19588661100184068
-0.07461136773583599
-0.15097202869135107
0.4540856188116458
0.09253197693127246
0.40220564262367453
-0.481485724374096
0.28566652642294865
-0.08519578712880042
0.10728575898252879
-0.21630219683385288
0.20204168597541905
-0.13023690532629717
0.17478995853284107
-0.07521654510145526
0.2996629180418008
0.043816696463042065
-0.7198650932108996
0.2895320944472506
0.10831534073361249
-0.36443666921024787
0.25046683861758057
-0.6418778217174335
0.3883145933701647
0.6567200910394745
0.27846800937452565
0.13824688653989445
0.29663822186924516
0.2425015300894478
-0.12592928086763433
-0.5232855686014075
-0.40168941043960427
0.7815873936680017
-0.5321415593582088
-0.11024960851719912
-0.17001906678663706
-0.5468086140665379
-0.5430729166154651
0.14854841880818875
-0.5850773999349611
0.4939114848116204
-0.04760060942939648
-0.1380554106429377
0.0705570363266429
-0.3702902177225068
-0.42386454535771645
-0.07487505335294908
0.2377713015397965
-0.20414391543867827
0.049364762000970064
0.038890909323592404
-0.39623795023101016
0.45360808899121924
0.09899034514851113
0.775417421977247
0.3162106144018187
-0.4551912325420188
-0.31166588938911666
-0.08702936141416662
-0.28899801886324517
0.48893831966100254
-0.5715676466578068
0.42025676193824735
0.8495195391515233
-0.7775053995193861
-0.22599468735728606
-0.16049715572531764
-0.06308665179081999
0.5332958752023738
-0.035826702524101695
-0.1157521163501174
-0.18212663819609132
-0.7759786579291327
0.6342790566959451
-0.1172491499139608
-0.4094825153322392
0.10590217356952947
0.08083420096116234
0.397980991698296
-0.17899302874408743
0.9261660691005497
-0.13329690344514333
0.03468563324645438
-0.662623949818106
0.018642975670619344
0.5127157660916053
0.2306062525822381
0.6388117009023836
0.1199692616270095
-0.6209369798575258
-0.044705370422003454
0.210732750523143
0.11956622861570232
0.30194166831322444
-0.14697002374452628
-0.3261401417364247
0.38198695939356997
-0.2605846375230185
-7.229412151745773E-4
-0.26909983690295014
-0.2195591575655167
0.6289255231735762
0.4866962806179591
-0.6323515833748381
0.006539911612595817
0.005155656171980966
-0.705797735964554
0.28019199632804026
-0.039806995198904516
-0.6653819055996217
-0.11191924057870503
-0.713988809419283
-0.05739698169130082
-0.18761449102680416
