-0.46927198860989205
0.22853627360539575
0.0498754357172424
-0.029737272707494822
-0.262661675090912
-0.6249811766714154
0.7352663956761059
-0.20107346599633869
0.15483513876779664
-0.6244345806242013
-0.41172239785412656
-0.1407031782160364
-0.21246783219352705
0.0014110464500636244
-0.14664767969546322
0.015349769425775706
-0.015830945926807893
0.48887683120683667
-0.9377070830293368
0.29199491133680566
-0.12712230242303213
-0.6037758187045771
-0.5852422846218258
0.09829134201640977
0.05812163740081455
0.4609678281649814
-0.10078253897641831
0.34038967274659115
-0.681904115719209
0.4226819368484961
0.1548783636039095
-0.1926914956665856
0.43584791351021834
-0.01952288887929121
0.3702383084202636
-0.1226858632929061
0.7209422126736321
0.7174731218908312
0.21593295477539665
0.6073751522712407
0.5113586032643822
-0.1167146022056651
0.057089934170297174
0.1112970366196232
0.6700620678037233
-0.23453985032606428
-0.8418323337592588
-0.19434638090064693
-0.05156932743610154
0.17347562698385588
0.14332392933219829
-0.29624563873240517
-0.24690404802707844
0.05991865754408743
0.07825666559580313
0.14062780964181887
0.17116638549866803
-0.1478929995149637
-0.45067375433532053
0.2832068055889386
-0.010089000155867667
-0.32813805903832194
-0.21759797199325714
0.17450163478600023
-0.7954232552004494
-0.33592785517504853
0.17611130484490956
0.16506509960147941
0.04572044720642077
0.32224414963470394
0.2069750482005539
-0.2719066561837503
0.2948024684940538
0.14792953582129797
0.031797670567499825
0.37172290989164347
-0.29091790949714236
0.05173526601894507
-0.3194559171063488
0.08660169719453159
-0.3798053044756422
-0.22783024007589314
0.11555597290138375
0.3096202970968319
-0.10219553591932018
0.14731577023041398
-0.178363037231143
0.4355825551932885
0.4161101247135768
-0.8357461190854469
0.2464564471835351
0.06923860041887098
-0.52913115514829
-0.6265083550409402
-0.18279799616704417
0.06304853351712114
0.06266236130879999
-0.32277833389998667
-0.17584755456943724
-0.3109978119086474
0.4805265738662864
-0.00769713639595393
-0.3513375082004062
0.4027011175840608
-0.21485914646203286
0.2861219854693995
0.38511211564310455
0.46838031169422356
-0.6009199919457429
0.29471352609279955
0.34548864540304725
0.7014005691960672
0.44825950925990365
-0.11503230508417817
-0.36838635168972256
-0.29631015270441907
-0.48774386654092494
0.20647502025950937
0.25477494281562074
0.4855047887735592
0.4971434923551802
0.03144626964002106
-0.29402377623532805
0.10022065625629928
0.21720668338360105
-0.05558582026561243
0.5231917746761391
0.24551339871212485
0.12390852602721669
0.5076007737642607
-0.7911858792728933
0.196758898863709
0.149135224732311
0.18622566238698168
-0.25211369124951544
0.45251103120861436
-0.5193914866612591
-0.018892286217685017
-0.1728492584487631
0.2395547176183993
-0.10747442990602996
0.1545248476193789
-0.35667583932352065
0.6367325499131236
-0.14572083806879366
0.26718383029943704
-0.5523328396046775
0.03625485064864786
0.19580861313989661
-0.448272332496242
-0.48317595653451506
0.28160554360000567
-0.8186964079629709
-0.5302906293547741
0.38259886863566006
-0.050689524229293514
-0.20890217733890426
-0.7723344674902918
0.4570804571245908
0.22709779614418668
0.0407822872816348
0.01821881367210787
0.10196335654284239
-0.3789260514683952
-0.13378129014777373
-0.421987333428251
-0.2375755657928008
-0.21600868166018405
-0.19136079480264778
0.11056310388980506
0.49554213784501955
0.7450078502826962
0.5713188424964251
-0.27842287527004517
0.04830506550700109
-0.03920253277172803
0.0726613601569539
0.7053681835534024
0.2052219473293383
0.7866183718886941
-0.10286412511518106
-0.06681095573102813
-0.005535551505756464
0.22890804486851568
-0.31130006341156324
0.31633200599651734
0.5138308944139212
0.040678537626095856
0.8330704636457714
-0.04151541383457036
-0.26980317571363854
-0.3512767479407446
-0.08905492163211692
0.05090155094447335
0.470457663139751
-0.5015967742242604
-0.38086063599186837
0.45603402333493515
-0.4291652373006425
0.19736403975689354
0.11801783957757928
0.11157164846360157
-0.49584776340353254
0.24468175223675936
0.13470071079020862
-0.3379096861215719
-0.484933571216401
0.04100128466249231
0.3319885443154088
0.07007851836042522
-0.12535252021520427
0.48416988972194785
-0.06737459983452876
0.7762212872040337
-0.33921955704452955
0.19738116950465312
-0.02765474991016692
-0.057215765215292924
0.6999127556594549
0.7026311481085451
0.13915616477076187
-0.14481634560604173
0.5595286182694669
0.07655334438737349
-0.4327929116118905
-0.20927748882256114
-0.15898956874932335
0.37537845234030387
0.2958885370258846
0.43267586872303765
-0.0995128119423293
-0.49739773919793373
0.49223118678998945
0.3489791648010724
-0.23718642924789968
0.3708071124867486
-0.17907700159053863
0.4551159055759104
0.04908075612866003
0.22453942621349943
0.5040702379736246
0.8336853296094722
-0.03460025280691226
0.025630272523391673
-0.7956765473424439
0.09151685882225269
0.8106422334068583
0.27959032995581257
-0.0034318588609393297
-0.46744932017048335
0.5715844224433635
-0.6678330999951368
-0.05259931835587839
0.13941128394503832
0.30933497283003974
-0.8392126043595042
0.38830901530377193
-0.8126939363102812
-0.19328211486894453
-0.02086464859632442
0.210922553603211
-0.06858376173518688
0.04097468163786511
-0.38451556554019695
-0.11247430816421888
0.01606451439310752
0.3374484427402731
0.5056639506168843
0.35357121695850036
-0.6177567741514018
0.11982912994920414
0.1879037661396551
0.3081633390953631
-0.16359460452405816
-0.4985271787556539
0.7324428398422631
-0.35110101684494377
-0.043862281635640765
-0.3878924518122723
0.10624566709639105
0.04003499736739202
0.27622864225929533
0.1140767883975553
-0.8705675411447062
-0.11306734748445946
-0.3478570917553965
0.15446448833676152
0.17428105354317847
0.4498449157036154
-0.47565309447802784
0.30445855068095773
-0.3908434914661525
-0.7107753823838912
0.10678904135796485
0.8094375098029228
0.014502823929849029
-0.24014030927712338
-0.4419238134371658
0.12429582631544644
0.24421083749906136
-0.2876702550788164
-0.3702049298994672
-0.5228738982930949
-0.4121302259537909
-0.09406164791341032
0.27641994342233533
-0.005011669227470983
0.29285545935048796
0.09007726606401179
-0.0745418222225025
-0.24992765070972933
0.49932729040839396
-0.3675330159875112
0.6341626157505632
0.13041992196623842
0.9438200166401642
-0.40632517998527584
-0.18809345593828908
-0.19641478149556968
0.5491966250720068
0.07844948290450626
-0.16693890492011643
0.5609902845996794
0.5734202361730566
-0.5277697679075105
-0.04252202625331447
0.3403417940737925
0.339045173869429
0.42140208594779505
0.8750684460467603
-0.47966336031296
-0.021083329659509875
-0.06161493849723576
0.6151072188753572
-0.024428640674122426
0.6673094555086967
-0.3823331174032111
-0.8530415449959295
-0.041550602977339146
0.07716779883388136
0.006577658771863448
0.12608954898389568
-0.49031761339202906
-0.14061655376136217
0.039736928507180136
-0.36128458320880863
0.1345620092896751
0.25601364699149576
-0.10016743880440959
-0.6206512087554971
0.02933670308459657
0.3404470902633293
0.5874483939729223
0.40095051009563787
-0.5503451939299016
0.6004711972890954
0.3623899866506962
0.2656025188776052
-0.12355439563998094
-0.17790293991843653
0.11827419081486501
-0.283720056801987
-0.056587882754158825
0.3153826424445746
0.6446835175797826
0.5641872660341051
-0.3074280925447923
0.076695752821059
-0.6832221706262315
0.3149335576375629
0.011156799440999565
0.5274104183486862
0.5865420684540443
-0.13277408505201327
0.6121348951369435
-0.12554352598473573
-0.6608741997513029
-0.4996432249080123
-0.40084734225450425
0.5456385983483794
-0.3825580972874061
0.3888866496630603
-0.01075918838052059
-0.06326034031543393
0.3240834840131056
0.07623729704636173
0.5749653045461085
-0.017720232052243823
-0.5107386488158565
-0.07450618489580396
0.8061219151081637
0.0019504602333424437
0.24383195742032127
0.41107475182121456
-0.5776007053084847
0.5431677369189238
0.40402226618049586
-0.0524007091346711
-0.018776416662843354
-0.16315258172011715
-0.021795590485885974
0.5500188571179377
-0.909500907932035
-0.1893053609871299
0.6306404130293173
0.12819538048949652
0.5182019165860697
-0.6564664446580487
-0.16795060226430836
0.08470672482850627
0.4637456278394392
0.03686681397374747
0.04407651905080234
0.3811937426563534
-0.22402499356601768
-0.24623055243266057
-0.04299936675238514
0.3940201283553664
0.48812820163432813
-0.10038876153387233
-0.418828965124994
-0.49587294719403696
-0.7375358525121165
-0.428660874868396
0.467106035941378
-0.18934811921602135
-0.8806495903199072
-0.21004234532971344
0.5071096401981926
0.27181608655414113
0.5010145311962537
0.17112537277390816
-0.419136446880513
-0.5753902015600151
0.5588616962532081
-0.8984929158843863
0.13374688944887547
0.14646463868750104
-0.27048612445698617
0.20308235946327213
0.040963238259229984
-0.2663506952577348
-0.07286038178963838
-0.2775304484510184
0.41754302953709366
-0.1868510003675634
0.1611340663903238
-0.18555771511913866
0.3790855733930705
0.17400939733733467
-0.8305554383396806
0.31422804545599814
0.33685565720453436
-0.025608367639401663
0.2873433953021072
0.1280655185336368
-0.07361058465058701
-0.451022083631892
-0.26364399295213004
0.9069163588769557
0.15746104624726576
-0.9688040944484858
-0.24427959226560692
0.6096980877954377
-0.6198477522553156
0.7983703668223466
-0.5793359181483091
-0.2410543373925622
-0.5929759317694923
-0.5554529526693207
-0.24660284673882693
0.21005590719983214
-0.21167354322457832
-0.8756682239104867
-0.31453103316707987
0.2257766657913619
-0.6678065022222747
-0.20048058735494267
-0.48928246487510185
0.2669680324321949
0.7471562107022407
-0.2697586433032467
-0.5920771547688954
0.5963849449954087
-0.450134393118811
-0.12305200580639819
-0.11390717518022198
0.13216622676209377
0.4012058710174067
0.27094155807970044
0.1408194425527034
0.14823366934988813
0.29175141807903027
0.18972522973636885
0.1839370390822207
0.4487582197264619
0.7616120395276302
0.7000139626644499
0.42998507444960266
0.011773071768349963
0.38836967784627774
0.5587816788199244
0.31147728118942053
0.2164497535285077
0.6760664034879711
0.34976295164789595
-0.20727371782724568
-0.21845733763782482
-0.8392206937397707
0.2345110000898003
0.4281356174902511
-0.10719091633432054
0.3389428027971362
0.27848637763743045
-0.3201980865986369
0.2234021579398544
-0.13672077182154274
0.11147049987427737
-0.6801979542866895
-0.3521765075277764
-0.3934880972683561
0.2576111697797797
-0.19768643371276307
0.13213441804406434
-0.4194695499491258
0.07290788479114085
-0.1671486094816954
0.003681571817140239
0.8887215154347977
0.8289923199448237
-0.41533141097928716
0.06252175598169496
0.2071577923247272
-0.011036351051100346
-0.910209850379196
-0.5363581855702222
0.0018350845252043113
0.364542305486381
0.11998872191819976
0.036802716563137716
-0.3553942734466422
-0.03435710905929812
0.41225589750650893
-0.20863038645514043
0.13451393276912527
-0.3205076576771084
0.3232163968680237
0.16483065812741116
-0.3811768866346007
0.025260544884693648
-0.33969125535733535
-0.3264774370091482
-0.3402862046410613
-0.21903218593888407
-0.651141278950804
0.2850767228119039
-0.13072201585578447
0.07821722868320768
0.19434327495661485
-0.5434524979445647
-0.3155464757926739
0.05248574446896315
0.3358004166193249
-0.039732610100871146
-0.4609185647322026
-0.1206719977751688
-0.02614084507449277
-0.22064881210441734
0.45319126308238855
-0.10378905830607255
0.5744413690474668
-0.06750201732532757
-0.5054049088317313
-0.2639490484229302
0.30558793918464244
-0.46364122803004926
0.003492317957340396
-0.46144566640968077
0.3193021226507763
0.14270519101072
0.1837504888194853
-0.20677203882362372
0.15326158041814464
-0.3787208640619353
-0.3314061847857739
0.9495511948937854
0.2556035107651399
0.007636835518928686
-0.0940818155838361
-0.7547930801043404
0.83101785775273
0.6859721575093944
0.5622497387362018
0.3238335062122184
0.19119911527229172
-0.4646083066001705
-0.6503828615489934
0.584095331842861
-0.21040398366928137
-0.027542028100559945
-0.5087819473017032
0.13808270016898694
-0.13091660853534604
-0.6836764279979619
-0.18169989778277518
0.2850799407229696
-0.12939847875630306
-0.18656422882353696
-0.17783494033943092
-0.3401065921042221
-0.19717618394386582
0.13365828605966368
-0.19051370116403354
-0.03447317895421831
0.03141364710799577
-0.2782068924956562
0.18425006670253175
0.21893957214221382
0.24272606952037545
0.5948166032008411
-0.03682031529637109
0.40828038596240945
-0.1817959807695344
0.1750134063434241
0.8872405044454122
-0.3977333303507278
0.6318760721589656
0.06106323884803566
0.20058604824000004
-0.3541666066898659
-0.12294156210849871
0.1692199182981734
-0.22519755093508853
0.28752407664067503
0.08219973419350812
-0.2086271634781499
-0.5082771109535371
-0.3387039248795112
-0.5483802247381067
0.10942324684112681
-0.10063195479412768
0.33713185294587444
-0.4036267368012665
-0.2731164295774271
0.07503253738385884
-0.5335501644444295
-0.7606721331969949
-0.5998249990514448
-0.6091261183942029
0.37039989660055395
0.4677663419171194
-0.3688542227663689
0.05513159624199748
-0.18030996796035603
-0.20587276435040935
-0.09872139923505996
0.1294362208058446
0.07267755571672319
0.45426876910299496
-0.10595305303473668
-0.03297896960388935
-0.6720380820759079
-0.18985388641842904
-0.05214531930837485
-0.22429208567509473
-0.7698420434812699
-0.6668825879106649
0.4281274676751401
-0.06757421467253222
0.12285198425653865
0.4028213675561719
-0.3164892779864181
0.16288146662258074
-0.2494613956831434
0.32200997181263935
-0.3170830801577338
0.19970120520366186
0.7663897509899256
0.5587913240940974
-0.20462644490778392
0.5121140950991276
-0.5163741655215481
-0.5954961649463321
0.3104388858005167
0.02350156292276362
-0.19460370997305754
-0.13560433961542662
-0.12122569006376349
0.3499865703542885
0.28487502750862037
0.3067520455592364
-0.12205031236302155
0.16133943555647623
-0.1298897942079058
-0.3117944016846099
0.5297754151332533
0.4253137491415556
-0.06720502043584287
-0.6300140985225349
-0.038888420964135695
-0.1538465973514197
-0.20113101420123813
0.870592068028233
0.38560677580941394
0.6813129039850988
0.37561017396074114
-0.2949965920783827
0.19040596615631167
0.34425814924823206
-0.667047658800044
0.14552370753334443
-0.6036217043279595
0.5843810644500532
0.3196537263802741
0.3442338970660511
0.45457517450157525
-0.2383129396749336
0.65864262263852
-0.1450815991660216
0.30740012063284006
0.010553665466411122
-0.6717953500545234
-0.9399136731450238
0.502826112998364
0.16005151909718585
0.7637209374058204
-0.547123374392669
0.5797579671917644
-0.49838623072537414
-0.5640069152885729
-0.5496043577116637
0.39854897386380483
0.018499268700256644
-0.14328011211126457
-0.5116748807276487
0.21728297092914495
0.17883859912533595
-0.6634247870620162
0.3744842240463506
-0.17541593811898837
-0.008321941375237785
-0.5790686541228788
-0.9045854965347605
0.6669079442774553
-0.43151848787730074
0.4668208099673462
0.2103628276129793
0.11100129674704917
-0.11273375082848869
0.14813791503082097
-0.04258949898158859
-0.012571411656904563
0.6158425242087177
0.041117396359742986
-0.1999333652787969
-0.3071498944263491
-0.6654977952198242
0.8540366568180119
0.45091735490045826
-0.1909429892940686
0.12515313344356638
0.4226173156923736
0.3066687772249994
0.0644416232142726
-0.00764102619525675
-0.12462659450657931
-0.42647469657199366
0.45260395939122167
-0.4453070937778437
-0.09584468788215539
-0.46632093699271204
-0.3659275184330847
0.19358941326746826
-0.0919411595470474
-0.5825490112283823
0.6686781604573548
0.12329288626108825
-0.1254679855434122
0.02421977996263658
0.4424137831945335
-0.02607644771256501
0.28067587421918383
0.5515846496296278
0.3986995007115728
-0.5329991492815473
-0.018272022082552075
-0.00194634368993174
0.7697089591344907
-0.26562544079687855
0.33018436045753286
-0.431736534545346
-0.7052197938015429
0.7055664932238369
0.44775651488301893
-0.09596636421889737
-0.37654450943665496
-0.6011292589390204
0.13294964913368423
-0.08275778195698691
0.8155698786023239
-0.1527125642411432
0.012297474390891017
-0.09529070671881945
-0.03144845541703312
-0.3304010391800837
0.386836229379506
0.08848793572575164
0.3235449133753866
-0.10944011284490263
-0.584179344870456
0.35322765114073573
0.7767517853533867
-0.1066788996813347
0.11748578988776548
0.15469766180394506
-0.31621555274696644
-0.08568028766383107
-0.23646635538112692
0.4164971589035241
0.6687101432003132
0.287076123621555
0.6641661129246463
-0.06786702792374011
-0.49665757424682677
-0.49487414964349674
0.3177055937174341
-0.7156020247077172
-0.755298565329512
-0.5234576598491818
0.020764647181104823
0.21364343664614716
0.757341099773228
0.2748843033285653
-0.15240593327027552
0.3887450402315905
-0.1639994326554488
0.7061510954524015
-0.22718559274658445
0.030685216545940364
-0.33078511884867967
-0.6665572854262377
0.11006095850426756
-0.6021105056038516
0.17637901196346717
0.12677434315377678
0.15035645774420636
-0.5231202308733637
-0.5128423450800574
0.1847156805655754
0.22108478194488912
-0.12820194423087716
0.003689561058654145
-0.0890587352707205
0.26473983968381143
-9.759004146741024E-4
-0.07153524808396805
0.115611909659731
0.3497592975245114
0.16802761425420532
-0.07749911610888127
0.08203699487450056
0.0035877746155107415
0.03658467979602631
-0.21344979737287062
-0.556636392183254
0.2558388379406781
-0.3452302123138975
-0.8736606637604767
-0.179358615476799
0.3567538013652909
-0.20082094922135607
-0.41214171957401236
-0.2052578301692729
0.13741458183817257
0.845500119714514
0.12267946140182606
-0.28303684432532505
0.023150669543863245
-0.503576999485116
-0.17513710836288687
-0.48389457046418505
-0.49053585827062807
0.28542215411245797
-0.016989099356849335
-0.37707972671408263
0.45120690893145965
-0.024638574961977633
0.11666701736838314
-0.6988963674670022
-0.014796905948887162
-0.24509358680747484
-0.23229621189352456
-0.4205918494823857
0.05998323043411313
0.6123014173910801
0.6338303932640654
-0.348468035228359
-0.27233348186050255
0.15633572316903233
0.2126265720607291
0.44551435196547684
-0.05609730994878381
-0.3533292124712545
-0.13136258378685228
0.4867082557796233
0.6448037121905876
-0.13271979370608067
-0.29031782209685675
-0.26754821370995274
-0.6272358438965939
0.28067838338736195
-0.1605697901977412
0.6534726830907486
0.5374502280940744
-0.31234076193962657
-0.036086471728716485
-0.4476955398292176
-0.44577127337713707
0.0347706716158076
0.0817433388064428
-0.10687987544709165
0.054320818329184783
0.07396303021890538
6.479820345983711E-4
-0.34317336315096114
0.16188968760063416
0.4143114861934034
-0.08783122045749092
0.7532882608139391
0.30624122575798074
0.030987893792142618
-0.14935256049811152
0.2131585662790979
0.12019957721056418
0.4139478191020015
0.21535893981312115
0.29219141865008147
0.12993738714888892
-0.3090454725150089
0.3572549232534308
-0.14464590247244125
-0.8923038877774301
0.29952766511403706
-0.02664441493766756
-0.3326457379985164
0.4616236234054486
-0.5882101442412437
-0.35893254091810656
0.34294723950251493
0.14332071223363108
-0.10189541026314686
-0.5470299849780741
0.49652745064881554
-0.7524760079178212
0.5246073161168816
0.1543785983665762
-0.023198556102634216
0.7187484960037819
-0.4782871794245376
-0.13116066631208678
0.16661272444353115
-0.14591437964848064
-0.021549297340628715
-0.07413194632926334
0.4138742199404405
0.08329724658415905
0.20266209884026165
0.31441043728461815
-0.5769567738547742
0.36973364308190215
0.535088736038774
-0.12928253058375494
-0.46842366345612985
-0.042925796132362914
0.6080739626257763
0.14411073564158638
0.5062010805573539
-0.08445179161956429
0.027084108288810582
0.5876892467973084
0.29762369224267327
-0.12043133214522539
0.06015275157782851
-0.2801080325065972
0.046262001812228615
-0.36885384261180676
-0.6514980637320793
-0.04690890209874832
-0.18605993571999357
0.4156441654100196
0.926039930293413
0.4353656674226244
0.08488209042688011
0.17400726023669622
-0.09026849723276131
-0.10356021009643235
-0.16839045761952554
0.08343444334763661
-0.4668197426405343
0.007816780746814356
-0.18924334801307885
0.8155655099834559
0.6361189859839419
-0.2267048525329176
0.0855609250003172
0.1370623214083505
-0.056532231299193936
-0.04428352378884626
-0.6970419645351326
-0.25761260831310306
0.07555078685356142
0.29611306646051383
-0.4613721629428644
-0.7147890859040202
-0.5391547157270062
0.07410855170895037
-0.14952790665523052
-0.06977154125696794
0.33483186103112816
0.7730581417247401
0.2089762866610323
0.06297804294078868
-0.1518476853027224
-0.07386124984803866
0.5798569428203426
-0.33253419169285625
0.43474169839190135
0.5248767811359788
0.5849098152163738
0.421957675708732
-0.6743963286461041
-0.33412739843909145
0.18860730994786046
-0.6728899619125243
0.07634442018528997
-0.04319917198096157
-0.3349076355837721
0.004750194986827161
0.2580482202923102
0.3889131627876149
0.16435595988915186
0.14391629116830384
0.15750579087531968
-0.303251073353926
-0.2044470290219076
-0.22442332856129577
0.19430876463822222
0.11589476031738577
0.32502381351708776
-0.6076048927982902
0.9185459066583526
0.36139671131499385
0.14069365095071862
0.6949188471359083
0.09777814975078947
-0.6182444936042257
-0.006457291170886004
-0.4689477419881314
0.19579126629875654
0.14507073658662117
-0.10379018531013084
-0.2596487042015735
0.09690143666680107
-0.6730554575061687
-0.34321819286255395
-0.23169382967453944
-0.610981220700216
-0.10563496770885339
-0.521886906421387
0.2418078556535802
-0.3672651184180933
-0.021437799629934307
-0.0839395115482563
0.044105118009511
-0.11243567575642044
-0.2531569174829773
-0.5597235725655917
0.16463970519347337
-0.19358373950294316
0.5349696227773176
-0.2668124012769504
-0.2740620175645123
0.746029153437879
0.5365292962068521
-0.46065656425347734
0.4375201445473027
-0.1833902243872818
-0.0225791591338399
-0.7526092854253088
-0.20866666589596505
0.932059328198468
-0.5242822709016359
-0.3871854340312827
-0.4532564739471331
0.04015777520497332
-0.11774744139059867
-0.2567528637794283
0.5529562019883503
0.5652358035146196
0.9087738562981851
-0.4626327098875832
-0.41299397361708734
0.1595463770223846
0.49306800285838737
0.6526004475708579
-0.8556305424352053
0.5640297194454327
0.03793886966839677
-0.5512805482053489
-0.038449993121307924
0.039052911171117866
-0.24092071847558783
-0.20352629166917546
-0.41184851490033947
0.2887744499247419
-0.262549165095895
-0.2155473201627851
-0.16729261812717378
0.1384352307103558
0.7146433893881534
0.44293155290012853
0.06170224504170452
0.6508686667641802
-0.5060516750556777
0.3877985796532205
0.16081321969309426
0.48837688465377826
0.6804026339878807
0.01699492650658163
-0.23272543740312945
-0.6331442053544112
0.485939456993977
-0.34642022911473747
0.022709190206223973
0.9454406793885607
0.5011434470721178
0.7296844952087196
0.16764642722348633
-0.10229781108209168
0.353685007157598
0.5270014482423707
-0.4278189307999942
-0.03023086970510891
-0.15470038734959057
0.25575085414267573
0.5241416523510265
0.5827440743797383
-0.27946262191972104
-0.5901125857102874
0.48842533829884693
0.18118493594676555
0.5822549926423317
-0.08389665399206447
0.36887097717770145
-0.16056436247080397
-0.2173490374841427
-0.2777304907470889
-0.1815449710053404
-0.31184079118105545
-0.89115408315125
0.07428443774104021
0.12315945231572001
0.14648689490108802
0.7302927093525178
0.44541193834045567
-0.006100297648157671
0.11518236485822464
0.2930248424094948
-0.13738944715356072
-0.4769503692889203
0.7019095256881946
0.040154099157553746
-0.23761026567659882
-0.35287256658398336
0.2944477322935195
0.6968618313199532
0.3388122409473192
-0.2956972674588816
0.13786018648504172
-0.749908208648272
0.012611478640982665
-0.6077327003263888
-0.04740614529149023
-0.1147983402617242
-0.28385662613236806
0.010030508899420365
0.25421246097935424
0.6605818528477696
0.14172408004585668
0.35560636701486337
0.7803678435298825
0.792644861140598
-0.1963715140540213
-0.021080398871326622
-0.5582532124619709
0.25325069199262684
-0.3304497060489978
0.41535791339156336
0.32406136433934485
-0.2157355204733188
0.2956608304270095
-0.23192060644634194
0.4980045601681531
-0.5286405918951642
-0.2115615752754173
0.523076106035748
-0.019024284924763823
-0.832066704410844
-0.15632710798983995
0.1892857269981496
-0.5281508627249216
-0.4223686210019971
-0.19329003885311358
-0.5076612109617745
0.5008947492710899
0.07577793366110874
0.38692540014607724
-0.2738070309947993
0.14319138886631289
0.22041732110795254
-0.19850485552250574
-0.04938285854845348
-0.12264248345014928
-0.5969450048359733
-0.5578980191827559
-0.39918194647614735
0.21734541276153307
0.0612529739163421
-0.21459140501455398
-0.010080843134679274
0.14395078728398503
-0.6720045624933844
-0.0087976001921799
-0.09113869967554311
-0.39911943500756997
0.030085767880094316
-0.13842834692763095
0.09139589914014101
0.7630731066608571
0.016003301514313062
-0.6923527406932111
0.21488760915446392
-0.025281906548348942
-0.07746163101659764
0.0018791238548737654
-0.33833267742462714
-0.10791626956323297
0.0827433187278559
0.11635097591706767
-0.5045512615483833
-0.5128662329766231
0.2731041636078245
-0.935102455024481
0.19371691588618845
0.1658826698373974
0.6652664703810767
-0.5952217980000741
0.36860840020121455
0.5943410587223248
0.7921456804190211
-0.10408049596575353
-0.13667251313472628
0.16026977215407157
-0.12859412165764672
0.23123432696940738
0.512432434103709
-0.6747208011204305
-0.28358872783467937
0.027971244734840806
-0.267949134578395
0.6301825423889128
-0.01195271881252491
-0.578376247176393
0.5972071965853849
-0.022991166054405765
-0.7592848063182329
-0.3069929495264958
-0.271729233924335
0.4731176944522598
0.35515817678785655
0.6378331272324264
-0.42840699546524796
-0.27099713043376006
-0.022335477335177045
0.18403874113601437
0.01583231259308715
0.18005742888504084
-0.26335619871023364
-0.703688554071693
0.5032602262510648
0.22190100444455174
0.5239512639202978
-0.26533543827116624
0.1941276819196477
0.6175952705068762
0.15060005570740542
-0.3790399403190754
0.6423573007837117
-0.007539631144349412
-0.07423770827368759
0.026305719746239187
0.2918652454597961
0.4222114143091642
-0.41162688047583396
-0.6162543804199831
0.2863269898666314
0.19260160277871508
0.05160556074734257
-0.2448857474159395
0.6604984080415703
-0.9046889084172703
-0.17826163726853683
-0.14714310330934677
0.04863730752455442
0.06915615411650322
0.5737339921077307
0.09338987710832902
0.4958171775579625
-0.7101654824170222
-0.022423757036901137
0.10301026591283236
-0.6681670028394203
0.37183403377151425
0.32886951583362833
-0.6156448700150802
0.2709017962306136
-0.21267043694064436
0.6137604184186032
-0.5009971143709078
0.5158245930777966
0.04073541909110312
0.639994255248227
-0.45884801180521584
-0.4902702907791259
-0.3292276466671371
0.413187783891928
0.03680359377751474
0.10164918774293374
0.1848638727560591
-0.9311367283582684
-0.009400376947292899
-0.23502500100036805
-0.149234920883203
-0.03313023892015621
-0.28563600355232865
0.047840994574608775
-0.08059652915411353
0.303214847293916
-0.2179631884775065
0.13199938153495294
-0.2456259652361995
0.4986512281758213
0.5725864585347239
-0.11190403338202926
-0.503150416045598
-0.6967611618606621
-0.15338673390870938
0.42068522159543786
-0.07320955873086155
-0.2172506565238076
0.14934201963155624
0.382947042941129
-0.3870007862979842
0.27668968907291314
-0.008099422352634278
0.2539325575775996
-0.3740160166933487
-0.25265629224244324
-0.4979602632590281
-0.660897553735949
0.6232599789821534
-0.7670606499248385
-0.3607432873763371
0.7202864467609229
0.3068875963169978
0.012108168055757651
-0.1728388618156299
-0.37384045716829273
0.11208950140220841
0.17677080476388307
0.05652707540871438
-0.310793184794508
-0.6146989496885805
0.11070525069218362
-0.42151605540891424
0.4240161620015478
0.09260551622571145
-0.14726804320978126
0.7416275990959179
-0.5712929757921092
-0.5170906496439815
-0.5288617251685437
0.701776498233123
-0.278874732697151
0.410950928661421
0.7801836564640866
-0.87238060745626
0.19021839288452513
0.25706914696562366
0.10719350668291028
0.22625745037113565
-0.15924664844523084
-0.21451555435114844
0.5673944327022102
-0.14034941718493743
0.7513722290575304
-0.07077191028869712
-0.73720391486585
0.22683460311500192
-0.4213583604324098
-0.4015241317265065
0.525149451406412
0.19441786926044446
0.447097882365886
0.7610757348309469
-0.37935202075053487
0.3460594243864823
0.22275179232830944
0.549651205570927
-0.4883454613266045
0.746423536695484
0.04740076200846932
-0.09655982347318826
-0.19603783944722097
0.5669396147197926
-0.34100464836583355
0.06250558504481873
-0.434256900672362
-0.02209188663350803
-0.04744284050916814
-0.26850146093789273
0.1031158461133106
-0.33231758271528344
-0.5625732285980813
0.5497306242534371
0.4009732139273613
-0.7921743457757012
0.2111107527506001
-0.2170682484194617
0.144481488670423
0.6205893526690837
0.5122327903400367
0.3723308823231255
0.08463242123821146
0.615104891650242
0.08842147927235056
0.27810751799962674
-0.5711570206133553
-0.49687743905552917
0.10352506342767054
0.3641589699028577
-0.4913233995224533
0.3047373344437435
0.18219849040418867
-0.2600870952111156
0.033599813814446544
-0.0865144728866154
0.6947309485249149
-0.8080472716789215
0.5401678098950621
0.318734567900273
-0.18611134069875346
0.14806713886734202
0.2239324153524863
0.2593024652973209
-0.19560991556578922
-0.8530432865042833
-0.545632398144081
-0.18283733272703917
0.07641954386019256
0.07572184997480003
0.38802658647643085
-0.8297553559841027
0.2784973115108873
-0.3742262050545606
-0.07369181804338598
-0.7064946217896003
0.3107396622983464
-0.024616314990570265
-0.5485874530468758
0.3987536925754006
0.7178138049549528
-0.24248794113933558
-0.15961384070423057
0.30287471068969296
0.23391321495140882
0.17134565152877157
0.5081810364765537
-0.8508693823580982
-0.2737138794003766
-0.2012680291268203
-0.28985229502504606
-0.9626725751347046
-0.761826501676271
-0.38448030301308345
0.6913653802376403
0.3226292829584744
-0.4537373678598452
-0.3327674087671927
-0.5315280329133472
0.5925063958832536
0.4205647307405129
0.5484907949650293
-0.5601951294017623
0.28530941170632784
-0.4398893460768184
0.23781059216132838
-0.023313076633866836
-0.11819131467071686
-0.247977588047414
0.4545018249131775
0.11975470105020225
-0.004822751960589233
0.11105403279315884
-0.15551366776486875
0.14152676662870023
-0.2421760478328886
-0.043479969122451
0.6781299986977871
0.24097111539559568
-0.15757022224369355
-0.5258187501830405
-0.17698419591017267
-0.4515530354753814
-0.6419556949738218
0.5006107219489618
0.5518476730184114
0.8482329900802382
0.8266946807394181
0.009768756117826793
0.28150231570459505
-0.6568096985657621
0.006201724421773691
0.14237256439326196
-0.36444037461817047
-0.5313789263505397
0.14963670393112005
-0.5618752828256274
-0.04003636398708166
0.14253231019794144
-0.44984010767737304
-0.02812603457211127
0.3181411036557539
0.08219594347395764
0.12626549915176444
-0.03339574842760684
-0.1890331290644417
0.31241755737350185
0.7181853487702896
-0.006529566395186093
-0.2261076819785871
-0.45774925058936533
0.19332822719906906
-0.16617630906600767
-0.13129974840553282
-0.08266562359098462
0.7173930268193478
0.2381370809543102
-0.02924064126303816
-0.1367699645712861
-0.46777321530391236
-0.27690627156935144
-0.17829207761819077
0.7444133391313423
-0.37935566138528154
0.6982797743770776
-0.13447024113567851
0.589520177588422
-0.8016361741782598
-0.528854393214617
-0.3140024933436113
-0.08905297686448821
0.7413190989838302
-0.26914994064296094
0.16820892707066548
-0.04356293785579046
-0.2645651560886785
0.6912007825349317
-0.1512508941209998
0.398410719825257
0.07668539405492136
-0.1113706832490976
0.42556785505062855
0.35699477669978164
-0.1969850436896966
-0.5047018378157829
0.5211208493753642
0.24888209744312406
0.39241564814010177
0.0039666034662272365
0.533371004150215
0.47677332954039986
-0.08040760723569151
0.29886113973718065
-0.07651626236571651
-0.39416182626190066
0.11469730754294993
0.7188985620317071
-0.21415700081608757
-0.31330991883235126
-0.8344738481101599
-0.16071482238658574
-0.37204008074975914
-0.4176835646941388
-0.06386834431826427
0.5981092599993246
0.2299498432055701
0.45672029953295845
0.006374446774024878
-0.0880464584499161
-0.5165429604107257
0.05527873510938097
-0.1642376583192492
0.4067390917747632
0.6050980901165709
0.23149719400312896
0.6589814730131727
-0.5418788468759199
0.22434785586338968
-0.2055784176741664
-0.070333489246174
-0.0833408116540757
-0.30658372034098713
-6.385960403593183E-4
-0.3077071370030663
-0.33386574987474804
0.725932179172482
-0.37705585202850633
-0.3683300579036366
-0.1594393508110663
0.4206668722746867
-0.16059516133263751
0.7111612627901194
-0.021860993486218727
0.8270723700188147
0.3231733790000433
0.09326524110801926
-0.09082182400031391
0.024157277181433123
-0.11165302608935535
-0.9076996143645919
-0.2644892915875954
-0.03690496448377378
-0.16296010823063756
0.47564789611634173
0.4279532157445076
0.046603955446468004
-0.6583993930127403
0.5969179632757494
-0.48687076077242386
0.3265359912140985
-0.24007275398206074
-0.6458473975936236
-0.09667697435259837
0.9358512115062616
0.03482724513499058
-0.18959953506101812
-0.8380111966501635
-0.5098924192643376
0.0626016136971238
-0.7325465062087887
-0.28657926545865275
-0.7474350989614461
-0.2996717842557035
-0.5236253571836246
-0.18152362116909992
-0.7343634418496015
-0.012891403954210179
-0.5963979457512697
0.1957054513286962
-0.5241507181480762
0.4044927773621335
0.18971844044268582
-0.8926402088735267
0.6080422731132361
0.023153338545232494
0.41129538445393166
0.4596209820385968
0.6316333573600669
-0.2740311726639949
-0.11796207775302225
0.4283376583848445
-0.2740255581296862
-0.2795596243398031
0.03453957780769801
0.46898928556123876
-0.5670503387725732
-0.0499578155354532
-0.21135168385009706
-0.7260855766254833
0.43279437362069384
-0.0794570506474529
-0.24130655064958662
0.33196827211983615
0.1506644495527628
-0.21024454693507444
0.37525079103357084
0.0815540581161478
0.2237308477968275
0.05237040374408508
-0.3235919391482005
-0.25795595998420073
0.3932183381119505
0.1343405506459766
-0.6235638662727706
0.2819460337009637
-0.7644407406295588
-0.7467905311670847
0.06714360294072597
-0.17054420994006525
0.49112597396279
0.013306392627230657
0.3465317704230204
-0.684340854377901
0.7265459089665685
-0.13944211364604364
2.6692705864905797E-4
-0.20737395485970211
0.05498929164442845
-0.8347541256478019
0.3397724952767154
0.06142237969222786
0.050382352032864675
-0.19164514808126953
0.05154169992040314
-0.32033402712938497
0.14408295174725017
-0.758365771979096
0.6932053009119431
-0.8705238880782432
-0.12413710201297679
0.5764346048218671
0.019661265537809003
0.36027587088498425
0.04640564746135767
0.10263263872089368
-0.11811562118780072
0.0925209307262157
0.7662871689174329
0.43451482497869665
0.4490850710437746
0.11049747828771739
0.26347127859368247
0.005784608572624306
0.30867226353725763
0.43635575745866184
-0.21954350131860512
-0.08890071743880723
0.13234802877020613
0.0607583992354741
-0.668621947911068
0.25288190198773597
0.17946616597027065
-0.5447024975995226
0.7106268828998904
0.5092663365380761
-0.021834825848118244
0.009027519270071505
-0.6683927602986773
-0.05430176825631361
-0.11576310327102024
0.6108840763393282
0.007904655471187572
-0.25671649158336607
-0.06404861151972296
-0.11193667005843067
0.39864109794564073
-0.10578036033891813
0.470489879053718
0.3504088756913777
-0.6854655451847225
-0.23818348201145978
-0.28709708014760926
0.02568511969522913
-0.501991728614085
0.11666922252457756
-0.3226420272406898
-0.13601300261328664
-0.14116685342135682
0.441014381131699
-0.1309101895358591
-0.14137032521434978
-0.53071182780634
0.29246571537793775
-0.2792500626540081
-0.002580570044177777
0.8643297586184612
-0.2245916145892508
0.07094720872171467
0.31605014186396796
0.4473430255970602
0.9127928352563999
-0.47576090545919325
0.048695908783609854
-0.5203156070852325
-0.3772057846281246
0.05487688487074893
0.2793616376647615
0.10899495541541182
-0.29748732143691525
-0.6599706773243106
0.6818134687374792
-0.4394425768145076
0.8828527466181625
-0.6640218825781794
-0.4889186602696418
0.9091821579577493
0.28092306628615715
0.5757535864846676
-0.7972912945867888
0.4266947590280483
-0.41370989649585466
-0.15782418514624952
0.47364733424422734
-0.7799147255326407
0.8434098621027668
0.23298854960991278
-0.04446150085921041
0.20446730851900297
-0.6119653659387273
0.4884533460785929
-0.43933911489271094
0.18209769815498977
0.3982639453626069
0.6509673657486169
0.7962796216181713
0.07387120534674696
-0.022678825568833716
-0.5099520324163909
0.3881484486503851
0.8542615538290143
0.2103391782024292
0.45872030114454254
-0.043755171736580833
-0.42994144733759654
-0.18150495794910237
-0.6653660794080508
-0.023830351409234285
0.3214636974046209
-0.6269497740661744
-0.4371280060494176
-0.21108397720908367
0.5490488227249181
0.4661686276037027
0.305009852310544
-0.2669404534253471
0.010729838377171785
-0.15648415795905513
-0.22250757068754978
0.40470782983789655
-0.5646708964499119
-0.55925349290694
-0.6161482292954426
0.24314463530648245
0.6126928110323893
-0.17516612574194956
-0.3310332258731684
-0.18353208425087741
-0.513303659830287
-0.1268058261854279
-0.46280480691760717
0.6677712006516643
-0.14509669355487742
0.30647009103550904
-0.12997259114925663
-0.47531643555852476
-0.033509566055863194
-0.6599743809311707
-0.005388439950438029
-0.08999836106533632
-0.46103693216761366
0.6609051956968449
-0.25062217529778796
-0.035005765904608355
0.10366127874816577
-0.5388177595977776
0.04141076948316069
-0.3621884293515414
0.37223981395707917
0.25810662769839365
0.6497728447007449
0.6457103960562719
0.010655794695246135
-0.33763186758072317
-0.10053847667411209
-0.5061334333260735
0.5598026256085297
-0.2992601903973854
-0.5788515456593291
-0.11069700684884642
0.17470546234049655
0.022032896236613198
0.8560662113974586
-0.12328304698916437
-0.17021514727693687
-0.21601928555746874
0.3340580389400366
-0.6579571722318
0.0960951978255743
0.19073505494297294
0.02709031973565179
-0.1528090538218897
0.38485795492367425
0.25860142192210034
0.2428754678486854
0.47651518938907245
0.0970697174596381
0.9871592539934814
0.20263856590913887
0.031249103291486446
0.9663129504322365
0.5051436683653856
-0.9807244820552806
-0.25838912109272616
0.4271844863880362
-0.454482605021707
-0.026951198263847398
0.25546155032168405
-0.41395089009405084
0.9022223784912868
-0.3674780414930968
0.03271964105422487
0.22062448367442
-0.6196084475050797
0.638852591810244
0.6281164880889221
-0.2066554054855263
0.5203987180513641
-0.06963890259406624
0.05026623096827898
0.23951916502534132
-0.6021150808404486
0.6970530283852407
0.028515234591787286
0.05507062985452371
0.05415265284355397
0.31430141646300314
0.25471949050355536
0.04791325037600036
0.1803511197146418
0.26606547686137405
-0.4012089138653824
-0.06363226498495389
0.40439308652951045
-0.38080655590710677
-0.3152300031065194
-0.8020743066393631
0.7495624516064795
0.31644275885158724
0.5498914426249247
0.23918666255737586
-0.2646173270291502
-0.44403223713796225
-0.7160445055328014
0.5901563665900984
-0.4520623828407043
0.18911289175947066
-0.25101746065998753
-0.12512046753045147
0.016338645275231434
0.5496832252797289
-0.4320693468696002
-0.47430573139724463
-0.3653060260354789
-0.3405952312040098
0.5895566539007423
-0.11514797335730065
-0.0433133128831632
-0.06306022628643393
-0.4710416972546475
-0.05818857522961085
-0.2342136821326134
0.271655592822438
0.0565888972410975
0.08761809864474546
0.11616786900115894
-0.07969024152103932
-0.06889900746633082
0.5789714099737672
0.3394295811330623
-0.48858625674799105
-0.36048561352783615
0.3390669855086491
-0.16004862097782546
0.23347124569305433
-0.6668930447450353
0.10351377730522116
-0.7304983182949698
0.7842253776271171
-0.24755900912735818
0.2682998091089077
-0.056846843137462466
0.024767615925348374
0.5390622818122255
-0.022197720952113698
0.7693364694868186
-0.2559063263359752
0.6867643866777883
0.05002859421402295
0.132390128547777
0.30135330888918044
0.2226940317502063
0.5790134103498549
-0.3043064494217479
-0.9189558438553105
0.4773596388173885
0.2706787019836592
-0.41192694251028117
0.3103463485659278
0.06080499936895245
-0.43308995176409837
-0.4104789392617145
0.030506357487437352
-0.28431526809837215
-0.09191763520322882
-0.24961410386147165
-0.5218899515805836
0.5437784771091939
-0.31661646208435645
-0.3074424076945286
-0.5406474540600119
0.1812077064050548
-0.5026447725217067
0.13604228400161666
0.45888566500261496
-0.837644110771472
-0.7422581358943705
-0.05037863650131902
-0.7725069247277336
-0.8193770004587535
-0.0678088351553282
0.0025176969139042438
0.18414800396654274
0.04551645516801339
-0.18552630988322627
0.017567495380228615
0.09675124541747437
0.07528429603682385
-0.46043121562810696
-0.8622136587022545
-0.1268345130931764
-0.04256225852877615
-0.36607333046487345
-0.4359320877184988
0.23013100309948953
-0.11476394450464211
0.07857773812058733
-0.3601420880456806
0.07949354205075287
-0.2271289422251791
0.1594549848338066
0.06424919205859547
-0.5943999300300196
0.7884392067314832
-0.44617418891589566
-0.16755013741390157
0.7637544411978315
0.17171104757945888
0.7664657840694457
-0.48461926154452106
0.05273089127829944
0.6242167418688489
-0.45524238429932395
0.34292019551152697
-0.45032740036649965
0.3651571006474117
-0.04349813906485345
0.8633410004038926
-0.04242961319082339
0.4439205024897174
0.48089758017052286
0.7329057474651035
-0.2867270806447707
0.7363085925132272
0.38936810481292183
-0.28468979669902406
-0.13701840178594116
-0.18213711367811558
-0.184780096391841
0.2889931341580497
-0.4628338015043607
0.12405432302128683
0.5055565198542484
0.38599332809530384
-0.13569254144713827
0.28563141879950127
-0.6997262579347214
0.45872435539997447
0.2411145754043469
0.5530965307155238
0.6348699702152057
-0.6248326116015066
0.9428158973641665
-0.1580031609270891
0.33623956659130705
0.04303670830803907
0.37410108767001105
0.5595588653278538
-0.02964881739993719
0.05766678563972738
0.4820257766417403
-0.09461876423081006
0.12043497242403378
-0.5663979008082276
0.38971120698993045
0.5570095666583519
0.4121654073505968
-0.19948365328457007
0.20349480538462172
-0.5148660369149762
-0.45126812003397876
0.20358388847294073
-0.39627251432086685
-0.20655718820676428
0.3513102472950974
-0.2816771222804023
0.6817446860347478
-0.1470630612777748
-0.08242505734389494
-0.7296483627557465
-0.42739180159780443
-0.32086633271970044
-0.06827761732683046
-0.3931999052336611
0.09092781830061658
-0.3156831909286564
-0.34817042060192294
-2.6634105303235955E-5
-0.675712128744056
0.10449240488226275
-0.00585415838776937
-0.17375846859200084
-0.6391213381595156
-0.4077079868986043
0.4329328836768357
0.5160910588425303
-0.7523813393267116
0.2760133186994074
-0.397856271545159
-0.7644146186383394
0.005304862770141416
-0.5533521966565269
0.4090307350555279
-0.6678662947908259
-0.14061062706792737
-0.003231600819691538
0.0019053152103175597
0.6910616773902519
-0.5384729677355666
0.1587720017657286
-0.04077241884278815
-0.11756799122460826
-0.033349883812861414
-0.08629764478058388
0.12915433551390665
-0.8047432317521664
-0.41623234224974826
0.04740625181246294
0.767724297388401
-0.037216279299787325
0.20307714649814324
0.2077054456098142
0.31314487444335126
-0.25065960085908867
0.44136725087691164
0.2818895913837387
-0.7551836632012892
-0.04693553131789174
-0.038519986046897325
0.4129841279686287
-0.18387530731409485
-0.06353187140683814
0.4090998425866813
0.0030317144692377784
-0.4696930122301788
0.26438734008933207
-0.034499242093154026
-0.2630416079262242
0.04820681990454345
0.6693211447985291
-0.23135648751467686
0.288752775965356
0.3807302325885217
0.08260831776024069
0.06406993016325135
0.5558400343523427
-0.2275859801230713
0.28795846979436435
-0.305575655932795
-0.25295849464914855
-0.19974108730562534
0.1183454582373733
-0.4176472080927207
0.35589235649621753
-0.796673847920712
0.0048105241313963765
0.6861573512760022
0.16828008646020653
0.3166009515760507
0.2192458340369342
0.595825902799451
0.9083568169511735
-0.4253610295003344
0.5510137999026421
-0.6889313357851815
-0.3481179656441221
-0.16606599827504076
0.857704295846217
-0.7319103210856098
0.2799534594818046
0.1785056631304639
0.21251624452561058
-0.3630653290763294
0.027354103745965586
-0.6782674851498887
-0.08375607344433578
0.6287745880497552
0.04366096839802025
-0.22920984654026788
-0.575400397980911
0.3365219124604877
0.2348828258248733
0.2849331305551348
-0.5641488777266147
-0.7948291381540605
-0.19566784673864468
0.4051833179021408
-0.38394511731477055
0.19003152314890492
-0.04049016063645272
-0.31297420145619714
0.4000810459407733
0.8811740082107016
-0.6486997151589059
0.03805772416851172
-0.09602289742546777
0.23542562688117308
0.46119914688301933
-0.014026678649851632
0.023274934624817223
0.10346667023953648
-0.2756637360606363
-0.20949516232195242
-0.8337332227512833
0.9348559361082407
-0.06771822235380098
-0.04591226661120562
-0.34136022971532
-0.41003337238015203
0.18091101974590817
0.6669422535513835
-0.1444231457547972
-0.03834586127819484
0.053425117431052827
-0.5505287133404632
0.21351429811313394
0.10675097307395642
0.30951797834165573
0.21756536604328536
0.031062125560844756
-0.05314884369087702
0.39210431762510434
-0.12305521630074223
0.796598072273332
0.7164505916696805
-0.4286185353293005
-0.22593641231174044
0.46334730658572654
0.34761575896567787
-0.30185089056014636
0.5141049048928508
-0.04840504525104461
-0.413523664953945
-0.43781645921489976
-0.25326935567402675
0.15187720676365613
-0.07547573095743088
0.006908117324803231
-0.00856705359500265
0.4487150563941896
0.3191970369107646
0.24615968397128485
-0.12849152276124065
-0.12869052104058643
-0.09841749656407628
-0.7637829430994288
0.6744580989632986
-0.19794602288714147
-0.23459985263206673
-0.046339095187212354
-0.29559552152405744
0.11010354661817234
-0.025851774817720163
0.03034746545958411
-0.4845004096518398
-0.11828391912135106
0.09507425658875779
-0.25372129781889896
0.3804403486856972
0.2380903432951511
-0.5183396210001676
0.5457930741363839
-0.2783174432447185
0.19983654307334708
0.17341326509748134
0.23373117983715108
-0.4874655179984111
0.47588419783541325
0.038700481495129835
0.8872909176896374
0.08589866289945547
-0.9032902189028229
-0.4000972961142495
-0.05060676170697409
-0.3947713669852695
0.802143853605963
0.30564131710496933
-0.156903293553166
-0.5103846362359681
0.015232260689747368
-0.2797216365982721
0.4664766678502117
-0.5506297507874672
0.32038952496314266
-0.17369857368825592
0.30018657982598596
-0.04868099559588379
0.19557831344106413
-0.27624116405592314
-0.02517671034675717
-0.15403687894519624
0.4033557165409666
-0.2333978623271319
-0.40588665220425213
-0.6750607012531553
0.42500398578606857
-0.36409056308408383
-0.5782962569260129
-0.6291052282584367
-0.28692617063394255
0.5628388105958999
-0.02508232845633651
0.3379912687477422
0.2069302683528641
0.40902617538309716
-0.3422171667689551
-0.005402341857020487
0.7089639774334489
-0.49925837147634367
-0.33912775947423157
0.6123094303647972
0.4132324586184698
0.0848798554966742
0.32697524117182697
-0.7424244464652827
0.20871836815133638
-0.14591595205127228
0.2814134326369758
0.662632919314122
-0.561638722769865
0.1310610059217111
0.3024563083391282
0.6860449593531845
-0.41739486878105003
-0.592913960574601
0.23850923644045663
0.22862337450714987
0.2136783179908367
0.47061424673556673
-0.01850223771682935
0.3269488938509939
-0.022257496563424684
0.2115152145565542
-0.858793874517985
0.11597793672824663
0.17249360445072426
0.03656512753012886
-0.6865159530250868
0.5305517436942314
0.06049005130993723
-0.4845264039380517
-0.21165942081782652
-0.09392671816727494
0.5978776865502508
0.1718403360839963
-0.23740815255476155
0.6656548477496177
0.3399907791799939
-0.1733912156321954
-0.21160795251460363
-0.5409806131596001
0.23658301687133976
-0.014311563421185336
-0.13574224434133175
0.06487802693254385
0.46098407741113967
-0.601646423299213
-0.5685609497130192
0.002547581627164508
0.284419925529677
0.8579447705117205
-0.39280098222592397
0.6538399880267123
0.48944679602139496
0.08947429591602618
-0.1819652159128584
0.15780526615737767
-0.12566927651021165
-0.2674598178200832
0.026842750877374533
-0.2945587777508555
0.058258056034913075
0.31648510028909016
-0.16067512483815127
-0.45517066253145233
0.058998665405341155
0.06198355666944799
0.23517257916334822
-0.04980037717139518
-0.029165316510713746
0.853035878187011
0.5467430947380783
-0.3024081921325763
-0.29528597558074654
0.5931948752406166
0.23108185136383663
-0.9233413443991038
0.07421354630667776
-0.3410758251623488
-0.5594808913034024
0.3869941262530139
0.460093837444552
-0.10250602697202382
-0.4166787664035585
-0.18376589618334394
0.78060577003057
-0.43811734071808806
0.05040596504956607
0.33393374327187964
0.050620488257447804
0.7127462647898386
0.40392975552599975
0.28064546901819565
-0.7920736357243399
0.31174022095428944
0.7194398361545784
-0.30234362110485735
-0.4121060639408015
0.592728868407254
0.18099206081819919
-0.25484248616062555
-0.25522369328558436
0.6857594279597624
0.30389507634524804
-0.38169166370677843
-0.3111628698391161
-0.5629142065750705
0.1344670782953168
0.5575607649502318
-0.4035444171581707
-0.48145344701804926
-0.04859383107176185
0.15254353539247645
-0.009037608532424635
-0.021119005335073715
0.6526844811287607
-0.21571633467750218
0.04237800352030863
-0.14653292726263345
0.776358486437167
-0.2569304443401116
0.7706766007745773
0.666584906512639
0.11702773694752433
-0.13807045624150482
-0.7845826270397025
0.07059271571516934
-0.7002739954217637
0.510229838212056
-0.22223806425378778
-0.35504972739006746
-0.03553944451424185
0.378599205218896
0.33735690105502447
-0.4295336192600342
-0.647606989706705
-0.30823736666453816
-0.07854119366555179
0.2036444765020865
0.061681755962397666
-0.1773868291138827
0.7022250251755648
-0.013910055290641932
0.5607495535642322
0.27104648908671714
0.15286640200099844
-0.11298937513483553
0.10675533667326897
-0.7118366853271207
0.36486040757955285
-0.39633393209165724
0.5744862104958955
0.3086691961533867
0.38042330087332865
-0.8513295997376336
0.8380590313664033
0.22855216432078496
0.7698734600653353
-0.45897693540873663
0.28641357419043434
-0.16213314350432884
-0.12382821853441939
-0.07610979047859734
0.9061360520177709
0.2873935220384054
0.33108260281277446
0.940609531270889
0.932875557536742
-0.5626743112283578
0.03041597804237217
0.043101568866983464
-0.10195123754592628
-0.6117387957810119
-0.012395825701330687
-0.11703468174781684
-0.30766066273948334
-0.12303221115283924
0.2576852735008789
0.05702910497559255
0.5524607970045748
-0.6060382830722618
0.775992321607003
0.12285165546801546
0.4934741542351573
0.044380854041377815
-0.5588841020900107
-0.35020609446753026
-0.5245428954823602
-0.46171354224421546
-0.3565438636139564
0.4272972911818229
-0.03170097766755198
-0.5828364662852786
0.0042638860695207725
-0.06303184274130358
-0.3905330729897153
-0.4780783618073883
-0.26128495033358445
-0.361580733828732
0.004696032654876059
0.5299802248287834
0.5823126232933823
0.06930121559787106
0.09223163180925942
0.3636458873909528
0.22123215355524894
0.7342372067869246
0.6776273576814815
0.12568407226570844
0.45429518008814807
-0.19155886096320474
-0.6676458420754037
-0.5781126489625469
0.4330087802337039
0.012590009925061096
-0.5061042149556201
-0.5849295311130415
-0.2763925793036902
-0.025109519324912788
-0.290658224518866
0.2961689925246921
0.38076631851883513
0.4571816019573648
-0.6692496082732053
0.4605767898266653
-0.5208386771543707
0.4192259467820194
-0.40630345115368205
-0.4072641162725186
-0.18413646084701707
0.6080060816801623
-0.43879708920853233
0.5055215028154907
-0.32921210937544554
0.4928332993611898
-0.3309393040328551
0.6312890826186286
-0.504939917254921
-0.17069310046442565
0.6617414606187816
-0.47057754316203115
0.22121889881625711
0.005601233808518513
0.1258509270415078
0.1824377596934328
-0.4795292165152728
0.17072761305596185
0.030306079431500432
0.7422710335524569
0.5829179652798988
0.5957228208391961
-0.5720070403954992
-0.6531043416376179
-0.42180264458033223
-0.3096191619000499
-0.21371839983983743
-0.024448203682312264
-0.0922641702422109
0.5548053649452906
-0.7881473567195566
0.3978174667434954
-0.4867060058248561
0.38860616791525204
0.7636244467290257
0.33784550549614667
-0.2179968698522401
-0.07689876440112908
-0.16826691287905315
-0.12505063894247015
-0.08369170290761863
-0.4910761149763304
-0.5068337766990478
0.6717050631625855
-0.5393578324765302
0.3708319058030136
0.01656441389652874
0.1403962779270449
0.41714287019215224
-0.04740748996196864
0.08272668998277888
0.10855605836080062
0.006240645307639681
-0.27101964541506285
-0.3642816952655935
-0.5044278977422064
-0.6111389774544004
0.03513462893596797
0.01932344842524214
-0.24509425848182154
0.1983098308372021
-0.14662815835892928
-0.3250446000789493
0.1649402066139296
-0.5786305706908823
0.3872227280657121
0.44322584539938403
-0.07809912715914347
-0.34618690021700516
-0.6984175104346219
-0.6095404258773809
0.5709130309201876
-0.7577577434455753
0.25293404407110853
0.018387672787572695
0.0016289144328652805
0.3507373630825864
0.2276614028974724
-0.3870574520930923
0.4386971028053155
-0.19414133780365073
-0.12419176406631038
0.5710287739322436
-0.28232597222470934
0.8636800477495726
-0.5596679781020699
-0.22930121653516
0.12134753190800063
-0.3305949955701424
-0.40439747024769446
-0.1572367618191397
-0.2969670069196835
-0.1555427847382469
-0.04995858801295483
-0.2033164508829659
-0.28958469463029946
-0.4003535194453768
-0.00642319339798525
0.03269431087478636
0.46917273023074013
-0.6571286823279792
-0.3955553228674906
-0.9321078026748486
-0.5926258145927512
0.4010318065870112
0.527794008387401
-0.19854848575590867
-0.30921355818576945
-0.3321255878815339
0.6746429468082674
-0.6654078499501388
0.03133018139197252
-0.11082155034084085
0.4415587525489846
0.4019350182441841
0.28982951165404014
0.6165149475225017
0.088157945661406
-0.24481157297322087
0.3866983145473597
0.43991137036887484
-0.055126270595391214
-0.07575226138694191
0.6224539259644275
-0.07829308631660914
0.0827529848043077
-0.5619332843994574
0.15050892704635077
0.15503439194856838
-0.559744588647247
-0.5275188417916975
0.06733180738373867
-0.012652686200141039
-0.0747515961726084
0.6725645603958348
-0.3603376346574715
0.3783639628647898
0.26439449679053806
-0.49891500867059
0.11980940807751328
0.5915449940052292
-0.4895712432789108
-0.41024733733625585
0.004537362110355936
0.017299678034049415
-0.339365728929949
0.001174482480632233
-0.015772027700040492
0.04041789664729589
-0.23649753479151114
0.7580678146726677
0.0701849220932741
0.03161410688699129
0.19910469036765932
0.6945943235531757
0.48419708290522334
0.19671665469834665
0.5485700445832324
-0.37853337679338916
0.3618917605937422
-0.001057822133447961
-0.6779776447902095
-0.09970679536752636
0.05410269040284221
0.541473515255014
0.03599714625113459
-0.07236983351845905
0.4362408378901178
-0.25438720395588355
0.23868692803047664
0.03726983526026473
0.06904240579157017
0.1904111338660588
0.23139211360823775
-0.6350339117765306
-0.4656563519576764
-0.5652349371990425
0.6709956192276556
-0.6987516162340626
0.13186350123410107
0.5169739403684589
0.3310054895442558
0.4087546055505096
-0.2699589107564252
-0.7052723510573682
0.7906771821608034
-0.15300480896900992
0.4716401440380652
0.3358850200997986
0.20233524063854802
0.7634879491360952
0.9204788740934788
0.2768160718943222
0.23024311124650698
-0.0559563196647308
-0.04823756897280629
-0.2924825833583289
-0.19031283645681152
0.213747601554525
-0.3868422932031479
-0.5644451544216401
-0.19892580363398504
-0.8259908528255147
0.30609843606607223
-0.01892221209330902
-0.3429468903242531
-0.6178488634126759
0.47953108493748053
-0.533570260282548
0.21007539158874722
0.5561499238155785
0.4105090529601232
0.5116517017139642
-0.15305819633736584
0.6373034561485512
-0.5162369563651719
-0.24583158804017968
-0.8136187026250815
0.10041195583994988
-0.4301882584628832
-0.05467193345094812
-0.014492658509271505
0.3768804892356672
-0.014558423906393836
-0.07816346997137513
-0.21377692856454467
-0.11690893339506747
-0.3322674474589462
-0.08473213698830717
-0.8033849289049566
0.23493241423742128
-0.009761971584660967
-0.6684827299079509
0.2806612438516669
0.5148092240929287
0.3282363340142951
-0.3552501576217757
0.2129569477534965
0.41481408838945943
0.08459005421692889
-0.605390268582493
-0.6360599263718285
0.27025395362565163
-0.05600879410756743
-0.0694562238185703
0.12854650518746813
0.2311325525831034
0.14666371101628894
0.5917657228831477
0.2753946392641774
-0.16034803444898948
-0.10025672864644508
-0.5993315558154247
-0.022017466822079612
0.8455350801319453
-0.165664381153512
0.43632029259254324
0.9489241264863235
-0.23780337478563818
-0.033886552891895017
0.64995144244491
-0.6880828267579824
0.14214062406533867
-0.05324922589912884
-0.24505583412970822
0.35865701982591025
-0.2704713119133667
-0.1367046568346938
0.06226159452768387
0.4398806162436444
0.8637806573476411
-0.13100317968233632
0.03618987706940946
-0.04160569053576213
0.07409646320599195
0.34866661739353577
0.2776666004909474
0.1783211573661858
-0.41947129743910316
0.2681654462496248
0.8352353583186514
-0.38466355492925186
0.0451139281744134
-0.47114075175055015
-0.1598729729879964
-0.7535682243078748
-0.3596438605623472
-0.5120027148203318
-0.24801646125436472
-0.5352169732176834
-0.0022831442502622146
-0.2959581398438059
-0.46828981001806735
-0.1967068101858227
-0.2633036502184317
-0.22113450601952134
0.19290746935600256
0.36087719755333647
0.7342490979406524
-0.062188221198380744
-0.20073781743373342
0.010200206772028264
0.3582304862019282
0.16566312740057254
0.5842353066346906
-0.1842199866985046
0.4605331681829896
-0.3392560786888258
0.1904537749293015
-0.5915153294297931
0.312795593277704
-0.13352714259375942
0.6823851449464792
0.28721824524746054
-0.39574741148942016
-0.15831865071874196
-0.20950456930728634
-0.30049104630235923
0.4007339835623157
0.6268959568325175
-0.1265146985630552
-0.47130543107181366
0.03312005034941856
0.20782797413628007
0.03862849419462444
-0.7143190256123685
-0.32598072752093
-0.8444698585148813
-0.10126994128680522
-0.4606070982059248
0.3353855490782597
-0.803490163240339
0.5608818379114325
-0.10500990884553973
-0.15457311952049058
-0.5110080612800012
0.6160331422914908
-0.49238516974382895
0.7750376734470625
-0.2752836192545257
0.19889866126892575
0.40234263576246065
0.2330703613704439
-0.3132487596877982
-0.011723310979517954
-0.18602392414436564
-0.32330448239539944
-0.06332626306994482
-0.26822569284991804
0.36048606926531057
0.2346194122120112
0.00876622657453352
-0.8332368500237266
0.43660203218895954
0.5057312472407874
-0.7970423669309045
0.636835486868873
0.4727544501096107
-0.21190175807048017
0.2181698061564865
-0.1520499400360752
0.43995569350744845
-0.04492470969229734
-0.03954043882040259
-0.12355919825271544
0.24047638282043615
0.293973852375061
0.14389691042470854
0.26397348275960153
0.401561221952496
-0.22484431908511449
-0.5841898937080156
0.6120825541499276
0.17243112286591555
0.260369136285029
-0.30939834209513684
-0.1719514106432567
0.8592535517450037
-0.1149979327168672
-0.3101028914175171
-0.147774426568701
0.3150501916490749
0.14052398317447234
0.5425059539565608
-0.08653272193203243
0.6906936599495644
0.3292351922886678
0.09581452451625916
-0.12263717072050506
-0.20792126496603747
-0.4714532982249413
-0.2582334133358859
-0.19493316655389914
0.06857728187575685
-0.6736724526003786
-0.3460094362934417
0.31222842726327593
0.46167724403907795
0.1705444876651956
0.06475579575904034
0.7016595625727673
0.42000332043435196
-0.18522483696739622
0.3024644768431177
-0.06403899031911786
0.08902512941244678
-0.3804492860628721
-0.09406240214248596
-0.18706464342134355
-0.5810281405071187
-0.06369427028330554
0.07710903235317823
-0.34804434379059657
0.29415210702212735
-0.36999398099756686
-0.6092689711585559
-0.30120283974657425
-0.031071718705357743
-0.11699982161946709
-0.21651701680407875
0.495899381550968
0.2505849535708249
0.7921017939922813
0.38547779120043046
0.3037718311175248
-0.32658430362617863
-0.32642138514447416
0.3008671073301057
0.17740968534367352
0.18213065410580076
-0.09030547430131697
0.4766777352368835
0.3973182428881493
-0.4006041384834331
0.5631409096773247
0.18941424655600492
0.15013528703613577
-0.7576264120101478
-0.35380976039270395
0.5824713528547625
-0.1281695781087292
-0.6716006670507987
0.44853952510377504
0.19680408051750142
-0.5595687493417506
0.15553746851173644
0.13360918900834884
-0.33280799644638526
-0.25603006823580066
-0.05015705125988146
0.12136560413981134
0.01832570060605765
-0.8389970930811924
0.6199624146198112
-0.9007231678613222
-0.017411225312638612
-0.02796093697146329
0.6094032594483495
0.6116796722283997
-0.16504789443609158
0.06056016755106575
0.06840180139020202
-0.06404412648451174
-0.03789773531921892
0.24245051251247052
-0.05099351656955131
0.2734958743381667
0.4854455827471512
0.32773517117068407
-0.6463076211860597
0.31749415296239036
-0.31119449942391453
-0.2278825379873899
0.7436356966213161
-0.0018754075211782073
-0.745963364820356
-0.7196318074635701
0.22033818152081952
0.13792247636857413
0.7610217874607741
-0.4051854561532874
-0.17926703722133608
-0.8390728297573027
0.9364341166094821
0.9418392643786901
-0.18741249521717596
-0.5214664577816454
0.016613259188944962
-0.2273152186706926
-0.7377553268551676
0.6280696152213011
-0.5941611953857153
-0.21568267036336697
-0.22728125140896305
0.24119710482357049
-0.0347361928200286
0.4997830694394694
-0.3121428873580132
-0.2363057673108342
0.42752418873868614
0.37797760479627707
-0.2656930487506619
-0.41834657140663434
-0.05238109001076707
0.23271411840286427
0.11624657739593702
-0.05887136927744063
0.11020573099851316
-0.23901198601639773
-0.26877829464868974
0.03158923507886213
-0.04233713671375183
0.06097320907815962
0.5465362587660075
-0.18133851764539577
-0.4017631292393542
0.1957164525543429
-0.46670392953689277
0.32244645605196853
0.38337489699106164
0.5564515851148993
0.6623501450798057
0.43082166644356545
0.6024853220706707
-0.5963961901728688
-0.20320517555241402
-0.39708569912809466
0.003414269137598902
-0.006319634387876305
0.4492511754232835
0.4272119728598808
-0.5026669280234184
0.1232078997638173
-0.3235331027023842
0.03317777047823811
0.180590973479123
-0.32236135253959974
0.38473462086572086
-0.2710986834065069
0.11667215305879453
-0.34048813859652394
-0.07503870092805864
0.49350829227993154
-0.594656530513001
-0.09651529424839789
0.6899632253915459
0.16424697137702604
0.2788933999206167
-0.4389454557322383
0.10899888704270533
-0.2576624251092876
-0.12692838963959263
0.4349774091449641
-0.04835049289914117
0.8813474418215766
0.39983724988571956
0.07998370505624641
-0.0607430211226575
-0.6098989958044831
-0.06540266580416543
0.49414929214640557
0.06988967435429072
-0.45933879178510295
-0.4714122033059934
0.1010910473342046
0.5398508476081616
0.07234276336700796
0.07509319699478656
0.22401251220688356
0.7086692828607132
0.07793836005662158
0.05285579746795044
-0.6862887195971128
-0.0026553964869165947
0.3696551629680652
0.5661371037013118
0.06078836427724499
-0.05997971206671904
0.5846568051428065
-0.03220533116784241
0.10740596561512072
-0.19400195627588057
0.08997633429444363
0.2366026967983782
-0.3913827681080073
-0.14790313285658874
-0.42172103485793355
0.41771274786854173
-0.2317294963265788
-0.1518044679567191
0.318624616987327
0.3536363167188993
0.21482601503346332
-0.06351860508505747
0.06129488828655605
-0.21929570258060105
-0.044036933031394665
-0.6814233522895772
0.23528109799757346
0.48572343689368935
-0.02636306299846214
0.49369679975158576
0.29833684218420264
0.4340371964722235
0.795111778690554
-0.869869154804718
0.030331549098498556
-0.24586658127155836
0.6158952285876269
-0.249012039413693
-0.4469923222220261
0.7084256930171219
-0.3931705122392375
-0.21472256697397551
-0.4156470228865601
-0.58258918709377
0.3992054760270781
0.17947288331263622
0.09421768326508984
0.7136403745968003
0.20722538938324597
0.5482698361951784
-0.0038677683264641827
-0.46485006138763074
-0.36996255055647864
-0.5951909657741653
0.15537893794111501
-0.4833460563445262
-0.3399743803126596
-0.22202539438515645
0.22213508841553242
0.19265071187280858
0.6657451037294391
-0.005773002965346219
0.3179257931298386
-0.4648530316388272
-0.27718848519535233
-0.563495902155522
-0.22554020833380928
-0.5854205319678286
-0.5255542348506335
0.2846089380888195
0.4195466253519685
-0.10203936948016801
0.15165706083646702
-0.3376468064035082
-0.22526127304931542
0.5632168996288839
-0.15008297757270206
0.03171977591842101
0.15366598290992062
0.30675586432082014
0.5067647626312727
-0.28227694331163233
-0.5344438220482257
0.5227539081844313
0.47572680957667135
-0.6121367622693974
-0.09673513386327603
-0.42500463760043583
0.38634594261330557
0.28977938964447736
0.585135844191542
-0.6011565249306334
0.03176323255212321
0.8341437081199052
-0.019892596104289395
-0.5114259523347645
0.03136893507514371
-0.23869060806004816
-0.4461270668653671
0.5290614347431869
-0.553203618624899
0.2285470943294753
0.7452854774498501
0.27623658129335404
-0.2455354611673558
0.621906932835061
0.5002275415306355
-0.08893999807250985
-0.0306494369422341
0.1480218715457442
-0.7619615487012622
-0.04886938717045797
-0.0562470542717729
0.10119625096925633
0.10558548863504313
0.47846588803090395
0.6661886283924593
0.10529329638945573
0.1440835843039835
0.1695379458389208
-0.29655812381157165
0.16201139048658697
0.028647721303444618
0.7264119460627437
-0.22932140867977324
0.32933929280171836
0.2471264601562726
0.224226369438716
-0.27223700422457686
0.09293726119355494
-0.020003567743903217
0.949218937875011
0.04578187100289677
-0.5347046861559732
0.0950968713432857
-0.07498328085591377
-0.26140140778840526
0.2150360976661253
0.35091140440223756
0.03597021011484347
0.45289217249674085
-0.590747575992363
0.4469658619109269
-0.09660787221046363
0.07567860562057971
0.42786321203352284
0.7676900885939578
-0.819760450315968
0.09846795707496925
-0.20482735194959278
-0.17542879454626825
0.2603832535011631
-0.2403322079486212
-0.5033971359901493
-0.31661699675739485
-0.372653470120487
0.3837508677413711
0.08460924978714213
0.5557609723021947
-0.44329217002259746
0.2517082213274098
-0.7718286659876883
0.17907191762839325
0.14376160543254524
-0.07872948354392073
-0.7796815749156709
-0.27414973070177595
-0.14126430757753605
-0.1024842953969749
-0.0331552799199023
-0.587012304602513
-0.8119185877853312
0.054493728522808316
0.41397552873540755
-0.4478234994898026
0.04609180799375601
-0.5634833672928544
-0.8337062815484129
0.21777623581793093
0.13105322508819017
0.47694862428476725
0.06563378392803842
0.4609357399332572
0.23291500718457714
-0.6633717561999545
-0.09185565478019664
-0.3054606881240026
0.0069917656240573445
-0.47447534275850467
0.6176510240243159
0.678439281008869
-0.18853727239052065
0.19313525600494852
-0.16036505676956014
-0.06467006097515382
0.22925993250136112
0.6287193808556898
-0.6963718486383265
0.8335575417606506
-0.2916725702387133
0.1864016438141305
0.3333178372428186
0.22309907507215954
-0.42685465168512615
-0.04770080771569318
-0.3306417934358139
-0.4328317447072808
-0.19260132654009543
0.2939840756515034
0.18291613755878167
-0.7279915271984452
0.5389720747777044
0.7219873877953589
-0.3222428097767174
-0.4586878287386863
0.2572951169134712
0.12575001608429748
-0.3505180666061244
-0.0533376590547614
0.2573942305249606
-0.016539194412530267
0.329805549954463
0.4422004046935827
-0.485155502990801
0.6813906270730027
0.1753449403298849
0.4746324293005638
-0.4272272531062875
-0.041671696138856795
-0.2548843787341063
0.21603163355966648
-0.7549904758680308
0.05256454159923374
0.3684420498748111
-0.3805142641035587
-0.29986604161738106
-0.21119187746249224
-0.29639772512793605
0.02147830398715933
0.330496523511401
0.04739205708413419
0.17150037138326246
-0.10264218160688088
-0.0773118740283345
0.23226755257883658
-0.4630720914667701
-0.15293846947132117
-0.0889798890554746
-0.6879803769913261
0.42342753835990843
0.587487639858282
-0.08305212341327195
-0.7331356778964722
-0.74714277284115
-0.34171607651481317
0.016570368167769245
0.03427358965930305
0.3864595449712114
0.2219034313754008
-0.40070292545387776
-0.8689556447389021
-0.48891605729671794
-0.43557577282430315
0.5474371641510414
0.6308946640317598
0.29509913197430204
0.14556763317959887
0.06483677206130567
-0.46476755893744925
0.306789050862891
0.0842486386157012
-0.2132970256229889
0.5249587839905059
0.6016450872301093
-0.464433656764757
-0.8544909904530358
-0.018644342465930164
-0.024013266221352136
-0.07572292886666987
0.5227646168570332
0.1426331920560585
0.006644720737202792
-0.1920792651906298
0.21633280346055506
0.399476490103607
-0.14263975824099961
0.5057429626729696
0.1487945195725221
0.06295881532317116
0.8054292687282966
-0.3426726111003565
0.2533551213466213
-0.06312653313294392
0.7550429702612075
-0.6396792118559307
-0.47219156781766125
-0.8240607920656108
0.22515441126141988
0.5801969942556809
-0.020842916703609826
-0.5852535897174254
0.4268742895535854
0.6360980088374105
-0.9664142923554141
-0.17921672852033954
0.614153268758004
0.03723095035372681
-0.07384336495988864
-0.014927200940267116
0.508121059085721
-0.08750714404356152
-0.231816564954186
0.6331451088196444
0.7838458593426219
-0.12149336526556498
-0.5106572926459417
-0.03291366776682736
-0.9434952486348211
-0.14287497043503894
-0.08634641124354736
-0.2722930801340995
-0.5930046690534266
0.14828842052268643
0.026388547148119335
0.27464866121481446
-0.8043011946147354
-0.4163777678903161
-0.09640882297298203
-0.06536429544889533
0.44814363195757423
-0.387644910956911
0.23472204186169066
-0.29679952703241963
0.03445550444984702
0.7275810645778542
-0.3948420408756935
-0.48953990016926974
-0.4734505520291177
0.3452226366063579
-0.24939216491094296
0.6399039966824551
-0.3227739602594575
-0.19269866126628865
-0.4369463868015434
0.24314909982629485
-0.006052218732974235
-0.15606868066878665
-0.033788905032585026
-0.319625161763644
0.23016175590903964
-0.2659613334366737
-0.21181012953488276
-0.5952575860032466
-0.18293110756248898
-0.2601024462866506
-0.25161051921571975
0.31075924388426757
-0.40510779638413086
0.2255561259468588
0.25505984883050625
-0.09617905941358651
-0.29200186111236726
0.2345637633130907
0.6272489512304144
-0.29770536819189586
-0.4208323243502079
0.6241460394649924
0.35173588480036133
0.09895053603511705
0.254048527903343
0.32941731520169537
-0.5059353753023863
0.1913120151444262
0.1867487381777957
-0.21572073029532457
-0.3185812613975896
0.050629069973230134
0.010965123844160263
0.6689651099185611
0.2679052317084579
-0.009280106920676712
0.2673134617265651
0.14467105938833147
0.09796014206691217
0.6326051240365429
-0.2557335661139728
-0.05007353827341565
-0.8631753329571732
0.9672033770127917
-0.9107706894720807
-0.19737246622542526
0.7407759738307685
0.13949884513419075
0.5774547420963169
-0.11941086021437197
0.20166052549568825
-0.11189554804257618
0.5070346797039431
-0.25078438549937043
0.5170286271581488
0.5735794442071537
0.31714813391748187
-0.16927448486070207
-0.5141010587826784
0.7508185608730669
0.2942220687732049
-0.5406494384346271
-0.21821729703299186
-0.47037611260145606
-0.40937346251280216
-0.07013708375444017
0.04106949326761189
0.24372603731586673
-0.5965838422186436
-0.3922310199221707
0.015103673071243606
0.5978938198344258
-0.16824382112507297
-0.0493318552286548
0.5454874430019064
-0.5719107621969068
0.1221466330189308
-0.2075482756616437
0.485709811567807
0.315272086192663
0.14186637809076674
-0.7680933501969434
0.585636486046668
-0.20177592849190296
0.5502715025879353
0.13916061519133116
-0.6555402456558099
0.4624986439619311
0.2173399969105333
-0.5597724197603151
-0.17830284851940803
0.19572717304159615
-0.3300864636902937
0.5701363163000684
-0.6788272746925603
-0.5807161340050829
0.012651673925409446
-0.03201773018843579
0.6653820583833839
-0.5366695326634967
-0.17316536108512726
0.2953796002998874
-0.7379841270218636
0.6584461659560265
0.4874092367738103
-0.32458663572695334
-0.5988432190085929
-0.09460904155766692
0.1431592608064377
0.43619034384864064
0.7699227831629861
-0.0379781104886584
-0.7620973861620745
-0.3080929010242024
-0.3932483519278779
-0.21597561218944417
-0.02829441974755298
-0.4255834662786022
-0.026938875886200697
0.40033605518890314
-0.5314122830747854
-0.39417985363187236
-0.1655382436016073
-0.4465944722371654
-0.48087188974116357
0.5434790348156128
0.5343697586290906
-0.6289812273140791
-0.7597417010620132
0.4495329953754358
0.08496922212309843
-0.2983293928182712
-0.2530343188817875
-0.07390839438558183
-0.264935974880554
-0.27364971996675813
-0.8592775635638121
0.3817443787127165
0.03615054809567786
-0.48025597555191524
0.6044954399644453
-0.15788066810588475
0.035550416095604165
0.4503968980096352
0.16020244306986942
0.24562053227703973
-0.6446931439031188
-0.08539861101446355
0.08986587013073288
-0.6237338609612461
0.18279671266306508
0.3841098770004877
-0.24019081724025504
0.009113171944120868
0.06152931675030893
-0.1098358954232922
-0.08581207026265236
-0.04788133025420516
0.33100143299341267
-0.035197078600221365
0.11845212691639817
0.2686244867619545
0.4038831116994873
-0.6054869133241985
-0.8811205784316847
-0.25440058413133826
-0.2268211831097514
0.326758267422364
0.16434573705291888
0.6063221863652721
-0.30762574047169755
0.433982239447015
0.6422380848475822
0.5293642960304683
-0.06869684616687577
0.5790243297175498
0.22238777003796173
0.21624201236504947
-0.14726571742796546
0.520374114441729
-0.7441237073230038
0.020583046609755518
-0.1492969475753101
-0.09299802490741671
0.11842317971554295
0.21286527944220845
0.7780159177496113
0.09478301965184022
0.09223890501896548
0.7874349874685259
0.001709438160384602
0.08663242234511348
-0.8114935410321119
-0.20421124554417447
-0.27190171246494
0.7523359947009519
0.7299285032370924
-0.4367101059600841
-0.0468557872597426
0.2325515915311328
-0.026647769568671653
-0.21698237213664984
-0.29451939243149583
0.759128876739634
-0.8580264536724735
-0.35484004281405357
0.509091381701682
0.0972503005851888
-0.13108545524633475
0.02752301799857171
-0.19217733908452672
0.09364772008177391
-0.6529823936636705
-0.10248254140539181
-0.6719721182992909
0.6932624990910928
0.13944711588319403
0.5512573126745904
0.7385389991300152
-0.756548889173626
0.5539794083838003
-0.3532624162292054
0.13641315058540404
-0.001259495956401513
-0.15686479586224367
-0.5712342930463087
-0.02439598338827631
-0.5042902983827545
-0.14854700018021338
-0.11807461713931444
0.2056311444012353
-0.009874728903634278
0.13165212785304958
0.13907824839395855
-0.9106982561275041
-0.23414727575119454
-0.06985083507504763
0.5484830181045707
0.29035169302040387
-0.28912744389670264
0.07378679809497801
0.7869897476940302
0.45594177531271896
0.5955207941806856
-0.18726484448917202
0.20264129828258914
-0.3189624137046373
-0.03650211505507894
-0.3040689664912457
-0.1241584012123984
0.461240888497473
0.5016717171276165
0.7205316235936496
0.6139618632769687
-0.4112745325181325
0.05026257500520992
-0.1054474137507384
0.15892112512353795
-0.1867408022692031
-0.4632057012972116
-0.3264843302073581
0.3377438089710256
0.1251928944924683
0.37190730884617773
-0.18767092941668317
-0.31640594521934284
-0.6177759230947054
0.16021052812372905
-0.1740646591370809
0.30200312771022286
0.3355349389325486
0.07614442329801596
0.020811087945519557
-0.6863927646918191
-0.084302090092781
-0.4212952472401753
0.12680086630458698
0.21822239815916755
-0.07817508962866582
0.07115912489786358
0.6549000341011499
-0.3016811998212955
-0.03821600839664496
0.5818834540283447
-0.4535767674218111
-0.18784961269991018
0.2750959007365016
-0.281756166104316
0.2469844455820447
-0.08213058841250687
-0.1114235214744912
0.016459281622163258
-0.7289903023725086
0.15906147076510724
0.05694139782148855
0.2672912908803933
0.2764977421175666
-0.5464879942195211
0.3332285303836221
-0.3329255376410376
-0.8165985971307722
0.5012162745775033
-0.7350877053097102
0.06687995365643862
0.8359791015884734
0.04412244666533616
-0.14563100784553507
0.7233499322212604
0.27439106633904653
-0.32128662234440053
0.699331518363531
0.4501281136269333
0.45830327206230415
0.24547610393259334
-0.036742375396321525
0.5632082715211432
0.4844222507139926
0.10310679626668395
-0.33367018848032926
0.7367340819612006
0.4296850787770343
-0.0058744107512237465
0.21951090275587448
0.48749126389189323
0.10555378486237355
0.22648693611100512
0.8254681081487975
0.0028737585682443445
0.6168351790916128
-0.5093973590787719
0.5634526626752943
0.285437176286084
-0.5347413314869869
0.31649259536404883
0.22400249097537506
-0.06507025653175469
0.36935361702978375
0.24542762491691106
0.11208330155852508
0.11594269712113037
0.7004615585258918
-0.02358854106559649
-0.15687811853938227
-0.288423812768029
-0.01601403339258478
0.43650674532532685
0.4310718956494831
-0.47903738996872336
0.26252393964196197
-0.8029444111337685
-0.3290210855294905
0.16857439581760525
-0.4244962764786053
-0.01876944960982152
0.7463401611092596
-0.01978515729959729
0.33388446132649874
0.2616619575360948
-0.08343469998990216
0.17632685626154943
0.44667056936945726
-0.1870741515006319
-0.047016680863407045
-0.23992135881845833
-0.020409983895160022
0.6523080188463349
0.3434891876674393
0.15003688134167525
-0.05106086099027851
-0.13864914020837105
0.4310602431645508
-0.7241819986273385
0.5522221645766423
-0.5968724265150205
0.40405542004521433
-0.5063292099530682
-0.03664589531498219
-0.4053505599432474
0.5373899606249793
-0.06074138643490867
-0.5064189621992231
0.4948626177409027
-0.02654526823093295
-0.5736545684596903
-0.6640869646643915
0.20070720305933498
-0.48341021444594645
-0.9588419650849362
-0.15020404489671635
-0.8173061033074371
0.08567081239410923
0.48476344379889824
0.23426321093009517
0.3867022316658092
-0.0041180636624953415
0.2723559689793903
-0.2998141660930992
-0.19844976784163404
0.02667718914242323
-0.258196357728425
0.14317436987228882
0.7074150971822574
0.033034014870232276
0.17508953809492
0.35348710235927994
-0.24499676592773845
0.04532256171891025
0.661504059614613
-0.13728091234557271
0.12241672734595799
-0.36441079749361904
0.23995900746159504
0.04513503074870362
-0.6328309202648708
-0.5005311122340191
0.3518753322895187
-0.4811756256482739
0.3044585830515947
0.02267009985096191
-0.3425518015342822
-0.06918933552650453
-0.6463123430157797
-0.3105082394773725
0.5085795056192061
-0.6727489227386693
-0.28699234531370565
-0.2643690047890972
0.15019263348392542
-0.3711783163616651
0.6621851619158506
-0.8769100184017535
-0.3291060885861836
0.2653561646537903
-0.029824350922551535
-0.9234033606704046
0.28084359487358024
0.30812160594031557
-0.33750106222318554
0.10928736566775288
0.6034533332618282
-0.5544017687375228
-0.327608810418199
0.0380445989791357
-0.5867269181610372
0.4232484561674278
-0.3053604766840057
0.02191040678737266
-0.11708380527479001
0.359799703836736
-0.3454591578501668
-0.6991526684461515
-0.3350391881457342
0.7288318283676638
0.9116210393444966
-0.3490048156585406
-0.4332330686957776
0.2534566515999557
0.5492465266674356
-0.19759415295756133
-0.18043899276111708
-0.1701739222918709
-0.26612610692761396
0.05493006806719025
0.23842595591719806
0.47764112040199713
0.6556306530544276
0.42813656037983194
-0.2572983277471881
0.019371207740551566
-0.11088094186104935
0.5615604056523631
-0.20150553712976915
0.560621404568399
0.21048718561507918
0.007306348454016676
-0.25267645086142443
-0.6724861170545723
0.45135553718484844
-0.365676089374953
0.2937471679511754
-0.3510023265990576
0.2515619383756458
0.5453412439485045
0.19249262021125413
-0.18077468523166051
-8.732136645219768E-4
0.5948925936325972
0.24572505517871057
0.27385119597897245
0.35989460688136254
-0.6837112712681533
0.328802832689305
0.9861797055023462
0.6015710865993659
0.24219307568941406
-0.6647917548507288
-0.22509170480476726
0.4604533667693188
-0.23484103484615715
0.5686934973126709
-0.5888115809327098
0.46489860271536054
0.0017844114427501
0.31475391534436004
0.0031393925797700284
0.11964324248425517
0.06147760655321455
-0.21835171542835097
0.13825764929277407
0.027050730375786758
0.6013328011780809
0.5537769551347472
-0.12960826340504394
0.3379980721168211
0.4098192980907298
-0.20608502276384222
0.062415183646865935
0.4156639794319644
-0.22114700437105606
0.23379731613055665
0.043871984725328605
-0.06849488984804553
0.36396420742180924
-0.22511794258476248
-0.6103649008689696
0.08190857435487608
-0.7537149008152861
0.057375207635463
-0.1734107207407415
-0.07960871216652687
0.16716669247516103
-0.4183467603668177
0.40929278245625744
0.11640274943198081
-0.16418260772099624
-0.22224385785520873
-0.5305280321331296
-0.8161628531483404
-0.02566190606548646
-0.3926560464058708
0.737234576717052
-0.31236827652488863
0.38864105005346516
0.13518383331533723
-0.4621645610195759
0.021252496589524328
0.505303349748857
-0.305018132702808
0.2214261707113414
-0.020449760358334346
0.13400442972748472
0.07850173708304453
0.11464106385477679
-0.016181158303105958
-0.7529257674297978
-0.9765457853733585
-0.4197734778461114
0.037720030476124156
0.46386028520519407
-0.5507070471251858
0.010293574094616842
-0.505084631804187
0.7080638478775522
0.37846440650737034
0.48070039902651307
0.06652963851143845
-0.46074795327231066
0.11028320579016238
0.520902982979551
0.1862252225513773
-0.10791296560790475
0.5257756516160964
-0.43673705175450606
-0.5165390853458213
-0.07039296504462667
-0.21804759043384148
-0.00432522114687206
-0.21509184216040111
0.40712603508852596
0.49310855107823726
-0.5068948493913102
0.35389081046443494
-0.059566131068701234
-0.23755776242144655
0.5795408307466074
-0.027540991563430817
-0.14385757027821233
-0.4018696422117354
-0.31036045099800424
0.2338160557782072
-0.1781422171551078
0.6047317421806948
-0.5433615144703942
0.2440786421315656
-0.2288419139127641
-0.029418765042491746
-0.08669078836957511
-0.48268122475704356
0.30152322432462775
-0.60131068327109
0.3442400081246848
-0.4594151224467551
-0.7379927552806437
-0.1358585307797323
0.03205736818729443
0.3629096647554524
-0.7158520017708679
0.39896496463299935
-0.5469659494939767
0.5703275805627529
0.7605912030611504
-0.30344085413238564
-0.22168440162924796
0.6004527046736047
0.3118578755932503
-0.01956966091538126
-0.5666176030767736
-0.260454403852572
-0.2958682967635118
0.022748025778593695
-0.07624745036184566
-0.5323047813918773
0.21725834527420307
0.08135619308825326
0.5808922479729212
-0.13184616263711346
-0.007813952680926328
0.1889755857990134
-0.33101285722452967
-0.48534444549638145
0.21948887430984643
0.3521333449749805
-0.0875411633231149
0.10801254735207855
0.11724383388545279
-0.3960126464316054
-0.0932713678378897
-0.42105762202426666
-0.048929063673031625
0.28710075387249323
-0.3844169336480787
0.11293862040525482
-0.6899031507102057
-0.9174280185969198
-0.21908035149568517
-0.29786841042909296
0.4510300348991213
0.021970120484682498
-0.1307236586509013
0.12537408905405922
-0.1381623829730162
6.494504161939085E-4
0.8225194939906074
-0.15351553353072933
0.11831196854007842
0.0204604651222815
0.7419749681151692
0.2707921556942543
-0.2714576900571586
-0.3945898741343218
-0.010420895141304287
-0.3252471019743366
0.6386570329408655
0.04388874488930661
0.10591398879176261
-0.3415828327388174
0.20829079758543445
-0.3047105026433691
0.09262556095265329
0.3355176147830844
-0.22824009909582332
0.3907965402496554
-0.1564680350935409
-0.057817617397234566
-0.1589741676196853
-0.15263587791595712
0.46390819508170433
-0.12838357265471834
-0.8948468067017061
-0.009727875247181661
0.555920681685768
0.20965771980963277
-0.315434049195632
-0.7546260854914443
-0.0642824362840998
-0.4972142403597901
0.07568415625728386
0.4801195998198453
0.2363964904591832
0.2737294647868539
0.21364964838161726
-0.1478031638879418
-0.12456341385019909
-0.626958898220326
0.42796421646982263
0.25767263315904765
-0.40826160841172743
0.7230604702166136
0.3213592920988968
0.44865013872450565
0.04654544960295959
-0.17067271097677938
0.4907566775068769
-0.7979174851532386
-0.3218329071664997
-0.4766256730563875
0.21242799937072132
0.46465721486174716
-0.5894146381794825
0.3473913452388644
-0.12192506746113918
0.053768201205841026
0.12408556872404586
-0.04445545334454615
0.11097231272452712
-0.1676390616748905
0.5488596055377868
-0.02315386829580579
-0.0841048623241758
0.9046858074748423
-0.7041845311662797
-0.07439268504494012
0.6278379726690523
0.40165812071601503
0.6477727304240247
-0.8479224286578583
-0.7788850677340884
-0.17039940415375898
-0.35896017679695436
-0.3993584051318042
0.0765153755153144
-0.16694233820669668
0.7921645693183877
0.21430022817041383
-0.5286580520037064
0.4449419788710913
-0.5417163346612043
-0.22002252724470683
-0.5096319841211205
0.39995325970998175
0.1496610712192027
0.4918584837199892
-0.6501341553841322
0.11525363980414138
-0.552102169727653
0.13520019370759007
-0.4627274202360231
0.07055222541951678
0.4971075900988804
0.29782374058092986
-0.4670546153082372
0.6878927055515994
0.17577198802045313
-0.3852073613382784
0.8247771405486313
0.276591653446992
0.25071817860530154
-0.48081893275499976
0.6588740782566421
-0.05539602464687854
0.30577362245985085
0.2209735701776745
-0.3796376781399716
0.2771162518879403
-0.20449515037048827
-0.1955718307972728
-0.45725991643843644
0.30569422408850844
0.579780726432287
-0.5292614151711486
-0.175380977497391
0.9372929854312159
0.6490507876776317
0.045811865498817994
-0.15438131578582392
0.34484856711000855
-0.15511766280585793
-0.2910041614996398
-0.6749517413832132
0.5282450700517979
-0.25998586980223337
0.04466473491488221
0.30675317076131525
-0.2878884345719216
0.3828448111453655
0.16515539940779134
-0.6028911297495989
0.45227580791987765
-0.790871799012504
-0.3824572687346922
-0.027763932067427888
0.30665276257674934
-0.24080223271380974
-0.5188731539967033
0.15327359697391918
0.42983699490976346
0.6141175110961057
0.051486145233269
-0.6082543778815708
-0.00862183803915717
-0.3139317763345253
0.22182070552449118
0.02342573945554194
0.21727448529610505
0.686754451366086
0.08855498572349929
-0.8219659297290189
0.19330303038739594
0.3249932454176617
-0.5796633462258527
0.07852137295083972
-0.023853244341603963
-0.5203017466458435
-0.8715335105449895
-0.7114495344766318
-0.35932040280490396
-0.05359740706027538
-0.1894005253928166
0.013823384037452424
-0.084018431647774
0.10091126628790503
-0.43093051882102207
0.630515041318179
-0.40234020306208185
-0.26605784745141525
0.7344434000242838
-0.6851684955843373
0.12797010541642462
0.5600705847666613
0.8460204998562528
0.4258928849813859
-0.5149381224381337
-0.5390042497963473
-0.06052672677113036
-0.24372690541680697
-0.17280813467291567
-0.5624349622236978
-0.2201743611531971
0.24614058400054684
-0.06109099010439534
0.31649223476239186
0.12667244717857395
0.26746551784084904
-0.27373108506281885
0.8540106857987806
-0.5901876622483969
0.4119961608175646
0.27500068064810834
-0.008459417245082257
0.05361507892650175
0.37705861337563895
0.06008863969934364
-0.4920922342619023
-0.6309915812204312
-0.6593513165511783
-0.08488440868004277
-0.2369343734153717
-0.08199332784975677
-0.6382513697713994
-0.2088381597337996
0.013567016171481705
0.15699448069838384
0.5671092303914469
0.28736286550232804
-0.4790941931217103
0.5912227332758587
0.33852144939469797
-0.08898345698304122
0.26548119360629696
0.11092266623571012
0.2805048703411459
0.1824640852109306
0.48542386740752763
0.37695521480416305
-0.5763452026735522
0.05515624335547664
-0.05233010230232393
-0.5957120599406813
0.15384350018380977
0.7324861869290418
0.12092453421647642
0.17593525305631197
0.31259318612394815
0.09182668489043544
-0.7000520563259547
0.04043142998697813
0.05797006683786299
-0.10306689715766293
0.17873887861187998
-0.22968608176229433
-0.6126707858115892
0.22032843310006867
0.5967826364580537
0.016387234260144767
-0.018795412191806027
-0.6038361323368309
0.7813361920193468
0.2916808461488014
0.21730526991935883
0.6958043362441231
-0.10754439477297895
0.6414612950850525
-0.07364496028547884
0.01433161185757903
-0.440054372426232
-0.14329727516386603
-0.2859141677118723
-0.3056074622345556
-0.23036198479126957
0.07755900996307985
0.6603457506075848
-0.22566490799516747
0.6490962078185241
0.6045875918590177
0.01697999499770153
0.6347332859782647
-0.034093893902183425
0.5163242641055669
0.23249820394223175
-0.08553710635329281
-0.252328313287132
0.2999825481451235
0.2439465177517528
-0.5326957354678156
-0.10455990943108728
0.034019881648991945
0.23144420524110887
0.43155395183671297
0.10117970518695774
0.2167464397636173
-0.005158879105875869
-0.6598887472608912
-0.09742596861647024
-0.38413063246224444
0.11591682594078345
-0.3671418206415906
-0.10734282544648832
-0.49783175710605954
-0.11339525350558888
-0.19459319490534788
-0.39505240492030014
-0.05334842300831144
0.36247677750669416
0.09852506703814368
0.03918453869973593
-0.2709411794230667
0.2840625192921056
0.6628656772832403
-0.03774582774223412
-0.5550597108792764
-0.09154073995445478
-0.7016455230011556
-0.32700555660361974
-0.1878355648226281
-0.7516052255804354
0.1570317082016457
0.005811053934892674
-0.3781494431214968
0.16890783635250683
0.05689093196117423
0.5078877392931244
0.49531412574353695
-0.34168754639716936
0.13078605343535377
0.5171419587203842
0.060475210502968224
-0.5387424667687828
0.015774888280962518
-0.4487658002464231
0.5104101448083906
-0.05986068698544533
-0.5265729337010969
-0.2708468273953224
-0.5233858824488841
-0.7328064304306446
-0.032014234064687175
-0.12938707821948103
0.47993419784680713
0.24417312456311624
-0.1731752869322044
-0.018749486579540786
-0.37920358341909843
-0.830314290535847
-0.554716502071713
0.3078424825691798
-0.7482980368477814
0.005735127194051448
-0.30764880586744425
0.029293014346749136
-0.44351796389546616
0.058708404480269594
-0.30775456967515324
-0.5768720988564079
-0.2752105893756831
0.0626837815936937
-0.17174071467928176
0.02733620962872163
0.36761786739407565
0.6829656991085172
0.4227159312245026
-0.47552433355169166
-0.5168091376299876
0.31385882281134747
-2.780225580122364E-4
-0.39514619852783617
0.02700913406188421
-0.3501367341190337
0.1028174589738422
0.2894322829911443
-0.708220857344541
0.7339260680977867
0.388650179700034
0.3591346237637987
0.25257708238622334
-0.3146092036925183
0.18950320174975022
-0.19914521593315615
-0.019844593210925354
-0.29865245919728445
-0.3417686894975611
0.19220828435265713
-0.038988297051430254
0.17062209578960708
0.8560038405172876
0.633841223753627
-0.5306364463716954
-0.23481505795563884
-0.4423601916966675
-0.2899424680777505
-0.07459929469541371
-0.30509744991262233
0.4102579655992755
0.17221231585119134
-0.6664358962612954
0.15250179633930028
-0.569612497438619
-0.061355487596562286
-0.014211792467180073
0.4080006656180608
-0.02663523742203089
0.8258376279589884
-0.6295011816209175
0.4973089728827075
0.4015817391412366
-0.12895076955347207
0.3119418968187503
-0.7374011959344414
0.06978436489813311
0.04633044065553882
-0.3669538810989449
-0.3224319294349487
-0.5955278442506114
0.5522926959042682
-0.7171977095084645
-0.026192479505049993
-0.15384375102373593
0.40661181485791686
-0.027684553813823398
0.10395196533545537
-0.44464956304879333
-0.4909878186165926
-0.222680382675842
0.28947801156292796
0.20612042481120119
0.13130708932463153
0.36294064172098583
0.32603835554321203
0.7371439184860237
0.8910010038262324
-0.5603649920814004
0.16389826131807106
-0.10871856101251576
0.14175661324192979
-0.24176520624827058
-0.29098857504087594
-0.08925624214661942
0.1177447209789082
0.38987808118281453
-0.5927174789555838
0.00130493837767931
-0.22558655523439874
-0.5536042040442871
0.4630382641324602
0.13250816122884135
-0.06301141193528326
-0.14410762755027506
-0.1742607920158411
0.013358182205903013
-0.6616936037600655
-0.2788948187278252
-0.1725884651709132
0.014840222371583556
-0.1942190714094002
0.46292293610328905
0.19050542343412258
0.2839813615144626
0.6809124794043573
0.6357867917619876
-0.7482404114584135
0.8084624202193267
0.26736516726850534
-0.03843426590080856
-0.3394785491608182
-0.7053727020239741
-0.5342435046232388
0.0922111823156706
-0.10643247928440791
0.024130335634632516
-0.2816121260744573
-0.04886600505154404
-0.5275388782788709
-0.26090916792423835
-0.4470581241011742
0.2267046124950186
0.4525589267818656
-0.041552149636671754
-0.025067661279231435
0.40252181846995483
-0.3440109253662944
0.07085774979193904
-0.15502234714052965
0.2965628465340967
-0.19441077119574535
0.473273360478199
0.7898283493693171
0.13239574902494455
-0.9249273468154222
0.13371901754088655
0.004728400776767172
0.1663254692145255
0.19498720255345692
0.046284615227409454
0.6656546491580861
-0.3599756009936782
-0.3445941236652036
0.6162488531434421
0.2218224726111203
0.07086501903749376
0.7853745511474017
-0.3431734102323464
0.12476956332975342
0.3357836003487814
0.5287945104146995
-0.35843160338293534
-0.5314070863000211
0.13255834948524148
-0.0402594776773626
0.2748718724587992
-0.09007428091197489
-0.6279952614081518
-0.5291387142666765
0.38513087665290846
-0.5482136140789453
-0.1032368906579183
-0.12859462006421818
-0.2930346770407146
0.019723652139639558
-0.2008014283959315
0.22126301426620876
0.2538510798513506
-0.08591687947987381
-0.3451832297640969
0.8771799006933758
-0.24509838858506927
0.16697071498610394
0.1282890294981578
0.11825636908017423
0.3018046281705822
-0.04042929377680338
-0.24747413500455073
0.609412222683322
-0.3739882375115354
-0.5102470342806729
0.050409091938738326
-0.548986843429851
-0.43097034578205595
0.21813057120750834
0.7697729812187993
0.8756142495694508
0.13904072195900752
0.027578041954336774
-0.2816044541288787
0.037733110080921284
0.17328783026826622
-0.9031478082503888
-0.4024476124547145
0.07126396195229157
-0.0264378935976618
-0.05468824634728009
0.4859392853075396
-0.3453347709500807
-0.8848764406802317
-0.23165039983493263
0.09676518479863827
-0.5637474442682633
-0.23366527585154018
0.3798422673282311
-0.30194670870031837
0.16070205870125864
-0.2820961076717229
-0.10264392837179248
-0.9040271157884922
-0.12330147365039246
-0.589637010530732
0.367712722568204
-0.12149545807421702
0.6396005680207327
0.7917466102880614
-0.5698695979124055
0.8699598044828847
-0.13521921563778905
-0.39272625055713273
-0.18827133455906664
0.13800260634801453
0.44849449666620744
0.5305795804338751
0.09179261073771161
-0.2000937296720211
0.05537871163915664
-0.5882227930898963
0.015037424266427624
-0.25288243688596057
-0.06742790058162962
0.38830026836551956
0.020275771213905225
0.35855187972130054
0.15757633613702615
-0.3267058339667218
-0.026185385857791954
0.21435945532858836
0.5497167099327401
0.21792362396009435
-0.22494041769511774
-0.4760025314636077
0.17248293770032308
0.46652738442026753
0.49155978978796777
-0.5868862553704123
-0.04403018104363654
0.24094275388938435
-0.4181227265514993
-0.17495841959802616
0.5545747400872476
0.71494472105051
-0.13281564103683852
0.790375805376956
0.5080636309252371
0.05516030529620819
0.48030507412858536
0.9021147714558118
-0.5806265491734888
-0.03958009877335256
0.17932073456760722
-0.1937234732686628
0.08722020559288013
-0.46952048177326633
0.0839054374619872
-0.6031299494261926
0.35154879461210686
-0.344056742697463
-0.049569949440419814
-0.10802304672161533
0.20320678745243725
-0.456080147766035
-0.4888778225191076
-0.33568135800903554
0.2649019082114302
0.15299655385117883
-0.3183771315616004
0.5037944811161923
-0.34908479652398916
0.13994278349588074
7.308591242016771E-4
-0.25523397016463456
-0.3837186779045033
-0.029994430382723647
-0.26414812631924434
0.7456693807495781
0.7879137847857084
0.6027648394560854
-0.649487171040565
-0.7145255011557071
0.3916822993197734
-0.4807156405025118
0.7845290584111749
-0.21987016978274043
-0.243962845435849
-0.08441118651304014
-0.3638239932597187
0.23098868727742505
-0.34772312814120443
-0.018860007675157053
-0.7298132295019232
-0.6715973201416597
0.5264284594824153
-0.6608472808425712
-0.32796547206052273
-0.06085249765404721
0.9708346634971154
-0.22509502108802637
-0.836447307527317
-0.6652459176574803
0.3810184615151829
-0.48750156132526967
0.04556755175500904
0.004526863510161405
-0.21286603946987726
0.15911272861472414
0.20265800608441997
0.39240937790015884
0.2823212379884438
-0.1552825409306441
0.20695726226321487
-0.6475477687214785
0.7668038797084097
0.5330668154630399
-0.09897175388802826
0.2174772143551832
-0.10616031175926854
0.4264546008549305
-0.24557607523303093
-0.1808402828389064
0.3997896491758641
0.3546207840263137
0.8474756105645953
0.20883292354767935
-0.15895176378217024
0.19685300643646042
0.6188367607332543
-0.31027253709890135
0.722706636510732
-0.7301054702403523
0.27657667956157606
-0.3713180261591684
0.8353914877734958
-0.1870827218379395
0.28488128971807847
0.38864497475628523
-0.6833835271579229
-0.18286858219536362
0.132965249694608
0.11913827041678204
-0.035982878630613
-0.1393398177682743
-0.7839976031784525
-0.13772152384277958
0.03696523505841631
-0.4865618012618884
0.1806681636816777
0.028385666458340397
0.07449956799573143
0.3037892909117603
0.43360911628366705
-0.3013470689306368
0.4374138623406748
0.09613561159921047
0.22902245440101499
0.8536765783550208
-0.49304168818874095
-0.2608326704611694
0.03218400377832753
-0.1599282236022196
0.47285002071076154
0.5934881640219425
0.6555079530165074
-0.5517787216398228
-0.05306107566359475
0.5707171185781582
-0.05387183595280132
0.23702652512133482
0.5824205120230435
-0.4996860510229222
-0.06239229533239765
-0.9009251571823553
-0.8097826364201126
0.9236884949708224
-0.14173486791422074
-0.1806993001817434
0.7156084593114582
-0.4452012611621454
0.5545131912204343
-0.28123928254507724
-0.18648201104575646
0.09299191770929294
-0.24588052835778662
0.36554465866982966
0.5956173553801744
0.5196147135367424
-0.5049986414910658
0.10648427840506991
0.4427156625151908
-0.25412928746076047
-0.3224106195220109
-0.21856107054842977
0.13585817520595123
0.5762313588454744
0.2763150778652296
0.5385808207858589
-0.41126028066861664
0.5116886178374735
0.026226589574881665
-0.2833881273280565
0.13202145807694599
-0.7300957714308769
-0.32153607617808877
-0.25998432802269367
0.15843103105788747
-0.3505732493724192
0.7116666614488473
-0.8831188656122501
-0.3091500564448084
0.15085475380150037
-0.08317734830616397
0.193647926353266
0.22328086098793942
0.04182144613587435
-0.7649983758898138
0.6549589939803631
-0.05728150147620403
-0.1670894642548122
-0.6128756409837813
-0.6295292390910948
-0.27601482676702593
-0.3668610883733504
0.23143446324962869
0.030016374678138114
-0.7870630853935766
0.6562092842683445
0.019848945070557678
-0.14751332434062092
-0.06666658759247146
0.4806243207454465
-0.05892107665985391
-0.08170976239410899
0.07189539066466655
0.2805849614649789
0.12044713745192481
-0.9220609692634121
0.16601177757358454
-0.4048322701167051
0.10004361024415287
-0.00700041971290255
-0.5588476311112469
0.38224019391343034
0.08427044429269803
0.12224023223568059
0.5847384627789107
0.36539972436995916
-0.38644938800138295
-0.5304302796811246
-0.5271990964759975
0.13565569047593695
-0.005446899807156846
-0.04828432538052163
0.18945304043659128
0.048710277010772574
-0.6365923099326984
0.027769136536469397
0.7701689040906489
0.5470031661318157
0.6160486000752001
-0.46646441196328425
-0.6825458339106331
-0.1477612219226223
0.28256501798980005
-0.02389357821706528
-0.0033177885306318045
0.6806614205166172
0.28709275958046954
0.09438585620235251
-0.29337491519612224
0.42361208364077674
0.11458198529071184
-0.0020677183274180333
-0.16386056644178715
0.4435639198914102
-0.47594048639930053
-0.01968464900308442
0.027783344337439897
-0.6415823717066361
-0.04178643706890939
0.3541007420995812
-0.6253342164072087
-0.5725268652963124
-0.6231140582735839
-0.6101719297898428
-0.0639184965380527
-0.1756870432174602
0.6003330714895414
-0.1610268276297575
0.060833521323164
-0.48975193329141287
0.15950569323832464
0.09635609997065797
0.7113965563448611
-0.5359834599675815
-0.49199689535163693
-0.41613563540605525
-0.29073726098906416
